{"file_name":"DenseMNIST_1","learn_rate":0.2,"learn_rate_decay":0,"input_size":784,"output_size":10,"cost_interface":"meansquare","input_shape":[1,28,28],"layer_types":["DenseLayer","DenseLayer"],"layer_activations":["relu","sigmoid"],"layer_sizes":[[160],[10]],"layer_sizes_vals":[[],[]],"layer_biases":[[0.07380851810473452,0.14652269570570947,0.03605598120937238,0.07408105167637295,0.07393060224315365,0.046937007787993604,0.1373128499781022,0.09421891008349118,0.030914221662485298,0.024260009930576393,0.057671200360466426,0.13917285490044362,0.2573974598438383,0.04965077873404485,0.030355963245758483,0.06746815051908689,0.027804201186712243,0.06621855409264818,0.09933767765201698,0.17467793400779483,-0.04897153534904409,0.011893880718058282,-0.0075860240656411984,0.014400124388818786,0.12084506263780252,0.033471940044818294,0.0995923105324798,0.06298312109047952,0.2900216008316721,0.20989314400421627,0.022927939399083563,-0.029173154314737854,0.05314474446443851,0.008669600092524345,0.11177902267683885,0.16023683993037444,0.059192551775140476,0.16669418541712214,0.04674340721469111,0.10873328625167591,0.01737084818773849,-0.003617353278562992,0.02563880837033088,0.04298265580699433,0.0879280419184071,0.32740669407662787,0.12979179195615928,0.08717871738924232,0.0419834755146316,0.01056881411674265,0.08593809042871486,-0.05906451877510594,-0.00548421544999632,-0.0035980082197398337,0.010884076789646738,0.004279580736797142,0.041156747673165614,0.046753187700121934,0.023906561826386032,-0.1471948639181098,-0.0362658190008898,0.15948628789644576,0.029162416245913994,-0.027925984498243326,-0.013437380258496561,0.1654278594184376,-0.015298338148870393,-0.04122826339705512,0.10128886610457809,0.09889673432825061,0.1725882192209575,0.0650097696847556,0.02246044394178891,0.0007433447730207198,0.05199270791988244,-0.12320196356401447,0.15397399666100556,0.1591785105406374,0.14778403117647007,0.07371398844491533,-0.018431194984052397,0.05771849793036378,0.12116892369861171,0.14261005484174707,0.02820189348780489,0.02102975505054765,-0.001631203893673588,0.05373778552551396,0.00034607133928053166,0.10147490175481695,-0.005612975537779727,-0.08334375685323726,0.003476340380077356,0.041946775581787554,0.2531775131314757,0.18665323015850732,0.24889241401314854,0.16493337911396225,0.2089431198176091,-0.0060171694309126755,0.062123856224215665,0.0521767643335539,0.19850932360202278,0.1348964156287264,0.024272663539683187,0.0622432122454215,0.0919189766853689,0.08811505911581177,0.10115704972700419,0.16557151596927985,0.055792975413967875,0.10262923732509782,0.18041207289614603,-0.01987585316646706,0.10265696552794602,-0.008841414836472664,0.038408597614749636,0.16339470812562484,-0.006863450907645307,0.1550579007142654,0.049472522265435234,0.09779923023313507,0.012128657170459274,0.10490860628535366,0.016375130315567,0.1948857360436648,0.04636513649500472,0.2835358735758712,0.11128231337187026,0.21017767952657,0.05409256357646303,0.2586651003651586,0.08643308752844647,-0.01302969465142697,0.06225661000490512,0.017890405392043566,0.11530799136341244,0.09494134716902719,0.019571302122315292,-0.0033199877602374233,0.050949357445998496,-0.010976613298677851,0.015699559149608553,0.16169062879218588,0.261235169663407,0.24232777211295742,0.12630382515272534,0.11604438950702044,0.02914918236092288,0.008705434918992611,0.02023085440409093,0.08862554078500604,-0.006625841719450726,0.2511747132367724,0.38794297535196504,0.08803687574953846,0.04508509146320182,-0.006712702856666575,0.061987942208398726,0.0012242573469144538],[-0.47527658893995184,-0.281059905002694,-0.38273964642580854,-0.4944446267547998,-0.2946290853677898,-0.07632151689124286,-0.39833939930186113,-0.30415050893270823,-0.5517341743617433,-0.40322770417960335]],"layer_weights":[[-0.014900485666611073,0.014961641062187368,-0.026043397885926522,0.005243461204474965,0.02940398004274082,0.003411259221834709,0.006118594646685451,-0.014241066210303127,0.02036977061406932,-0.020830126624024677,-0.02871870213471533,0.0066047397629383,0.019706152429578294,-0.029499189695074722,0.002002441486375603,0.018994623241032394,0.019814426718284265,-0.0007941174195118194,-0.02018746165408099,0.011181942981584547,0.004184862972540313,0.00007132967185133294,0.016794326068079724,-0.01288045847536016,-0.002476495757978851,-0.015450748399749225,-0.005850818476681003,0.017062217079034114,-0.00838177550851542,-0.026013100505075885,-0.005926845233126425,-0.026003574186196216,-0.0008049671741155153,0.010282562341492617,-0.019077702198115176,0.00012174370158576313,0.0031692811810719165,0.004785731102645346,-0.01487658924720911,-0.0041728190647542076,0.01952790949000257,-0.003287977146819497,-0.014263289661246093,-0.009866337347136885,-0.01268570448058151,-0.005773292452003217,0.024934503640328953,0.019114408742097362,-0.018012688660032767,-0.02847243676147414,-0.0076402752192313165,-0.02881512969927914,-0.003553072564635369,-0.019980328148720337,-0.0128082221516401,0.012638532929812808,0.017990672700441822,0.027878912473602867,0.0014120197826393104,0.021266274055185698,-0.014224050649146114,-0.026760912240795583,-0.004653060929183999,-0.019586281482437094,0.023038111139605386,0.0002977567086196817,0.006563206840704227,-0.0163304583420087,-0.014871205335074578,0.015614557644149624,-0.004893456937553418,0.02684040419850486,-0.0023921521188366023,0.026585915549856138,-0.0249393123485438,-0.023378255877053937,-0.017842308568989572,-0.02462084075860671,-0.00047795056214683797,0.0010000649644297595,-0.013348454475536196,0.007774867184113524,0.012418327901377526,0.01121883251090938,-0.02559636921932654,0.023461016713591056,0.01720445237209374,-0.020809160937917567,0.014828133063468764,-0.008299067121308514,0.019670242356799827,-0.02421700655796967,0.011949773027380685,0.016805270074918763,-0.01155957684467287,0.0194814372625008,-0.0013025067150172053,-0.00384158480166235,0.016911676705401574,-0.011704579384594871,0.005976605225731158,0.022087817165995723,-0.029844562367266424,0.0019295495923647345,-0.005156994016770143,-0.021803163909180162,0.024742995211514535,0.015554948931720764,-0.028791514582275867,0.009645255903293093,-0.011237387037308456,-0.004053053051251156,-0.022637431040573728,-0.027706414966364973,0.015283992334926024,0.02610457554100302,0.016197060981600335,-0.022111111987509792,0.021985966064115486,0.0064288737724803625,0.004316252087073801,0.005297863298650348,0.002063359485318872,0.027932097246205784,0.042262919939987216,0.03558445288036014,0.010047347225315407,0.029166478521314487,0.024634607232827073,0.023408425684291374,0.024873689539414177,0.024237808697720954,0.014179061389124266,0.0004194711658708887,-0.015111333959157642,0.026668399084803725,-0.02945996894745026,-0.010690523272729825,-0.009679835802288848,0.005255427810733663,-0.018568708111772362,0.004054195719138263,-0.025442874480836854,0.011678764697217053,0.01017301880800194,-0.015027043680155918,0.027306451285706742,0.021111165308337784,0.013104244782502753,-0.021408626660024455,-0.00023833884439865635,0.016999715903476924,-0.01032557206559684,0.0016214838511229223,0.018010748946412317,0.045296445179262956,0.013782502491570679,0.02911538469500048,0.010247452185857606,-0.005498042984644106,0.009388794189992755,-0.027581336381531752,0.024869312448268933,-0.015986146769305588,0.024941396456563892,0.009184293650173474,-0.02499563425334615,0.003339071884476672,-0.0038811949863096704,0.012205719626870804,0.02383596696545284,-0.0154243204765115,0.024813562889933485,0.008728641765380657,-0.000852550451106821,0.003111095038710097,-0.020882396924644293,-0.005487215997522396,0.0015626300977320594,0.004869833272298289,0.014760794099873378,-0.000006220611991305524,0.03770901372006115,-0.019956608237861287,0.020519682555913733,0.00444437582395394,0.02657061589470418,-0.02938910803540955,0.010595505947872326,-0.022491206247069327,-0.042385186106092966,-0.00865749926472437,-0.028844367898543218,-0.01339001996296728,-0.008353576345044748,0.025450968259604703,-0.009065380042609891,0.011385303260528588,-0.006216204097831547,0.030088605576340275,-0.021283700399348012,0.005566081641776527,0.006123122784980486,0.005076039822958143,-0.036949472356143355,0.004265482063741204,-0.04774062858682108,-0.04329005180636328,0.010145808589257132,-0.009421845288578506,0.015991707303836217,0.03732193803713628,0.013010162768718804,-0.004182047208250622,0.0023044408757539186,-0.034604559173707486,-0.0068317260492805525,0.009045365535243256,-0.02907171469432451,0.004500900792365072,-0.029342645988561174,0.02305160280506529,0.0057207520128295785,0.0048019182746492275,0.021727904531531565,-0.026035320862831866,0.016672399548498237,0.02305685008627821,0.014300949399255436,0.026811562366263388,-0.005921725047459245,-0.013025269465810205,-0.02416882018466232,-0.05157625674861679,-0.004561227817883318,-0.015018835639716238,-0.02354844352094084,-0.01955862055184809,-0.005102814146952502,0.006757490226234844,0.01996680899231215,-0.004158627598659927,0.00023383106832455054,-0.05006478779700475,-0.04286775147873811,-0.019483465546028412,-0.00120338663208869,-0.016582929249954054,0.010784371254625173,0.023678755742735116,-0.005383410457956406,0.010977494511559823,-0.025044914387096443,0.028278084514585772,-0.016649091674084463,-0.013271311127306062,0.001980322156594507,0.017435874868109755,0.0021915206289108693,-0.03436633974472147,-0.019110501808547776,-0.00946249268834872,-0.03990335325033975,-0.01470539159104765,0.017126287907424303,-0.015555568063205133,0.027853667103304357,0.04907356282768905,0.02289628128551188,0.011593460012453259,-0.048535520515519924,-0.050688346546967016,-0.05378558668117198,0.004630805265869538,-0.03858756856422696,-0.05180633314645399,-0.01299436286557066,0.02081931347736407,-0.009793488623108876,-0.024804414224273475,-0.0128488221512515,0.0019851972150424393,-0.01411941715638186,0.012853064816325971,0.004142044489475088,-0.031188327474449874,-0.03934997272468826,-0.02958971109181571,-0.03653466438897154,-0.04185327432796415,0.006099780524692862,-0.015719314712638592,0.007083288666882688,-0.005318030539797316,0.048770953176272766,0.0660448809934712,0.026608046606287832,0.001737100176642383,-0.034376366014611595,0.004179360322205612,-0.04533356685486538,-0.0037772502200052417,-0.014798233368351389,-0.032883729478305646,0.018549605386724028,0.017097130549654685,-0.00008937562742778241,0.0029139938724977955,0.02693272608095832,0.012193993277863935,0.008285578890085422,-0.02770072009546707,0.011860548820351556,-0.0015270610584223962,-0.04400494268512645,-0.028393730759241273,-0.008476457291094457,-0.005745111327988608,0.0317831071553328,-0.006651339014996954,-0.006135178965469332,0.022876420390379206,0.08982608221349536,0.10857481464167651,0.07039465720382498,0.03674491885362244,0.023597566379511756,0.02901090511401981,-0.010751409203375405,-0.01629326901559597,-0.04277047298822853,-0.003533016329965952,0.013822431589344614,-0.025056704784213388,-0.01783069697721178,-0.014195988784956703,0.02923160468390158,-0.017801728776797195,0.012028618608538334,-0.021440947566071764,0.0014730931891147295,-0.029658547967071222,-0.018757974528299866,-0.005897308284908242,0.018157801774757804,0.02468138409024122,0.03793723460549329,0.03173348710683833,0.06264239608686267,0.06065099477538988,0.11064285620143331,0.04781080478439615,0.03831064287352995,0.0008238191724755232,0.0618299949544632,0.006893871675748432,-0.007766141298442337,-0.012742866944314014,-0.03414061942712367,-0.03010150215804165,0.009619745548328784,-0.01781446993850919,-0.005629026478188319,-0.00345179422924114,0.021292916315616264,-0.024768564645000213,0.00008818618628331658,-0.017469093916959024,-0.032275350012848605,-0.023493961040077716,-0.0038038549087140443,-0.03989771839767468,0.012404702169443496,0.032507337174355014,0.03543008165456919,0.035305961988912296,0.005767416619800481,0.04555826786765408,0.09035011440112561,0.051423497795909885,0.014997518014275736,0.0069089628754342965,0.015916696423875765,-0.010012727634899287,-0.018924170703706594,-0.03686520276738701,-0.015580209273831018,-0.010897359468271148,0.014391953908846707,-0.025094248222581984,-0.022514766776443946,0.028308458380758836,-0.018303235934534427,-0.02476009439429174,0.003362009792769031,0.0029103880616688613,-0.0301952996806212,-0.023152497535352323,-0.049251235665553075,-0.018000920064065066,-0.05451126879414954,-0.013228302318083394,-0.04968464162173091,-0.03403524002946119,-0.0073207934776635605,0.005584635983268763,0.0032408749475219207,-0.003865507210476714,-0.004374433050080869,-0.02226000129075979,0.01300852182492604,0.0008087522458671788,0.018064269789970812,-0.0013893946474115835,-0.016696820330978364,0.018856156546573924,0.011128555133404838,0.01216571785035204,-0.006465656679419159,-0.01317213642122675,0.0206266941104919,-0.023064451802607928,-0.02685435422648382,0.0069450559389043565,0.014063061025181007,-0.03403369568913347,-0.02577931165873745,-0.07885549978659286,-0.056220503721013025,-0.10468775270986967,-0.10042801318594133,-0.05328527396685022,-0.05919539396443432,-0.021354187545663553,-0.006130693681889816,-0.029374916934372716,0.0030364375701795294,-0.0028852382723822223,-0.027012178422494804,0.01563010695483414,0.016402527676128677,0.020185450935416297,-0.009764532860089685,0.014297531798983253,0.010589169044743307,-0.020041953787751476,0.007423434786965303,-0.02776964508509715,0.0191898556508995,-0.02038358087295474,-0.0032716952253940296,-0.00029722418754443133,-0.004570625763424391,0.016774886063982895,-0.04741906871242054,-0.026785748158734333,-0.11187263637602587,-0.148720034855705,-0.13720543556777753,-0.11868241824115783,-0.09715038327318395,-0.05990050636553019,-0.04173053709120776,-0.025550251469514715,-0.019627348233235944,-0.06080309186868746,-0.01213042035438813,0.009899437388510063,0.04136963453284383,-0.008497145930347446,-0.014058066486336014,-0.018752673041723338,0.010130560820468093,-0.013125904923401524,-0.013318983542833717,-0.023680506040574922,0.01348935552188566,0.005923275613834144,-0.02600870047582233,-0.015683763564835265,0.023032558410935686,0.011976111699450637,-0.0015191745476634206,-0.03647409875885467,-0.06920851597688349,-0.105561736559866,-0.12902548346626175,-0.14207972148414713,-0.08321708925648914,-0.02751171846060445,-0.000693187607723899,-0.05520306300828851,-0.05237854064492023,-0.04128860725688789,-0.014025895622191396,0.016284707244824996,-0.006192906351236483,0.027900304184970488,-0.01466249948170877,-0.004961529114691936,-0.027168884722877512,0.02183853680301616,0.016645916366700587,0.02588215707962182,0.028174211498346532,0.0012876115682883282,0.026924127192522598,0.005363346950889119,0.04097816208044516,0.03098696516317103,0.011202975150281983,0.01365828106491603,0.0000030741134860639213,-0.0470075631839458,-0.06254112868199448,-0.056674869018311015,-0.04792570703097747,-0.03491997751620697,0.02504053529509377,0.00838026875670659,-0.024915084230174224,-0.011498259012097466,-0.015905918380951425,-0.004976281517462677,-0.017764905957169584,0.012711641609496428,-0.006153897563253585,-0.020316966189721335,0.009871014198109658,-0.012847558332611548,-0.003447153407784032,-0.01846763269721615,0.016608881067079317,0.00426661898615531,-0.01682358937667191,0.00007182648920672285,0.010674068777444331,0.03179043020851958,0.050116752367459105,0.02246728038295188,0.040538880360881414,0.034356722425395794,0.02942490824302782,-0.0011920813801043018,0.005884625698941138,0.0007346316144530896,-0.003258019740472498,0.005383557464596155,0.021247579242485302,-0.022105977972190678,-0.022960757994176493,-0.02749775102471006,0.015716984784388828,0.02787312060664021,0.01616644434647527,-0.010688781318873583,0.004725458424425303,-0.014114624318054773,0.027660448534303033,0.013279048494412516,0.019947203877769045,0.011732091744083739,0.01803212040818169,0.022288818820332006,0.031922904311679885,0.023922600978965758,0.054581591510472614,0.021124737380672626,0.033191172129271924,0.0634777994704756,0.07934280598805309,0.04985920073270491,0.04939735603050857,0.04627504350845056,0.01962586739573409,0.02652495496238329,0.020623794925957957,0.00751675058574434,0.012674050501421253,-0.007724522955419869,-0.009209040668463973,0.013654071493429728,-0.0009537262992752972,-0.0018915915562388922,0.01719902795653904,0.009145193405339792,-0.0034490128770021506,-0.011703942168486168,-0.014190431861839397,-0.004751502616128985,0.007366332066604921,0.016404437351076887,-0.011383245570936328,0.010883428386387827,0.016373599852422004,0.057128028709180115,0.03518005553672799,0.057218359405942595,0.06116031481981308,0.026491505735986083,0.032226054621389444,-0.006374772277426987,0.023907551861553814,0.01375414998084513,-0.0062178449685729,-0.02142369000950371,-0.002173953096846396,-0.013809722393112322,-0.038088585014703844,-0.03592949454430232,0.006992511271892808,0.003939450527308726,0.012018803880413827,-0.013230102484950094,0.004024794724337485,-0.006671094552246631,0.016444005081782856,0.022317868524933646,-0.012980632267370734,-0.004050905385283897,0.0005376451656924035,-0.008726653343305414,-0.0018271083961388258,0.011622171405508959,0.01705863519538335,0.04059498698328074,0.047458862188651564,0.013296168283145714,0.01041756034613172,-0.02445215991560518,0.03436415435275222,0.02634844932374763,0.004696644718495173,-0.015357770949356482,0.026047215473136615,0.011867806612224991,-0.010411502808306765,-0.025266066207516855,-0.02901586454957447,-0.033504457475977904,0.022582649265561822,-0.015396872084311824,0.020487748007001313,-0.013412800571490451,0.008610016851496049,-0.02653658659072119,-0.004307527739703755,0.010428527885319755,-0.020305190141899753,-0.006768681270955146,0.01850465697283495,-0.02567645118156476,-0.02094785731124091,0.002193387770573683,-0.007523770472609294,0.013525738948218884,-0.017708798846276554,-0.0017105390398076408,-0.04054859301497839,0.01608877131036468,0.013013964189489578,-0.008973405212384265,0.020046781215958154,0.015759872938882393,0.01325666312644563,-0.0006339357268035553,0.01755600521189472,0.01599203383667419,0.005501504878644354,-0.002239528061752901,0.0006061585274488898,0.02509677156904007,-0.016147107423072175,0.01677804828210693,-0.026259629189637954,-0.007182132882769839,0.031034051471456024,0.0235453120234986,-0.0037513298981766818,0.006418061086690593,-0.01136905827225062,-0.00005928521112941572,-0.028039482709380444,-0.0057005246510868045,-0.02304082374459325,-0.031142169401443372,0.0034459507889945842,-0.01935688029965712,-0.010120441615838109,-0.003534875656267196,-0.012960838987204203,-0.014011000127876098,-0.029532312525280945,0.003916874586548236,-0.017855579391353148,0.01600572403941852,0.025175190218850577,0.002830026460251026,-0.019009526056648757,-0.015956403574506128,0.023047833178162374,-0.01804619097491742,-0.02260551450288969,0.0155284507585961,-0.015769990122822118,-0.025237779296645346,0.011150179627989226,-0.021621349703696828,-0.006186194158075841,0.01618253739041339,-0.018739550931869284,-0.0007785323311471397,0.022015757234732373,0.0037389491721584816,-0.009005587830846096,-0.025715359028852,-0.01256508997901828,-0.0339823993146812,0.0016762446351449671,0.010358366165118506,-0.027527792863126562,0.00460639309843683,-0.023904266249591063,-0.019060483857645444,-0.0014734235223660816,-0.02395492222496827,-0.008228174131998195,0.003164130600435859,-0.002888683590607196,0.00044542746793300807,0.018108938184196764,-0.01175322328659156,-0.010963522639269061,0.017039615446628287,0.00885370338670921,0.010107915964115474,0.004083304470435638,-0.0037729817154842126,0.020807187911731376,-0.018927125146664735,-0.02936343343902631,-0.019140124425847675,-0.029809478708730117,-0.029232755321567626,-0.0030539257261332597,-0.02916167985998315,0.0238607098508819,-0.0022797015862584718,0.009673446681799881,0.017132678171752097,-0.013433568943855716,0.007799766303173364,-0.021864343040342026,-0.0067435446735555,-0.014396705353558347,-0.015844164908466258,-0.002450990576299598,0.0197827483951624,-0.02794799253110305,-0.002676326701793167,0.00012751403536210489,-0.02214223267936479,-0.009357294091177608,-0.025214841270184352,-0.02053134069988215,0.010327463007746873,0.0003010182978886202,-0.016282241856551048,0.004808554661531002,-0.02386159411032224,0.020862061394630208,0.027937659581908723,0.029447040916350767,-0.017935635660034043,0.00004075708408019072,-0.016864023031867403,0.008377808172367435,0.023134062400226658,0.013925328359304897,0.013203311696967222,0.014237643635734189,-0.022052055115038393,-0.012401982421796154,0.007906369525000375,-0.017737376103221774,-0.006337513678026295,0.025331244339956992,-0.014236861271178167,0.02831176164807731,-0.00793308952399043,-0.023065930162921685,-0.005589504721830435,-0.01367331775297877,-0.022000809312847085,0.007416335622080085,-0.016673882743418366,0.007775192548504795,-0.02703345682691508,0.02634981250167557,-0.007383042860483882,-0.0019593308590524455,-0.02244262112931823,-0.013173832711861344,0.017377327130531323,0.022388746050588326,-0.018010461228196956,0.004457332358999953,-0.016680293576315505,0.0054400604607464115,0.023587221385885926,-0.006762771821244339,0.026181770838895085,-0.018961144307578382,0.01658237485875647,0.022579028425712494,0.011574621582417703,0.004330260115487953,0.026155563737935202,0.029240073985954528,0.0032095135763322382,0.008072710344804394,-0.0021260041944157265,-0.015982058437626605,0.017366641019374632,-0.021758238747985076,-0.01420880258664917,0.025130124319153666,-0.01920240734013757,-0.010110752926573827,-0.012177308011633513,0.025228479553773726,0.023325497752504337,0.019207036122758796,0.009780818780174122,0.008856735655539238,0.0010368662607057018,0.0055738846315138745,-0.008707239090634134,-0.013456010049194105,-0.0148548677398097,-0.0199012579625695,0.02596619520127912,-0.01767503876969408,-0.020245384561385568,0.001069240418595745,-0.023573586463559622,-0.01932264153953507,-0.012912121610796044,-0.0030340947235222814,0.0038981161180599404,0.027318485747655313,0.04176572987225743,0.0019351503380329947,0.009709488141566426,0.0240254764570608,0.019999330549677945,0.021380677130543247,0.006962788666195559,0.008795288080430732,0.014001933980944025,-0.002756338214249142,0.009305595133292918,0.020781550648221212,-0.014354669554702637,0.007477955778176888,0.02600451458331027,0.012450405831777782,0.02756291573622491,0.016037563136115405,0.007860143509432024,-0.01561482001867859,0.00035472860253509355,0.00989332419106415,0.00020298598432931625,0.03037000312925562,-0.006603121576282406,0.0121891421679684,0.021736519169273723,0.02099797993312084,0.02675953894292645,0.00615809628345225,0.0020257199559390914,-0.006104263081666963,0.007872975626019407,0.02668402992068061,-0.0012051231447503365,0.017160512516754912,0.04307832191393079,0.044083174434261546,-0.006199010304404719,0.022753522143515843,0.037248715926953696,0.012158831806558797,0.010857846486648568,0.010781119790478912,0.013022548148070618,0.021113668169117743,0.0022030357346830326,-0.023597330000675324,-0.00543750072524187,0.020944022038429006,-0.0021345666438239755,0.012906845182028486,-0.012195974317687755,-0.006478741694217686,0.017220446372766957,-0.005489163427787245,-0.009578026300032218,0.023767231250158737,0.000881629670126062,0.029573022123548745,0.05521007863951628,0.04222429702348306,0.03003174502804671,0.052258672211763287,0.053882875578799005,0.06316803557135613,0.02562415364360247,0.0053294752559029475,0.003873217720085122,-0.0019071751631717965,-0.013604654116786607,0.010706001361611444,-0.005748467962158902,0.013013899560390528,-0.02072742239919425,0.005410107382354811,-0.020199816764003713,0.026864511038059254,0.020321343139469854,-0.0013637019491407455,0.030220973093106805,0.007625796870127184,-0.015235240084588056,0.04484565076332118,-0.011862744344548544,0.013680427932924686,-0.0013920930444077852,0.032546624666543705,0.059078912041695304,0.061726419034162,0.052576669334035445,0.0543429816189137,0.03842163903365615,0.009777447106163751,0.05992244889082709,-0.006183536917680872,0.026521645479396477,0.012040513599028335,-0.0048620805632892386,-0.004958627844868496,-0.01616520665133276,-0.015330009543426013,0.024165498039109175,0.02746554379574582,0.02159970425524123,-0.005389292356585045,-0.011479520710757798,0.0014411473818860803,0.009273303348691697,0.002859824091806111,-0.011361788283178381,0.004154314215602804,0.014256473884673491,-0.028414398349327297,-0.016230396689596107,0.02152388020238218,-0.022114341142519034,0.022692668884806352,-0.02020127625729215,0.027654815350318853,-0.029950669841451984,-0.014935285823910825,-0.012883301593129538,-0.015442572138599439,-0.027785098207774108,-0.03188885264609518,0.015981886907743385,-0.02723908131436572,-0.004343176446136177,-0.02676265196440174,-0.024970411715558225,-0.00981436992726037,-0.02002962105440782,-0.026798109752783468,0.010956330510352448,-0.005264792788420899,-0.02452514370628099,-0.007273609814734092,-0.010365973915850982,-0.05424325285612005,-0.0031793856736990864,-0.01305951862772044,-0.04168475531999994,-0.062421296570336675,-0.07469780997898999,-0.07318538799517478,-0.04912303943083734,-0.07751768604260961,-0.0395515460846617,-0.03239971059844135,-0.07062004549840405,-0.06842097405625457,-0.016126855388359607,-0.012975925185089277,-0.020885152861397055,-0.003585725061454425,0.016809324085959552,-0.0016950568186597937,0.010662223578766094,0.006160022114597679,-0.018574137621486818,0.0054243754147256995,-0.02500831483425905,0.0004873686949294246,-0.013371322592818305,-0.05126168852859169,-0.008130861902762347,-0.04559812998261997,-0.016867459962798773,-0.020085596270582196,-0.021648277275464395,-0.04273041331945958,-0.07816075931361549,-0.08841992228347649,-0.07186509017755927,-0.0712548071614133,-0.0929891766845954,-0.07449634485301061,-0.06792185076619933,-0.0712802087066141,-0.04357862159094377,-0.029311149197894848,-0.040638164913177094,-0.023340738769420125,-0.022325453880240972,-0.012876181937398047,-0.002918166989595791,-0.0015952999918317334,0.015301419394408655,0.005405766437643669,-0.03335494678094968,-0.014431581343704874,-0.009119456729524569,-0.016510482547077026,-0.06177834215103699,-0.01708433917530451,-0.04506958175733579,-0.00939262146458956,-0.01776184602561165,-0.010779718885379923,-0.03138660936039585,-0.040887147643390055,-0.09635859803797837,-0.09589938735035082,-0.09133810905198964,-0.045789934605376885,-0.04954730735485628,-0.04213937489707462,-0.06408503795339218,-0.047376822598269516,-0.03245207414543453,-0.012379886214964622,-0.012945995250555248,0.0022102662781562656,0.014291441174726313,0.012772934373336778,-0.024831532865291713,-0.0141363074528045,0.0020868150010648514,0.0004539759754226369,-0.00730619210308193,-0.024626267879677612,-0.025884825236885498,-0.024330782489816072,-0.03662977555128203,-0.012226171932305144,0.007382642750641789,0.002755625127828331,-0.020137895977456875,-0.03765880925830532,-0.02755334482602794,-0.07002028823258202,-0.06143945429603348,-0.03451178291384806,-0.050553076573017386,-0.01579110678397763,-0.01668149835115952,-0.02226516416667596,-0.022777211741053252,-0.011591431564454966,0.0003154307045158748,-0.026843982265416223,-0.028735377387274268,0.015561820965111156,0.021489403855040085,-0.009544252563301396,0.013173554279101161,-0.027807843203080457,-0.045666198588662874,-0.043578759053040345,-0.036645182142592755,-0.02228405703124417,-0.06661162873862207,-0.031730395754791134,0.018948921704576502,0.0608549665276495,0.02078000920104512,-0.018462563607170322,-0.024388489507591482,-0.008131330036454993,-0.018378535955152684,0.005862419143538816,-0.02481921815622297,-0.016615839681918553,-0.015859484296746832,0.02635071770721218,0.022111195786421477,0.013502061698109673,0.023365058704862173,0.003381007332811386,0.015221890171962313,0.02399648916625905,-0.023262866475637706,-0.03481036963811773,-0.04038144986176184,-0.03215082580174504,0.006850651855993538,-0.014891332676262043,-0.03844683161225344,-0.04878238190243433,-0.04171206637527576,-0.047244115432952795,0.01349838197280984,0.06267425311701078,0.017436561052351154,-0.007502300511410338,-0.02017720642449462,-0.004652012829365293,0.00006581097321106733,0.004195688051462308,0.0381040662866779,0.029747595970306646,0.030179197032594262,-0.0027820712321167955,-0.005377282613761657,0.00953531153053678,0.0076536896100263,-0.025434288561861793,-0.006620309532636678,0.01695070931360702,0.02828342974641035,0.006990547879396756,-0.01670905686081779,-0.003283019505693354,-0.011722922731777835,-0.05725725418881815,-0.03673399707665898,-0.05368394952186305,-0.049247016694624744,0.00045778382360079544,0.03489620524313452,0.058035471141935406,0.021907889457687103,-0.018567680550492755,0.0062382344561135354,-0.002220950836619296,0.0050775877650884775,-0.0075748548198548175,0.018951407472239393,-0.0011666612673522161,0.05939367425021177,0.003962544437186324,0.008874777262540092,-0.00429341598347346,0.018122377530095553,0.02363357728909157,-0.01458772158810813,-0.026514295062450965,0.02514664656095497,0.012646861597439541,0.010560652897975805,-0.04032297825759399,0.005966916160700147,-0.025684760042188604,-0.022981737275778902,-0.04390487289039369,-0.03558830489435201,-0.008045000471137959,0.03371931447543329,0.10377751465639504,0.012919556889083464,0.018771978176477293,-0.012325221750779802,-0.010999628137882545,0.01792300309212678,0.024661038395508074,0.0031730792483437254,0.041790477847225616,0.04118560314563881,0.030870860092579232,-0.005455960313259714,0.013298478519832882,0.02198164210070666,0.00998246608537506,-0.026006727040468663,-0.0033075091840112894,0.007886712504938886,-0.022374461422395315,-0.03284393753306401,0.011996623283485094,0.011880667339015398,0.014677359330250158,-0.014396535781075576,-0.03091419035655357,0.004439999546506707,-0.0022342791475215024,0.07980005914810015,0.10416219214150663,0.048533346020207736,-0.04380234933555238,-0.062369890321478584,-0.0009954061610756137,-0.022523539077319576,-0.007316902491697737,0.023398966888196388,-0.000469701841273493,0.005708143450994962,-0.006350673233488657,0.027352871241733877,-0.0317458794422684,-0.01717913041471893,-0.008957320666313108,-0.008576785389484178,-0.026758906806119868,-0.0017430201225216793,0.019561412019075887,-0.030653833299865468,0.001244981826592899,-0.0015631967711503866,-0.02954457350778039,0.021122525228039982,-0.012977303705479568,0.016860208255248504,-0.013902089795868705,0.05152221531789001,0.09244870660768735,0.020812109060788186,-0.03389282348735986,-0.030072497087564376,-0.0431991904113109,0.0162566966607784,0.014836505300404135,0.008165953467470222,0.017284004889113292,0.0008968422126098689,0.006288259041569203,0.025000653880669455,0.020522660124568718,0.010345757927275273,0.0034590263836019267,0.013459489902767355,-0.01271534530514526,-0.020296644712899194,-0.008150985538131596,0.019258642272017817,0.004476484568248427,0.02503877955932578,-0.018204753598197208,-0.021217511919200096,0.04434774282563325,0.014372491812498188,0.0214857272700181,0.061055165813619916,0.09594173143114235,0.02430814214484855,-0.041939020236630084,-0.04770479310423766,-0.0132698429817286,0.02743226954587142,0.029191001518839438,0.01977638052837847,-0.01929810938729979,0.011078448652083935,-0.023931924772662008,-0.029571904750852893,0.011500390400262853,0.028170275081833188,-0.02634067628540506,-0.01768538204679077,0.014540548212358147,-0.026729553737586433,-0.02030825103242661,0.01940925837012496,-0.004926430743119369,-0.0046698242209623295,0.013635046414988262,0.04757567551010638,0.024206709061126968,0.08257959403368141,0.08699061050086417,0.07344675254066634,0.04649641058934528,0.01197162584145407,-0.0010589875669369938,0.04317909390405396,0.016045314520020993,-0.0016113139887356483,0.009818882843609208,0.014492506909283196,-0.00785304466398016,0.02037424528258331,0.024443170155940313,-0.00900299822080869,-0.02205900683416599,0.013910386239206863,-0.012979122894329374,0.019108591369610982,0.01577843250464419,0.020041368207552975,0.01653095740339484,-0.010562585481993247,-0.019525561023642106,-0.011052670954095371,0.02302612922393477,0.05190303001000983,0.0411743424952343,0.07204006281946257,0.08355135264709103,0.09249234338081648,0.0700310298471919,0.03407804899739884,0.03833589625797731,0.04317136577924234,0.048978853062686276,0.050719205027182475,0.044757548487928074,0.008422356241659362,-0.017495881182501637,-0.02289761721685949,0.026602095844031254,-0.02939486130331011,-0.011061676122466722,-0.009061657706703481,0.029252695164334885,-0.01870553958282521,-0.023362107029943385,0.013237946470756313,0.0024156470641619396,0.023061645037568367,0.03731247978660359,0.041109606327773295,0.020908636893868893,0.0500086168348491,0.06313493065777039,0.08773639918044926,0.09238951548896276,0.08241483316170486,0.0904187987707538,0.07136111525473621,0.07776427725597543,0.053248023981937107,0.044794866763969376,0.050282615541936596,0.011331450340999215,-0.017990489876114468,0.00026578284164350126,-0.00892803305076429,-0.026085050924975733,0.015467445896496523,0.026468916420117138,0.0025062969997287784,0.011615165001653624,0.021293473874931034,-0.029401479313690713,-0.0020125554515660793,-0.011626730495741417,0.006987459176714692,0.03930858178826048,0.056549948198365965,0.06156807829206772,0.06881980478268436,0.07108234104808242,0.08136052555635358,0.027590463582770296,0.05487028177096168,0.07193141851588608,0.06989135232939533,0.01804336005017178,0.035856114001907566,0.046134840438654706,0.04297677992215874,-0.011311498380298648,-0.0032868104866977835,-0.033500204920541954,0.021351012628411884,-0.0004520317084229,-0.02262603259084837,-0.0007944790089779811,0.003376257013704554,-0.022898565711863286,0.004686314125561093,-0.030026682848388768,-0.016093088460326366,0.0055662926557664616,0.04780330174240654,-0.013548855951694826,-0.013027658231984216,0.003053624338613889,0.020100796936216567,0.02724736668096898,-0.04152191407251999,-0.005710015034900234,-0.03759203198495722,-0.022951103072018034,-0.007365728484506408,0.012535800929479389,0.03037269515314197,0.007512052124594277,0.02012142586130006,-0.01495253769730583,0.01190182942031235,-0.0361846347083429,-0.014565180404594289,0.02337720805549165,0.013646545233181017,0.029175905792260284,-0.007835051980637596,-0.015176582514982979,-0.007707839777184334,-0.008665625061978844,-0.020749773706466943,-0.0033702573810093068,0.02603232508036692,0.037520669717669944,0.003961151336717841,-0.026252009776915313,-0.05629869331133313,-0.03801581869730061,-0.05971007672005207,-0.04989235243776567,-0.05871717550312106,-0.06093714791888436,-0.01924754185541841,-0.03372673896672162,-0.009135680794200782,0.012852647890400649,-0.00877192912847227,-0.0008275388131709237,-0.03816979221458628,-0.01250226862884087,-0.0004192642675936254,-0.030320599519342822,-0.02632406212519707,-0.01788877912457394,-0.007944055911154796,-0.006251015539813234,-0.0210526108508372,-0.006726187912980036,-0.01765742682271773,0.005273240578372441,-0.011953349879998878,-0.025558613835532738,-0.019316872506567936,-0.03783429840112676,-0.04316088633881701,-0.047600004251565985,-0.02741021040982322,-0.04187712256788667,-0.043282498642324745,-0.05058128318267873,-0.057151535950433464,-0.03101101124844992,-0.024722056201695843,-0.024905055095550313,-0.012882046467547422,-0.010633700444903648,0.01842129143182553,0.00005799845101399168,-0.025705573016223948,-0.02283019806519609,-0.016053220793614983,-0.0055895570244152825,-0.014967430571669457,-0.004832242383142982,0.001995565900570615,-0.018316580072383,0.0062545366267431025,0.026757695568112663,0.002330389907848307,-0.03295365355980833,-0.025450692056766294,0.007729012647162246,-0.025390083072647035,-0.05149304772921534,-0.00915724804270639,-0.038352663620457514,-0.01682333770572724,-0.03289949115370716,-0.008603076173431761,-0.047527252547251854,0.008403733205386501,-0.0026417230322423268,0.013056913308957337,0.009939912711362494,-0.005311323005414885,0.014512682767524179,0.022809323130034607,0.024077542404892436,0.004770248721520172,-0.011282634020808978,0.015023651189140353,-0.01955426094098186,-0.0052185600689507415,-0.02937697317939793,0.00859572570151089,0.007569918972508066,0.015446941675018136,-0.0069109662625410784,-0.023409047276206713,0.016623143608377983,-0.015491134114103081,0.011052497353774855,-0.02200658903925028,-0.02982651987215983,0.0010359104170424933,0.006327696649214908,-0.025232817750818506,0.008731211053652276,-0.021728620934918903,-0.01444869784502998,0.003046550817739238,0.017323595982581975,-0.02193232112245448,0.022970138317912624,-0.015093605597436615,0.02874854516490503,0.021455832785657596,0.021332569716555803,-0.02282860983549631,-0.024044973314564427,-0.01970665777722211,-0.021268296425556967,0.028257005484120395,-0.017218116797029174,0.012814549947476116,-0.010077798733879626,0.012029596113260502,-0.0008925516447531839,-0.026218978066397686,0.006667019844582255,-0.006633338205191985,0.011316788488962845,0.006154406701209417,-0.013981189030582368,0.013329234447688182,-0.023519070985307065,-0.0014162532320781038,-0.015779884484549565,0.02716000458466141,0.022866667455512253,-0.0282106111268169,-0.02469654742043236,-0.019807077739991803,-0.0068776190919334875,0.01153508488741685,-0.0016793110584192035,-0.020904945473279042,0.022729319453869974,-0.015971985364721355,0.002680490334479354,-0.020328821362166516,-0.003686534985644669,0.013074964059433198,0.011851333029276866,-0.014021914921439482,0.013677613003352976,-0.010684235588867486,0.016175538150202413,0.003772685896745012,-0.0014074010283344242,0.016433648512425347,0.0059234024520181975,-0.01047212967721824,0.0067749183994611625,0.024680229032832266,0.014838649194457688,-0.018851652920330954,0.018417097149726776,0.006873149794763153,-0.027274696369890713,0.020073593005984415,0.003658274233247142,-0.018568023927699212,-0.004108762829923347,0.013134544872152749,0.017429934478372308,0.0007334720122541889,-0.008268916923236214,0.027008610380625964,0.018691998446647182,0.022360619488582003,0.022060684122794348,-0.02843815488882666,0.02082258229893049,-0.00524132278409949,-0.02913797672912824,-0.015473514873047819,0.012055963430374413,0.017509360048469112,-0.01965347592616204,0.0069918035295374326,-0.00846799313907024,-0.008563115078996859,0.015392111481040199,0.015130823804453629,-0.029823513545477638,0.004082876823770635,-0.00514025419354951,0.014560524617625309,0.019217612468641367,-0.02587212645777782,-0.01119599742397822,0.025887716255921355,0.013351711246428625,0.011822949448226094,-0.016530399258207523,-0.013360614270928228,0.007956334884285524,0.009761652348996928,0.020088070876008356,-0.020264822144939576,-0.002349804758074889,0.0009250027161109323,-0.003136270353474737,0.0031927299229289694,-0.024465948853206118,0.006884551982483301,0.012296922219423292,-0.03205011370348326,-0.015085804653044103,-0.02466339483590118,0.012232265180624993,-0.029872897179519464,0.019784499215545415,-0.029544779886178995,0.002503747334852761,0.007513263188329257,-0.00156218570668369,0.009995283528402382,0.026710501813121207,-0.0012367385260972235,-0.020940832614080317,0.023003959283364926,-0.020725091406108908,0.001135985146941589,0.018400020286365476,0.015870195133511292,0.02344326272403555,0.010890539017994087,-0.010455928812933555,-0.010925571433602376,-0.016663421480845576,-0.012752796165588661,0.0034466328565142747,-0.02783091026097702,0.001080086692565194,-0.03695559260895803,-0.041002619718092805,0.0022478799214013722,-0.023537798187983593,-0.05121895429322992,-0.03316303203070848,0.0016968473117767269,-0.0006690757789778319,-0.014237200186121585,0.019458337069870713,-0.015921816587906812,0.00320422223027233,-0.006357705945091718,-0.024622977315509817,-0.011025951530410714,-0.024695435492723343,0.01059830055016308,0.021999697188188897,0.027708888976651257,-0.007299532666275844,0.014631356494679578,-0.008386072393230174,0.007205396740169184,0.014409336785448501,0.03312134322940946,-0.011942789633389161,-0.010236372291572203,-0.00304502494828806,-0.014604142130112576,0.0010910545902170015,-0.022572816866167737,-0.020496808572178733,-0.03914544215870793,-0.01629927317704301,-0.04478348147790977,-0.0321791075437834,0.0030600608567162625,-0.030714577259603176,0.01693635550549141,0.013754366179536728,-0.013040355303168783,0.0014930107746775102,-0.007369919461000517,-0.013725541507290589,-0.028627738042936255,-0.023154085630069664,-0.020551394677352258,0.02198284598458164,0.01838985523270754,-0.010093377456056889,0.011884914103937263,0.0173765852752457,0.03616485354855225,0.041439069138296813,0.05972740050258966,0.004113351226171141,0.017674711526230444,0.025815156293402402,0.036586340215281676,0.042045972728296285,0.018623768108551948,-0.01746562386245929,-0.006600306786401744,-0.020260544566611416,-0.01747325273414056,-0.014001947978541587,0.02887061819173436,-0.011570198119340224,-0.025210846206302737,-0.01579280079365919,0.025415225454129612,0.015773014173689794,-0.004563463268360108,0.00001024809338789563,-0.02140840945426354,-0.0221695918904542,-0.021648463008821933,-0.004932347455283233,0.020719703236567355,0.019297685063142687,0.020457772995185964,0.01877879817827582,0.033723970620272194,0.04266903336209773,0.04896624327519098,0.026125357014951042,0.023659037807730814,0.03103276086216289,0.004840502952979068,0.01988972276957317,-0.013009356835126908,-0.00047707719489424545,0.02105280515177951,-0.027347996783956618,0.01882086908826983,-0.005904631339130583,-0.014953756735882028,0.02387548460699002,-0.02457387300485755,0.007559842357076459,0.0217944965184322,0.008024086459379996,0.012473273149048966,-0.02869779783355572,0.005454354893163733,-0.0016520988706427548,-0.016125177152774298,-0.032988328082961704,-0.0344294404930002,0.009684087457127157,0.05532113370095631,0.01993812889380569,0.044388937657769426,0.018851820854657926,-0.017642302330280222,-0.01665737070343287,-0.013377613627477247,-0.01672892466592792,-0.0004911484805326502,0.005127261169043997,0.020430886380383716,0.0008284980092304885,0.007293271995768025,0.014078470966910058,0.018997773699442035,0.00401095212928693,0.02000064331217023,0.0014653307840448747,-0.007722103027012046,0.018106857414124565,-0.025727342729739613,0.012315360636392882,0.004155971531654197,-0.035239508103032786,-0.022751036954471834,-0.027350616777888734,-0.029845804977871277,0.020196808746553562,0.01780105629895815,0.03354311519006127,0.001883682820449241,0.004802196602033803,0.00867604229868863,0.009501614335920025,0.005030931857256587,-0.016601631600817554,0.016909275096690806,0.027695069705090617,-0.009269245768210638,-0.03339685041985085,0.019033261792174416,0.0020724511724944696,-0.010492834293096264,-0.018103007760258895,0.011921691489722976,0.015112067237026195,-0.02400188662633161,-0.012239032321739252,0.005553278993110466,0.011589429661196249,-0.001892669576819681,0.027409337243275655,-0.021719766182292207,0.022760246069744593,-0.007093306715866181,-0.0036517864864223106,-0.01723080785573279,-0.01437431501528061,-0.017814949969890415,-0.019503796496578133,0.008874842633920235,0.03741150416832663,0.02110625876441216,-0.0016919470768413112,0.02069596972969782,0.011855260675516352,-0.017424113818703207,-0.034294632013005776,0.015210705531088603,-0.011957006358095327,-0.026308904513857298,-0.016379161448672415,0.018845966085580753,0.014906072616722499,-0.028558954034585488,-0.027142400109857533,0.03647816210735093,0.008498020159824411,-0.01260278806062766,-0.00021604875602964323,0.025930920145950363,0.01083132210184607,-0.016523485839004814,0.004696359710417951,-0.033264177228514505,-0.05172239142186156,-0.009114778636504627,0.027416128097901057,0.026387320058889496,0.0584847452097462,0.048244067529887094,-0.005926735712225853,-0.026381539792800373,-0.0006924389974813882,0.0005966615491470014,0.006479776090912751,-0.014613636647844201,0.01995946341283933,-0.023546647247620168,-0.024100010501917984,-0.00709712847346186,-0.005842575481577111,-0.013588826907338461,0.02836842732888125,0.021146220631905136,0.009735339250423766,0.002858609281297086,0.02862506924571087,-0.004922620683214952,-0.05057914002424461,-0.03360116558977938,-0.05484563561471568,-0.08324787092911164,-0.038753416714801085,0.014713480762897366,0.04947006660486965,0.039301155650026426,0.012904366351636463,0.034406197356869374,0.0028161373905616124,0.005057728964845675,0.0077700538355471496,-0.02296592262660311,-0.021603550466583892,-0.018434589145436598,-0.024923505493964587,-0.007747220345221202,0.0279420944151419,0.0010826075295890486,-0.006628909328887295,-0.007453226491833083,0.00044108103762195293,0.004615807835544447,-0.04044586356126923,-0.04408983872782397,-0.007523371846156477,-0.020553927825094426,-0.04903193930238538,-0.06184194299771728,-0.04709950114507344,-0.04516981802600073,0.03467440850809671,0.03175016926344816,0.0023872937020735225,0.03886257418442055,0.030922993084448472,0.04611644431814606,0.032118434593006014,0.04188866732206202,-0.0039013415495912263,-0.0030807121145999938,0.017569968713088326,0.03441035865013502,0.02510250570156809,-0.00625436734172673,-0.014941159706470452,-0.0020303540565056546,-0.0005176789979532144,0.029921140691497768,-0.01022426470525719,-0.02233912246873954,-0.034818177447560994,-0.05089299998684004,-0.013661486319436447,-0.007624958014711975,-0.019996321234988252,-0.033863787635859434,-0.01502478559569997,0.02222521036065979,0.06545724114753299,0.036525139381501565,0.029722713553164047,0.01613880114428762,0.047883037562532496,0.05183680251379695,0.043272520988433295,-0.021185557640053077,-0.010562925172443297,-0.046937447772888316,-0.01947259008674581,0.027338660597931226,0.021679082881712143,0.006703404057704718,-0.01989590469344904,0.006140233396759539,-0.023779597794964566,0.00666849909070207,0.022465176358761788,0.012867794088029065,-0.02347103343588606,-0.011820563189900511,0.015428906784684795,0.018942115849827953,-0.032731094565013476,0.017179552586752477,-0.0006517995050340467,0.07844094898243013,0.03884407008754609,0.013086140525851058,0.038243053212968676,0.05356131308088712,0.022387288348114886,0.019358109346166268,-0.024391090670725805,-0.036469343422798325,-0.04219639003668621,-0.06130626099180004,-0.0315638968358075,0.034551690005259865,-0.014940941709788418,0.015298165281855923,0.007372683614831197,0.015400169177251182,-0.002945677488436651,0.021042082878141397,-0.004162203151992052,0.01645012875786564,0.03940420892875521,-0.009587707849560723,0.00767455011398577,-0.027313901317303928,0.026319666964594313,0.013868565971367191,0.03189293236126646,0.06300766560311807,0.03997012137221178,0.06468527953020817,0.054970321871479995,0.056659654273262444,0.013104006718263205,-0.011282373741825991,-0.03461128738541566,-0.07065005918432472,-0.0741936424633045,-0.06530901328882258,-0.023786316719674433,0.01354316803867584,-0.0010663781688297512,0.014266489985637315,0.023787198650346755,-0.00924680142206305,0.016220025549190224,0.011481995494001774,0.04786198726895165,0.034165950444734604,0.028437403824804273,0.03433065117994644,0.006865383574941996,0.03532587690007386,0.03684528629387759,0.03189006779257116,0.08594211445912925,0.10907619446825993,0.07207956809715736,0.05217441101245206,0.07944240267089868,0.027277443054351303,-0.010906208607910115,-0.015868174015744932,-0.03473355376618055,-0.04253352698556319,-0.03137083439889026,-0.04707740173416609,0.006297474662817915,0.031001260111767775,0.0143599653369642,0.008475925914018011,0.027672184642967036,-0.026911962332099686,0.009867327516814729,0.007061617421189704,-0.002533309742663322,0.038532418440548936,0.028667461168778573,0.018705339276798457,0.004855478318194323,0.014449394018185038,0.04669316050596764,0.014041331713202642,0.06778298907993992,0.07761110471417668,0.08210714179259099,0.05099149122957672,0.0737723819223775,0.032147707262738814,-0.044344083285283,-0.0532161416704281,0.0026830587913060327,0.011539871595260376,-0.03164558629618418,-0.01593970313904966,0.036789057123958156,0.05666549180855931,0.010537861320177543,-0.023092280312204644,-0.024090454203713335,0.0025822367005067367,-0.02197934443548389,0.007588041762185845,0.03396654346030346,0.035166869798869224,-0.00040512284044876234,0.011550702946085619,0.032598364179261465,0.02153721726834433,-0.009024144803781286,-0.007711094357537478,0.022991421635511995,0.04673226439765544,0.04125880642109545,0.04515336622872915,0.012173029971660114,-0.016152887318918705,-0.0425013651452126,0.00842946964733456,0.01711779359431785,-0.010644371413975121,-0.0009881650622472844,0.044364373573819185,0.05494014996424999,0.01705862212320858,0.018538857024964557,-0.005157889086774723,0.015151224011301376,-0.02500999405857067,0.017653272416036377,0.0307419274730634,-0.007187487525032344,0.05572900701260675,0.0033798919644735114,0.006979275703595249,-0.040093699764029565,-0.01682452240299743,-0.04966126777943909,-0.028926838395932766,-0.0462277166099245,-0.03555215462271548,-0.011558034425894462,-0.02407014752670516,-0.03986198813127594,-0.000408503740279814,0.00728108998051595,-0.00939682386114712,0.0007469265142932678,-0.005145806306113938,0.02138141073506589,0.027772974990313695,0.05439956034103506,0.015945950795094435,-0.019452909722644116,-0.02894755113729786,-0.009649556383217921,-0.02835796405789257,-0.029617892144858965,0.019418158652378077,0.04328520637372264,0.02220238280122377,0.04436513616310834,0.031425092898401986,0.000023368224972251586,-0.05563176049929006,-0.06987037722286779,-0.03121457937046798,-0.08566786178795029,-0.08028983442468424,-0.081830425339177,-0.03570372116073758,-0.005266383962944543,0.0006684897619610881,0.0024700240784004397,0.03139617711930822,-0.004287490462574204,0.007048181659255444,0.02384757442506394,0.045595982934314834,0.0010053184321622297,-0.005084725558360461,-0.005659273630346818,-0.02732037221544211,0.005096250435108269,-0.004519061591524389,0.029546128256474062,0.022416561957914617,-0.01597842044150775,0.02503829121713649,0.03927637438372876,-0.004203824664035783,0.01943533694759793,0.016041925487161116,-0.03436110665306449,-0.013266479260129997,-0.05968407393637684,-0.07761917414207767,-0.047178111608386177,-0.0546702035392968,-0.03527693746518309,0.0034287532097743672,0.0003622566597372602,0.04612296132323527,0.024576469365867274,0.03135476085543037,0.05002726463777562,0.057239783749611715,-0.001346611942042917,-0.019250042035935742,0.020576617087594742,0.02441549402830112,-0.0009344933633848213,0.002582122083041738,-0.02277138370496923,0.01840531393022763,-0.017669231271238622,-0.012110356869271354,0.013406846860619635,0.012395204330146065,0.0159888678382115,0.023182454282908757,0.015209972063409518,-0.017690588284871484,0.0036043139649186884,-0.035340802277365614,-0.009848233591630777,-0.036203743334337894,-0.03642705652306124,-0.005710928023715371,0.043933705106287545,0.04211840540112317,0.06464490330446948,0.04981028106654676,0.03208113858519877,0.014375810286417195,0.0332802756739446,-0.020196972058040108,-0.004466668610742645,-0.013421012210557245,0.0013372809750402624,0.011633821284533767,0.029161628338724738,-0.0017324403842236464,-0.028240593123901623,-0.010289962496735148,-0.04443141861335975,-0.020122993447507564,-0.009586794088630059,0.0021208354320742815,0.040720070424086555,0.013089801117878027,-0.02002021651521155,-0.03395863493498867,0.018542160026727594,0.015620762047499927,0.01551185017184866,0.04297143764336314,0.05674560428269947,0.04984606326704376,0.03242094181483098,0.03458121253124957,0.0509548610323802,0.031861235437713804,-0.010142668437831638,0.006148148079763054,-0.02194488938485089,0.017440839770001586,-0.027437328333806167,0.005701800568385125,0.014734151886275052,-0.010098249640528833,-0.01443303008657762,0.0064131426815545725,-0.00593951862494405,-0.017297832334493137,-0.010563557566444908,-0.01881533425978325,-0.03586903972350734,-0.0247741332313759,-0.012956259125306744,-0.00023497465162207047,-0.021474986173569858,-0.012574428314853975,-0.00865022003592068,0.006560132509333832,0.021586160173192613,0.013482419387579584,0.037815590801252054,0.03923069647402892,0.0025398754927009938,-0.003947352169535648,0.0054270108719805905,-0.022387706847074376,-0.014844408816279664,-0.01112890314833799,0.005858581035029107,0.014032291492772584,-0.007069785452474262,-0.0073156508949228085,-0.013524304014875064,0.021211145557339807,-0.019058747825026506,-0.030382730718559212,-0.010215456679683873,0.0064769018829305275,0.002474051580301492,-0.007720736245076868,-0.033930617894682005,-0.01891054088620065,0.0037315967752804178,0.021606084287509618,-0.004590665574335048,0.03227843025159305,0.03200251033800522,0.005896601561363905,-0.01067812849543681,0.03766002222523922,-0.02608103885581581,0.011366681023883024,0.0019190259155597465,-0.009805003209032962,-0.005119575655187062,0.025759131890108956,-0.008891726865748935,0.023980623312765386,0.015029470424928335,0.01668250986717749,0.0031793930167961083,0.02613538970886636,-0.021221244362661918,-0.019941670034763447,0.017041624328800926,0.03222837923335021,-0.016804257825074016,0.003867952260957019,0.01640710869116361,0.02788765344551761,-0.01637079004034139,-0.00964042075873988,0.019922154450848654,-0.0034216503662915553,0.026910527424434057,-0.022744774520536165,0.03410204484239332,-0.012783730332474088,-0.026266575696083167,0.016704457172518134,0.00821918410800693,0.02226734118037632,-0.010201419111817826,0.02053383194578283,-0.02255087804367851,0.019457746990462627,-0.027324090356613838,0.012408270677066163,-0.02274190481609079,-0.0035537402379622004,0.01257335382431728,-0.012904721326606746,-0.020354511535818832,0.024849572225447918,0.003634538164685219,-0.018729569005573345,-0.001902510461721503,-0.015844912835816825,-0.007022990373801108,-0.006154308667171864,-0.023123063445830018,-0.02570093208377453,-0.0278003396447701,0.014129359588950719,-0.028217710253045408,0.02200188119369253,0.02904192814772228,0.011449935871480627,0.012504404492118718,0.016343122667592584,0.0031982485486717017,0.003477363414014366,-0.011808755873529427,0.019918614467675094,0.015569995836406428,0.017186917495616776,0.0019566000237802943,0.022898698481392775,-0.002009066562447516,-0.021004797895300235,0.014516047173251547,0.0011928427924660526,-0.02881733066293255,0.018261160637950753,-0.020725241158269996,-0.007766273842761638,-0.009608140465651793,-0.004014273237427257,0.0036197641765216516,-0.01796159602630812,0.007463586388050869,0.00811181360419985,-0.0010322716625693741,-0.00672062122280747,-0.028797883520942147,0.0014034630497787826,0.014214551457786117,-0.02252414292849312,0.015224255181443004,0.009395369383357296,0.02465826115967431,-0.0053260712333940315,0.01042665072185458,0.018082954639520643,0.005152693340768303,0.006581491952645856,-0.022016313394560377,-0.007777399076777065,0.028841285317051588,-0.004226301433828652,0.016363833104990587,0.010230770951711737,0.009039833541179886,0.01715689186803091,-0.02132699384499336,-0.022539262425089093,-0.0220094943496614,0.00487613800174705,-0.014849322935069761,0.008220844169080976,0.020904582865038487,0.02237719170522195,-0.001430254277827467,0.020987721967059038,0.016610820636961406,0.005287769236449456,-0.022363543738776717,0.019167855705391677,-0.029167735723642993,0.014829757845333334,-0.019592985565391217,-0.027611831075949195,-0.008259086175499449,0.02927815012450436,0.02471299173921236,0.025108231217861113,-0.0069420494480583956,-0.006907187826566934,-0.013318461815653706,0.010962385655551268,-0.002077204603059956,-0.024893046213035973,0.011323776719056015,0.0013851813137348717,0.006572288862100088,0.0040310512246209,0.002085726397395212,0.0040539470347659015,0.015126975225839438,-0.007082033233582024,0.005564462623557393,-0.010228170442644268,-0.014770417615958523,-0.0031306617589350596,0.024410781901921197,0.016678893710323023,-0.012075242560548444,0.008279049082644352,-0.009446410047659953,0.02858491288191967,-0.023693611013538837,0.016607367863634127,-0.002841964530471818,0.011882087065025028,0.0008366122017603722,0.02943692542227547,0.00012959386644984853,0.02348894846590659,0.025669620652556745,-0.00611417501646143,0.03550662984660305,0.032800767963450335,0.023280953397712474,-0.0018733474424586344,-0.020520064230988302,-0.024095111628538127,0.015074978421969726,-0.012582877595666427,0.005811822401450755,-0.022354963348627195,0.010049258079439809,-0.01641572467662038,-0.012535473845137871,0.018229238364260728,-0.01256686685600991,-0.02493729036549621,0.02913937425317919,-0.004149081723528007,0.01389060337006355,0.02302643798233128,0.02252812210805412,0.0013204166261779784,0.01562835692079152,0.028873820237221577,-0.008562130841359494,-0.019641981586045385,0.017494974638849813,0.01162345430706751,0.0002256478634161932,-0.0023950274061345193,0.024641523985645033,0.02021600952753599,-0.008708459577563167,0.0049512064464041486,0.009149034987883444,0.02794358533991156,-0.02966836748698197,0.0211999678456572,-0.02415812324306037,0.006676956408644289,-0.02423164220275993,0.018280676487544542,0.019038898827385953,-0.022672406053365873,0.005725196203747952,-0.010300202239240398,0.011551862918037756,-0.006507549143828438,0.00308827209436806,0.014465771158054882,-0.005082391277534173,0.011446554295816662,-0.014492019528116861,0.021725345385917885,0.028606192762094303,-0.022159523784124467,0.014345462297198837,-0.028076117109663814,0.022618734937168684,-0.012823791835825816,0.03771194628233424,-0.011476903740059611,-0.005693960692806957,0.0011827104188758242,-0.02957204969232506,-0.023246065285519465,0.02615397676128509,0.004098025616141156,-0.02281820373120344,0.010008277591887025,-0.021945881125307515,0.01651708312900211,0.01330419105053144,0.020051224610096372,0.003314217932778814,0.0005683455777672706,-0.0069952323816520525,-0.014878125791499039,0.02082457893752713,0.0016935434291036131,0.0070661077190903405,0.01846510944753847,-0.010266658195452942,-0.0061993702586492574,-0.006358423994722216,-0.05158348582933402,-0.05368549994268316,-0.03538916074899664,-0.00667200014936587,0.006562609568188595,0.02603996716698018,-0.014637956195382315,0.015982650360845164,0.004699946696276205,0.01648578872940931,0.0153140777113922,-0.025036628341025213,0.027326373379092297,0.023508443806164285,-0.013732452666278646,-0.01925309589258538,-0.017452814811852648,-0.019127213840073837,-0.017993974059837582,0.03132290125148902,-0.029440679923927196,-0.023614590534375732,-0.02693551186505571,0.008100528161281378,0.02307060702653556,0.030644408597311608,-0.015740390481571196,-0.01516301738678149,-0.041649381064166546,-0.043658707924162085,-0.0415868553763038,0.021400665013563965,0.021686550093289514,0.01999653931205162,0.009790150179182468,0.005152822736994223,-0.0032104979196602777,0.011419757568852598,0.02087657945731934,-0.007191003422389456,-0.027275963816932442,-0.023547944422597507,0.018360578326208944,0.003728264507272909,-0.013560549955769404,-0.00148705461898924,0.03216369275897996,-0.013651971590751929,0.009558202045596856,-0.009197208870965826,-0.015160752791316288,0.036884716646991444,0.010513595022129053,0.04195068991090005,0.03359400563642854,0.002762504464081792,-0.029169675964225077,-0.011739346828404492,0.007386883154018556,0.023359292804703825,0.051516668460035324,0.030766478772638908,0.021363970129107585,0.01254711747006382,-0.02013405077530873,-0.019419403122173978,-0.022732451644090632,0.01287093134343607,-0.020006168483788174,-0.010938695478184607,0.02638813580919958,-0.0188784164254689,0.02088422378872297,-0.003971538205501757,0.015588160160542874,-0.02276243770558016,0.0309743665560925,-0.006922246576084599,0.022864700289096873,0.02697802839650219,0.04650318240399467,0.06270999162390867,-0.004876561629245306,-0.032715871580547735,-0.026577297306253453,-0.015785462592535854,-0.004811557740717221,0.03491518095850307,0.025187808139168405,0.04606036427977248,-0.009707925388476082,-0.0029716306969822907,0.009478303523833142,-0.0036948095560570037,-0.01695352637961506,0.014902771266283558,0.013061078260686065,-0.029269014504226233,-0.003217299797790672,0.017908058984363297,-0.00016755052665482365,0.00537481516715406,0.01757299526235661,0.022541945203670283,-0.019401500352501752,0.014866021682634614,0.03038174731962897,0.04464721123872262,0.00988461699304661,0.03526977194617335,0.00848606088704411,-0.033313875359527886,-0.012651790660844112,-0.007847278275109837,0.023519122156975585,0.04993219509947445,0.04100158475799889,0.03338868426179719,0.014626272518269964,0.018403330626370614,0.005952758346940249,-0.0032459510884718357,-0.014145149082462193,-0.018416803162996653,-0.009268888957127679,0.01576401705232038,0.029250090433323557,0.004736681679668292,-0.02187858992799948,-0.0223285873747922,-0.005065857697323091,-0.021943939061030166,-0.021227650661463197,0.03138691309084519,-0.013173042606484742,0.0231814944343271,-0.010777345243522132,-0.003448923231401366,-0.006909110892759027,-0.06738243832603284,-0.03566113383719345,0.03563440309553284,0.02310668412431438,0.039954579938476176,0.0014153497637752063,0.0026929597875965773,-0.01741467066358798,-0.019981415998365806,0.011233493278997711,-0.005146636490369212,-0.005448139607101874,0.000307333874074749,0.022176256951977655,0.01970776848515957,0.010489231577986818,0.008100525534051318,0.012893826751924754,-0.007003590642254609,-0.03206150980595037,0.02258813915525866,-0.010676911245031367,-0.02354362368109829,0.010795867906977208,-0.007876196402374509,-0.01934388046146586,0.0015279260730190827,-0.06893280285240236,-0.058824607210288996,-0.0184171227256341,0.02808092675747364,0.054998046543634126,0.040846342523891147,0.01856042550447074,0.02138080689909665,-0.030519451343280525,-0.00021302158568325662,-0.010606738445219106,0.025555898700319473,-0.01783482396071204,-0.016519806883272415,0.00020206371695547494,-0.009250286581980311,0.01669809154035705,0.008720449406464667,0.011873604897482019,-0.030965553767556497,0.0019289522217596927,0.014304250516955486,-0.035204848992598195,-0.005961830924315462,-0.01762693536380656,-0.003976394505852148,-0.024059298278859532,-0.049623380242926174,-0.05545750010337915,-0.015798874259449387,-0.01597456147302297,0.01309310114627846,0.0369294115177329,-0.00022265339125041196,0.007853019667784483,0.006339944843369381,-0.020668839078838975,0.014204679120062853,0.022367750569242926,0.023262954344395743,-0.0012897326256012993,0.0058116461782451515,0.0001241721296928941,0.0013177294009933593,0.018591924400003634,0.010648130175242602,-0.0042440767433252514,-0.007051687048910634,-0.03567479888677596,-0.03035577864341685,-0.037716273200979436,-0.03720215310763146,-0.0370277178665273,-0.02226026920559739,-0.03744881720125757,-0.016234231413164275,-0.05771402392551367,-0.014093511379505689,-0.032323387043888686,-0.009708638084397928,0.01279520006172604,0.016518300273606283,0.006425970729328955,-0.024671860846382523,0.015334328439016253,0.0268086847781857,0.011434908328020086,0.02995683535799028,0.0008864343299901385,0.007605437870793147,-0.004390993553152153,0.011172227540077575,0.022437187784661392,0.004598161065193088,0.0038707931548278562,-0.029162847420496137,-0.002126623655089742,-0.026912686706523848,0.012398422816681376,-0.001195069808601567,-0.0362810876840569,-0.04365636411462871,-0.021776241079053644,-0.015517499969361732,-0.04954825884003523,-0.02241973080217459,-0.01679359132517348,-0.004254825981472128,0.021137862630293516,0.0007994661619244608,0.0014270795139983458,-0.020141301566358596,-0.013134360809163246,0.0070749867801198005,0.01950276585370829,-0.022061044171626736,-0.024130114391830257,0.025223423386138207,0.015476486374267046,0.028442869037273836,0.007793708430056227,0.01279844036201458,-0.003927073586950481,-0.027870174554318124,0.018510402640731633,0.00836727643822755,0.013571240272847332,-0.009174060240979148,0.012719440888824826,0.016405280987537508,-0.018666330901261997,-0.03872087279713158,-0.03124540363198354,-0.008674665573493171,0.014367139182862388,0.023440518069437113,-0.01583565544633061,-0.02449225257829646,0.007847727996467914,0.013088568866353668,0.03304538952757901,0.01983817642358108,-0.010784342007655826,0.019725909293852515,-0.019361607282087818,-0.00883015921691165,-0.02887528820943536,-0.017216489511551983,-0.020496832751808476,0.006948699853107871,0.012350942837472725,0.004788645841623174,0.00661992362195202,0.026686303181243178,-0.020009869588868343,-0.009374353855465319,-0.01812931555271111,0.021779319778028005,-0.007502232551893706,0.02347383270984658,-0.01585940997944255,-0.01850635559740378,0.017834853187892564,-0.019586994844872047,0.024245719618393995,0.015839961642424343,0.00033583568522844293,0.012865328627043891,0.029308234443081393,-0.0122120766455406,0.030361787800511495,-0.014576731762981295,-0.00970926653905088,0.004415559291268617,0.014834160276850262,-0.023426498281028937,-0.0022165094579632266,-0.004426529417369631,-0.003186144901943095,0.030061429771955528,0.0293258925016952,0.03794790209918762,0.02671572238665585,0.023396284722376454,-0.007269900598694198,0.0419278083810038,-0.0010724022187563352,0.019568236600941005,0.023242879729441498,0.02854723258485347,-0.01722844003233835,-0.0074763664680578545,-0.0013354949802769328,-0.0005184808470399435,-0.0030201219994641423,0.027091838203425304,0.01671553925839406,-0.005815569963740953,0.005234944104743333,0.021709269048477177,0.011137145607803399,0.022520534277047987,0.00999953534871337,0.02219350236553161,0.02922570103460088,-0.007602191765877604,0.020713545171823805,-0.013743910024633972,0.020564049720929248,-0.008995743404258013,0.016977721953140304,0.006757268101790375,0.0035779818866069455,0.01697119604720287,0.020016563532033276,0.004269474735104871,0.04074896830277303,0.0313524604902027,0.032351935800788906,-0.026667269955853494,0.019021794889160414,-0.017941963511369154,-0.01535736368422032,0.008296776824526777,0.016702264366629634,-0.015131660558589999,-0.006247030699383504,-0.0040439093468978,0.010146506666942485,0.02059653321580776,0.003904027649891619,0.028162644019143205,0.008588461318182672,-0.015950059166017397,0.0069513636544224445,-0.01003451190364731,0.03808037180151616,-0.010717487372840015,0.001432347450691543,0.049984036312644545,-0.00240237931535635,0.011801950525542226,0.03424492061902429,0.04393883591236963,0.03225248722377366,0.001218248517259014,0.00281984243531351,0.007552755300163353,0.015435958497078857,-0.021501925740755955,-0.006763932576795275,-0.016577973211239962,0.02005701296005273,0.014264545800204122,0.014979818720447614,0.004113965002902216,0.019047851023330415,0.013394898158092463,-0.01231657963953864,-0.027861579117337585,0.0012436546851424376,-0.008704319725246842,-0.01573924837778052,0.0054740873897906476,0.03401463247960355,-0.0022500717768075378,-0.005397245676858257,0.0035702873101131085,0.030641925025708328,-0.017228424615562038,0.025583149932851677,-0.010104691850437686,0.0014104516838028742,0.016479359564174248,-0.03580987908874948,0.003938631963221374,-0.026127822742101188,0.030497006420982888,0.02386699624461104,0.02206522310473598,0.01229889173170703,0.00250812566159523,-0.016429717844941284,0.007532776848030529,0.023294167903476895,-0.015440163773006957,0.013685962637706472,0.020784771544622445,-0.026274487426157792,0.005759834559820798,0.011310776696984411,0.020546889762475092,-0.007207835951883386,0.0073564934062326165,0.023368009546633445,0.00848961684772239,-0.010223509193824412,0.003221626204987056,-0.013957508680189669,-0.027639337063333443,0.017446846160629734,-0.0006257381298511319,-0.013649826182694435,0.00038866809209161515,0.014725211794450176,0.025793859171334865,-0.008730082617183438,0.03679592594480483,-0.020994477771328218,0.007755670340969509,-0.016258150672900814,-0.008684264197617182,-0.01649489300506896,-0.02641734975028859,0.02373679198711911,-0.0029729902884955803,-0.011811238323238242,-0.02153361445352927,0.0006668190819982554,-0.0028586356797825857,0.0032633397700419053,-0.0003629118192180119,0.028497605635536098,-0.03159589676641888,0.013111435814681736,-0.009873251258800318,-0.02844676799221124,-0.010393215680326147,-0.02503583898530322,-0.035347052143056786,-0.006350169776614145,-0.011715455790266076,0.019760232687307668,-0.011104970967555602,0.013142372571551746,-0.00962589385941625,0.012494355323041882,0.017736590086882373,-0.0313916359699332,-0.0037905468831755966,-0.006018583173771014,0.02762518052836096,0.0036821942895954676,-0.005060591770246788,-0.009813636142107228,0.024411266530285178,-0.02544697917560013,0.0038879082389192163,0.001361852684140553,0.00967203539792758,-0.007641749412106943,0.008294574631132371,0.008088816546277683,-0.024329114593473908,-0.008332751597189481,-0.03472617203516241,0.010460512013922254,-0.029162592389963875,-0.027946706697417785,-0.03355010882140893,0.014558459766223074,-0.02060090252092746,0.018662606647193592,-0.02994768242018068,-0.030642129855948885,0.018693253329898688,0.007114017954578007,-0.009903899481119159,0.00183980246751275,-0.014057430771970535,0.006402520709774865,0.016756836076706014,-0.0205354355315361,-0.026248707530252314,0.02832155119160208,0.02078216116995047,0.008483950925699984,0.030306594963746145,-0.017758063097947505,0.007956354736404493,-0.005944871575658822,0.022643437958791725,-0.01677540271481598,0.02264475466436729,0.02277038914351069,-0.003664293258161643,-0.015829994072423453,0.028614771722674303,-0.01055743067875087,0.01939215268797116,-0.023698019443422376,0.013158978659486278,0.024090331279738614,-0.02815610786071609,-0.004911478917419518,-0.012676442372442276,0.024640565776416448,-0.008650036280115101,-0.00912569185283687,0.012235805638794412,0.020623533155566573,-0.026549074886738626,0.009861590981571135,0.024214664179589746,-0.0009514465327884722,0.002362010512867515,-0.01642017169406049,-0.01362752303011789,0.023453359299781422,0.013698043899632294,0.010427224695399525,0.004324970901821217,0.013345518170284336,0.017755409219834036,0.023196701132803352,0.024092855188742514,0.021223679605841077,0.026183056188545436,-0.02069672502231078,-0.023907912320470737,0.016840958475056143,-0.0018855736180350738,-0.013521623935762863,-0.02942484825821211,0.02915160023048794,-0.016775033960719967,-0.01661344306184271,0.014580463097242643,0.002933498134906988,-0.026386030252607315,0.008977763386361946,-0.01598013518111092,0.012369639119367582,0.00027755145748010064,-0.019420928171795682,0.025795775348518145,0.027715563178934345,0.026323356309417373,0.025308214409913345,0.021728473730051306,0.008886473060618539,0.026387021250473052,-0.022080408267285117,0.0021964786432198484,-0.011375672678044908,0.02742010524447789,0.011580745943341695,0.0014556052147818505,0.01929486986696929,-0.01245702948604479,0.02589435441254516,0.018031235814895057,-0.019206529492249397,-0.028930109313283464,0.019794600101893087,-0.011358229644155986,-0.008537296316524888,0.021906107793001395,-0.025294620877987863,0.007719510449724901,-0.006243642866550485,-0.02292347895522886,-0.02205445584182169,-0.002001944012017891,0.014303617339601834,0.0279345090640116,-0.01915895457964161,-0.002444478121917121,0.007242759381759785,-0.012499042616627544,-0.022462596017188304,-0.014068751767544137,0.020048531912995427,0.006098005905271686,0.016162148112580953,0.025483259657978406,-0.026761576282362035,-0.01918855209808702,-0.000741839809788285,0.021742355440076824,-0.026982481890390986,0.004894857886215294,-0.014536530853930406,0.0015054153598779846,0.022112811484800064,0.009932104020931871,-0.028488878869443346,0.003201185479030889,0.02670852724102631,-0.0004721701620101435,-0.012957560154522606,-0.014954734357869566,0.029731447976290192,-0.001611607385271665,0.011838994024809424,0.007310401394002629,-0.02333281395366876,-0.016125085162233904,0.025939317145585866,-0.019429853716643096,0.013407277605713305,0.009651622355858003,0.025872017716657474,-0.00761869031786135,0.0014883272928470498,0.022358350721205227,0.006333884195850281,-0.0002576155239872929,-0.00876772166990583,0.0035897186238451253,-0.013080093128056367,-0.012405570102458316,0.01578347227192213,-0.026456154787912675,0.019147138709323903,-0.0030007799495262253,0.009018664563420879,-0.017333537285762347,-0.022109518587341375,-0.010257201651669287,-0.010738842543711456,0.01888587077123926,0.01823398497743808,0.03074730076438587,0.022461117907606198,0.03472195471961131,0.03131884549920791,0.021610415033827445,-0.010719494890960626,0.027576207239342076,-0.028670655713444636,-0.016419235973439014,-0.019395310123043095,-0.011541797542814815,0.009228946579531426,0.01906698029435926,-0.0003896736543687542,0.02217953271566443,-0.0003608657218484981,0.014733961709962346,0.01885194217049267,0.002084266122090427,0.02864286898175746,0.018576870031153627,-0.019425528940762837,0.016351542204519294,-0.0197889296953176,-0.01916184983079395,-0.009116165400110789,0.01639625234170013,0.04618615237788829,0.051404637633667184,0.006633139417472476,0.01897559582106734,0.048102560783223,0.018677085929039442,0.01839949817123618,0.021384930583524427,-0.006521526944401924,-0.012815378494364055,0.00839753225664775,-0.0034445966153474968,-0.024420232149920725,-0.007139267728870103,0.0045301648136642884,-0.01074765352611428,-0.02699536117978274,-0.0038930512094375496,-0.004323617245899659,0.004578305699881052,0.000981401866915424,-0.02590251555738152,-0.001273771236308065,0.004250000850185768,0.021341586776052756,0.0156755768145266,0.0012586854524315849,0.0195789132802156,0.025985098190135402,0.030031092378542252,0.029735987618807237,0.018925560599682232,-0.015325397703673319,0.013099361021543646,0.014000872276362654,0.01998509302988935,0.027752049351565042,0.0257436493778889,-0.03304094253959284,-0.013468848176815536,-0.022481980356528885,0.026114406706859477,0.0012052275779372299,0.002223439816331252,-0.012269567301246837,-0.02801438141078565,0.01482151976879548,-0.02791061343057104,0.029518234582307366,-0.026513110317062587,0.005463962763389298,0.004319865956501421,0.028097237466239558,0.029369348358827197,-0.007855368363121553,0.006327393814262666,0.023165007136081796,0.017035293485279053,0.002563297469022185,-0.009770701155806465,-0.010072378028526565,-0.0008879627093389701,0.02091684106326584,-0.011912878221063869,0.0146077153412355,-0.016998095330384978,-0.029647522473083148,-0.03668947124384785,-0.01952193007848173,-0.02302884890901397,0.000011898547696357609,0.015052565453295483,0.005229326549307085,-0.02735342341091954,-0.02427616478392836,-0.02922401931235304,0.031509594876103796,0.0050675108836353965,-0.008849006745293441,-0.012290596614836445,0.02424148142607231,-0.005592052834446535,0.05463603342425071,0.035830504223989826,0.006750114301019699,-0.002220337643619748,0.043799636270792926,0.018997501922597432,0.024121121519920533,0.03074163211561818,0.0062518762599448234,-0.018191956531899995,-0.002935075680882913,-0.008395018555320209,-0.006330039606495621,0.008096955989790646,-0.04353355224028597,0.0015816194968005003,0.013036628171460491,0.00788825757157044,0.00010668032844046718,0.006008779271734111,-0.007671643543735543,0.02128353300168719,-0.018926934547690982,0.006265647959910908,0.01997105390725682,-0.00050922339677247,0.03765018769713017,0.04585900405475343,0.014483694398984922,0.0529940687097488,0.046130389566554325,0.03575092506878424,0.05197893795439447,0.0646943941258383,0.04002307010137279,0.020389589006866153,0.015219530290497971,-0.013142202378063537,0.0214192315987666,-0.01566074252041103,-0.009447914536487783,-0.0159694978077841,-0.024983478440599838,-0.004841836739773585,-0.025789021370720772,0.0024448174493118878,0.006194153857318058,-0.002470729450487923,0.020857792460521392,-0.010234035792152105,0.002452185616931655,0.02550387624724685,-0.0032758521302956017,0.015439878783604082,0.03452723269777681,0.012589791694904174,0.025390308713421426,0.02895100347836228,-0.0012335839382063625,0.02408757232048386,-0.03669766313075752,0.006571799569692256,0.0003213397843499795,0.005857056411952982,0.002652377419126082,-0.016966744759797925,0.013165472495110589,-0.01629149319354778,-0.011066074720331226,-0.03010343351001669,-0.05141870170089057,-0.04022553931433588,-0.014470310259626036,0.0016973129665973146,-0.01789216560915072,-0.005346320240105894,-0.02517101484063557,0.0005456935558606469,0.009385973752037697,0.036657102136857946,-0.013027821599090291,0.01464067451513902,-0.019536299583271,0.027501258641981406,-0.0271349893157503,0.005856349769042812,-0.06790077334120348,-0.05148041780879972,-0.09818340887944185,-0.027566702717270995,-0.014396999681613662,0.02681337896839111,0.007134042867055168,0.01663818917250789,0.016314263995466333,-0.0035813562659422074,-0.03073143467313499,0.004502405045351005,-0.0024507120190175747,0.005368365533403809,-0.019737387071860412,-0.021243070223230354,0.008568042735698857,-0.026675758741075556,-0.00415091442207368,-0.02145598483958883,-0.019769331747438407,-0.007693115327537332,0.015737705799577083,-0.04252781086091392,-0.012667337775688587,-0.06913378336223783,-0.09881410254557128,-0.11516020022864375,-0.1472284342372804,-0.13180550081459858,-0.09951330698341365,-0.057728942495698994,0.006756504949485724,0.012666916735400054,-0.007445818181760145,-0.011928323813884395,0.013815963803359399,-0.006944162460086742,-0.02732978348978685,-0.01644837489573041,-0.04027599097686548,-0.010218280113838627,-0.009384758397916429,-0.026203532892305523,0.020840924784625143,-0.002667611332427306,0.026885768681474864,-0.015931157132321128,-0.0019634681962018685,-0.033807794563286045,-0.019003456121578867,-0.04915623702776847,-0.10719579874109242,-0.10309033612298074,-0.13012638900754842,-0.16263429875669086,-0.12184512142995585,-0.06400459721337415,-0.04854281030974027,-0.018250757030187147,-0.029329662461456546,0.024195589586296758,-0.01930540634330696,-0.006928324409080453,0.017002084282883318,0.01623112923617837,0.007973135737872396,-0.03452223421726672,0.012011100702271236,-0.004057240457318902,-0.006983188960405454,-0.003913294688427652,0.028405995343038837,-0.015535505333767236,-0.016164880474711346,0.0027004912057558557,-0.00115452366121807,-0.011467349536033022,-0.03890907947382795,-0.06668709251660312,-0.12631906560657663,-0.12526960913623694,-0.13298318457837405,-0.0608758653966871,0.0018265651256454244,0.016001653341989924,0.009330533719392957,0.01807191931609185,-0.03834558323728618,-0.021972850500691424,-0.008014651335779253,-0.02295353480675541,0.008936863624147516,-0.004047533756953421,-0.033658870418899235,-0.007142700574956905,-0.0035956072090794653,0.0019836567480724493,0.025792966499752178,0.012078645882415565,-0.022346846155895023,-0.013893683303853252,-0.0013589231928470274,0.009460572511959829,0.025747518043077913,-0.001653643194873193,-0.04322844157054065,-0.10095266560690534,-0.08597720962507413,-0.04661972988083074,-0.025421761082634296,0.02612048648313127,0.02885269503122854,0.07551131326108683,0.03123279625317646,0.03379942377268124,-0.010296199960963034,-0.01659333495184563,-0.04446656867614913,-0.03332410883665401,-0.02215025599373039,-0.0023193369120594067,0.006296768287760738,0.01887598689005859,0.010601169191801896,0.004522269400394151,-0.01770523098695879,0.0109103423193264,0.0013098440573277921,0.01910824300915116,0.021965824556928745,0.027112853710024518,-0.006719859748426335,-0.023004689424928938,-0.05748967891657637,-0.04107238546933838,-0.02445276123199343,0.029581523229610263,0.051971386426011915,0.07664095466655749,0.05713916743575848,0.044848088005441905,0.02749171200953903,0.008276031159741364,-0.0037554007515310595,-0.04959057743294326,-0.009517187116335382,0.013560520840507101,-0.003647772388001958,0.017341249066992075,0.0016250035422265957,0.02588143347759154,0.0020232272169741633,0.03931842591119003,0.0017557922136957887,0.018832123206610395,0.022750082498555944,0.019036348602680213,0.023011599017942447,0.019685748320202368,-0.012341339989129296,-0.030417711979009,0.006159811831085658,0.01300623497265674,-0.004047862049040418,0.020293104699265447,0.032352393442973935,0.05152358319083373,0.05727121441298019,0.00579125947415591,0.02070119599566023,-0.027530645151073795,-0.010223307288645306,-0.03551084609272318,-0.0220031205361151,-0.024390723849787847,0.010111022638467587,0.014656374078618415,0.029089083366088588,0.027194014497259465,0.027232941874966797,0.007521986815434014,-0.011880659016872495,0.0352692516482615,0.018002341722835644,-0.017602428315978497,0.015710143255396165,-0.015055137162336881,0.012368204553259949,-0.016648741329709556,0.02909841457099281,-0.0022972415219437176,0.037969721928769816,-0.0026816790592668143,0.01655869604664231,0.02350277640144584,0.04396823389766931,0.025702410240493752,0.04627250363240225,0.007361684660766684,-0.03592735771626425,-0.024539080588974395,0.009935336797743555,0.01716112615031962,-0.00420062410378641,0.028720323095617378,0.039781841209013666,0.047247338422052795,0.0033258723803235423,0.02689367622251029,0.037190111593135004,0.00832754886381087,-0.009172500357656151,0.014625985414174682,-0.011101406843162425,-0.009428847809178062,0.012491375993556347,-0.005382009432835936,0.03034354406490469,-0.0018256926520142224,-0.009823615415412053,0.01008321143024928,-0.039547302693562734,-0.008330282584801726,0.011640401558229232,0.0059453559669959445,-0.02810934765785122,-0.01275866882599234,0.011111667540525045,0.032120033485517056,0.0299101702032074,0.02642549445622106,0.04590606452066476,0.03682633924160399,0.011003571382265653,0.04671668142619522,0.03658512431006156,0.043389866205263,0.0025463099400716348,0.004570976121324855,-0.010891544877418911,-0.0008708073390603196,-0.009482424455661342,0.028253100590025493,0.025282242739621895,0.0006333709241616947,0.0030394079940023557,-0.010111377857555958,-0.004662096773204753,-0.02545835165764692,-0.046273733610558136,-0.008508340348735113,-0.007649023878080658,0.02909708175910403,0.0218311866237855,0.02531818391308136,0.010542703737422264,0.048939123827418426,0.04021500454667107,0.05543027960566449,0.0044412202704869445,0.0025949408107074066,0.012625073307539427,-0.013364313740932198,0.00012932235901569694,-0.00021394790783839927,0.03910003706679056,-0.005385660166666996,-0.011108569321535536,-0.006184578369818998,0.01454632386994463,-0.01235795244105843,0.03577005440565336,0.058384364143584416,0.013792745372877191,-0.001526969478813102,0.00995105321773945,0.004094528254824706,0.012690606085390332,0.021973809866032215,0.0355232004575491,0.05025740947158886,0.011240178785259269,0.010287661170040601,0.004385574186594283,0.0566559058830267,0.021031916347201002,0.025437023820626903,0.027351836226262992,0.0047463006068965,-0.01221153235548484,-0.025758987797259002,-0.025100174661574635,0.01544055532905678,0.03635960527122495,-0.0171606600011163,-0.002732476848544577,0.021616678394338364,-0.02602113676478014,0.029078861349715948,-0.010438468689342168,0.053743760325409895,0.020781847256879815,0.02170781632096636,-0.012790355521759961,0.01650537332420782,0.009463178755596033,-0.0020593335533965113,0.0016975425981908526,0.017429170159113883,0.030331805235658097,0.014719912692924752,0.022239941053293556,-0.00014740222609147913,0.018831782446565807,0.01660844898208765,0.014726463564382468,-0.006010867782742182,-0.0011443073131756612,-0.003658430900861673,-0.0027727597939072425,-0.012907424075517948,0.0136544354941588,-0.027311406598125764,0.013101233993128963,-0.015771814338474317,0.013553930202371622,0.012272619747796254,0.04422043042742809,0.048570443642331804,0.03276990514418579,0.02263572669158879,-0.030730696774611085,-0.016859401263607264,0.004465279002607542,0.0009059194363313869,-0.00235349333380573,-0.003833670413673456,-0.02550030101003167,0.010177299557347573,0.015740328278751627,-0.030068586141441523,0.0055167387680984505,-0.010199697756266663,0.014455856542666953,-0.020271044529091044,-0.03143753499082459,-0.013689619780755164,-0.014047134268364144,0.031093607550613044,0.019669485287127905,0.024946314807810607,-0.009318783731745408,0.029434657348108725,-0.006747319306921814,-0.009349595676275342,-0.017441831780826443,0.02021042778001841,-0.008782258889270428,0.024827216607876058,0.02870141985420651,0.016431549006875316,0.009169073957894786,-0.013528339477001099,-0.03519806136262325,-0.009514781203085063,-0.008640564960884774,-0.004917663911582323,-0.013635592653321928,0.0015625831437279158,-0.026740516786762737,-0.022780604569160007,-0.023230099649472605,0.0214937062383344,0.021300376597790025,0.0031080029915375906,-0.012977586126649374,0.028080165592108103,-0.009519738952522111,0.026896625027114363,-0.01161901073535486,-0.005563701791525508,-0.011848840507589041,-0.01708647903097427,-0.01669786110139244,0.0026667503402030683,0.006221793810073729,0.01662286727791927,0.0003692108722382199,0.0032761061854454138,-0.005427321337135619,-0.015794954621328162,0.004849524637697591,0.0018376484871593566,-0.01216458365401251,-0.01900405772846248,-0.010050417535152385,-0.03981114840786451,-0.042921258699581,-0.018361847706670997,0.01191570357229012,-0.028109358124854985,0.016420476902165314,0.0116216223249006,-0.005912867205644125,-0.02458419799896214,0.001142119989722773,-0.016998158929793502,0.011057219282838343,0.009565509399451342,0.01086361052160254,-0.00742120285649998,0.016919497721391674,0.006615109235869475,0.017985995807157845,0.01909908788245715,0.020240354853061086,0.001453361690121073,-0.010435538536109451,0.03489491455286108,-0.002106486858767203,0.03902147876708426,0.0026831673610331766,-0.008927218896726792,0.012939845310846604,0.021583584690777036,0.011369767523177405,0.00040041308319407063,-0.026215489638292153,-0.0023343631086127376,-0.014324029843658869,0.02044562389685378,0.006656978542138832,-0.004435000929701321,0.016223771954601778,0.015020393047859815,0.007501596709968551,-0.010288621704500806,0.025961781367478367,-0.009033795990892246,0.010438891733698595,-0.021763171827688742,0.0160681549536976,0.011965570111198195,0.010058717243921426,-0.015340735998760218,0.03772495009719919,0.03158662641451603,0.02625679934430766,0.021249779470020307,0.009422465778998803,0.028238902144065978,-0.021378933521067504,-0.009989071742412247,0.00330082795927454,-0.033525784129602804,-0.014400057709315687,-0.023527051616944884,0.011239726675872487,-0.015921029470059977,-0.015343715190874678,-0.029332776868248908,0.0016259571771846885,0.0015272799831707073,0.009617500006401833,-0.015034749898915973,0.028034643781094236,-0.013297868861769766,-0.002903621506916021,0.016532532876938368,-0.006248154684342136,-0.0258980529430086,-0.020496529102702856,0.016179080325005986,0.026015501445062685,0.003621475439777287,0.0028986936309628357,-0.022766133506585014,-0.015984790398432914,0.02768189490612013,0.017907466161002236,0.015039608157100478,-0.022910004214879376,-0.023712134427911508,0.0004455764880160369,-0.026946282226466528,0.015183438135969578,-0.012424193524864402,-0.011894789979036934,-0.027657522884405306,0.004175179528834852,0.008013629452076055,-0.023579345797646756,-0.002810138977639177,0.02835575872065096,0.017828184967716845,-0.014877032423076648,-0.01633387911029299,-0.022591172649248266,-0.008204158814306787,0.022098288022367903,0.01344910487953931,-0.018092874975182156,-0.0015378916753194562,0.023311671225844655,0.027932157361459726,0.028472800822800463,0.012518776664604863,-0.026582234420864173,-0.009932115774914606,0.009240754455679307,0.020958468490995828,0.002090969031152171,-0.006525360341977336,-0.0007453687762782907,-0.009779480587070443,-0.003019577780982661,0.02002693106626272,-0.01643196440102995,0.028533921551887925,-0.00956393879831752,-0.00991047568002105,0.011930993603980502,-0.021820609492677848,0.005706199981601663,-0.019140820795196713,-0.006924451263819947,0.016615818433834393,0.02015571660350465,-0.027036995213265035,0.011245767403548988,-0.024440239516851023,-0.009774892367481617,0.013169547815729316,-0.015963458935866794,0.00618733317496134,0.012250023266001983,-0.02706247172730628,0.01793352048188359,-0.003769614064889596,0.027976833306005297,0.009463815255894023,-0.014486382081480056,0.022517769794884606,0.013600482175173045,-0.004356936087903918,-0.013284919860733008,-0.016800966353701163,-0.02053901875564099,0.015334191322265444,0.008316956687648813,0.004099877352132898,-0.004401393002348358,-0.004804315249384856,0.01871468621254442,-0.006368181549777444,-0.011240464862583465,0.025628781370344304,-0.013516192159515827,-0.019543451064203177,0.01563654428434647,-0.015703788061873,0.017662769827926365,0.007098085252049723,0.015989115579135956,-0.025272764575176833,-0.024004354029535397,0.004402865506772653,0.008252941405159238,-0.011011049277937862,-0.01717406870726194,0.002308943790524596,0.010871474864481336,-0.015332011983580546,0.008429150928839177,-0.013512410886089453,0.01438725632960692,0.010685973037362913,-0.011692442190974948,0.014267244865749776,-0.009057081787032632,-0.016861198787746653,-0.029525727366946225,-0.014566688710909577,-0.022519101276996096,-0.020620791381003735,0.005524402924072246,0.0130602916119704,0.016584013082091748,-0.021225605718375302,0.0022358355524719183,0.00932992985276953,0.015041798463925622,0.01307408674967835,0.01425702541133807,0.03285509361383768,0.010065094835362748,0.028577405761093792,0.023404709369442937,-0.00509058762262335,0.010280787115401367,-0.01649887484346417,0.012034127574911834,0.020265086117123115,0.003995864202764798,-0.026836936438402768,-0.014701654434373079,-0.029078992544016143,0.010144160838200095,0.01037278469275126,-0.025463084240957393,-0.008328781341433741,0.00437525999013299,0.0015351979567160925,-0.034913920481948774,0.0036823778362412387,0.009826249580604676,-0.0019568012187849127,-0.04846399042758171,-0.0456099393882954,-0.03125048730299012,-0.012390003849056759,-0.017801515866045715,0.019531082819471794,0.05972507732823227,0.04310308381240777,0.0019482051317493293,0.016155699490888232,0.024938107888876876,0.032458718512889555,0.011251996149584697,0.029878496857687214,-0.028260077935088057,-0.014675218082339006,-0.008050030993032753,-0.01964235549393335,-0.02253641906612571,0.014016987191775914,-0.02434495734839551,-0.0005671707598142679,-0.025644040851818074,-0.007031050110743434,-0.010926843104196855,-0.0024642203519573,-0.027770437785315964,-0.04806157567912698,-0.031546713572862095,-0.051442177680141685,-0.056533795448637764,-0.007193921642810262,0.025668368749894137,-0.016712572340380278,0.021945015626514717,0.018853920354443648,0.039818108646956285,0.04481202801934425,0.01732419099993194,0.038339739899971165,-0.021203026947977436,-0.000699794380800364,-0.022608639085230108,0.01943855268102732,0.01202170258269994,0.013169735634944786,0.02399065556650286,-0.027277602998103993,-0.015363101690741378,0.0009284595024502487,-0.028936290811301776,-0.004483278120560009,-0.022312033153989,0.002412326378514162,-0.03963015232349539,-0.0006963370508902725,-0.02448663409236484,0.01314360222699131,-0.011922043086421604,0.03138965224523656,0.025274471792660045,0.023595017872541854,0.030877032958738282,0.05435884496661521,0.011890364929026091,0.015152037494000813,0.012619761180675816,0.01617987697132464,-0.008025300475677736,0.021095175105293105,0.02578894923626934,0.004323245600778101,0.014602161882373808,0.023793478142525245,-0.007368428433906002,0.001848360707274212,-0.004299046861887093,-0.02000203988585124,-0.006615286632639231,-0.0009825305459808507,-0.021312443145837624,-0.0037554129989924695,-0.03739028508670003,-0.023286750391348424,-0.05981643409582764,-0.015817331020238544,-0.03782231655906404,-0.03346042647388327,-0.042814355575580214,0.007710365891014813,-0.023526953830101897,-0.020838319881456402,0.04096752020566287,0.06300904859853161,0.02499388987095603,0.00559494868374341,-0.019493548094949832,-0.021217387836192588,-0.0018619848914992756,-0.026414009084420605,0.0024823831952292723,-0.025443761092514883,0.0026955446037996308,0.012149514366219203,-0.016762208759784184,0.02484597818886132,0.008745285124492505,-0.001232613005403678,0.003505407547936607,0.019139785057497468,-0.011360993014445004,-0.0775053900556835,-0.06919336113930905,-0.05263880509263509,-0.03477025219308559,-0.05941899235060528,-0.020959855162867812,-0.050397497247617995,-0.04334675850240465,-0.0353402412325163,-0.03382235989250777,0.005474860274083879,0.039300757164741636,0.021013951769495623,-0.014584445530148992,0.017633981859509328,0.027457457091467182,0.01600244078935636,0.005522994726241441,0.00912303375609258,-0.024729385676795352,-0.029924585991683086,0.016210974758186617,-0.027684296790527124,-0.03241430597426949,0.0005036992912344085,0.022535429172362467,0.011355057810300244,0.012072595683842523,-0.015318275125815944,-0.0223800851061328,-0.07866778967860952,-0.06038350077464995,-0.02949063005506618,-0.027663378997712113,-0.05562265495144484,-0.05819235420384674,-0.024299832246703682,-0.044288264989588114,-0.025823967478718072,0.030324381563034346,0.032775253208599905,0.0205031095319887,-0.014177522758519377,0.015785668893659816,-0.010490718806650548,-0.0005210290138102694,-0.019285625727447478,0.013307193084197706,-0.0019252785250465352,-0.029855262148864317,-0.01920617411950319,0.010154134450604457,0.0024658502267926622,0.022518115184973053,-0.0018795801386745402,0.008394933877242812,-0.040590083535664935,-0.0926205365829514,-0.11728407696578655,-0.06129028756671447,-0.04108497936185444,-0.03332682259149485,-0.08054639258945853,-0.06290571207319161,-0.06040829925951162,-0.021551078716247864,-0.024929638927064988,-0.02053554638440345,-0.017808742164704242,-0.025415080005044825,-0.013644607235820146,-0.011326241541989378,0.0032876366109718122,0.014503716414531395,0.004903288511679386,0.0020008376686169163,-0.01839940538438334,-0.02970488428520669,-0.043679277220286056,0.022594204335051674,0.021042733889264677,0.0636681354166356,0.07242616551105663,0.018369111429017107,0.02228532732425095,-0.06888762968995295,-0.12133919051730928,-0.058245071078755845,-0.03158894677567636,-0.01600590405846413,-0.04037966911151873,-0.007318164779404762,-0.03924271435887749,-0.053987812080962996,-0.03287538725885831,-0.004175015226788188,-0.03288350193027388,-0.003679228229976292,-0.027490675215507993,-0.016596712465493744,0.000041356493631065306,-0.005057635735469784,0.020174202389104248,0.004057497934716903,0.0031867898234331973,-0.01061485052425365,-0.012957796083281407,0.01990794759872416,0.044695300593360174,0.09165505561858277,0.06380100859868705,0.06717289618141424,0.0715675554169842,-0.0721210437607017,-0.1293715564508962,-0.05362512782626085,0.021588780717666865,-0.013320921415734254,-0.013707353469753426,-0.017270808081116137,-0.05517376829705881,-0.015798792395223655,0.01474208805458611,0.010161294930654804,-0.010911825426299532,-0.01704665486310569,-0.007654545621922558,-0.0022178076681149796,-0.02033506240545311,0.011070868116199813,-0.02929834142122317,-0.004602740378276014,-0.008647863252322545,-0.03783028234401014,0.042541888730142946,0.026747760054557108,0.04099587748411155,0.07359621890132276,0.11051554624876095,0.08428088287536724,0.11891884349427567,0.014480491633645733,-0.10762513005148888,-0.021946373382117704,0.016504802393101037,0.0004839215098278162,-0.03412184661100717,-0.022763895707283967,-0.012401804204562607,-0.0015650152372430042,-0.016757255052760614,0.038291083270674556,0.031637507219223975,0.014677591447630875,0.0008152412418035109,-0.02732527800865401,0.000373997752775731,0.003860277687981002,0.013648755183234388,-0.004165023736227537,-0.02734253206605499,-0.010590667839037364,0.014816230364267408,0.059465604270239704,0.03888367410248569,0.017128059336302334,0.08135195336805587,0.10833403557846068,0.039972348728920054,-0.00044934448088719347,-0.07253164225793642,-0.016960344364191964,0.016333689381892193,-0.0019076306618044346,-0.003536604104976428,0.03266061965357187,-0.004512096367318577,0.002359627296430164,0.013067405834734905,-0.003959680719722324,0.0074659893492634915,-0.030515414685304113,-0.025530314519150665,-0.01100815800019094,0.017060752417373693,-0.02913713434721591,0.020011354159132775,-0.0030060244590536704,-0.004174900538876219,0.028502534193408743,-0.0006508344665835206,0.011388799974659695,0.03570769062871009,0.01373572575889063,0.057864450580360105,0.06764271358375094,0.0671748342758408,-0.0013002027720494945,-0.047452858259928024,0.025462470171703947,0.04115548802946561,0.015030428873924846,0.041696771944496676,0.03507738560944623,0.03302043790364774,0.01141464827954838,0.02337334516154334,0.01608708016094329,0.005440170913950704,-0.0005279515045739667,-0.022631821559049855,0.02820415397516097,0.02932261412151331,-0.014357783523070877,0.01727729108751214,-0.023996161155248448,-0.03249521340049694,-0.01840659280758403,-0.006221582114307511,0.035314743345518325,0.04096633401308044,0.009919648274160644,0.018642947045623203,0.06756088645561474,0.04461382010815444,-0.022277907087927325,-0.003041948085402645,-0.01727044235060416,0.024525701967992617,0.015716442267978345,0.026035482932811105,0.03455115171404766,-0.014863686037615386,0.016636080666179328,0.012705433907094712,-0.013220059745702466,-0.025771001081896783,-0.03315173578321066,-0.017009464237982493,-0.02117537661997712,-0.0161571260721451,0.02262214220916256,-0.018104632093456252,-0.018849791654380284,-0.0036419715461482195,-0.03841788438075059,0.0061393075276714015,0.024589601933420715,0.042327871851359736,0.052665262751190746,0.025976648487771776,0.07401186727733568,0.06990198210198181,0.029761706731362806,0.018205567195025536,0.0489750596159423,0.012850933809788034,0.006860132580988359,0.02319995156731388,0.015411502409353788,0.022451668483184042,-0.025540529989074832,-0.019796687506644223,-0.03674499254714587,-0.009728257891022751,-0.049990176541201095,-0.028314879001472424,0.0017588744257061588,0.02344207982783,-0.003290017450692495,0.02648663709745706,-0.004669988566505021,-0.04741251223312931,-0.04421760113698259,-0.012910021308207939,0.013462121134705695,0.04903918212392954,0.06110268702802122,0.07580739935840003,0.08189913248368341,0.06465950098180413,0.04968142164933999,0.049525944957980114,0.003195841590192567,-0.00357186305253704,0.04073710881828644,0.043279841462455206,-0.002164475819900867,0.002916291857484454,-0.03667284680571699,-0.049057599821538705,-0.05588644813769722,-0.017136121998214057,-0.0180618252712977,-0.02678489809634152,-0.01495120828661589,-0.027708015242460686,-0.01936184031311324,0.0036741051332134476,-0.021800019654908884,-0.06340311309648537,-0.01562212505196951,-0.01873034683544175,-0.02871679810222701,-0.007248195873516191,0.043903984157554664,0.04477835242587483,0.05762643793627392,0.11110298310354534,0.07859368259657004,0.03350635606546418,0.012024025785272988,0.021070765497919454,0.002981661573472862,-0.0029671115898315756,-0.0017871791310212415,0.002800009018841761,-0.010332888898550127,-0.06315545634843592,-0.048873027502198636,-0.026996260204965476,-0.03655499971331119,0.008486436127997715,0.007025715411459811,0.01658239431467625,-0.02779257260285125,0.02541748980047094,-0.011934823942670834,-0.019718826424086514,-0.007263076852681381,-0.047043147771425126,-0.03233540347057957,-0.030898315131752993,0.02074701939483473,0.026324736203586857,0.036003200888424194,0.06616791841667202,0.007955967227122588,0.022290589052465917,-0.0008609481543839873,0.007877019262486382,0.00531712357861541,0.013748771209059537,-0.006557679341842175,-0.02067750098003495,0.0010963394280803737,-0.051908718668587636,-0.035019357956084796,-0.04815190880121249,-0.023450828829585716,-0.0038984628386230773,-0.018078929705134018,0.022367837109742873,0.026195981589899393,-0.018268676804985562,0.0169164518225839,-0.0297088228008451,-0.022809545775806985,-0.0523259862772602,-0.05890037480610129,-0.040967263616180784,-0.004521832774178982,0.016867116003162885,0.032393263900331516,0.043504944012504765,0.01947457852308853,0.008105198590357387,0.005422921727609354,-0.014357474726988402,0.010052945315481244,0.01104767593329434,0.002954224773993686,-0.020199836520970006,-0.018403952725357962,-0.008517632250303865,-0.03861814202195865,0.00471955488709401,-0.03121920523578365,-0.00005322083020622653,-0.012592430718983232,0.014013866366975622,0.02655618412240194,0.010430876185857635,0.02203017378898258,-0.016320149219473088,-0.013758939089808292,-0.06013491188823959,-0.04903405803229965,-0.05448331569984405,0.0007221148806604322,-0.006006697532158686,0.018221881561214164,0.01998976108074019,0.028546638929383403,0.007812327742457933,0.04538483675750542,0.036441689928490055,0.009229586559350552,0.023299526372384558,0.018816645604425274,-0.015910785688767838,