{"file_name":"MNIST_SiLU_Cross","learn_rate":0.2,"learn_rate_decay":0,"input_size":784,"output_size":10,"cost_interface":"meansquare","input_shape":[1,28,28],"layer_types":["DenseLayer","DenseLayer","DenseLayer"],"layer_activations":["SiLU","SiLU","sigmoid"],"layer_sizes":[[120],[120],[10]],"layer_sizes_vals":[[],[],[]],"layer_biases":[[0.039454071994977497,-0.02896903229055516,0.0938799411798024,0.025221147094817924,0.07489590592549335,0.06238747870788164,0.01908103159731481,0.04142390881146413,-0.052505010921474304,0.04192718387059909,0.09319817371751189,0.1322861261582951,0.0566311622238369,-0.004265486477005964,0.05114390538951055,-0.04638898417194881,0.062039256755375534,-0.012608679501130121,0.07229645546708552,0.19237217059001627,0.029935913068379363,0.11282124491068322,0.0004831945114022596,-0.0022747254510426204,0.17083475057602424,0.13882083720987046,0.1018742826421731,-0.03831854039670395,-0.0643369222105975,0.011965413043379862,0.13960408964942755,0.018935911731285233,0.05588036814969624,0.20473484309173046,0.1323518344348204,0.10665652398782326,0.1607163158929163,0.12818107649689212,0.22704138890351802,0.005813730631277023,-0.05333508668387933,0.019797215796764786,0.08354218249025724,0.027853192949105633,0.11135950484259692,0.08753762395287908,0.0566460621741886,-0.010787644941423142,0.0415484948590498,0.06302721141010009,0.07463496671729594,0.06340874753594619,0.18127523766585152,0.05973959038946169,-0.03222256662539566,-0.030312043895101656,0.14107603153432247,0.09390800759489636,-0.007499818660440061,-0.033666866833092134,0.023743883153651984,0.05121015357327772,-0.0036827634334825935,0.0581183611317764,0.07516626850232769,-0.013216679737494498,-0.006022665515199499,0.042927563790218996,0.088019205208631,0.045306802778171215,0.028914415592723387,0.09519369456759863,0.018576084972153094,0.046504701176959824,-0.015198920822804326,0.016451831117687696,0.17629132579600898,0.04982093436910813,0.008710950578863024,0.09426238041815903,0.02513329356045521,0.028322184635559047,0.014482061328058857,-0.010842199424220872,-0.009756065264536611,-0.03795513501694346,-0.00785924731603466,0.19976092822298622,0.08659836956461366,-0.015010642274355274,0.08745028299511161,0.0496792576514917,0.01114946654806383,0.007975857347547279,0.008082144802263956,-0.0020251359033687,0.011630163916655141,-0.008613212906160623,0.04678386102958186,0.046431940333311696,0.1497861705985375,-0.03532201208776682,-0.021251167989365848,0.1603539712184228,0.14513883545377979,0.039023563510213945,0.057772072655987466,0.1606652927637298,-0.0031181786160061607,0.13347959705911447,0.0391975539774265,0.04576965794930633,0.026475998506689413,-0.007782595859505632,0.1720184413067589,0.12531819277624262,0.022770197759637983,0.17912575015946833,0.13193768688118832,0.025069370490095208],[0.019348821722298893,-0.021640561574013773,0.09223127691711622,-0.04324942975453633,0.16563492670237773,0.162488042242647,-0.0007861630799112605,0.019262672322877386,-0.0319807779712637,-0.04892353332052205,-0.0000759644819201561,0.09369613105580533,-0.04097170943983734,0.11308212012077538,0.1604666767334919,-0.03229563108675166,-0.02547630946587986,-0.05066306126851042,0.02152209631231292,-0.06214419647716857,0.042399175643647195,0.03699635085308468,-0.0038481096797106287,-0.03732157340971949,0.06556983632885971,-0.07398527011944248,-0.0799140532468919,0.027838251250043848,0.10502311233240733,0.19442914828059266,0.036327906456012526,0.06371161302626331,-0.050961145169609916,0.2805007109881445,0.1147506302237413,-0.03857841987379332,0.2756427588676774,-0.006052673395916918,-0.057798365804711115,-0.042884706460801864,0.02864796759391721,0.011072742540320032,0.04004720487543182,0.026511543096241992,-0.07015504268900094,-0.004648639594591182,-0.01688866203949972,0.11503865903933778,0.06812263888349315,-0.03684604231992336,0.08393776718182203,-0.044743742572060305,0.1868231486374154,-0.04507787525784316,0.03587472984992346,0.10456504860002891,0.08005288310278538,0.18883252876591414,0.04752938651334908,0.09373041255944317,-0.061439711091970835,-0.02166246352439969,0.041150077836403155,0.08112534997429019,0.045431186297557484,0.0014675443644428013,-0.016942146187500718,-0.0032611188292087827,0.009547365940935458,0.11789815739069835,-0.042225590938802335,-0.05738081769866397,0.2160203211676865,0.06121827358382144,0.06742512069478912,0.10614032096885155,0.17839244437730287,-0.023944885747239388,0.11402978903316903,0.0928990895576136,-0.007573337712801826,-0.04432610275951699,0.024298703167726136,0.13600900663120774,-0.05772193990872749,-0.06264046372316161,0.026099787849249358,0.17235792446068343,0.1593071892220278,-0.06850080345048203,-0.014544133667619334,-0.007046340706965307,0.05238286575287751,-0.02860232674543865,0.20401997709652758,0.16292008798314664,-0.037880519749342055,0.11043341526870408,0.007978308681622106,-0.015147582064387634,-0.04454883819962861,0.054963955222038376,0.09610876915416389,-0.03993820448785754,0.032574324810655954,0.08915213075377905,-0.01379143299476281,-0.022195994889120302,-0.03427555180847585,0.05546787234840864,-0.055453030636396124,0.3529684298821134,0.11391042337392869,0.014207736947360852,0.00006295739304870173,-0.011208727227484191,-0.058254766172161,0.04662995664611768,-0.025216830582785423,0.19511495202058304],[-0.5811369341091611,-0.21282267854550324,-0.5474619454866573,-0.6107575918113539,-0.42546475220481733,-0.16638062620922392,-0.5436713991940496,-0.316930625602349,-0.8633417078269704,-0.5389641084062262]],"layer_weights":[[0.022578372687652244,-0.02161772773369423,0.04666907268553494,0.010835443580512746,-0.03773717703137696,0.005764874140141988,0.0250459017113326,0.04375188524319587,3.2342165588776606e-7,0.05096170910544542,0.003834069029696343,-0.030515644677908862,-0.01893662377889306,0.03425622515115556,0.0454292026036679,0.024363079020296923,0.050580566836562,-0.0305915344326866,0.03719926177287274,-0.03652347491734039,0.019923506413985107,-0.005712419178931787,0.03850843376941319,-0.02230297964845461,-0.023578817274074928,-0.03191937074478735,0.0264301984421071,-0.009778865469715927,0.004437226435701315,0.0046503660298279825,0.05112287883771364,0.04974614782723589,0.03274960476056364,0.03337528155477984,0.015378637119010385,0.025090224168575294,-0.02960024927016538,-0.025631395064710114,0.05208192674378742,0.03320535093454262,0.050865794272838445,0.006263077865925995,-0.026704967893228515,-0.02834147888087434,-0.04643774564017837,-0.03896466452765243,-0.032524243997832186,0.03770406576564398,-0.020686882921927465,0.015244742788429338,0.03127895937116693,-0.016394776474437767,-0.03797067716567149,-0.030089584238838014,-0.0354567645125268,0.046230453981855865,0.031521276103541836,0.0007089684943584216,0.052867979993628286,0.03713916282018424,-0.01907317103327246,0.020116084455959284,0.006562873900927543,0.036008971734061146,-0.03807276038623132,0.036799156459078566,0.03271767718590659,-0.03694994892303919,-0.04988989908939975,0.026393415099954232,0.02329495408540207,0.04138374176815558,-0.04615543664708302,-0.0037066482525983315,0.01924193595788562,0.010516612802369369,0.026478421833462995,0.024493699763583458,0.014712024807916736,-0.025331305110047816,0.02853666470566161,0.02479552923616094,0.031307335419785066,-0.010918713926667049,-0.028278102927809638,0.033517989680597965,0.010208056965369562,-0.03411229050781099,0.006011023045031036,-0.016547659171204182,0.044055611316340317,0.01228380907432764,-0.004215644604614587,-0.03772891763561911,-0.011232786950594216,-0.033581344532259465,0.023247681108240378,0.0016266628192807926,-0.01899607235897342,0.005358713601451599,-0.045864972864739006,-0.03207417893709845,-0.012001233997108923,0.042517139991204225,0.03823227095774409,0.04727822632743676,0.005439233597922929,-0.001970955727529821,0.05229457082362562,0.02906529204595027,0.0008986512526065106,0.02898674510110047,-0.028986450606932952,-0.009947210984413844,-0.044835740030593596,-0.039269484591092134,-0.002115326120682494,-0.03880600299940132,0.05049711360021369,0.02723695132572918,0.053377594936650175,-0.013159826835224965,0.045388567713445564,0.011849392921461541,0.022192640290394364,-0.03143309079858045,0.049602918589314496,0.005617613555652352,-0.011354719151751754,-0.036215118926934284,-0.018006933085898114,0.055505875169203675,0.02028613064613691,0.012025066460404604,0.012099327317450514,0.03343415527115481,0.03617660554336077,-0.008511651345036687,-0.026653983372078326,0.041422966362057494,-0.034694869297791434,0.005949049979153209,0.03539915580252143,-0.042386630237794945,0.049433747123327126,-0.014810313910618949,-0.03544371410036152,-0.018590342149800303,0.022494346391306215,0.037512772726962476,0.03403236850456542,0.05922338126738804,0.031527959440869675,-0.032237704253343415,0.015986504091837928,-0.01221365561019191,0.041727325246159255,0.03217703563850502,0.010677060090264704,0.004393192163747961,0.02442767232210298,0.03331465120372189,0.01759985603243148,0.008643330217171114,-0.02455999754520282,0.02904952577723241,0.024727792128771214,0.003069219852250682,-0.03307852475623339,-0.0018727892932361536,-0.04791226086253833,-0.05232657944455877,-0.03410037109376543,0.03871936895978063,0.04288278669490389,0.0006645978263182142,0.04408634712524788,0.016723251402558006,-0.015104453719008796,0.004747483897720543,-0.010172779863659146,-0.02736449737469729,0.06569806490819478,-0.03383743206956688,0.014636920966728958,0.037108556913334506,0.06486156589332787,0.05308248938158526,0.06334448343522729,-0.00011065530287661195,0.023390227715860915,-0.021987405104751712,-0.006554576047647108,-0.002181782694992805,-0.01851361937155707,0.03931694149672769,-0.003155075518094889,-0.019511834664582804,-0.03686718811186167,-0.0167791004160423,-0.014226487971365316,-0.0019800843918768084,0.03580863287982135,-0.010222093404785679,0.016607418176518618,0.037673319512556994,-0.004634013248627055,0.06407324905097603,-0.02417125343594506,0.020922859347758643,0.04784398698045939,0.01732523429099866,0.0638503423785752,-0.010523749391297079,0.041550848717419625,0.028393199150516073,-0.028118963274305932,-0.0262687533067571,-0.04211228613700617,0.03815667465719563,0.067648933770177,-0.011014439401686187,-0.015814725061370737,-0.004237202236284298,-0.049714886672399705,0.030483218102746183,-0.0013795944706763274,0.006214732760663135,0.029115220569095098,-0.0010314081612459766,0.008670125886766116,-0.04146558803336261,-0.030527613117497486,-0.002763199590992246,-0.004577621539285776,0.004458303685228043,-0.02673192818785264,-0.04000044791180715,-0.010852682271160355,0.061456087290452696,0.04712036072081508,0.06659906962448807,0.0417210756676549,0.057987408665326895,0.04568269707664385,-0.0353437360276265,0.03130975970535222,-0.030419108073795324,0.045234596536251837,0.04950702178891508,0.007974977428145522,0.04085907524486026,0.03684274351640825,-0.00592492364838173,-0.05254278057707278,-0.024048345026377854,-0.012870941180632641,0.04411050791008708,-0.04600654245842959,0.004343019767318663,-0.03949237607204922,0.03417376157211873,0.03206706345142642,0.01342057929980936,0.019655264965466133,-0.04652573224597788,0.017406283545990955,0.0358831719422888,-0.013857960591002654,-0.04632800241293471,0.010651404258822215,0.04028278685125833,-0.03275269526119135,0.04093226316209427,0.021364479751554356,-0.0258480720401328,-0.03249929993835574,-0.001736837493181715,-0.05070992096496773,0.024804347027436776,-0.027236430356741056,0.01069723218476406,-0.02924695134509417,0.04421953894441202,-0.009645225273961831,0.030663599773523207,-0.0033072653295199697,0.02090818458801078,0.0009059525680998038,0.01305094710684874,-0.0036688123533095965,-0.0456536229329631,-0.07306284808977279,0.0007761474790392346,0.03954582835972738,-0.0007666325801151231,0.03972917943495857,-0.05166746446070181,-0.03170537408203349,-0.031633767459650484,-0.0583509977477544,-0.03228844023107366,0.0005137506827424616,-0.024803725711796235,0.02123746079443564,-0.039820242952331414,-0.02249676548344139,0.02766539719086931,0.019245704170537392,0.05078939954480675,0.03009156994220541,-0.04840484263005919,0.00895971097379138,0.001807755865439412,0.010790633869492033,-0.04528098527749881,-0.012831014926116466,-0.06334085825058808,0.020984276013244492,-0.04725815027902206,-0.043191593323993825,0.039840392807308105,0.026522501493145976,0.026991552659470636,-0.02510932901868377,-0.051524154993038376,0.002118836194432557,0.012496231611418575,-0.04869387141549844,-0.04198975219530703,0.021275601537057348,0.020908625428024706,-0.024508103579916788,0.04941010912549568,-0.04096377954548061,0.034247281465256456,-0.03699918976747528,0.049695951458027667,-0.0022212388265168107,-0.04479413739642249,0.01029691602509768,-0.048904942777405695,0.015854238525464824,-0.06019821966449847,0.024914633818934873,0.021573228800497318,0.04159415492086206,0.050698407843155116,0.05478004156121188,0.052481179570355876,0.0760243029340781,-0.005462322800817626,-0.048488846487865035,-0.01052648364556859,0.02479370418604871,-0.04597045668562256,-0.07227512834979012,0.014904368686670964,0.025181815596937412,-0.05101261852660735,-0.028932682525255677,0.00869873719730948,0.04502911208954971,-0.04318873246421849,0.03874059320373432,-0.03464949458841404,-0.03870808820755512,-0.052062864582730316,0.0014929346411186304,0.005285658069139343,-0.0411382214432841,-0.02660229549606156,-0.045898841124391826,0.009381244357701735,0.04170167103143555,-0.01772693095507932,-0.0009279106595861671,-0.0005448513580912283,0.07254023217777592,0.017525230447454694,0.0065638560437558495,-0.04579347895306433,-0.019884881892100283,-0.009201286414469904,-0.008984110203262438,-0.033281339746945325,-0.02962978045276656,0.010583650244912748,0.0321037602410251,0.0010631492611271008,-0.011979394967168825,-0.018534779766052292,-0.012112730866316966,0.018030782050814206,-0.00231146406632442,0.04436348038417014,0.03477839640841451,0.026601610688766104,-0.03699637879874532,-0.028730454020417434,-0.007169297447272063,0.04631536766081284,0.05877780631051667,-0.013097557374595427,-0.008165095555425304,0.027196312569539426,0.014537325676412529,-0.019208847118603083,-0.012535821545193677,0.03476382167916503,-0.017721205954697918,0.02760929209279807,-0.0083553914812436,-0.006153989630707123,-0.042468530958106716,-0.0638917620937756,-0.014267832375630842,-0.013132883229616176,-0.049873071740466006,0.023182247834868296,-0.033977085158357775,-0.02643095733093396,-0.031639677589121805,-0.03177382703019963,0.015822251217934562,-0.013853549155861709,0.02449597078219847,-0.021839666017272403,-0.05047281507609887,-0.010969180697994033,0.04084920373350207,0.052735107710421426,0.072954052981467,0.023798517491371032,-0.02296664167159027,-0.003725414846763896,-0.003809891370280785,-0.01896061690787042,0.025509101130090254,-0.03708515600332371,0.0446818110646985,-0.049962768694739104,-0.0017509625928618469,0.04679873355729497,-0.013325635559834582,-0.039719461621679365,0.03535370561037815,-0.021993409899385377,0.0008626140440501274,-0.02656050824703853,-0.006059991968257139,0.01137498339107572,-0.05270222179988674,0.014647022404536119,0.0014668826858448838,-0.027360010714052994,-0.04128239805269536,-0.016463978776951986,-0.04674416030285305,-0.03597899251304077,-0.0158252883521414,0.0290305884684851,-0.0024525998286176174,-0.019396683385280996,-0.03549146400905419,0.0020263644920224134,0.006180801745932433,-0.028358300770182476,0.05621460534560768,-0.029564370029741275,0.03177571251140246,-0.016411619045892212,-0.009613516421503555,0.029173243744662517,-0.020457638756643696,-0.023724738187792277,-0.023605629120671184,-0.02750952729704229,0.020901193862037055,-0.046466274357243174,0.009220926643358418,-0.03830328861003837,-0.04871008267192924,-0.05537497404587369,-0.07039385231486338,-0.01759493107625439,-0.05307775968164001,0.018623429250042782,-0.0008928645924504482,0.005582694250755449,-0.025329715977542258,-0.059857976831414285,-0.00295598500310408,0.03340177413674317,0.007522627656069955,0.011963298406489537,0.05276255826513594,-0.03682159743561444,0.006991853919054377,0.03668675570974305,0.012839698684367658,-0.04871318637780615,-0.027563561670136186,0.02800499353603427,-0.010399942868305211,-0.000472019904677638,0.054501542198123344,0.03761194974931171,-0.02920435609436611,0.025275138411766807,0.060431325721710595,0.007682558063969077,-0.06673702342654092,-0.007006757974285341,-0.07622635870274208,-0.03027305694758853,-0.05147095017529238,-0.043175970756485986,0.007802326733976562,0.036105646840567794,0.023705435191987624,0.03864586594894814,-0.03458686629572871,-0.02961046380842252,0.002043792042380207,0.0339744378563711,-0.0236087842431,0.020291052238768755,-0.007523784225957675,-0.000897035026761279,-0.023486539531017828,0.002350662559913562,-0.031774819384090554,-0.05123435610133338,0.04421615893858843,0.048090948979652055,0.011332073127085084,-0.029171313286673925,0.044172101889313614,0.012331286059647471,-0.010052246991563513,-0.05590939755855778,-0.02429259602280708,0.016737255278542033,-0.01075638452598862,0.029451861665321613,-0.04345457031908637,0.03831759332812606,-0.011262922709779667,0.00165190877951206,0.0577382848550837,0.05775707591753475,0.05067747563972184,0.0053436441050455545,0.03275004039170256,0.03190254759033718,-0.025492934046488617,0.051100631076669074,0.0449483398832851,-0.005547002913057623,0.04057999750541389,-0.024946254049707756,-0.023563371002075312,-0.02563122668253152,0.01656149397989971,0.054773974789102696,0.025909978696767387,0.028174656594234012,0.021911964157514802,-0.006574264779420312,0.05364463179829409,0.0360315337958779,0.059795763258542155,-0.017846873259029887,-0.04125835992709403,0.013767229480586134,0.051811756999160005,-0.027719799023965246,0.027441053408096577,0.03462885843901416,0.0346492007274369,0.00948042930773902,0.04323960526568797,-0.030356936057092117,-0.045416974563937625,0.034380430350820404,0.02570552478596078,0.030128930869993027,-0.01038157055819177,-0.049980321703820475,0.031588651559386886,-0.041938246748734045,-0.036453947779669246,-0.023845105437713537,0.04462047456172981,0.05123770973558726,0.025688611464816123,0.04963447251110069,0.012855656158290181,0.010979251935638805,0.04247088138738224,-0.013431032529211236,0.042945495242256444,0.02945706789907311,0.001429575179070768,0.037908580318287186,-0.011632147171577303,0.0552639151139698,-0.02370441885934563,-0.03320708745521761,0.012721965677247217,0.01568716565822773,0.015323809641972202,-0.016294026051818733,0.05215594073357123,-0.03276775231674448,0.05345823004968439,-0.01388489148786176,0.05403901887058198,-0.025975552695292805,0.03988363133230171,0.05711417547061071,0.02725759269946048,0.06511767237007046,0.02187297020794464,0.07071689191876948,0.03179007112852736,0.004686039050839618,0.019085549127642296,0.04416554856424419,-0.033525056591698583,-0.0231291035294696,-0.0007859918187363091,-0.0329867324613629,0.07058407674769075,0.012457936565311219,0.027357262992017593,0.041607393919788564,-0.036299065810958,0.04919717536766618,0.03572664846874658,-0.03468823927475109,-0.020281240710759745,-0.011172401631090569,0.0070953630319999395,-0.046164213189883535,-0.016740834194937673,0.029038728367610376,0.036643584600348895,0.0217104498278944,0.013043090566876553,0.0645062505321645,0.03682040736069151,0.04912105984046171,0.0605010893347758,0.019096485303933534,-0.04043509057988727,-0.017736439790049453,0.01924201617144488,0.007620058580033902,0.05552103156160539,-0.04151930877229908,0.0027838330663845848,-0.02753694062174992,0.03976878845739039,-0.01264354233467078,0.0015075915195274334,0.03296331178234147,0.011399567234397395,-0.009306634581488303,0.014601537381630017,-0.012555306243994976,-0.039822799981386256,-0.03485695352958468,0.043087390329357544,0.03913543708340771,0.0488273905892966,0.04641916153409484,-0.011377321679573105,0.0032135919981246624,0.03470258640560329,-0.026418067049193625,0.0035185774635472524,-0.0408041065734143,0.00613570324823887,-0.03684177664924675,0.03349652525216561,-0.054388397723292556,0.025112866529913635,-0.032844650462702525,0.030346378360236462,-0.02550996938038933,0.002367665450560921,0.030315315785434116,-0.006067021330633094,0.028560679770507018,0.0057025971622268025,0.008667197214126567,-0.0486954172379227,-0.023577643135683207,0.0022735582783498195,-0.012286523009043164,-0.009598379603311455,-0.017673808485373754,-0.02895859011302775,-0.033629442232521546,0.04652385562486171,-0.03990058800524642,0.02146884428695683,-0.05054878641765727,-0.01739622574728595,0.017845494763220705,-0.032221815920349624,0.006194355833822857,0.00818939825850773,0.001957570979944493,0.025113193841947157,0.040600825205636744,0.04145316755899473,-0.04730449707849597,0.022281349532257473,0.010307340106173702,-0.011437881194725809,0.04540694575986037,0.02484208440885106,0.050650192112976423,-0.009078073846559573,0.008707293361483442,0.024136012508546495,-0.041293124276093336,0.05051427812989956,0.022899231339624876,-0.025176772481956725,-0.0356457612136862,-0.04592861750103553,0.022197568215011624,0.0008417751076945237,0.002030627270778574,-0.0018477933341458591,-0.035513442709836814,0.028737667442459546,0.007257598823032341,-0.056846245757256525,0.007369015022653941,0.02475560743766341,0.01449296429399377,0.015107744804741809,-0.0019369445812105334,0.036362590405552134,-0.04175913383704511,-0.016118762568479536,0.015556718393019331,-0.011985270684893875,0.020803072445320227,-0.007342117834207453,0.02838735881774204,0.04577592869136116,0.03584844039284717,0.010618207377777506,-0.05322807405768083,-0.048280074038457535,-0.027541463225761925,0.04578636574617736,-0.03575235309977553,0.030382650959897027,-0.05078728693686191,-0.03104840223491399,-0.03976324523437399,-0.03300074927591979,-0.005598439546988097,0.00814711138130808,0.02063341902828269,0.0027149510791454655,-0.02094471733452455,0.007123769595117235,-0.007378329581963011,-0.027661715674243106,-0.004468553690765532,0.0005858595810023596,-0.035135253692196104,0.01638446370348563,-0.051328913683032565,-0.039256139424183344,0.03852633957806438,-0.03061112653242203,-0.017634970609168014,-0.0351308613384003,-0.009485109700059797,0.009834112671222079,-0.039742697802007884,-0.02767868863461142,-0.03546239832598975,0.010191342659310116,0.011480945780943547,0.012210745380824995,-0.05069106325794375,-0.005662548651848327,0.050358866126596666,0.04022776100441593,0.0010742219884852153,-0.04817176568675526,0.022468515569736586,-0.015877261859732275,0.026958692569680327,0.036581069362560045,-0.014555585251713054,-0.014345507129492582,-0.025942560954818793,-0.014906976532783197,-0.017671325801740485,-0.0009393609309022352,-0.01336255625484595,-0.020044855802020888,0.028918783573446825,-0.05267299712147085,-0.001010649193045999,-0.03042215881950052,-0.045196046242704166,-0.04034078184313985,0.045817754245103204,-0.05239424359703752,-0.048470928836738154,-0.048993410889685216,-0.050839267149343115,0.05302323160942893,0.03408119781549276,-0.037320234439314905,0.021360725653191453,-0.04915088445929498,0.007457477813030053,-0.006941080229976131,0.04877018028418182,-0.02889940712197127,-0.013943833294135125,0.035622814876542966,-0.04874955304728897,0.022319656149217416,-0.03695565118064557,-0.05288284893962902,0.02773553498113601,-0.05041049721839252,0.04460907693905993,0.023303738989503088,-0.05345520336751559,0.020621786569254102,-0.03933290801412569,-0.05125998010368377,0.029128546936812563,0.005550871705151496,0.021964551394531514,-0.04427337508628074,-0.00869451601804827,0.021348429281688928,-0.01545971068913785,0.00786491752092879,0.007562170121478678,-0.05234403457770253,0.010779887112734763,0.020092945719137074,0.007698155773044968,-0.03004522513996071,-0.008847629580512606,-0.01942938546171892,-0.03384696920983919,-0.05320792589276263,-0.03557316342877793,0.024683626228938816,0.04283066927305941,0.01221090391139366,-0.01683928131443653,-0.009088649993448081,-0.030290154097723766,0.011897813274654017,-0.00851573485281393,0.05355190853706595,-0.03812269679889801,0.03039796972717528,-0.04810525483021845,0.01235719822147894,-0.01023602893081821,0.021203924325644816,0.03586898217541791,-0.019975744793586856,0.013242901319116979,-0.055775824316478886,0.012759705215535348,-0.04842953417706577,-0.031132920704681228,0.030469635396066515,-0.029814188755729016,-0.02355927131455464,-0.007853888853806201,-0.04919585790218562,-0.02091662442196101,0.018008073037043264,-0.03148647022494991,0.018394540568202302,-0.04083006873805542,-0.033484484194543564,0.01974508472375367,-0.04103378847689036,-0.001237947611094505,-0.01950306476142798,-0.04540601157947748,-0.012563401458078155,0.025826727460393367,-0.012788081836758293,-0.04480038602228101,0.03495311198037648,-0.020477430891238768,-0.0349553504601819,0.030689002790590385,-0.055502925444391456,-0.04632284829414232,0.04299125123497603,0.04961958092745042,-0.016185233124351116,-0.017647338684230737,-0.041053495045176816,0.04725797770740288,-0.021059093866466778,-0.005931511306893603,0.030037345411081086,-0.051029024654891814,-0.050328997030364905,0.005202083910905702,-0.047059294530028016,-0.029834471458019065,0.0028906130005991112,0.026809611814395225,-0.053378764142150356,-0.04787535532005872,0.022147369240560023,0.0107428037980349,0.03139317211420584,0.023421435523628742,0.0044335726395288025,0.02763150013777356,-0.03375331104761951,0.029747967798077445,0.020610132143936935,0.018072050184290703,-0.033410977080992256,0.02789079522226736,-0.019139460936851854,0.010102177135115289,-0.026370630260242247,0.0007546113707575209,0.046488418785907246,0.01455023669770882,0.045989086276657105,-0.03335704515211682,-0.025544343765340195,0.020004477048552106,-0.03420775617731534,0.0009249018547814979,-0.05245082600333024,0.002323526427784625,-0.004219240703669506,0.04666155865539238,0.0009806628568722353,0.0028294757927765242,-0.011993385367446477,0.032940296228982854,-0.03714398777570436,-0.0008358810588447039,0.04774520259751025,0.021281145193311285,-0.019571645338543192,-0.0048938068691837255,0.018501037678958297,0.04284109177804691,-0.005650737194016353,0.01629104369690756,-0.011096697913220883,0.04683943926668252,0.04353752229916578,-0.010660594387342435,0.00010692415818463418,-0.049849555359633195,0.019435895556076676,-0.0016094424944161178,-0.027701113660651904,0.017104731037869025,0.04257956571770934,-0.04681922895299631,-0.040372674791848244,-0.027417551020530596,0.019129278923350236,-0.0470518926939502,-0.016096543994556956,-0.006052436524092186,-0.007368354025107669,-0.04086314152545315,-0.020168882029643922,-0.030727032297149744,-0.008767722768101649,-0.04077777804980994,-0.020073091769564084,0.03439560074068436,-0.02591505276867743,-0.031703861643417486,-0.05066570143762987,0.03356878978798971,0.00018375621163720094,-0.00033502012470706076,-0.004419976743617773,-0.004344024348083295,-0.0029393405472530982,-0.01474936472566559,0.026819787095916436,0.02173995301803462,0.016721903960724073,-0.03372271281864759,0.04385299656587487,0.003433971975284642,0.00009220644210202459,-0.043103321234493855,-0.005753336901684878,-0.03889827509744789,-0.05107089404394697,-0.04605379388480745,-0.04403295681118004,0.023192786633587464,-0.05316118654235098,-0.007894665983639424,-0.007797059889182957,0.015192592279777047,-0.05006832712435117,-0.039222080644900306,-0.05000978717256327,-0.025941761092983174,-0.007905474605237783,0.039600863150138936,0.013586129000848783,0.04755591252973073,-0.007212596174017917,-0.003464719874327291,0.03460470824709858,-0.03656940464778013,0.009501786121630301,-0.021148616338145444,0.0506886300034175,-0.03298778186493613,-0.04541073426922496,-0.02536032953056246,-0.001798763124106337,0.0002273534173256933,-0.00023653306651907045,0.028747146697891964,-0.011745079997471168,0.03707422334806449,-0.02396293897403653,-0.0018135751101682272,-0.017720806585378238,0.017604816495662503,-0.04050721362606209,0.01656075907523287,0.04534092323175936,-0.035893126648039654,-0.045766655677067745,-0.03333722329214473,0.0014682910860354488,0.0006520475209537733,0.012798647390224219,0.0219972909742727,0.02993792539068975,0.04564159510138103,0.015776664641189077,0.036184876550914444,-0.013669218282765289,-0.040487804239232504,-0.04980778676462456,0.006851862452385332,0.0418200008099233,-0.01806878107932761,0.047542724690005964,0.008081398950452928,0.013720872480278389,0.021573254599540008,-0.05363042313635281,0.018971006962355735,0.014374279347402616,0.03138542965748905,0.014523464944083929,-0.053251109037691056,0.032547316538194086,0.0041233474218434285,0.010965580942627545,-0.022576865612262603,-0.03167871198264367,-0.02761960557739084,0.011225061182316485,-0.016130526485961368,-0.05115776548683134,0.027011764489496957,0.01718478333208847,-0.018387530914825197,0.03642947157562363,0.014641182780943923,-0.006054009454592679,0.0047924248326360825,-0.04857346600277666,-0.020615946682855366,-0.053631347319246604,0.017006848354598064,-0.0460030969575853,-0.01502902208186747,-0.045862867821085174,0.04884797937726547,0.04639037981820791,-0.0074786564725507175,-0.024848953588517114,-0.05023713383627231,0.022974485601337916,0.036912730756068345,0.01371345214335182,0.017318752440131268,0.026022771671519555,-0.04241320875366172,0.004079371130410432,0.024137225643647717,-0.024595502709318352,-0.01691786120813009,0.013488365289140977,-0.0188055308191981,-0.03209992803899265,-0.030887443881567358,-0.020187379617564578,-0.043858727511080976,0.01705969305838944,-0.050510101543747674,-0.030042937967638485,-0.017619668401451464,-0.05843009637002073,0.01698574633836519,0.01705177354384295,-0.022935772174714483,0.02153899460239957,0.04800922237087655,0.04585551253564631,0.0009180850301635053,-0.03008083545284428,0.042144259913239425,-0.023662617034284936,-0.018957988152040948,0.04359412856779181,-0.01324547873117781,-0.03391405572519583,-0.03440306262692287,0.03287417716836472,-0.052615133553294044,-0.04279786922422709,0.025601492535183585,0.01599303686600425,0.015507310062804872,-0.04789053794687657,0.04432784029696749,-0.002166804231684229,0.03662472387167254,0.010609939662059982,-0.006342710778301687,0.041017084205424804,-0.0038178232904274557,-0.011960549092352064,0.049348012599418956,0.027593072747972118,0.004646196975833011,-0.0033825937386887813,0.04559247274738646,-0.021753264176422826,0.021751644779667983,0.0014117619861982972,0.013924785421861841,-0.05009463070430503,0.032017606413980826,-0.020374964491225764,-0.027827263132260437,-0.0079016175979308,-0.022866255037979656,-0.025915124731109757,0.03946693759233697,0.04605579036984316,-0.03910889393932196,0.048851642735611295,0.011738663294775511,0.022965423110800794,0.003952729733496052,-0.008668728355834843,-0.04071398727512231,-0.0065874898900425,-0.03889631737390969,0.02726724604943461,-0.04843661859686076,-0.029145451229001935,-0.03455757696489252,-0.048672334491677696,0.03191476924950529,0.00870559341854134,-0.04332540550417648,-0.015793125320409027,-0.026144263151118095,0.00007816536036660245,-0.0007533014029583858,0.0315019496452301,-0.03625421270230797,-0.04329939401938725,0.01141481942787364,-0.05145151090138676,-0.007356196916532757,0.004704768759137516,0.01892255279326861,0.0046149139615098735,0.04883321395638442,0.0011417671207172232,-0.0202826517687436,0.036077820814348675,0.03502139474378146,-0.038400794231719194,0.03855395652962879,0.039475845179635705,0.046762115722531854,0.03642817408424167,0.04489888998222494,0.004616756498730397,-0.02822198950727249,0.041448624853388315,0.04836486214887624,-0.009388145382920892,0.014931715606347784,-0.0023343784043003022,-0.052522571849040876,0.04588811554512414,-0.03248146486265986,-0.0502539225086941,-0.04499774355697383,0.02701110218030023,-0.012187444125460549,0.03095966873848627,-0.013812975498852458,0.028698687101197107,-0.020665067608887484,0.04082071812390435,-0.025024547343114652,0.019469729535221914,0.0009850390273649543,0.002463680526262313,-0.03087751312361826,-0.03882091296029992,-0.028067082147013155,0.03186343389543854,-0.04891260028128013,-0.044875971457685876,-0.0533730793668117,-0.030550947981655988,-0.05243813237081258,-0.02640552913964039,-0.009802336556769535,-0.04722393857973217,0.041968739887235824,-0.03860229246540491,0.020070035600235594,0.021912210376272376,-0.0025918075749812564,0.03373402495414079,-0.0358031162774505,0.01963132220511089,-0.024278009168922116,-0.02708666600922587,0.03685968561027173,-0.028028481259990006,-0.047092543269457894,-0.041546825302756725,0.02029392099893987,-0.05853160205564333,0.014079180269887692,-0.027262468010696338,-0.038017537798838826,0.038836186452568006,0.005655724706699279,0.010764401499703905,-0.016547124056408024,-0.03195200732943992,0.019233595145108456,0.010907414295270094,-0.05273625129828813,0.018567707832296422,0.02212269771963668,0.0273859657300485,-0.05137786067604768,-0.030758877352121874,0.052698824074091835,-0.024001840553768902,0.03481420856642246,-0.046506005990810895,0.035929727159499394,0.044920462008414916,0.028271464384926705,0.013177927570548012,0.03770194571414794,-0.019634453301264104,-0.011619522535954767,0.037478393515146396,0.007340699946864851,0.035724136058517916,-0.00500487523860122,-0.041994821500437575,-0.04265830463983041,-0.022705647566981884,0.03375607659732094,0.030694997238647017,-0.04872875207470513,-0.015619232772121048,0.003974074744493874,-0.005221184494045333,0.019685966411430434,-0.03078032812425019,-0.01200351017263547,0.04156731655383165,0.014190936152583829,-0.05202559511179536,-0.04694907892426701,-0.020376403949950887,-0.03607493287959647,0.027127793007609258,-0.038180071418558725,-0.004976820474482155,-0.06205717843777449,-0.0379812967522497,-0.008129254485810396,0.0013741551751126238,0.011795489364631314,-0.04272724241828448,-0.005032393413900153,0.024439757646168066,-0.032942246117752344,0.009410715227617116,0.006924631372573652,-0.010184647011705603,-0.04941500537786465,-0.04369024149375375,0.024370257855445096,0.005916530764954309,0.043014924975994705,0.01768445505074849,0.00430006855057895,0.0261361004000871,0.018145304818344712,0.046188772219928405,0.048664029655926165,-0.03411699716470627,-0.009365747129845302,-0.01398294894543494,0.012578828006942095,-0.045742919515288256,-0.014624744581761946,0.03197889362228307,0.041450273057734174,0.007532771888974024,-0.03962286811097183,-0.03406503323703454,-0.054851374295400636,-0.052762875340201285,-0.043714754507855134,-0.04825283825607231,-0.03334342388159539,-0.01621606937414153,-0.04597767962589381,0.05317787283997489,0.009195681342327667,0.00020011849245208985,0.014243955221538668,0.01908105895587362,0.017494666622725096,0.019563311473719567,-0.026244282516701172,0.029883533477073766,0.01090843132853772,-0.012059389235227386,0.016862344107878575,0.02132714112896505,0.01259818639619953,-0.017840846623805584,-0.0420132664165336,0.033692042241656714,0.020618475174161106,-0.03917668889521163,-0.020442707822269698,0.03494135212695857,0.024416225252169924,-0.0010262436733683349,0.047037704853453294,-0.0074669593033346296,0.022028031876211482,-0.03958195694482459,0.0387868775164081,-0.002870624308917148,0.039596618876256214,0.00024863979494766405,0.03315804736458094,0.03543180489303214,0.04594950927892118,-0.040512599093173694,-0.04098518468270177,-0.051411555095835594,-0.04079818091171959,0.04222250017817979,-0.045361194748994006,-0.010068153605631918,-0.05332818346920681,-0.05189827794578327,0.0016466258374321615,-0.023971366977402372,-0.02626788959234626,0.02504602531688847,0.005961702002872156,-0.03103527395204292,0.028147722692020313,0.020527519588976424,-0.030828755222510322,-0.03852098318980688,-0.03311169229903164,0.018143166345516035,-0.051503580344180025,-0.044012724566675175,-0.02945483930426244,0.018190334555235083,0.018206397916305624,0.021416112092167733,-0.04342926078966038,0.04774681179637419,-0.0010867414819798475,0.019548114799906813,0.029884144477767324,-0.03278353575977517,-0.053075888395723025,-0.044244986694625954,0.03570390784609318,0.04375593477072053,0.05134425918469915,0.04351103337580815,-0.022699974285343774,0.050130019867987756,-0.05283244173350736,0.03980262350768996,0.003435640014212715,-0.011931148622626557,-0.04682005054619234,0.022685407323386194,-0.050980952504340094,-0.02769105819756687,-0.041245850610376916,-0.008450235148261724,-0.023586822735060395,0.015180798187220837,-0.0016641122432896872,0.03701890449144992,-0.04872062866890344,-0.04898563001692939,-0.005929445643393506,0.0465449151922027,-0.050006457236992694,0.029639320416916193,0.006749122059569953,0.03425107093282265,-0.0033179359659934507,0.014394329988586783,-0.004112264769304654,0.011674678955671418,-0.012884886719864666,-0.0539113797029381,0.01128371909760227,-0.0232201536222343,-0.04353448529516404,-0.03701929744552969,-0.0416482323308396,0.03611693171501442,-0.03142269043618611,-0.012836537651516334,0.022289364290356578,-0.05097309989260113,-0.05186001292662232,0.008519395486428648,-0.01821743113812255,0.02526906857634913,-0.03543651488624463,-0.01179545492352966,-0.025784331094004694,-0.03170581067788252,-0.02985224860732018,0.006957382562196248,-0.025874821518814695,0.00750434977104623,0.04871490217838909,-0.035695918287376824,0.015367514036611728,-0.035788555646817564,0.03801883712605752,0.020728650688422653,0.0486534467506942,-0.02412932262765694,-0.04376349050985318,0.03760388406108536,-0.03777111881990318,-0.03964014197753103,-0.041412436193058164,0.041021804924738926,-0.03753540709539948,0.007523628555017063,-0.04633158017824077,-0.0036690951889894277,-0.03499908430149034,-0.04097145322872084,-0.03605708771466498,-0.007074442878798005,0.029555021123598275,0.017091821680341512,0.04840834115758762,-0.008325975303841377,0.014492681380911815,-0.01613425562040432,-0.04751105331851348,-0.030599282535783544,-0.03575204647061082,-0.00926213589023048,-0.028816201035244602,0.05009770206295362,0.004308814682337695,-0.0029536820964724546,-0.04922294148299104,-0.006794314854306425,-0.04382916220980371,-0.006638182010598988,-0.031885739355200206,0.04401865243180726,-0.02896674266249791,-0.029568961529424072,0.034147491248258034,-0.02944138001083919,-0.01088188176492125,0.04192619545527009,-0.04629440696121982,0.012919517112211159,0.04062640472899534,0.04650591296623852,-0.009362196140877323,0.009653837147197126,0.027371981473158367,-0.015438593221865419,-0.0035850362521877804,0.04747607016690268,-0.02841380250522227,-0.03189842213828764,0.04331216433846726,0.04163034311726671,-0.036624450671871145,-0.018445412560043502,0.0038425921963891937,-0.0322483846935094,0.046747804824168016,-0.011676819014401601,0.04694668458199435,0.003310929195193053,-0.02939303506541305,0.001311327194373003,0.025973352579685485,0.029092303367786995,0.010639929964653674,-0.012077331639364784,-0.01559995457180615,0.01572812379489047,0.04103053354179533,-0.005091316981619042,-0.014122466660647483,-0.03372626194682994,-0.028661660943873107,-0.04785454277794466,0.003439435765293382,-0.010926821966177894,0.0130225143163439,0.033910923534463504,0.02525702573019295,0.031079756200737916,0.023483772439277618,-0.004152261266440249,0.03877058588325418,0.007902473162891449,-0.03962637989264206,-0.03573202594696445,-0.004730874615402728,-0.04874086347202909,0.030362228982745234,0.02128078628057174,-0.038028957056109675,-0.018828627922315946,-0.05237955506679983,-0.025823080593809417,-0.03711964952666234,0.0177971395389524,0.051526902538121346,-0.03858003661391353,0.006282491377626607,0.025333186369180735,-0.05358898004800403,0.02905847015601661,-0.0058219960514972555,-0.02101968149809358,-0.05121927857617146,-0.007147956423121752,0.016140868358555136,-0.00903423022282897,0.047233481652659726,0.005267872102496028,0.006019704791869754,-0.03393742710696976,-0.0510926954234534,-0.025768924566447644,-0.00967244451255927,-0.02794115626955536,-0.010987555496636143,0.0382500419445825,0.0367311927800844,-0.0002782671372969627,0.022203985252308076,0.004405013426675118,0.03902146427957988,0.034798505271158936,-0.034661092640867516,0.002576399988378968,0.0531887397423884,0.023487812018167034,0.018174714297432653,0.011018272182297862,0.013418664605526305,0.013451499053599662,-0.04938178028717943,-0.030600105314430495,-0.04677635632171716,-0.006474419291946943,0.02939200298247353,0.044569648042165996,0.007594813335656002,-0.002474710036073643,0.04221793021302372,-0.04683658046661266,-0.0037873790028580007,0.03233379850341664,-0.025502717658979258,0.006203801302123446,0.02743936809963598,0.033237264279513026,-0.001069414318544458,0.048730313126065294,-0.029640703582069834,-0.03509857522866596,0.04173041849183646,0.04815369620209323,-0.02084402355933442,0.016010682470957653,-0.0013891067497020502,0.03212480711355853,-0.042684077664842314,-0.023156537187712725,-0.004048299645545963,-0.01035365541076174,-0.03823837799725659,0.014545332670959775,-0.057815238026259236,-0.07951526011693813,0.017945121403426537,-0.043609645018384394,-0.06580348545803925,-0.016942392642246302,0.00008523404539639583,0.03204935049434844,0.02593736031863942,0.047201840825718815,-0.010429924042222379,-0.026110830681156064,0.04844091744366001,0.01819160759833364,-0.018211964342364138,-0.013184642931589496,0.0532203953391411,-0.03880047115902249,0.05207257651883242,-0.050501080022968506,0.025976480222712248,-0.03962445252091983,0.01704477817727838,-0.017913667581700543,-0.03735028841654998,-0.03902518047633772,0.049635908657064194,0.038140931547037606,-0.008672322997727407,-0.016262528952550624,-0.03058253887645315,-0.021052020291788938,-0.04215747971297929,-0.06186473644564701,0.01785650208253838,0.03279444954116977,0.0068200543207712445,0.032689629911908415,0.003994931262677635,-0.007160252063709413,0.016283447821574207,0.007494950441472634,-0.03621650704042149,-0.03570870029941587,0.04725268296391654,0.020322265953894893,-0.04897698861773811,0.017108147316542352,-0.05857096217695636,0.027719865310286352,0.0030647897255270556,0.026892884135274613,0.015375756910601255,-0.017338435130372646,0.03207153852988219,0.09041192081508166,0.0763483693269728,0.05961910730330414,-0.014216151275002954,0.00015215595182909336,-0.01825817879438929,-0.013447003860987444,-0.028571034501045527,-0.004488888164548862,0.025840978247637706,0.03429212084601707,-0.03508738423765882,-0.025490804826758046,-0.0442968158560433,0.01693343640559705,-0.0014423338812510449,0.0019015086817343683,0.039806643154384674,0.03571723705194109,0.012243271185464758,-0.0532324821839056,-0.00042623662864644765,0.016964509844342494,0.032308541008727404,-0.06040588674726621,-0.03365301968690847,0.030567889391284086,-0.03228159082047306,-0.036821587259089995,0.02066296663711902,-0.05290932927398443,0.042190307669654536,-0.011748566225236097,0.0504170463859142,0.03345254920398026,0.028969005555939654,-0.01651033514667631,0.025960063193538545,-0.03375812497187633,0.04836402031897994,0.04304270287831582,0.012465259928413882,-0.03551670115305237,-0.04797580712083513,0.032291297398284326,0.028724890530948333,-0.039614268942480456,-0.04356253326691955,-0.023470425945619263,-0.05905623340213165,0.030756478121492955,-0.060144278477393905,0.010744879691662228,-0.02879793863049678,-0.059960521810564674,-0.026716570600589837,0.0004960767334064568,-0.04598221362628087,-0.00017354989790468523,-0.0002999835295604343,0.0463133811132023,0.054264816858124,0.03083691459314184,0.03894818244589631,0.023923435039900822,0.05872868061838356,0.04701242211439782,0.023741870058836653,-0.040625851243039884,-0.013233614562194547,-0.026726391911474034,-0.04517406681472575,0.012394297127286829,0.01713840993348905,-0.012003428781601088,0.04979015948593902,-0.00483832808877091,0.021512321393553788,0.010784515664558464,0.03023439088852999,-0.027995629592538738,-0.01373524839432783,0.03284633626579173,-0.05305100198135111,-0.04272484280227691,-0.05468315971031034,-0.022794337401803345,0.02714950010309498,0.008207486851276693,-0.00783134061965908,0.044825722053732205,0.08406959269758736,0.05200683326230662,0.04904283819642313,0.011805424121277174,0.012377558701336833,-0.04042620625796026,-0.03860983029583226,0.024370704765649436,0.04305734723393229,0.033166531842556,0.035041352785631044,-0.03334530073780728,-0.000050472844088272206,0.04528765024063119,0.04219228898243783,-0.015740966825308574,0.0020842705615481375,0.024103785778988883,0.04648244959879818,-0.014336300116291285,-0.008822610980178822,0.035891934586328444,0.03215297039636655,0.02594513616656349,0.06007669597080059,0.05858536378703147,0.0576016922914281,0.06084607376746683,0.023128931476950308,0.029858534679313938,0.021093718495578645,-0.00048592081416122524,-0.01625763816943617,0.030031105582801434,0.04991953927376382,0.007155933583717163,0.051688913830036674,0.037427136179904626,-0.03919380003518561,-0.024085964301867803,0.0034133925537743227,0.07542937298576427,0.08627462706442685,0.1055817336376143,0.03602441244502614,0.09997726917819018,0.06391056175483835,0.0047050928964479525,0.021090698950004882,0.031592783217865655,0.002723788353620106,-0.030683560001458686,0.03553343852245815,-0.02903288931512673,0.017000492769919523,0.040328874935965375,0.08480656017274092,0.05390754438136627,0.02470427420594509,-0.021995326143416406,0.04549522944193083,0.039766839853740917,0.054019113910580945,0.04070062776145488,-0.045878768074619596,0.008329861842268057,-0.0017654792396580906,0.03587766156150895,0.013225697721944712,0.014819194219938806,0.07382651361315015,0.029884922164009016,0.06797789162142391,0.012956817558908951,0.06966062888607287,0.03136217829492198,0.061880800924479305,0.06583351854543193,0.12386169009331527,0.020624581623684683,0.018461023466599003,0.024654583306457464,-0.009505131798074476,0.05394100165959962,0.06248873226326648,0.06887038639022074,-0.027992684916125523,-0.04315101549810706,0.016804997433622765,0.03939999045767283,0.017412385044070416,-0.0017141435257892266,-0.019695672096198696,0.008843523038804943,-0.04779821724529892,0.00934406007929867,-0.0195906546987626,0.05329813373224561,0.026166092331415047,0.03327918348431719,0.012954782799371276,0.05588291455004865,0.03722138636265349,0.048155693898027915,0.12831452354146622,0.1586883228841725,0.07149061373914072,0.07764026182735985,-0.02279445924812735,0.017746536532652533,-0.023714008721528443,0.07684590491564595,0.0677510831489853,0.05301641917249712,-0.031101924883933728,0.048117111831006525,-0.0220221491929695,0.001206121213818521,-0.006081230316908124,0.02280624048289967,-0.011875090292271417,-0.03097046941379069,0.016490975701553678,-0.03484227681525322,-0.024030855664999042,-0.04023607610948623,-0.038577095449318755,0.03268525467379464,0.035612999856154105,-0.06225009561859443,0.011474143495984418,0.014591904990475817,0.12806909222368906,0.15631986582317983,0.14183502595783157,0.04101908329421019,0.03331589126326133,0.008652526798846634,0.0680762242291871,0.025248971048834012,0.0002723302953319386,0.044622453215577236,-0.038016297495456194,0.04031889774725603,-0.016435267194147125,-0.00672615550261728,-0.004093692304738309,-0.0028302767449156947,-0.00929068091137958,-0.021223271966576467,-0.006783113323038035,-0.019966016242653217,0.04116213478746665,-0.0467628814964448,0.024660796909058227,-0.06505171329927788,-0.0805651417471181,-0.07880727702754482,-0.04982583153712162,-0.0056125960799676645,0.08906307754011496,0.16329400449166823,0.11084809636555967,-0.012795520857274553,0.0011717897064635785,-0.028000708627397706,-0.0468259106714755,-0.03117305233528394,-0.047798709309604295,-0.03475850982565846,0.024390852821265463,-0.005261236455211881,-0.04540160922512113,0.026032485407125806,-0.004360196200803974,0.025186582819497812,-0.015735976985915077,0.04856826597873165,0.03432439764241415,-0.011085320873893743,-0.031238950748969943,0.0036637128662224167,-0.02124346502533105,-0.04983954628460436,-0.09542417687358615,-0.11243594297723909,-0.004622871188761175,0.07130388543965695,0.09948446355357102,0.16563829283293785,0.09026324610165773,0.005879682442198684,-0.03924689080685304,0.027591682362518685,-0.07874314236729339,-0.09503350684325787,-0.009355790631516165,-0.019670343311573593,-0.017834028078512164,0.04152159165307832,0.0219371374683764,0.025200744107066422,0.003378133194982901,0.021908009966023594,0.045963164615007934,0.00045417388807269664,-0.018615224611830537,-0.01934286070859271,-0.03301095834038583,-0.024623881118128757,-0.06517703084408949,-0.05050532939184852,-0.008192665952576568,-0.06564810921978842,0.004573610328530342,0.11145879645310129,0.07298407227161974,0.08962781354574142,-0.005071014315920256,0.006782125177331941,-0.01830009789433051,-0.04320910410182794,-0.04105797418902897,-0.02744032033124499,-0.08267581623095896,-0.022044530210336703,-0.017593454992800038,-0.005101389694254104,-0.025241215103066737,-0.03892276793808954,-0.002609298878518245,0.046600655772416996,0.03433567530517989,-0.052529280851542515,0.003980338431330776,0.0032234232003633193,-0.07970592614061758,-0.04635221064649451,-0.012242568620643164,0.03197215577149332,-0.024172083687634814,0.029209462538063842,0.04540755084751872,0.12402208427874128,0.11072667410808157,0.07060021535555619,0.028553176092571596,0.02220202582292945,-0.0752617431288748,-0.10186714278017608,-0.0030737135219927984,-0.05093031013755522,-0.05197962332401827,-0.020113574194643023,-0.008611382209821068,0.009076720562952431,-0.04769483656608555,0.0008306794175567736,-0.02691384457307931,-0.032881709345009544,-0.031249379341153138,-0.03719948640712587,0.034108083514824396,0.025870382992414585,0.01027915014270507,-0.01859880092823028,-0.005736937579621438,-0.004093131055672706,0.043232140669096364,0.05836689436821123,-0.0022938683118129697,0.020866911157534807,0.08954265246939577,0.03622344890880543,0.0015387879223805496,-0.027938228451562963,-0.01486020703991939,-0.021200988383784043,-0.011617047357142507,-0.052521429222298396,-0.06802490781757112,-0.05813275426679803,-0.07292219826572621,-0.06554774396419079,0.013465601257473902,0.021067464120769736,-0.013373524280792979,0.020663852071218992,-0.02847117101945823,0.031114223923133642,0.010669194762287008,-0.006119509071755257,0.011560629493438548,-0.05220854960307511,-0.03489371473893994,-0.02724419679919301,0.042080440887070976,-0.044658203431361225,0.01975534340442287,0.01208922352143022,0.000604219256063362,-0.007935484893276395,-0.07551297053496578,-0.0375222498313779,-0.022079382881418218,-0.05167400424501588,-0.0010598600425772416,-0.06704012998036032,-0.07353689224607828,0.012511395572789836,-0.019543888201075967,-0.06408058087236149,0.007506358450194728,-0.04806376038912595,-0.01869594752955687,0.05064669066927021,-0.03638095969654256,-0.007948716520169588,-0.02190722190841656,0.02604707438946393,-0.0630894339249322,0.038311541464758216,0.06563906154617902,0.0029974775082571535,0.012859529397002611,0.01760477149562125,-0.04595115132271636,-0.02762362044571898,-0.03147675586772466,-0.06644218331936572,0.009899897889376792,-0.049090019897457676,-0.04024191083675269,-0.059264160691052344,-0.00715179483590484,-0.07301201181050684,-0.015774440363109675,0.037153301564782776,-0.020120627672018943,0.02329646365371268,-0.018106632007478005,-0.03225520773161761,0.016148387118881384,-0.04154930090156346,-0.05096302526484474,0.01852869739852829,-0.02180685627159271,0.0092138498447572,-0.03215260974651869,0.02283194815864591,0.02124410690306249,0.014734566607213841,0.021331438672883223,-0.006803249966524196,0.02535879368944011,-0.061545867040248066,-0.054783862682700496,0.027663692647276594,-0.02936460347430221,0.029970415125007612,0.022144729477293526,-0.04782368427669404,-0.05489954447590394,-0.07042467462074652,-0.05187935882071311,-0.0457829460703162,-0.06829492641016469,-0.021200566166946766,0.020131400649685816,-0.012514177364379535,0.02774292491945254,0.038653108778339974,0.020293848126095002,0.025231452027006107,0.00539104572996927,-0.002384475202659756,-0.002055843452874719,0.01691132976389929,-0.0291395829392412,-0.013999530163731533,0.01603544469832644,-0.006573788041824596,0.04775239790803608,0.03677290374989959,0.08387470015148712,0.05897575219961151,0.05378725847633212,0.026688143034482036,0.011157146916484966,-0.011974060338954953,0.020510604186224676,0.00183636185736644,-0.02366012624363173,-0.02774095778557309,-0.02659747415566834,-0.03827476041150034,0.03842468045922218,-0.03363983540564141,0.03259497041320377,-0.0008797085612412469,-0.04903935189787556,0.04024439364877655,0.01659241281438228,0.009522402673765551,-0.05172183289805593,0.03405131636952944,-0.027271022876950667,0.02913174837316593,0.05942268580853026,0.059156312783758595,0.08280331757983937,0.07658698637182197,0.125917577253523,0.12702343680348607,0.13211313535642205,0.0453673357861679,0.053383729550638824,-0.02205195949202294,0.06062515282384456,-0.01613961793697087,-0.026537523421979455,0.0035743626117714007,0.032782408156363234,-0.009737962295972128,-0.05290694762849521,0.0045455444234842705,0.028554725664013757,0.014689195315006775,0.05252268502406204,-0.0043861363499672285,0.02051644640226447,0.013237858533651803,0.04063576659785335,-0.044916468698559135,0.0164097455867454,-0.008762980290893495,0.028235055656840004,-0.007083620937978927,0.0002758465197253474,0.03509502997322016,-0.016022025437297187,0.030455030074483445,0.0882691931462854,0.056297969333368836,0.011495856901566102,0.030335094038933436,0.036968232619408584,0.026016226510767328,0.04503820432858801,-0.02858963200755781,0.04344930970642927,-0.04130473510174312,-0.048093580057929484,0.032836956995424105,0.01599219012812492,0.04832844305527539,-0.047014476121108095,0.0472569099725422,0.025258192273596495,-0.03327598055748478,0.027914708027886138,0.0037561855588857077,-0.05685011609123192,0.02508702569498591,0.030082201818647587,-0.023874021690728622,-0.018727386205070345,0.004204831644488878,0.024540751525602093,-0.0014610698946217744,0.006606407452074755,0.05106077579154949,-0.020181973252167903,0.026950560099703137,-0.005946974186036016,0.04050899317995887,-0.04466158436786768,0.045508694040829106,0.016149060637713947,-0.019554511340425264,-0.008885453224609378,-0.033407120246686656,0.0447887998495836,-0.03160912340398759,0.0534895618290573,-0.04785521976846584,-0.01375579120394959,-0.0011538485957644663,0.02120551326437354,-0.005261748160294561,0.039892550347223645,0.0065420127388309685,-0.03411074149859502,0.047585299951796674,0.003961528460730692,-0.024521181842556496,0.0021699346602365374,0.020434165174492903,-0.015543289930846815,-0.05162282322852646,0.053450410356143216,0.05307621511440003,0.02376376707488881,0.015103969471004649,-0.04267929763727709,0.02777520779948328,0.02173518508589737,0.012567266239320042,-0.01542091438993695,-0.03821594762225744,-0.006243163060964487,0.00048096477212207706,0.041245347792575826,0.033748640065635785,0.028539148210589758,-0.052862543069261206,0.019776199084560995,0.004301166277854825,-0.0057228014859045636,-0.04984649206806104,-0.015307675650451252,-0.0040401589042972285,-0.023216922526528364,-0.04870914541497231,0.03328492639023435,0.05024246021330535,-0.020697473165273553,0.02124691879308574,0.048587540922525735,-0.029499454493670106,-0.03507667520114785,0.025673426437499727,0.023053486877481596,-0.04453957342740252,0.05308610755949113,-0.0025431233251546,0.05179083406642421,0.009467833726275968,0.003858545380898528,0.008304526640072498,-0.011334917864783604,0.024100124502810693,-0.003921613405076419,-0.03090694039277871,-0.01725796475484472,0.012021754090226685,0.024596891320051537,0.014357491052127858,-0.04819441844931996,0.016341961339137918,-0.019596110347358173,-0.014438382378135285,-0.0011245691053407604,0.011629638541915953,-0.03620425368427797,0.04089876554659233,0.044561891779014484,-0.019101429017773033,0.04009305831384788,-0.007576677754923716,-0.0004405188324944978,-0.05229724110951089,0.045178730680289124,0.02648838061804884,0.05192385341113717,0.05036864262966493,-0.03831974679330071,-0.03263448082598103,0.019098130257636937,-0.04963591027054828,-0.02962514957018578,-0.018013315646177745,0.015863905114961042,-0.04465534533380664,-0.015600399077124506,0.011979354068745047,-0.01789616254417088,0.0011691135528136797,0.03595546116495633,-0.009479002213278213,0.008567674043924545,0.020986256650001096,-0.010606687547267367,-0.04299495637607096,-0.034611014781125875,-0.05175902414778747,-0.020130846915411164,-0.00985118653783432,0.009713753544221182,0.03479739077899805,0.03211387097690184,-0.02137027575501403,-0.016071294812715128,0.03739551882684279,0.002652425650995449,0.016353909319368733,0.00809909952385803,-0.040216208709107984,0.02789752666416046,0.0014626765465359966,0.05252212811831391,0.04123343673097697,0.020030463307529448,0.009006852928092751,0.01220210885498771,-0.010001448385878332,0.03281721822649804,0.02565204741364428,0.028086935171690502,-0.03645271593987213,-0.02297323447714897,0.05505948383352638,0.05448494723040501,0.0032055454313546167,0.04779239167956701,0.006118481415530611,0.046547169330528215,0.03782251266144001,0.03504894591894417,0.03235896901379737,0.004028370482442112,-0.0498807200246268,0.024302101177177515,0.010020344057693448,0.03709581044698829,-0.014038457231983064,0.016561523612430396,-0.028737513862101785,-0.043842746613228095,-0.030437190738066958,0.03817548252549807,-0.015175143889028275,0.010965193691533185,-0.001490135095642082,0.05534023297340276,0.01889911612391517,-0.001908037302361267,0.006997528919117294,0.0004119989736598456,-0.021153877643327372,-0.033191180350173384,0.022035628427688345,0.05065942390941475,0.0264891228557101,0.023637641262731834,0.03631998494600897,0.050134511030951075,-0.05150979744624731,0.007225297222133258,-0.002139673105204742,0.0071470447163763115,-0.02380236878072765,0.05047303779789547,-0.04711971845647654,-0.021986534712477298,-0.052714265160244335,0.05080362493816559,-0.026914068563361086,0.03589617602001959,-0.01848934673529018,-0.011035881642311335,0.03192883054987086,0.05848353559372859,0.03350651117510108,-0.015663238937482105,0.051934545661328047,0.011987045287580534,-0.028358651385665005,-0.04589795828062595,0.04345453292993357,-0.04212021854768711,0.04424547889947338,-0.04408560240852414,0.0030469119375226956,0.01578060424111686,-0.0409637543059362,0.04768499174514171,0.028865070492668708,0.048236833882428644,0.01576924753577017,0.016309138006586513,0.00008715684804125085,0.047080450591749846,-0.04709239707508723,-0.003818936025137605,0.01133760733335615,-0.028645941449801444,-0.01265948580091091,0.019871253382691405,0.02249908494426412,0.032538246513214665,0.03043763683303101,-0.02576260963701815,-0.0020197789999108575,0.011877161294282812,-0.015969599433288118,-0.03714056970488951,0.00891392231899572,-0.05403217306949559,-0.046917622825350926,-0.03483265892045861,-0.05739592853061884,0.04421952926237908,0.03312667638654284,-0.01640294181735573,-0.0240275864212157,-0.0038423859409928685,0.04046556336594582,-0.027598769275465444,0.007535393672151677,-0.049225073284943646,-0.03360296788137383,-0.03409850164664555,-0.01905497656969719,-0.02137627083146212,0.04705576469659893,-0.04519973390157432,-0.0184494845153421,-0.0022920025225623987,0.011731857778519858,0.015401502800350422,-0.02742219081764423,-0.01817752905389337,-0.025554112230062844,0.01762033301516079,0.0020016369493615883,-0.002767492240506979,-0.05566545375516,-0.05009119513622328,0.002606505375776839,-0.06294044164996776,0.03544856709011375,-0.0329574232273154,0.03404110952507357,-0.02073720713724974,0.04177366069407114,-0.04477432981421484,0.04390572550180669,-0.041225283978504855,-0.0078055835975418065,-0.014042149884732737,0.03137441886231828,-0.056954945966402014,-0.056756486439997283,-0.03648950280900633,-0.043582547826645765,-0.03878048757708507,0.038196220204970974,0.04905974786554876,0.008309658398119419,0.06163790405352944,0.06760899156088478,0.03566767989082514,0.04448463231816052,0.018914598558738047,-0.01801011665746985,-0.009711573954147776,-0.029574790147729544,-0.03791857205385571,-0.04129867166983506,0.009309776496415394,0.019325202884862495,0.03140466394843228,-0.02540382923393996,-0.05373817255982716,0.025230813525323435,-0.007164250100612594,0.049306383047922654,-0.04283953678437545,-0.013573545167542663,0.034575188253084005,0.010706145496868588,-0.04550340441101785,-0.055222279224082536,-0.03299596820211191,0.046823026729654375,-0.037679629084744044,-0.029163383976850255,-0.0068141530343884356,0.030514663722743692,-0.01917654378135719,0.033582878837352,0.04202547399954118,0.03125817587097874,-0.013139522287903367,0.0007712494994727112,-0.05659281302908582,-0.06370293780927999,0.025969330151543697,-0.00762437208487148,-0.033481088107444795,0.027124295325932857,-0.0366042750560049,-0.03359177577109036,-0.01438125886978079,0.015260047032433725,-0.05065190557498134,0.01824376654466267,-0.004049111217144829,0.003549559522927178,0.0087932348742544,-0.05665251544800604,-0.03889049951014073,0.04312043428820353,-0.0079608089433964,0.000821363095756556,-0.021869866087378315,0.02676134922692177,-0.03342105045199551,0.0001956649256220736,-0.021420968879391922,-0.0006765348671588934,-0.05062689569140886,0.00768456434897236,-0.06561152064908107,0.02363875370602825,0.03342727841312768,0.01957077048291001,-0.04759921556255623,-0.0040300482354177596,0.030603935106801733,0.00994692360076431,0.013387008933000993,0.0016172468091343048,0.047375842937510765,0.03043359653557595,-0.01558319207112171,0.03810809234301023,-0.012830158680424213,-0.002297477103967765,-0.05305757016314858,0.051286772334539904,0.07227717766596928,0.0960048498845256,0.04073563578400657,-0.011800938191225204,0.05294196085642182,0.0048824176781244065,0.05621949100566997,0.06650508120544255,-0.02363606863556194,-0.03113346546382794,0.009433245135085373,-0.02958563524923413,0.029398331360883104,-0.01589826178652474,-0.05128333409239737,0.0027652673106570934,-0.02354209715839718,0.04463093189103075,-0.018496765236254317,0.0017389721103368084,-0.0422540181986992,0.0013051028983598622,0.02742098328102175,0.03104348122626647,-0.024492107892602824,-0.0343140077318997,-0.0034591663207265764,0.0174949476938217,0.07871734828304594,0.020919514778343973,0.05759576649958281,0.07775762453666818,0.05974603589989851,0.03776208185675082,-0.01891665004288638,0.056584353987591256,0.05248407615835156,0.0002580644961962218,-0.052363812441067734,0.016726092854519516,-0.037761771149966886,0.009525980707738442,-0.02698278522438187,-0.01842104844092085,-0.008534722287449443,0.027686290539062897,0.014795902884764338,0.029421461399441594,-0.003118549999715779,0.0036485168199480895,0.04576186868388865,-0.022885190545727723,0.049559695428473514,0.040698124168554776,0.028934241164752454,-0.04944501191776806,0.057642921801405025,0.12377859780951389,0.10764595733060366,0.04623223370587842,0.037509797187355844,0.08133396961043834,0.059218274031761414,0.07936397381037302,0.00949829990532439,0.008035491585021981,0.055866519739010696,0.0034837421953887414,-0.0030079336072718643,-0.02571378927341769,-0.026262358306494114,0.0069833032894056155,-0.0007024408631994233,-0.0018038252035439094,-0.021102294267631362,0.024265368324732046,-0.02301539040234376,0.004430157460326692,0.06018474188727765,-0.023464302130172605,0.0272495043164559,-0.06220809719884286,0.011957608391248317,0.04430448650029501,0.04131956999226328,0.04550269225209452,0.1060964497829666,0.050952460484018886,-0.00836594537515024,0.07357880928979232,0.022205271087839956,0.04721779810334646,0.0386233088618005,-0.013506822858690367,0.05205199384604543,-0.009575364422508689,0.04799828848405115,0.04445557967610915,0.009164826695261266,-0.006110483372443898,-0.03620707021413271,0.03765657738054908,-0.006515257302831924,0.014451562402818245,0.04884830396334754,-0.04135479396818801,-0.04111717884160295,0.033847347333288355,-0.023087962849202868,0.0044234193234876885,0.02158255309984886,0.00412536907167816,0.07229030510037084,0.06117938309907912,0.030836986044858496,-0.024942254747724407,0.007202944687253571,0.031012055662679342,0.05773824808933342,0.06578261797022661,-0.009274727701192566,-0.050722225797952554,-0.03112530815537308,-0.030747168897183052,0.02061954397453959,0.03922656295476,0.04988108517026957,0.035082511545331645,0.037029549350485004,0.014484926941181035,0.044044660973993455,-0.047848998007204005,0.022577371033745353,0.0027538470336426766,-0.03733052831229876,-0.0326797921317936,-0.009928105529237535,-0.026366499246726526,0.0030092266277454613,-0.03778854814685571,0.002979496287690793,0.006287853707636272,0.011081829523824669,0.029208682207391146,-0.020704178442626786,-0.030514682154774434,-0.028389904058967783,-0.023591592630669466,0.020670079027882284,0.038655420484825946,-0.03761018681229026,0.00942229709452151,0.029300781232006922,-0.03634860398020213,-0.0156403201283945,0.02252469836995154,-0.039444648929328606,0.026877216472725146,0.04004163637073431,-0.0110868515446838,-0.04112887018164051,-0.05247709822697775,-0.015034179346748654,-0.01304357225449825,-0.01794748180445177,-0.025638882670293944,-0.04793599053171002,0.04346616091508884,0.006494157434136539,0.016495450253809753,0.042622937783730545,0.04047033105919972,-0.04768067666659493,-0.04814351262689229,-0.010239422870406436,-0.006392868121112045,0.03371890976225906,0.030520461544396436,0.004504428089018015,-0.03312991003226216,-0.02930541019654755,0.004458780668352834,-0.02002067909665042,0.024103366206005707,0.012045980239559263,0.03459771340423056,0.004136085693803947,0.04288547387733332,0.002327354304943642,0.006522330832911234,-0.00600105312229863,-0.021751396326118423,-0.05070816518175776,0.024617210481634656,-0.031202411062328676,0.05645808236069881,0.05700098362200207,-0.012281136819459389,0.032850290751425426,-0.025381123241139905,0.023284204237579407,-0.012536215755018579,-0.010955734850490223,0.03769998719876047,0.02855438467858631,0.02044088458804228,-0.016827863312745005,-0.021833206970804084,-0.04799003709567513,0.03676694364062585,0.03907533701775154,0.012828200609298906,0.04862802764199361,-0.005280364199850082,0.02480263350346884,-0.010539945218543977,-0.01717904083348443,-0.07132089060948077,0.011398551389762349,0.012713448994008274,-0.008267958160801725,-0.04126205883298321,0.0047389498824084095,0.03386690265696385,-0.04704268980835121,-0.01382226277986611,0.03225793228229807,-0.02625971065577344,0.042095786994070516,-0.0010327460555359085,-0.0038640561113503524,-0.018748123407596993,0.02310107166162893,0.037142132203645435,-0.024121108538031122,-0.05064521396218903,-0.03686841066353513,-0.04717951448704022,0.002868094655603523,-0.009285245934662723,0.05171598425051199,-0.040083145344609765,0.029473328781174223,-0.04453859801255911,-0.015126308747853567,0.02033574004194997,-0.05020648928082057,-0.02598564030761009,-0.008172420077094737,0.013151647056335342,-0.017282142423769124,-0.018296032158262875,-0.014974262930586126,0.026190857107317396,-0.040714440133714655,0.014776991238018856,-0.03636600976269104,0.03718426859351344,0.04689707687651101,-0.04577388576463708,-0.0015540087128761257,-0.04746321684661864,-0.059545360443337136,-0.03155971444054831,0.04554966263410885,0.03291400574079539,-0.01815764453403194,0.0012990928096187394,0.030275755148425402,0.05045831569531403,0.033381885566494775,0.009592469144277322,0.010752636175148059,-0.0367010402058049,0.0336917203992871,-0.007962311395633791,-0.038582307230750984,0.004326237539069513,-0.05259218360700464,-0.05945936740599004,0.027574287522142457,0.054748862428667555,0.05554598728115931,-0.030088567782874505,0.007764877352503727,-0.0268343170123398,0.03325378530350896,0.03635329457396723,-0.03231153719523835,-0.06715074671295963,0.027922382857607952,0.04286274779285657,-0.0530827713595216,0.0013669698542892767,-0.0013376558899401494,-0.05143392397370332,-0.038037871774402196,-0.003927013233466864,-0.03479218242499802,-0.02502004893952368,0.0060411492674242616,-0.0383270508981031,0.019619905355260432,-0.019215713825750932,-0.04752393126772758,0.0451910260788074,-0.023293458919825007,0.028170222210122615,0.045311907036524955,0.04926786606599187,0.06275364167636689,0.06906438347470639,-0.02173349418868663,0.014339223716371918,-0.04786897601435218,-0.0005209852409729432,-0.06673165144832835,0.02351243727593655,0.035697561311789264,0.04258319126775378,-0.01865915941752845,-0.039291605904548305,-0.04587253729328883,0.03730074452290757,0.03225149095939967,-0.04091677966026894,-0.032000481511252836,-0.017253900413204085,0.020684036526430895,0.03889085981769025,0.026223355995265443,0.018900340097401293,0.03130217774293761,-0.014827477020383855,-0.016372382195615178,-0.02487761382835709,0.057607872196945596,-0.0072148166690850155,-0.01672961143772994,0.060784744043565576,0.0028917239997081484,0.005068345947279881,-0.018953732613326432,0.03072935876038615,-0.004059804588660087,0.012378831517473165,0.026861776967522823,0.043291350170338715,0.027320741872752862,0.008182651705928247,-0.04642399799902941,-0.019082786392888643,0.022290720617818297,0.0026611490627851415,-0.006552478099666073,-0.00970009725059397,0.021308585327924644,0.04733033411413341,-0.01763333886632997,-0.04516585527849719,0.011568832031396643,-0.010727425515429432,-0.019309512144245453,-0.04393275099171808,0.010399010243421021,0.0066658620292700446,0.02121426832025901,-0.008608398656303097,-0.02062112966893011,-0.00680513801619461,-0.00047975631261782216,-0.04336975440143615,0.0022223657773998437,0.041763990154275295,-0.016280823348250532,-0.010333071213485022,-0.0025274940611839827,0.010440171414150523,0.017755143132053612,0.027400540602686235,-0.02395136849431866,-0.03295340103504062,-0.0018906055737034889,0.01952512966516752,0.025559619766264113,-0.0391987888424766,0.013123987149140046,-0.0030757375327208126,0.010411003980209914,-0.01954528154066197,-0.0345761290763917,0.03333684066250508,0.03192393634645805,-0.04119165605901678,0.03384006733013494,0.033192876960544675,-0.02044869524565192,-0.006721576567327822,-0.0022705159366155493,0.036276827370568254,-0.029461099673071547,0.0009281507719293783,0.040252506303507754,0.05205325063498454,-0.02726418865398299,0.0060103602197073705,0.042576552604477465,0.036134460913923805,0.037387947755854134,0.013906262850061971,-0.038172054461745666,-0.03863698696696602,0.021444936204188025,0.02997390766607457,0.009413098277011882,0.021979725847979872,-0.0020690519774911194,-0.022464747279867033,0.04819866073092602,0.04729622022372578,0.05919455447791494,0.016695397651090023,0.047741028520238774,0.03708056476455113,-0.0318291283551401,-0.004709639027585102,0.004154015981114384,-0.012046236006625629,0.03319427747815018,-0.006272817042103805,0.02783288536167306,0.03439528559954181,0.013512447232638527,0.05134455994384507,-0.010120952099591362,0.033380346507303385,-0.028108613571398523,-0.0055696241247615765,-0.043958327671246314,-0.018465152550700845,0.027569952323791794,0.046660207577464974,0.023416301561930034,0.05213375095020068,0.03668814429737705,-0.03174529564105361,0.04721185517541212,-0.0073377719421793075,0.04700316624828208,0.0010468867990453899,0.049597751595831026,0.007478574540453615,0.05921124265157734,-0.027030074759315657,-0.02896551102913612,0.052985720155747595,-0.028440391254263776,0.005653448556675239,0.03973990488821946,0.04916843967923051,0.00015211120956745271,0.038041814910865425,-0.04337137046942067,-0.029404746304763155,-0.050251426179545026,0.03312220970781117,-0.006344444712380643,-0.013010107277081889,-0.0152283277853959,0.0021284117220014,0.02919800105327711,-0.040552295118620074,-0.05116713252192026,0.03332345756939638,-0.0012120752008809613,0.0055917730901629,0.035233874070931655,0.02452422493746381,0.005333105540864338,0.028022737910366163,0.016449265478765317,0.006943722280810695,0.02454545616939654,-0.04216936719147056,-0.033372642833996435,0.05286462766956709,0.011765535114933522,0.03792225699553566,0.026707152549998555,0.03421102442088492,-0.050673902030512204,0.04175259746942325,-0.050204389658173525,0.037814419917771805,0.011957004646804286,-0.049462428101629506,0.04140283851577106,-0.02780569019053841,0.003376013578313311,-0.006616515528487989,0.028961881686630345,-0.01219106279690146,-0.000591484327368241,0.0056903733096591615,0.04985759155216176,0.028334341666860042,0.03324835891944856,0.012026702754627763,0.04950096925602582,0.0009030854286934651,0.048971449311216386,0.011943023450048334,-0.01926302053410716,-0.044017531362457785,0.0012709695930394577,-0.04540587656341669,0.04539103257342765,0.005228671441545596,0.051492774209821374,-0.0053372717304160135,0.0023248840804143698,0.01403025021174764,-0.0041148464693186474,-0.028429114916805415,0.027605850613808873,-0.025354358209351748,0.02344413631477853,0.03092110768883361,-0.011871555086864967,0.023165038565589123,-0.040768432743078606,-0.008922469808393613,-0.0007224319078519575,0.03973265790548591,-0.010832811335431297,0.024249473068150264,-0.05347427073618976,0.027916242316969046,-0.04537467073167146,-0.01793866505775237,-0.02750514948075663,-0.03186985118971627,0.04132702575699473,0.03981232580986576,0.05225260979997608,0.011533664002392353,-0.05020203691350011,-0.03489797175004435,0.016047731906309134,0.003001991827454322,0.007986946154769047,-0.03690871249385513,-0.04843834005988696,-0.051256704469288435,0.023137717103987657,-0.03043372757831201,0.03747454796234801,-0.01775641259893997,-0.04678348017741426,-0.014943092163622891,0.01528066843940441,0.008354757049945153,-0.04056342779755771,0.025212873146276488,-0.006111033786513839,-0.029685218344567704,-0.024769736187318522,0.01565376506210049,-0.03170251756492969,-0.00003668619783430122,-0.04449303115225207,-0.034458293074866406,0.0459761557629202,-0.045525994887075205,0.03419602930739704,-0.0016721875951650803,0.0011693696896612471,-0.010193433097138596,0.04791790781976919,0.019353218812762325,-0.05270904865844942,0.04345280850057268,0.004839727626140221,-0.041089532102533244,0.0023169157370092723,0.009789178379128283,-0.029198253626351627,-0.017181633202795303,-0.005522528638589159,-0.03086589631779821,0.031162888159517524,0.03906702356682689,0.018273997683512982,-0.010001644233273262,0.00998852517617207,0.036944338603885976,-0.008239386448256683,-0.011066486356106842,0.011427694110827865,-0.04184573657772223,-0.04547088013091089,0.052241003168038105,0.022551511813933455,-0.028150293477801163,-0.022562743092125366,0.04179477902697791,-0.014685562964846624,-0.019754610656602865,-0.03161612217378442,0.00573462141356214,0.00801218636809277,-0.03946228921491159,-0.0037422067918830002,-0.003373763158882815,0.015548014556167737,0.02093745556669121,-0.036109114613374266,-0.028169313311402787,-0.059117999470432024,0.002014839776816689,-0.030998347867074543,0.02482517501688059,-0.048412256744502453,-0.021887586480545545,-0.033900047870634956,-0.055365610540486596,-0.054041371701228996,0.0001216490658094981,0.03582815499834646,-0.020285951422157437,0.007732090058453399,-0.00012479220752268554,-0.03149649734618274,-0.04717778490147113,0.05376644669775623,-0.028455481828430274,-0.033607540445145447,-0.04508245305126406,-0.003771147085178896,-0.00390819729307747,0.048684624535387855,-0.018339256965359232,-0.03332647976089549,-0.024027350672775376,-0.00675879223893871,-0.014550319919319293,-0.019530806796112035,-0.03723409005748728,0.018293143954998356,-0.0023413187755535795,0.024894138374831364,-0.06141383955786056,-0.013261153003030301,0.030700765621218505,0.03718532623895378,0.040316466872694044,-0.04124407252260719,-0.00008230438794367563,-0.028452238431759105,-0.013105095287969076,-0.026621576626483717,-0.011528411920722896,-0.01853153851036997,0.038299836198781675,0.027725059680244715,0.024202430202706005,0.02080493237336668,-0.019099910987783134,0.017637702202097694,0.05609349080885145,-0.003802438080050575,0.05087060952194074,-0.0021387629788844707,-0.005235315869740754,-0.027283994102644198,-0.007148948289092914,-0.022642524812096023,0.006899387121897339,-0.04504651323640457,-0.02204294297706749,-0.03519799536040529,-0.056458744701702784,-0.03364163696713489,-0.016949133710189468,0.011461622590642878,0.018520941338307416,0.048028143087380085,-0.028424876278890246,0.016862020996735685,-0.032592518105028195,-0.03755808246976006,-0.016416541489329594,-0.04546457514163657,0.0439445074058075,-0.035548434279163196,0.04660231617955369,0.020387688498891592,0.022333497049574918,-0.008210156753761223,0.01481408053599068,0.0748747563294308,0.1065250795035186,0.11564657929736186,0.08495732719295696,0.06736388271435793,-0.00015313874071272055,0.006625110360527488,0.007564646980459592,0.007227502099042997,0.002553673310284885,-0.05955200395634535,-0.0561322452532606,-0.008238656184624138,0.043096000379969475,0.03322755961666092,-0.042035456835615014,0.024435692636037062,0.024932361088489965,0.025822935646868193,0.025263312656817895,0.05030947396988926,-0.019626381912815724,-0.0022947132245523835,-0.02238708659636637,-0.029887712523192094,0.07102620001846803,0.013141617626717632,0.057424664530493046,0.10774667863054599,0.0647087973125046,0.09610212770474781,0.059266429271036536,0.06931420752685649,0.02382338069393607,0.03373167594624499,0.05314232701373961,0.03900660060927866,0.041183362725135675,0.034956930603224995,-0.03594827404063626,0.04855862489828377,0.011961903603856211,0.042330322352403194,-0.010584163214962323,0.013040737371042815,0.023468255430758332,0.05237672231571818,0.029077990851383257,0.033849397793189934,-0.01918883663250027,-0.001935581168652967,0.04280247928299397,0.06032234596391696,0.06614511701823964,0.06830104150987289,0.02026766524957723,0.07982220070619328,0.026571348520337247,0.047677266010628286,0.012469243424905053,-0.02800982320658375,-0.02286116481029498,0.015125531418763476,-0.02725784212668151,0.019330849945251583,0.043978434205898614,-0.02462094566214443,0.035533938620089855,-0.03417250346848989,-0.017835529831768865,0.024759868779782836,0.05301005593294284,0.03371042059506149,0.04031333323876057,-0.0205096685482784,0.04471997107636732,-0.043372864710044076,0.04841390325896602,0.035354503126652635,0.060873258838762906,0.03570977361581586,0.005986701648588858,0.06959510428383439,0.035950203596953466,0.001904530905508413,0.06447714057477419,-0.0053366575175261615,0.042296919933127924,0.03412308732097239,-0.011225018490825358,-0.011864303436166162,0.023723511003496994,-0.020623201986814152,-0.04723084532335397,0.010171540373768398,-0.038887668002946095,0.05158549361284729,-0.021718885621129638,0.009834509468053377,0.026533041701204803,0.0004503160236268494,0.011265249138448775,0.021511468486044762,-0.046850999246266845,0.03152511668619366,-0.003055235217685234,-0.008651510162962605,-0.012850598142764296,-0.019242651138607986,0.0042110470748443875,0.014756894537810167,0.02646594364193519,-0.046205947457864334,0.020220456543215644,0.008593833795144291,0.055913916118482156,0.04122229562169669,0.05592990773229657,-0.009386360790790147,0.0678704120576554,0.018355942858528877,-0.010733377138859562,0.05555260860576849,-0.043106952689587925,-0.03138556278116269,0.0325332464185159,0.01919392199551729,-0.04363195213285173,-0.02323461936727286,-0.015598802734935215,-0.039254408941619336,-0.03954876948247455,0.030341674796311276,0.011285709158748405,0.06076726143722661,0.07232106330747681,-0.0156474641067723,0.047955678963972556,-0.008902434141911796,0.027359489559248103,-0.005129376646163554,0.0036208436157355584,0.010530232865243737,-0.02146133271437296,-0.01082760475498851,0.019417459410439986,0.020347174441026367,0.0435039278571316,0.015373780670537098,-0.020863814872848486,0.007837918343256632,-0.003259080272591332,0.009658398937616774,-0.030787267773890504,-0.0275917553335366,0.0512750773512597,0.025790843165520997,0.04126764468210451,0.04804281580947514,0.01061410410610375,0.06407706324592613,0.0081577963646551,0.03860491861066039,0.04894854951410336,0.030432002920213825,0.012886389613110633,-0.01798579410302124,-0.060285169378184095,-0.06390180061396582,-0.0029699420101676924,0.019135607658565458,0.01046494965729196,0.0627721707385259,0.015237521829657139,0.01817120957686545,0.005867550165006407,-0.02943154452184393,-0.04118597985942049,0.0019420319435224955,-0.04494689585074649,0.017025987797335166,-0.03175253507249262,-0.04246177377267198,0.030678916712103033,0.022501389614201145,0.0021795032984463177,-0.008629832763854978,-0.019031816686892376,0.015762722038003055,-0.04255469025964326,-0.011287194338203552,0.00866722291767191,0.057861505036199315,-0.026181353057759257,0.01661052873575764,-0.016697043272983495,-0.02339718138916655,-0.048267089325570396,-0.06325353402410731,-0.0502863197818511,-0.03643766934163739,0.00028827813538172877,-0.010870511452428074,0.02544791501890574,0.05111828121117624,-0.013014564833185716,-0.018255560774811795,0.009184564827165283,-0.002990271418079779,-0.051860639891740085,0.004486261100075778,0.01205661206866149,-0.007842055632772087,-0.02514628820015521,-0.04703822802093723,-0.05024769496544062,-0.03489436624261269,-0.003900483831712035,0.009531587422208434,0.04483540322956788,-0.013651398235690842,-0.014617102628811225,-0.007124535580787301,0.04651849599617342,0.031488146400340124,-0.032402915280802864,0.01599168191030412,-0.02904065121896833,-0.035579314869947254,-0.022434047811176486,-0.014326369158089183,-0.04640566523068665,0.0011470162177527293,-0.004925400360633295,0.02408395304562792,0.0536210546885155,0.02521541555531944,0.00942333573180162,0.0023270866976030495,0.004455822102731389,0.020088616045678815,-0.05172927417960632,-0.030703059411149564,-0.014319910204913267,-0.03894788329035325,-0.007768034864936377,-0.042124707910993126,0.004887942269588725,0.055968395035938964,0.03607740709901675,-0.0012996627112553578,0.014534352067326835,-0.07490029285335698,-0.08844752117624381,-0.07890163805519156,-0.052603385988904065,0.05974901011904137,0.027711574954710175,0.06100063051241001,0.02078112216081887,0.03066307347605344,-0.0386218691675002,0.011643191776775386,0.033346072149106544,-0.027126185357674963,-0.010600064651029804,-0.05352477916411036,0.03246631152368579,-0.018645335653978613,0.045470624686958734,0.009075470594080317,0.014794944223850241,0.018597816993169862,-0.03142720549955749,-0.052778693551153735,-0.05149968793935583,-0.04132708734646467,-0.02699508180118701,-0.025451969202165938,0.02308445544963753,-0.050653608322817296,-0.10601552598868678,-0.07172233872732947,-0.0012418841189976463,0.0244759138735327,-0.03527379737257968,0.03189414996407331,-0.031522637401977666,-0.012078678145977711,-0.021257283706745084,-0.006989382207394581,-0.004067739252742115,0.03656243392764621,0.006767269672192617,0.02793820249279198,-0.048937680021316265,0.0004279118720654023,-0.026945774228260222,0.021578670847567406,-0.05149622284874277,0.019840387548538268,0.03054072528526231,-0.0387364392499505,-0.06602109363990906,0.03564347134629004,-0.03846059944400756,-0.046749523291953664,0.005112887067328412,-0.046431934098515364,-0.004869374585926813,0.0378938805661092,-0.03601743881262374,0.041744508662035176,0.05152348820515335,0.01500744873046024,0.045445176884754454,-0.03390219045930773,0.04099115546861744,0.042297621614416296,0.017460983926213185,0.002881866533132539,-0.015672662014447322,0.04556610299203982,0.03432428356737478,0.050437497116187974,0.02563572126341519,0.016298722919529576,0.023313701889473466,0.04894884957761715,0.03730422470978238,-0.04609726378907215,0.010919950329908217,0.013869318784208367,-0.017291323765113407,-0.02468735759771695,-0.03521102377563289,-0.001411307689849603,-0.013019209620057454,0.031849447850744644,0.050965660926716796,0.0419544614352197,0.01776943949114436,-0.020766034323092136,0.06759280175905145,0.005452374764653061,0.05156215349022421,-0.0305086403166791,-0.04958648670813257,0.03547874478742263,0.029712092836153024,0.03632847404491096,0.000480806418699057,-0.045332098035697044,0.005556082796273614,0.018835451701132728,0.028101796611081035,-0.033790356458882474,-0.02181535440817177,-0.013572034405774291,-0.023316621965406216,0.04700345293271413,0.026960854896545514,-0.04010948251703234,-0.0015404812462646422,-0.02914993068488909,-0.029402958562979715,0.06204209450791536,-0.04493951712416943,0.054099385884348816,-0.04482671262844061,0.013205401732751726,0.027184835643825473,0.012552396882365457,0.050194113798793356,0.051214207431962214,-0.04938466359281274,0.006988076180955922,0.0018539448792071914,-0.004082931517649349,-0.027805975173643437,0.0523934950081695,0.012471072001444459,0.04091912175825182,-0.013279277221713312,0.003011015573252533,0.008715087856746488,-0.01337161934287454,-0.03286385294962432,0.00040798572704033004,-0.01373576014854381,0.04193373421547581,-0.012177324197711814,0.05529529772258727,-0.027369362967170352,-0.03614567528374428,0.016141108562505536,0.031023506015313614,-0.03469095756841927,0.022571283648522893,0.029824987919446756,0.05118583699306883,0.04270949956201316,-0.013215412590105788,0.05387588886611207,-0.018656585301380355,-0.0313517094858711,0.03918824286467995,0.010196555362698532,-0.014508774655207163,0.01926188850591239,-0.01283226481286843,-0.006310486874955556,0.023859606614999827,-0.016569865366898407,-0.03369010304218816,0.007848905537879744,0.03115529950520517,-0.032673425226659454,-0.047034004099545876,0.03240556813776604,0.04283678068154648,-0.045270504421063375,-0.03293076981068539,-0.0204158595799193,0.040776801614148435,-0.0026231355971450786,0.012799621716117026,0.028492195209574866,0.01108378526160479,-0.031221952270296394,-0.039991824020348135,0.020096506481161305,0.0332128442896994,0.020743530306413904,-0.033468905542117615,-0.04936842219652252,-0.00005473155837507592,0.025397305399830324,0.049265740881710235,0.048730348176417006,0.05341786979984699,-0.007740441229928287,-0.02389059916638635,0.026483024562392394,-0.01470415445958894,-0.048645220608976636,0.029239609551944823,0.026779513368511983,0.02072475732848406,-0.04859280163097297,0.0334272481089641,-0.014210635878749208,0.010930339268589903,0.01373950524054011,-0.017005864584773125,0.02712001740244605,-0.01717394177968545,-0.01984625203962843,0.021697625445304052,-0.003505728619356305,-0.019259925739154034,-0.02343368296310692,-0.030578389856900878,-0.03906346463467608,0.029269138011093623,0.043246365511169386,-0.0022157041223669015,-0.01982762068248077,0.05720534287746157,0.006941087226579387,0.050654726948532874,0.006560052643069666,-0.011612894185662623,-0.009985435827107992,0.05963136112695713,0.016930599382846946,-0.012455315117119063,-0.0351021402688407,0.017652172538307535,-0.009809130988452736,0.034967903450697196,-0.010238931606834638,0.008555964064775996,-0.038182201748202894,-0.04279103353363432,-0.008767235303401486,0.050785996179997406,-0.045566554538025106,0.04580967940163401,0.021306499395832703,0.004855167225900252,-0.04720716513394605,-0.010619339566996892,-0.013850451510130538,-0.008806409265242513,0.026190593752542075,-0.037902264629806545,0.02732313456739938,-0.011957650932196416,0.015301562600223275,0.03828446644975085,0.037605276828730744,-0.023242879567469784,0.06194332059635673,0.027565164352140598,-0.009317248583326766,0.04018532310404225,0.07103337372293977,0.08865987730099464,0.023784268798795295,0.05845608380106197,0.049232237112418684,0.0020455787081238427,-0.04431369663133992,-0.01633985167806169,-0.008275336780482282,0.04358061339386341,0.022079845821461802,0.008559608828590842,0.0052079990472078015,0.04603286137408616,0.0030305138022553046,-0.014017004065539185,0.01077384324550383,0.054202072000487996,-0.039279163530416,0.028591473666947684,-0.01098976241944388,0.04429684784365423,-0.04137905395299886,-0.04268128535484742,-0.01653742966758564,0.03441937584910552,0.04880369009848254,0.028018152710038872,0.007662704121102872,-0.027957999129072805,0.04434273915849481,0.05098056692381575,-0.02530878286331994,0.04182739404979814,-0.017706467687784846,-0.03661424465103126,0.02785222048261749,0.021748403574129296,-0.040003160839897925,0.02111899345346366,-0.05341901312311971,-0.010190628228977004,-0.013104791241969201,0.01849874846927256,0.04693978548559594,0.007025944024369269,-0.04485576715140766,0.004711551539705356,-0.04607023643865396,-0.02679374611590177,0.0032381675590197347,-0.03606457932391307,-0.03552663475381679,0.05283064848545327,-0.0272331207146299,-0.04194239408584066,0.000709798683246788,0.04660888307852978,-0.0466319738457352,0.047684484115545274,-0.052358893911448615,-0.00676654737819907,0.035531890605609406,-0.042631960044908095,-0.005595564937404036,0.023782705676040333,-0.015346292377495319,-0.04435787809077415,0.04149930832304237,-0.051797283276918786,-0.01401582884467124,-0.038495759938814066,0.0048583764693393055,-0.04870343584468333,-0.003541988238856203,-0.047245087819097274,-0.03732037172807579,0.01010636482914597,0.03496057903696022,-0.031755799216548544,0.027030893383890392,0.040301583055609574,-0.01762821500487962,-0.03945569511379977,-0.005904249098194462,-0.01915952861600925,-0.003835918407106213,0.009654725014661792,0.008625220726163374,-0.052327644644400394,-0.04141216818465129,-0.04489393782890379,0.022753781548132842,0.010905257221675861,-0.04294710595978906,0.02514362884129525,0.021680412002287153,-0.030414493638629903,0.036166386837242694,0.015108511248806387,-0.046221754263689,-0.04883498288077706,-0.007248695858027864,-0.044587220903087206,-0.006443540798849308,-0.045363310950703124,-0.03515131621061915,-0.04207665628463656,0.03140423717974004,0.01384546186392087,-0.0013954744096883157,0.044043579774643196,0.010952291884090342,0.04636993146003396,0.01437875775248987,0.041454560339455326,0.006856031018802453,-0.02892067273949686,0.03315781954181464,-0.023495854866906155,0.01565685111750657,-0.04604487448853298,0.014060127574600605,-0.0006447962812802175,-0.0014644002495979105,-0.032290780055062425,-0.0360358992796523,-0.016446262094681943,-0.03496905183765146,0.04802534411273924,0.04436808169094465,0.021652338061030695,0.03464331268472378,0.0018385351113419626,0.014249327231691719,0.05296111468723165,-0.012494209924304962,0.006299725846317099,-0.009614156187908009,-0.04240517643431047,0.04301459498883637,0.01410561220725528,-0.005324116379142817,0.044920395035760494,-0.04540601387710735,0.04839290133628876,0.04872443850524511,-0.012546580140367698,0.020041796285359965,0.016751112957601153,0.04778473528810985,-0.016407904592904976,-0.02513847614405197,-0.05190439303622001,-0.025835346641356453,0.030976166584836855,0.04303746334292526,0.028758811942110565,0.00792221609690254,0.013711387892803708,-0.030354112617368707,0.0330916610594411,-0.01045283607627726,-0.013050617520731802,-0.019188372003484104,0.012198543750253284,-0.03151526246933009,0.019693320916798648,0.0025214375578758563,-0.01956956934248368,-0.04871200295783526,-0.0327337616339712,0.018232159660118628,-0.004414632664521673,0.01607157297329176,0.008775728848212967,-0.005288515282044852,-0.020014489371085662,-0.00788139683220137,-0.025768184785975735,0.03729709609771621,0.0401140231648154,0.016804718000975456,0.04539005892283326,-0.006433229686265867,0.02161992324659995,-0.02927409670330144,0.04310628855743439,0.04974470850334452,0.020103263435272755,-0.021913267146321483,-0.031760991941894516,0.056871759701850016,0.04746728679201316,-0.022298969295047603,-0.011520749282143451,-0.04110810279567095,0.0529595310829964,-0.007416225275935423,-0.0004919676114400813,0.02602238073818991,0.0182510088065764,-0.033297108904330346,0.028978529059171882,0.020705508912586587,-0.024186361195559582,-0.03250972517050908,0.009603949125902412,-0.013493811331947308,-0.04809611873821669,0.04060481529615217,0.03279846208111674,0.029899479454205975,-0.010550308435906819,-0.021298634432321877,-0.04381720226190692,0.018228647728621716,-0.02040780576212371,0.044653694469745556,0.024789434882444318,0.06325800025162755,-0.02912592126423448,-0.010735801499035497,-0.008764574219033663,0.03908343601317935,-0.03369660959794304,0.04758458052958516,-0.01583079532940364,-0.0002544454697758861,-0.0015129093012000133,0.03783077774216862,0.046054782518212316,-0.040979063519089885,0.021394998742046048,0.03421148022305463,-0.0018809669758410748,-0.04702923870881636,-0.024102886663935646,0.025431890955886927,-0.026439420469112452,0.0031980417162645403,-0.03566638814251232,0.04177870971736715,-0.016588079629472258,0.030093811736246225,0.018017507849147928,-0.04064696905295513,-0.040818693842852014,-0.03440703856930464,-0.009588046370424421,0.016437317243881335,0.042013888838152984,0.009137552966382374,-0.021201649859714015,-0.03512194944571379,0.014160868077036426,-0.027550186300224613,0.039290590112580036,-0.031687052638124304,0.030555887594892937,-0.02081768701569974,-0.04358211956234692,0.02875857208733746,-0.000247817857759786,0.04574536458564952,-0.048461118551731894,-0.0405284772777823,0.027674555964944884,-0.04435076870800764,-0.015935391952177948,-0.03231453652530364,0.020335477818523767,-0.005805170494096833,-0.037681100258577245,-0.008366888264368273,0.045148499777254186,-0.04479513752980857,0.05083249685960589,0.053430336200852524,-0.033411992248502546,0.06239367573494788,0.022961684344247797,-0.04852531865836139,0.0014191113951345141,-0.023045103175828842,-0.05581667605270402,-0.03494972232622305,0.014894019132805334,0.03196563036465075,0.004043619430922206,-0.02333923939698868,0.0076504041305121276,0.01144927526586069,0.0016112028505970222,0.005183137493749172,0.0010874115450016722,-0.004143093789655453,-0.0076313890311916575,0.022370966443946105,0.03308627909727639,0.007832154720472316,0.016963444578287506,-0.014874636446152736,-0.0022346547551801454,0.03650107192745987,0.012706703128343412,-0.022289995689818716,0.057456759310999674,0.022684679868718666,0.041135610419168356,-0.020352645497914115,0.028556707566054055,-0.04374640628549714,-0.03721138549842209,-0.02500278564343345,-0.036818535845443534,0.01651832862133151,-0.021345472709265942,-0.04135115371084688,0.046543173371066546,0.0274989341072173,-0.028331546291176787,0.013783396621604794,0.003527985495404294,-0.0351149882043004,0.017539802638703424,0.03649005546199259,-0.0021354273297010244,-0.04449422066373326,0.010062892740176025,-0.03738858531941737,-0.058811047114019986,-0.019089478580990665,-0.002959854490283151,-0.012084420989874164,0.06884147707859292,0.05876066342966645,-0.03649715580929816,-0.0230246666610306,0.042974017978692734,0.02330975649994586,0.029161164968068944,-0.04922426921603795,0.001440879671213199,-0.03844690610648782,-0.0579497325560139,-0.035731780044079585,0.05307486013570601,-0.05254339543408552,0.038546770631685184,-0.049624303841962494,0.008393319525919065,-0.01652803975886985,0.04261523210517466,0.04661860280742354,-0.012178170641036027,-0.05053986310335781,-0.0546078968195841,-0.036723714477786086,-0.06285046496689883,-0.035874865925131436,0.022642720300433558,0.052465170222669215,0.0936394595364321,0.014452567180952508,-0.024688483969630942,0.016216162648300864,0.04516734017804042,-0.048802602902918386,0.007939441776146963,0.021925090166563205,-0.014986245751838418,-0.02758613070941921,-0.021762739001500837,-0.04160932400428673,0.0037107562910057607,-0.026115386774239992,0.026406001591059547,-0.004447636820378775,-0.03346934488120553,0.014432435030981832,0.03460212964671519,0.01930055541586707,-0.05592301491623986,-0.0049490907323687895,0.007624993823427365,-0.008804792910378959,0.003052958761751476,-0.050892196608223646,0.0390083150073554,0.06545876380079035,0.03263834156929217,-0.007512713847743918,-0.016066537663287854,0.043738040126270986,0.024330743123811432,0.0591424743207307,0.027753074153091122,0.04173237591564326,-0.038297368446803204,-0.05422164422313656,0.04733049603089035,-0.03729872133436055,0.04762906164382276,0.020087359741925683,-0.04101769789412833,0.03218223099427927,0.0030097564785746466,-0.004236486265785773,-0.0420448054079573,-0.006677016803352667,-0.00299531725302132,0.027865607981557527,0.015865071041719726,-0.06171886196267165,-0.05317833617119831,0.03340389902474662,0.05103209688348835,0.09359850821278405,0.06902337673171285,0.07368278925026586,-0.03615307797468734,0.016289220611240714,0.033204992291163596,-0.01407753151385455,0.05817013841542389,0.018196192581472658,0.04891528441858966,0.021619749726613343,0.021319593772920788,0.0369939384789677,-0.026786075424749846,-0.013102094122829673,0.021185318338705364,-0.027472816701519624,0.0239992660860149,0.05375237770099381,0.021607458822405372,-0.02257396724265805,-0.05046016184100088,-0.010590596885216005,-0.053259140116839465,-0.0205563422235535,-0.07086646053588204,0.005949669114339415,0.03803800249689644,0.08224159252778425,0.07117316233795501,0.013490447132583374,-0.015468012650958169,-0.028406131172990002,0.05438769948606305,-0.00907009284912971,-0.004939684110724834,0.005225201395079058,-0.011761101772388483,-0.046772569452159615,0.021649044872597036,-0.04568762745523242,0.0033392825703152085,0.0392948749626312,0.029527137787992538,0.040779540229600876,0.030348533575393622,-0.020446771667053058,-0.04823624823536271,0.028918859397683825,-0.035187611867181307,-0.032363666058157645,-0.050742886530980365,-0.017233731551104744,-0.06776483700031614,0.052228204492816614,0.0493927618190154,0.06531945084422945,0.005121393344197872,-0.0045950837710279175,-0.019028328346833167,0.03988318039572779,0.008817329860411232,0.022192041732310968,0.061747682653631335,0.048753805199426944,-0.029232300587199538,-0.020534501970427617,-0.01771623371765505,0.028702034135807877,-0.00016265665245283087,0.011615859840068448,-0.042726746975051105,-0.0246275400964962,-0.018195770180340784,0.017328125212042276,-0.03127580418795286,-0.02437757011245588,0.046568930066611725,-0.039154455667353316,-0.05703320984275647,0.0313503091974924,0.011879952394013332,-0.016877794687491652,0.021976536558797617,0.08670837721200324,0.0607617249851768,-0.0179303669067993,-0.010125850241573378,0.02174489950105239,0.008640767730832385,0.05598301640422755,0.03798965117422626,0.01971237025555834,-0.0367863841569061,0.04909999731562212,0.03747935578151003,-0.017577342999582666,-0.00518094428755937,-0.040199369129805484,0.05275865747702746,0.028572692108474733,0.0503319976350026,0.05236467363757582,-0.03278749458740255,0.009172625659541663,0.04515715940654798,0.025792312068102514,-0.05393994134901761,0.03588472071278658,0.038954304517595954,-0.020644584774746896,0.03282463039421049,-0.007020855420998218,-0.04362854697991094,0.01799506516628408,-0.04793610550105408,-0.010417332642799579,0.04937382374279156,0.06833755750217084,0.02710234918039784,-0.0520378223028504,-0.050287490047625436,0.02089676536476533,-0.005877534717522243,0.005560912084142023,0.04264427123688623,-0.0508248398747418,-0.0019346619435861483,0.04712563382741166,-0.029199347940018282,0.013562399689906185,-0.047676035234554756,0.024896442823151208,-0.02320292239796957,0.022811347978593532,0.009731874656001891,0.0450492037325071,0.019323496244777718,0.03839608454913108,0.03829074537069849,0.057446372959830655,0.0359011361454995,-0.04967602674148334,-0.03675454258706435,0.03682493130061292,0.002499075021808614,-0.009129540379509212,0.004401602404140673,0.05035037342137468,0.03075637198061674,-0.00774949108774503,0.04199555889861528,-0.025629524050686487,-0.03853340684650201,-0.04504756389558812,0.04195991085744747,0.020547725264236892,0.05470665550052464,0.02671361699920235,0.034772668290042365,-0.05753548236388986,-0.02450459845644081,-0.007024394060148108,0.033284270920460615,-0.037464597557448645,-0.03036561775894529,0.031844494266211866,0.020347513257101057,-0.009631914532453467,0.003971468955647363,-0.02609346917026236,0.0014552401890281824,0.04907459350543968,-0.028295492799611372,-0.016874734898362508,-0.04329599570475233,0.0089258495290655,-0.02500431570245167,0.006203863486480808,0.03415726627445928,0.046966867626824296,-0.017352291980348277,-0.03721941540618598,0.026494549320943465,0.023231695555838535,-0.0445127441782854,0.005680536885590716,-0.0043004651064724175,-0.07204298666933392,0.02590322413404306,0.011363997178873932,-0.04129516338735548,0.022585847223886853,-0.05951602582413432,-0.021834912123588547,0.04507615535780752,-0.01769774342080623,0.020304381193378733,0.01801731900523851,0.060923264668951344,0.016194371491413076,0.02571922383175845,0.0406100318553047,-0.0030514574890945266,-0.040141143387901736,0.0027702044869534273,-0.0021254497831689834,-0.009561044748294058,0.01341993301352461,-0.021528008007720055,-0.02654840927135864,-0.04065858982791137,-0.03950656563353964,0.00902924010758724,0.035434614416589384,-0.045057514937083286,-0.03957841345293035,0.0340665664187257,-0.07069029666170784,