{"file_name":"NewTrainedMNIST","learn_rate":0.2,"learn_rate_decay":0.0001,"input_size":784,"output_size":10,"cost_interface":"meansquare","layer_types":["DenseLayer","DenseLayer"],"layer_activations":["relu","sigmoid"],"layer_sizes":[[100],[10]],"layer_biases":[[0.12909661338845113,0.3573477004430463,0.32668065322043444,0.041355323467920625,0.17485123175843514,0.23083207513398613,0.1427980357314889,0.029296396302660805,0.11537501582987165,-0.10689810899023719,0.2113291720363499,0.2559448979847249,0.10961490401595574,0.11423662597795786,0.08083278058069344,0.0069286665061038385,0.06247994543465304,-0.049571668204545435,0.0010070319921166694,0.04418789719204316,-0.16706530416079302,0.35262026269047014,0.018294661307541784,0.15100717536636454,0.11864184846022743,-0.060798371694090775,0.084022984300592,-0.003533645221612166,-0.004058865509224298,0.03327046587811559,0.15338258615344125,-0.042237676381803375,0.14703192862466263,0.09929510938569791,-0.07499812622449263,0.21896625622226196,0.3094186879171546,0.3159976076883266,-0.09817490469647921,-0.15582311665763587,-0.012296098753350295,0.07217800645407298,-0.05409096027788194,-0.01378039856829281,0.4854612748464444,-0.07801024705676546,-0.0757919378262969,-0.13706988742301462,0.12667678586059192,0.045014873812578175,-0.018589670361559424,0.13660557940249735,-0.23902718463155442,0.20041902602221376,0.18860837715920065,-0.09871519612132411,-0.09398756342972794,-0.030750069333484023,0.012995198192077007,-0.05788590878277363,-0.06611727851715997,-0.029462063323914267,0.015920272414912857,0.017534823052505432,-0.00831635959036971,-0.31017624481578326,0.4409989264757937,0.03461320535462764,0.22328000154926514,0.07809590541169587,-0.21602612108996688,-0.20794217354250297,-0.3465607868107233,-0.02551428833364265,0.2625407500794181,-0.0014386045514735543,0.40506058740388806,-0.05067854124616168,-0.0005114701499301144,0.051493978148592995,0.006890328252231389,0.01560842525976489,0.1972655255228154,-0.1725556968675074,0.23894462748077228,-0.005090540347659075,0.08072102364181306,0.09642787936061008,0.3338072209028722,0.08194031062242849,0.26115640520376504,-0.14956845730615412,0.19726150578756205,0.08493378916208101,0.025129887169190786,0.11846780371730958,-0.11849381760767778,0.10863638837054426,0.08373584884279106,-0.030799102350626068],[-0.40362779052283027,-0.37265003121813045,-0.20581816349579776,-0.342858382501843,-0.07455858580379543,0.14247473389121718,-0.29814122530601345,-0.34310421887560494,-0.04097289462746381,-0.13887430632981856]],"layer_weights":[[0.07344803697506647,-0.039928925184493605,-0.009139826915704516,0.06761210656869202,0.029901392528469767,-0.041743892154442436,0.0834016334772737,0.00011849788459611377,0.0015889909726017198,-0.01744492667650091,0.07542236224971038,-0.029494489928651203,0.01523745645068763,-0.05943163141968273,-0.08377503271221697,0.004954731495083627,-0.035114088838874936,-0.0866640460569896,0.01946694928298491,-0.0032171427078091924,0.06643144816669139,0.05780043405791585,0.060770829988187364,-0.020802517841264495,0.002111106633986004,-0.0533049959767755,0.04672481151067209,0.05451883823679818,-0.036897883237492074,0.0820178668023856,0.06960115180909673,0.03102802594758769,-0.07836385247695,-0.04747929646388196,0.04038620034160824,-0.05837807161408166,0.031429680116112975,-0.006997206426148767,-0.04925872522022053,-0.03917695531955547,-0.03381845757283951,0.006447752192367796,-0.08307062756088872,-0.08481416372375813,-0.07176871563007321,0.03329126433612174,-0.06636694748835098,0.08359342650436359,0.03363545674171844,-0.04655604269942287,-0.018547082304279296,0.0749030214665412,-0.07729599744902568,0.05385730700591701,0.010367443116990907,0.08572045035460862,0.03179320358466038,0.04857728520047386,-0.0713683857436965,-0.07645574562034736,-0.057464589030349636,0.03789716591811437,-0.027053385693897744,-0.03313696001849785,0.08283007161950783,-0.058933003462546395,0.09255812443086552,0.0996820899964835,0.053870287056746374,-0.05110436859141852,0.05838050848002959,0.043484306553644346,-0.07545101435128267,0.0009088449333693586,0.02759912449823321,0.07105505519598788,0.04925455853640064,0.060214134178117544,-0.04643430726020046,0.03975851121724079,-0.0653162583698014,-0.02236721697490991,0.07730926164598989,0.012140751381336662,-0.05875626795608815,-0.0034322219280296384,-0.0647693529106031,0.07339125184721772,0.07655609674113541,-0.07280956234545576,-0.023679058132678246,0.07820401654187986,0.052672816733488836,-0.017186583527505617,-0.0581731353486698,0.12815796505118252,-0.03912128146507715,-0.00265673617359823,-0.06784915704791332,-0.1409391322776252,-0.020827644432262035,-0.01039482779325649,0.026259294554327045,0.0592914628747284,-0.08482481729205481,-0.05208566759977307,0.08744810359343738,-0.050642148187478135,0.03810559968275153,0.03335109135543113,-0.011557929149796906,-0.03533585523490697,-0.004557391458347201,-0.04799772940333336,-0.00799560967241237,-0.009640655929866382,0.006352652127790854,0.07028034769201297,0.019828183567627795,-0.04975912870191824,0.053838815692588214,0.10486673863450531,-0.00613198517956161,-0.005040147125871032,0.04817221916746755,-0.003769764815341477,0.08526306576874101,-0.08421810548663815,-0.03116243246498515,-0.051484791469760496,-0.06156239300422101,-0.04370775322713337,0.03452161984923961,-0.0344785154555471,0.0600037653087197,0.08399929395381188,-0.04862203437757159,-0.07630124930109429,0.07412524523869424,-0.03035227895390057,-0.011495503123084144,0.07973990161748346,0.0645853460450673,-0.01801324349145339,0.06655094685723435,0.1066340817074267,0.07289626697107743,0.02343064502754772,0.09511833775442538,0.11112327594886608,0.0396870115404935,-0.007280649185084153,0.0634469638904546,-0.04351506521108918,-0.061664518524508764,-0.05022089097688391,-0.005429843459364592,0.045700387039189064,0.013770996710072694,-0.15397670061540963,-0.15448986688296087,-0.07061802777033015,-0.059321778387517586,0.0113428326319805,-0.04847062415829565,0.053995101251022755,0.028035502424753958,-0.0537649749646076,0.0057547745149179735,0.06665677029745282,-0.036746600977101807,-0.007778287985410277,-0.016440874136124075,0.0520260050621388,-0.02521023101267366,0.07644623376822676,0.022064889870625,0.09935424342532864,-0.034916610477820735,0.05870507472933229,0.0656155497563236,0.022737989704674444,-0.05832674722543056,0.008101969768253822,0.16067922911524601,0.15337764118673153,0.07535304299123904,0.0327025858712141,-0.08498492572149961,-0.09899304532662452,-0.09434309690574844,-0.024586560545612757,0.053124844152916274,0.004280235239999482,0.05412366134678686,0.06506780417217087,-0.08341254534586066,-0.027000286480851166,-0.02703747422052199,0.03790753592554055,0.01098147903970515,0.04715076406086242,0.1254925394286427,0.08718310165749103,0.033116027176461074,0.02078866738815078,0.009674914791165537,0.04607912629483015,0.03249718458599412,0.08536884820479376,-0.01799158649373947,-0.0728145495038212,-0.005360159434722849,0.01189290573649824,0.007023383462570601,0.02546386836968099,0.002318387771871262,-0.02142687532133247,-0.0712503188103824,-0.18136919476673813,-0.037476378993546264,-0.019464884284952123,-0.0035064226247383985,-0.032652925213396494,-0.05071217882166919,-0.022854598657638763,0.06304024474610734,-0.030552578406394186,0.04430951202991014,0.19278992911564613,0.20359140801453568,0.02130226365341221,-0.029662718611810943,0.01801430080494744,0.05191740804437912,0.1441538017949714,-0.028971083434219173,-0.07677771533906613,-0.12064960194189628,-0.03263528970017194,-0.060351989175934595,-0.11663063073748192,0.01299597700060564,-0.08177282535435039,0.04346572971569999,-0.14591207219532198,-0.017954585986342104,-0.0070744095246311435,-0.09473329933994638,0.04565262038748515,-0.03900765933605252,0.05837321889393634,-0.03294380810108685,0.05864517172521128,-0.03244824112588672,0.07664028562480671,0.04340731210716313,0.16556759255885917,0.025992458137420637,-0.056374003145363276,0.01784849023211997,-0.10413133154868252,0.03727066969930011,-0.019470231903724176,-0.07653478953678598,-0.24620090430238623,-0.15989777669807187,-0.09596897658897732,-0.05568459478936646,0.10345310146366124,-0.08500566500604177,-0.04302383077223678,-0.034691302033832944,0.017761018838883633,-0.08369988133040474,0.0229434097961563,-0.0936997893193539,-0.09469566907035383,-0.005788634778519122,0.06631120233654618,0.06103453411369597,-0.04927685558654445,-0.07353170251637926,0.00802802771564981,0.04559003426432554,0.11689298834818115,0.09903245257241276,-0.12317091713595485,-0.1010715037438718,-0.0003867550798010581,0.04031719707833824,-0.05740660463817128,-0.13580279351879437,-0.0454374870682888,-0.06665930864978364,-0.18848643474961382,0.06736902811681142,0.14817416652590099,0.11166524542166212,0.022254036634851506,-0.011085891074820909,-0.012619187799929477,0.04098690544359752,-0.039960517292685856,0.011621852320724272,-0.048898903751776815,-0.015668577293752164,-0.010733000875162444,-0.007086215858509238,-0.06180793943533006,0.08857177637413413,0.08265945544458808,0.09413374715719745,0.07416010588736281,-0.046640536282611736,-0.02507170011652698,-0.13928900583210252,0.05300991648610439,0.09016562947017899,-0.002155183414560565,-0.1023844319415572,0.011528878918462177,-0.09824804071274884,-0.06664774526414612,0.025387498252636354,-0.03940191933130954,-0.03979639185564509,0.16067164102515358,0.10775377384206691,0.0649362742236747,0.08486815520639902,0.01233649693269689,-0.07657770083844616,0.02642493499527197,-0.08716844341955818,0.07952185426628616,-0.021570398202575104,-0.061575888795845794,-0.013243242391951382,0.010577299341253933,0.091313487472394,-0.03328650538012712,-0.061826574351421915,0.05967805032731859,-0.041606901337500696,-0.14652631506593966,-0.08577008638996643,0.028671044478491763,-0.143663121417126,-0.20317187640533263,-0.02653735453335363,-0.08949206722138917,-0.04092975577168365,0.06551851220561362,0.052795918569437085,0.1590505391778868,0.07047247784295985,-0.0036260109928127823,0.07306862105321413,-0.01988424314202625,0.019580582151395486,0.07156352622062559,0.07594495156422756,-0.04553818793255217,0.013906599358872151,-0.05410422240623686,0.027819585415729004,0.052456907166213235,0.008123683114077303,0.1167841385445858,0.015097495920001898,0.14997557357215352,-0.011470514125049857,-0.10878432471165261,0.01144218018559464,-0.08701448016492402,-0.24415877864278826,-0.10026730109513335,-0.10859449592865936,-0.0009217435140676072,0.09016140540854091,-0.05009775175959953,0.015281029179609567,0.19794239693138155,0.08414305135281097,0.009007918380087009,-0.0428143872951363,-0.0008553582845337485,0.09103673048847277,0.023872099043851947,-0.05768564116806556,-0.01659214484255246,0.008919761146508005,-0.07848157540582112,-0.002122192571673391,0.007446165396377094,-0.05495970959584783,-0.018147745156636554,0.08927256244615615,0.1275484597408506,0.11775014614489052,0.029144668407518726,-0.048809722133900085,-0.05706762276688196,-0.07615547951722694,-0.05241140106185618,0.06102198318297975,0.08216351169498387,0.10393339482497305,0.10447898579677282,0.23552882799002062,0.28188271666328785,0.07860187483198462,0.053894639197255415,0.0002953059148159941,0.03739535405547292,0.07483209177743892,0.043519003543409006,0.03324594118768916,-0.0421830714236319,-0.019614238812210853,-0.08255525350131625,0.037447985923950704,0.037188867683164754,-0.10700247434278186,0.06932374770803583,0.0978811319598935,0.09006862172096959,0.02055041659654255,-0.08438435431957915,-0.0700915960877874,-0.059808161321626266,-0.07694922584086636,-0.009482786482163707,0.06905433885133547,0.17678663432904876,0.16983240231658883,0.11597678000754151,0.2781116534139534,0.189226435690986,0.06899469899452061,-0.025937049624880096,0.010863952550943273,0.01179275513333818,-0.04023815030881764,-0.062173540862515815,-0.002470368521377917,-0.06460722853660404,0.02873095766765494,-0.04315247620119135,0.03823699861192867,-0.0041189885739529785,0.0402165760993244,-0.027861538844627585,0.23698568327600095,0.13850409159486474,-0.007472187374661256,-0.16705450274313377,-0.1275452667404989,-0.14455109571193175,-0.027599989634204056,0.11028419194680032,0.09582613957282392,0.2272837392043426,0.27323545193826004,0.22362906147653408,0.05641349468445953,0.20371524849435105,-0.024019861480905777,0.10893048013828256,-0.012054374912606072,0.005770081249652008,0.1024908193251046,-0.03161109809656038,0.02362387490297093,-0.07458806963112674,0.08122310831429594,0.030273232348608913,-0.039097658373108926,0.03594495325031348,-0.07031817085528767,-0.07123421303133709,0.13995898205127155,0.026635652830576766,0.014103812324526196,-0.07401354470990482,-0.18655528654265435,-0.11519206472746255,0.09334862715417243,0.16255119734601792,0.05908768534078913,0.10547651797351429,0.15407523364509268,0.11908753008685968,0.16674809005246724,0.07329363079985098,-0.09396361142458291,0.03240741990389652,0.05794469992820508,-0.03745612459308116,-0.026392402326451302,0.11297563287590065,-0.08193658537688309,0.07794258717697394,0.012258372987332717,0.028345708423105347,-0.0035332271226813368,0.0038449259610668133,0.006953896663868202,0.02764204392408705,-0.08181411592544943,0.09590479346564619,-0.008909785440316334,-0.18806190202466944,-0.17249510486761285,-0.0014840553929899847,0.16161064872473305,0.16579269540312092,0.12008315724868078,0.07397752965603412,0.05159910114911677,0.12936827045480026,-0.019643656282480177,0.008355444917866892,0.02988637365925249,-0.05541672973002298,-0.08438911100514229,-0.045626029447358545,-0.008332660682333917,0.09928441589534331,-0.007047637157499411,-0.007964999927407564,-0.06420929135921849,0.0816978331338304,-0.022537898982094948,0.04188559353940257,0.01027286174657198,0.02256724074427753,-0.03830931919085436,0.044016456356015504,-0.00005626146404964921,0.036080263358383984,-0.11760162426555673,0.1322239979854967,0.09043437932169314,0.09749794260474463,0.08390835134467346,0.02112768895365735,-0.08985217284341598,0.056511997481030106,-0.03277445371939484,-0.056766284472099846,-0.09467028978728534,-0.12923675429632517,0.0454125370165251,-0.01509030582927673,-0.04069466972869248,-0.058517591300000504,0.05148292407078325,0.03503837982069808,-0.06559755938438971,0.07634401334521668,-0.06606345742719764,0.056182046636305834,-0.05623708710480506,-0.0819917051942732,-0.08855677079771856,-0.12760635634299788,-0.05232258472020932,-0.1029417515864766,-0.03318169371756615,-0.005418070393553326,0.08052979134748108,0.0006328362778229081,-0.06018253158157546,0.08747799338801171,0.06006325265818297,-0.13842436148016352,-0.07897898828543375,-0.2575867398397057,-0.05976033784910591,-0.011614543468608272,-0.09513686167354371,-0.04153641997040306,0.10891039323841059,-0.01494120256541896,0.016051481392724942,-0.08487496720812163,0.068493710567911,0.05563375411787986,-0.054364443912130196,0.0679136509997841,-0.02570086643667107,0.07450243577013992,-0.07265713293653014,-0.13347914714903247,-0.12188898046249758,0.003373350472352545,0.03626209237536687,0.06307600846467017,0.003985688928767002,-0.07627067444934484,-0.03753511659435199,-0.04581420411369461,-0.025995358640075163,-0.14363847765649287,-0.10858756449884166,-0.047408462343874413,-0.11008239467719062,0.031751951478289575,-0.10308777924274065,-0.06783753467042572,0.07562719091659047,0.08983986885181809,0.04139754383188416,0.04902053796911099,-0.042659076385595567,-0.06323918496671768,-0.012720260714481868,0.08055312110552812,-0.04598224049749026,-0.0642372368169845,-0.0110236642330688,-0.09180910674609932,-0.07880733333682505,0.023331898160277195,0.022997981356515367,0.07443444184147739,0.05838889318379398,0.02527915204963078,-0.1236088750724036,-0.1926494322634719,-0.06629193937283606,-0.19903628540327592,-0.09807795418840867,-0.13507353516841894,-0.10817830760499948,-0.015870584809025992,0.04589327370277525,0.011141540449852903,-0.04562381635389844,0.0025291866079765837,-0.06324778956392745,0.06200527751434511,-0.0257990169899212,-0.03466285787077227,-0.02239911211543378,-0.08818910991394122,0.04623734722205229,-0.05760552176622296,0.014122983571908372,-0.020758261288121617,0.03330137352343676,0.06704801470966841,0.01923780381579782,0.007689835732459091,0.012737560399159393,-0.11981191628012705,-0.1534383727306983,-0.08721886284475128,-0.06954879413137359,-0.1411157672890333,-0.07348307089197002,0.019648167275869946,-0.04387381652628999,0.0894806835877167,-0.03620310470548548,0.029777558940361205,-0.03369159919937896,0.024758740524154013,-0.012277454232423124,-0.021364676214749065,0.07372695848140667,0.032937609059197986,0.06072259020582097,-0.10570853172751696,-0.05886574545554916,0.08058467273726069,-0.034749576909828835,-0.09639116882282556,0.045092926460796885,0.0015868270686135132,0.024024494753568264,-0.019033067941459925,-0.04867995545780803,0.03119343455768962,0.008002106980411263,0.04576278892597334,0.028507832048221396,0.011485757467012055,-0.10919998419211832,0.0664308915700156,0.07877376691733509,0.04778776663470937,-0.07662473624616903,0.02608007482002047,0.033771613149237975,-0.014754429407807813,0.037668232654106376,-0.03577593635807994,-0.060544255282656195,-0.005593653232999554,-0.07455311850577007,0.025971169510182506,0.08393601040313867,0.011441364311435394,0.01367186712476671,0.08384728225708564,0.03243628830042831,0.0017728183246787275,0.09626014896004874,0.1496099005273637,0.020049933511345652,-0.026256173405274825,0.0366451874072269,0.04399580634742975,-0.008883955584900096,0.050505748380362474,-0.048996165746755506,0.014807968154234588,-0.04084472142683286,-0.04363388337423963,0.04186279436313613,-0.03600665395746041,-0.06066054092423888,-0.03838754254754382,-0.026839683459638383,0.014437068628338032,0.04018225067921405,0.07811619912429849,-0.043072282766993396,0.027974593530435427,0.07674558533540012,0.02347148285720262,-0.059689235114119166,0.010550776226171812,-0.04752094683120644,0.010094166803516475,0.06988988061653849,0.08314993524705609,0.08241340333947028,-0.02693236212200537,0.06003990930980574,0.07500365199499062,0.03088465360547401,0.041570427942730276,-0.00393243660521712,-0.08525622353671769,-0.08758222171750445,0.050468104632559,-0.06811384912588062,-0.06464736760401682,0.018804623137607848,0.025884513549026,-0.020051315023437197,-0.07027000600582925,-0.08547451164159228,-0.05496741518442645,-0.0744939456888565,0.07302166458411172,0.03396984143089131,-0.08104083523825141,0.05909478818016667,-0.025240029781753697,0.02624233780466287,0.029485442536865587,-0.031344899958290214,0.01702103424423982,-0.031628265949597334,0.015036492860402935,-0.048134680375354774,-0.07873548596829098,0.07665828646963659,0.06074238523390587,-0.062339140140782234,0.018993018118377145,0.06850728682080846,0.06432931967494218,-0.06780731217699824,0.02653148352951188,0.07661145726282645,0.026245768180520504,0.08208677346213178,-0.056855850457775865,-0.008167977529994097,-0.06809954589569148,-0.06323888442605766,0.06349580368781113,-0.03125086915882837,0.05959232876956455,-0.00713566652108491,-0.0415654264124217,-0.014372343447851516,0.04603002946843693,-0.054799290001064,-0.027980232162615783,0.02853869006300114,-0.03038361091570564,-0.049547330356261875,-0.06709200193793861,0.005705783636349368,0.07374490918747503,0.03084567429410727,-0.006947736022167,0.05160235356214335,-0.016462459782490585,0.016552030491900946,0.01321471014058384,-0.03238300487156194,-0.00744935149946882,0.02872592346525224,-0.05334878405577306,0.019347928055469282,-0.051071453436016136,-0.003052600062024985,0.0408476365990634,0.038566047398856385,-0.05134816508507754,0.05716555789060158,-0.039478692241105943,0.06438416760112761,0.050053483931945045,0.025953150638216183,-0.06665302609051847,-0.0668045639366526,-0.052402286592982426,-0.040250629608494355,-0.042137168838302326,0.006684019751956828,0.022943611845064143,-0.023269227941971973,0.08510647585319077,-0.0745888798284074,0.08222128705242544,-0.04538243697860985,-0.013608149025333745,0.04243289192431804,-0.06543064460555409,0.07417544938062287,-0.017279236164737338,0.03483267310150254,-0.0002806005365112163,0.06102232016210557,0.038299794206971535,0.006702575941618253,0.07137345724970628,-0.04659071461362056,-0.019536543823312092,0.05723519884498243,0.04864367528208898,0.06345911943557664,0.04402578262464297,-0.04038720357531513,0.047785534219819945,0.07956506536742819,-0.01844050816792649,-0.09860346600041439,-0.026405559292260825,-0.03265553172748904,0.059994269111277615,0.05342675445682348,-0.053046507418700074,0.04775216518885523,-0.0045711428360776995,0.010322258483283176,-0.0076313349196961535,-0.02904837308573855,0.027477440198483347,0.021717935103076944,-0.046587189553807036,0.06308093151583506,-0.0368497132006547,0.029445130819779168,-0.03609750365562657,0.014972814162606509,0.016177844428725788,0.02417827182228087,-0.0042854677562365615,0.03929540965662949,0.06411615536437354,0.008777526733102873,-0.00562700549809644,0.027181246297732782,-0.03482940074472164,-0.06696433432834815,-0.10567339490117822,-0.006008692285469464,-0.030601635220191308,0.03495577351664543,-0.015105573638322718,0.045313920115767306,0.0731607596120701,0.019888636902736404,0.08062448954774687,-0.007537693095838565,-0.06779281936175197,0.05693354143616933,0.03683614916962213,-0.06514941698884334,-0.05511177464232432,-0.015739735813637478,-0.027815124783214483,0.07270056958541203,-0.05269832704806018,-0.11130925054460503,0.03922149911180675,0.13987356150177938,0.04552476350786837,0.13445644771505388,-0.0024789745666941114,0.10948079370443205,0.005549413277771808,-0.014682330200502452,-0.0006168107563427991,-0.028045574259946235,-0.039917223510543866,0.05450570384221894,-0.02186969899794379,-0.05576549541420225,-0.02102582593868869,0.07107724233745218,-0.03768084172078144,-0.0770811371033224,0.05174493139159134,-0.06817803063462283,-0.010340203552754779,0.025563598602136563,-0.008258972418339987,0.05098336417770088,-0.07484069179729885,-0.09420437994998787,0.03630129373717614,0.04467777759979147,0.053794139289784465,0.08665785523618778,0.07576463602494636,0.08575910978962036,-0.059234533344950935,0.03749624055144709,-0.024403352327495964,0.027712475579456594,0.0021005633381067485,-0.0684021578054076,-0.049979008359926254,-0.027344298029033383,-0.036738184832284165,-0.0435556869402881,0.06768765700362886,-0.03385066833514819,0.025043172682524806,0.040025131480809724,-0.03113845759696253,-0.07865675378179433,-0.08456073124882738,0.008771332192070507,0.060069703737222736,-0.002689157312736269,-0.06490933690516755,-0.03668452924112045,-0.01385579704514675,0.008703836760820276,0.014939822882406311,0.017109014196378433,-0.04706417091666361,0.07230825362383124,-0.09919641300157053,0.02739665310276591,-0.021664535836164348,0.03743444303919581,-0.012874426292393947,-0.08335171358386151,-0.12885170686009761,-0.09355181175646927,-0.031079844011361706,-0.06259950727944033,0.06386769157526193,0.027172487084183322,-0.062291291599089776,-0.013833886614007291,-0.009947315653150641,-0.08174342679249429,0.015227705492124691,0.0718599678890878,-0.08336015957557512,-0.08797205944053299,-0.1015021811768163,-0.007968962928154967,0.03521464823040436,0.11230787963024189,0.033237252302006054,-0.08437309632579033,-0.03632299920108015,-0.20036537144617503,-0.18912258293658044,-0.1332422129086852,-0.12144996063392778,0.0681349138557305,-0.053858246343449684,-0.09132678449868532,-0.11637067999642783,-0.12029056261568866,-0.12276313451320103,0.023099317901406107,-0.004946986667214387,0.06430689358346117,0.015330985622528376,0.01816143641398649,0.07099141573336475,-0.007545109570284833,-0.001942282299085762,0.031719712015127105,-0.10866736203185853,-0.09528777409468885,0.04134991523950131,0.06983199350395398,0.065792433470392,0.02672857613365452,0.0997529351237583,0.000059506225985184134,-0.019684724457133557,-0.1007217358850523,-0.15664117361510985,-0.15254619277066808,-0.0892075935821551,0.059125752251925144,-0.038157024995542584,-0.06594560180210203,-0.054573643335784766,-0.1055403005557332,-0.009203377751891556,0.06447534505416117,-0.0092176018381231,0.09406547961098749,0.01585342080836354,0.08004350230595007,-0.03749774439440351,0.0055837570425620875,-0.07236462436509328,-0.06584737989337776,-0.012122848001295733,-0.022411259387249124,-0.04534264341992015,-0.0046924468157426924,0.0924027006848623,-0.05262582137684776,0.04206708994141467,0.027982027890938378,-0.10405663104665647,-0.10170049214001814,-0.2538699372855455,-0.1035080391289236,0.04303555105574404,0.08689571143765899,-0.012651577271389634,-0.032621880467642916,0.0368018294103259,0.055137465996660945,0.024257126286328624,0.03305901141214718,-0.04191591749977372,-0.023565953538550944,-0.005854154402362132,0.03587961230558953,-0.051309666038789205,-0.006918417476179744,0.01629602922493357,-0.013060858625141426,-0.12997855592853344,-0.11459433762962155,-0.0007924470517771187,-0.0055980937196785175,0.11737064997373524,0.04010980702544975,0.05438148395221954,-0.07269978931793876,0.04404292722646792,-0.09461700352495829,-0.16867733116686728,-0.14299469184143812,0.14089744435934765,0.053279460657635676,-0.04642800943846728,-0.11814618489208269,-0.006035989575467471,0.08213993914125702,-0.026816585566965073,-0.08962253851168618,0.006719903017086239,0.07968732340197697,0.024673024140843984,0.06797163897873872,0.024286579052491805,-0.04699622596463971,-0.01691026474167597,-0.031598837371856925,-0.05766769026601729,-0.035049807122561547,-0.0451676242873018,0.017965341994643617,0.05938947109490787,-0.015286067216482043,0.0414912293449004,0.08949874055328835,0.042346620157409316,0.019331450576930725,-0.03831353490150086,-0.07359718773013786,-0.014411998916268317,-0.04044521652929726,-0.1858446225683563,-0.2453266751649804,-0.06509760224693224,-0.15593153558396408,-0.024548474875379898,-0.06766925354755304,-0.0052039344007815515,-0.025240669484610474,0.01960556441920507,0.0679054125517739,0.05998598325348364,0.028007633112551167,-0.007522633261209436,0.019833184263255522,-0.05725617638973224,-0.005762911857802378,-0.010134651798816065,0.0007479662548546104,0.03665648744267153,0.011568304714128447,-0.036968703724980345,0.1634538554653945,-0.06049216274346202,-0.06882785971667817,0.02591187102732609,-0.054758570229567705,0.13575192858116167,-0.011794893296188193,-0.16961175671039608,-0.09638908299742815,-0.043893892915607864,0.011220392379794133,-0.09456775557184294,-0.09783284970621851,-0.015564141257888707,-0.04165043107020298,-0.07218858575517817,-0.06202884839000117,0.05261243436901772,-0.02657529624185112,0.06356887840048484,-0.05775795684623644,0.04890230880070491,-0.11755549082913606,0.06209904037812922,0.09421197038369998,0.07499772479537185,0.02043564618107101,0.10076984245074441,0.11123980083509767,0.02085721383187823,0.06907526797585302,0.1424738517984262,0.04453231548899735,0.1088471779284866,-0.06565983910294199,-0.019420101840888517,0.06018564521382121,0.03314215590064267,-0.05628503507897828,0.07740654166448332,-0.0041707980846278645,-0.04771711296922953,0.04275044137763252,-0.02113210995843078,-0.0014007172163468288,-0.040632915397050606,-0.049023942901453295,-0.0043572327927119065,0.04899964514742754,0.006066484518763606,0.00103166449766591,0.053037784112973406,0.04964565297291838,0.0405998048870532,0.07485414585147267,-0.06129144957529364,0.024470385547197104,0.11126628353950765,0.14308113169158518,0.10312351526858593,0.09594881280854589,0.040124072494476276,0.06570141375264164,-0.04853616204627567,-0.05686089337529576,0.05786445179976039,-0.01741432685883762,-0.06249895054498319,-0.03633189896186816,0.05915313971927447,-0.033282199650240644,0.024221216753529992,0.02942579273186705,-0.06638544019159197,0.01770585840421039,-0.053388827718066995,0.03347745585196906,0.06140752330838438,-0.021696278107128035,0.02022921963694455,-0.053411188741051684,-0.025779856173092818,0.046839081465439615,0.18129065694005436,0.005575767287550612,0.06797463052114677,0.11274912063332636,0.1379194970030877,0.08004647613154925,0.13368531816949697,0.04600755108851498,0.0011120359659649872,0.04729612972627288,0.08829191972623558,-0.07163725391269785,-0.06005182331478585,0.027547723813102176,-0.001995521270437963,-0.09109205192161206,-0.029175684633339565,-0.025655012143038135,0.03811896744245216,-0.028451556719897013,0.046554640119139845,-0.09004013533684799,-0.03131698967623128,-0.06759198155104833,-0.06306103021939977,0.02301536352099009,-0.10542168098802267,0.0032834210248929366,-0.010584172494883358,0.09117435972333368,-0.023792352199297297,0.08422973729621663,0.0389934493163441,-0.026401841007613037,0.12278193068572785,0.07574488367919535,0.15407704399032546,0.10260824234010489,0.05628282714173816,-0.03719165704017383,-0.02861972911779328,0.027173712701146633,0.06824087130726621,-0.010227587691616255,0.0937368524148872,-0.018824877056739305,-0.035733986485346016,0.03470609727374284,-0.05510840777126695,0.04117417562156707,-0.06308775078936141,0.01645427738325317,0.0026475730627632836,0.07821576734605819,-0.037085357718847446,0.14171046231069206,0.03007899787365244,-0.07326241290306808,0.02263798752491704,0.01902411759544901,0.09630632237978055,-0.03388206348369831,0.005983534039848029,0.00779928899193602,-0.014568789442517983,0.10804905500636335,0.02273004261875893,0.04654744165883713,-0.04837482131581355,-0.002781005530083817,-0.07985021209183424,0.09157601900321025,0.02438028945343094,0.09024821340311394,-0.024326047781501207,-0.0006027655001574392,-0.009620222619518812,-0.06321131767312677,-0.07378020645796574,0.03742195283688715,-0.019206196588299345,0.07314764550688622,0.09297267523792592,0.12232896234657736,0.07973234350936684,-0.09138162544447792,-0.0037013355798923868,0.14449217256924768,0.032461859589860184,-0.08270292974828569,-0.09443355519863475,0.03694522606627356,0.008851956635341334,0.08598721190457546,-0.024081317813006212,0.06577744225667607,-0.003811196034170231,-0.0023562406252103873,-0.017196503327661775,0.007332902107051258,-0.04555780991517194,-0.0408431458473316,-0.06586557231087667,-0.020186872948659874,-0.08409896307029638,0.008580421091223533,-0.08876014944325325,0.0007876436344942452,-0.018543334435890044,0.08466538917930058,0.05317472140227801,-0.07995966568781432,0.09092658014481532,-0.052636780397208774,-0.016162507978372286,0.08266533344751922,-0.02412977524809616,0.019698671147757446,0.11053404815003652,0.06367441398116906,0.042972904110105854,0.1481309747173493,-0.04566171839320743,-0.02419547348608412,0.08755084572366689,0.006310305042311822,0.04202118061999992,0.06664852729956476,-0.039580175221470226,0.07306605394800773,-0.05081133238094726,-0.05938746459455807,0.0074537235082026004,0.006983433094952777,-0.04221799541064566,-0.08769156489862437,0.07309047122655996,-0.08995043580856225,0.033794505891809816,-0.044312825188895705,-0.11812012175066029,0.049225918935135955,0.10606532273190188,0.04620388450436206,0.10780467476083685,-0.043188566467839674,0.11349039009819674,-0.05870413990571325,-0.024601294835186607,0.07015930296246037,0.032779702307638256,0.03936783069230272,0.003820923040560934,0.044084701488287636,0.009279267926395714,0.005443545064515203,-0.0198528996074185,0.024905806422529576,-0.05799554782541402,-0.021186027443357697,0.02720809260832394,0.02823324531008444,0.0605311517414487,0.0850153406700124,0.035838893739048236,0.04382450367139751,0.06924139594347244,-0.06728067152446826,-0.02488087432751441,-0.09123836334032723,0.061598288126814185,0.026302778276540897,-0.0016370921748290756,0.17602755596264533,-0.052364154339453836,-0.11365150928895068,0.03765610582450983,-0.0020834993545197755,-0.1050250514783304,0.10268812818000271,0.1493951182474945,0.06475811178832962,0.16295261613435164,-0.034661366759918454,-0.024140353884993186,0.07822855859767333,0.07139875732595947,-0.051292121463237174,-0.01030119470096728,-0.013106995159679651,0.0140517420208976,-0.013952013885525272,-0.0000010864622160268694,-0.09551502404511172,0.007632777970891294,-0.009360822246605534,0.017050484084630002,-0.03782037440127092,0.008824376454235438,0.06478188644215996,-0.08337833453868913,-0.022495573771509347,-0.10066539822770361,-0.08807874637199269,0.09422863025890592,-0.05897746641244203,0.05250357654764901,-0.041478513766841724,0.16709624099945206,0.06539439122989642,0.09470038091803519,-0.041575324693775305,-0.06910608689015708,-0.06779023383102131,0.059172541583330976,0.015570329148844056,0.03564637212535568,0.044382803371838406,-0.09518246941314892,-0.008183138901388417,-0.12232885528931452,-0.1105013069432356,-0.16814849911384977,-0.07754601390549168,-0.13261640813652587,-0.1449211541406832,-0.11532502768003362,-0.08065793584660172,-0.1416080075931411,-0.04622111443170402,-0.09507725073676149,-0.04192789138518846,-0.08632080426827604,0.0044645906476599604,-0.06219855438729445,0.08583701133234813,0.013189786749437965,-0.010151050748626399,-0.014112562145194544,0.015371563308273132,0.0521915689049815,0.0754014702634268,0.014310135316631653,-0.0121936450239669,0.016025749240690876,0.033607974375335865,0.04604457839155751,-0.008326253800044127,-0.045263726057936195,-0.046767607467716,-0.12083780670025501,-0.12871516613964185,-0.048360344905872585,-0.16213790822310276,-0.14292522179127987,-0.10432574126030615,-0.0897845502566515,0.04137761645970216,0.07269497807841542,-0.02664332992011182,-0.020135496341711835,-0.10650089192111785,-0.0779527881267824,-0.07257846923636356,-0.005978438122808029,-0.00017393113505039478,-0.03769237563933111,-0.062213042775956864,0.0765445034945951,-0.058022087477290214,-0.0822742943918616,0.05460737933762602,-0.0716295015939069,0.03733159347033455,0.08536057783312752,-0.03786817266203941,-0.061315364687889846,0.003587311008219592,-0.0752590179291986,-0.13880015685045513,-0.04453788175754426,-0.08807854185156683,-0.0873680855970908,-0.1165621789365379,-0.15751408125703073,-0.07718897574133562,-0.004815337532004949,-0.051090028426518934,-0.05915717018661347,-0.15695968454436532,-0.18638613610594928,-0.08930776643749413,-0.04833548565051582,0.07099467707764175,-0.0010622941533721488,0.019183373669894338,-0.07990953337552106,-0.01090106004827806,0.03721723828547545,0.07120273907700517,0.024572916869151,-0.025185837018647524,-0.00802463075010413,0.07132395265063339,0.012637690524792208,0.05294646091461928,-0.04277977659930426,-0.09056917422679815,-0.08186702579403449,-0.07917002493808922,0.0243295811116983,0.02380213119091133,0.021174781828479046,-0.0491229525236463,-0.059145531562752214,-0.13013022074752353,-0.06474152553386874,-0.05935369631967696,-0.06677193913669859,-0.004617826057280045,-0.05636748751301503,0.020601026033212646,0.018751562448152195,-0.049985241459827974,-0.02671549496009681,0.010247820646346148,-0.016879687785341213,0.003903270816461482,-0.07259243088110923,0.024320450519055,0.0014054291636720895,0.07969966673474282,0.027427160031467078,-0.07142850687429464,-0.047998976841646834,-0.025658288945691533,0.027377023277302664,-0.08793144981058579,-0.03719145731027336,0.026417530568903648,0.039830878399733864,-0.07375868905279284,0.050473649997820134,0.01763956007351098,0.012638250232316788,0.02496998210822018,0.0772959365785202,-0.024543955134348098,-0.08275714201418219,-0.020782715319189588,0.054300301561510673,-0.04051544885299079,0.07238530363744755,0.03229778643277545,-0.08450920173151778,-0.034920921017187675,0.024147059931048043,0.0826811354163034,0.08347469700038815,-0.0702720299866523,-0.05856946826781807,0.03433116461328595,-0.0760554124265847,-0.04669195981983749,-0.058693720098394145,0.04562340756842642,-0.08391639934501173,0.04338326451140364,-0.07382186364651554,-0.01644792105677071,-0.030660032847940565,-0.056637188852310186,0.00016158144285025045,0.017114047035890187,-0.04734333203215882,0.030801031975579027,-0.03291658628624721,-0.04399528245440619,0.07452114229938309,-0.05170930166076111,-0.07758537154640296,-0.08276870792693398,-0.009688386432917445,0.016684248394518153,-0.027994644533428967,0.010836277791789223,0.031154606124276216,0.025748076123556483,-0.06277241615935807,0.035880889127003705,0.006560214731313374,-0.05694096851091331,-0.08322670047418923,-0.014804021639521691,-0.004185419040897941,-0.00038678343684795237,0.03292683561438649,-0.049994476180227516,-0.07934173359404743,0.05536524046121952,-0.05018273200228472,-0.06038112327077977,-0.03724958836226666,0.02862378158148119,0.05844222984613932,0.021807712834282986,0.08075635690138401,-0.03298132082213553,0.04232039594908768,0.05838410182317624,0.0725696972459122,-0.02849116140993651,0.06457445815166288,-0.0778574792374839,0.02646841992427929,0.056329721886224315,0.025474207521233434,-0.08488104845919807,0.042465850109060246,0.06164878407294117,-0.06348747803815523,0.0839359217870365,0.030791268087519363,-0.0376481145867428,-0.06072125318295425,-0.07973862710698308,-0.10280653148328861,-0.0403181956693883,-0.016193866896062406,0.052311007144466556,-0.05996627321574651,-0.04670798924570147,-0.0024749137642004902,-0.03840810393298415,0.0013652194632417962,-0.05615406494879331,-0.027138473039673938,0.021229069243545687,-0.08135238060890523,0.0286886937083098,-0.08062581864980473,0.011388408151037624,-0.07594690769651956,-0.019646888118239548,0.06144204528142742,-0.011268989171863409,-0.005756127773864053,-0.01710404058027167,0.057529413188703374,0.08115477084654858,-0.08501742055605715,-0.06925293033606895,-0.09817503767342088,-0.03592179216096118,-0.04503748956798797,-0.06602774881823292,0.0877466712939815,0.05726347940526785,0.016653388707900483,0.01602919486288728,0.04912408227002689,-0.0018725988515420158,-0.012928863531483616,0.05625838567082692,-0.013229856057798386,-0.02849947627626502,0.05190100717114615,-0.019814161806339534,-0.05108585559849304,0.06579997193508688,0.040845363971444976,-0.056415644203168885,0.06372736682922536,0.023546856466480557,-0.039947812870788864,-0.05383630055653192,-0.007603745934538341,0.002246109309571618,-0.10986137257551214,-0.03604797294603757,-0.19079021666749157,-0.16824206211855555,-0.058329356603426134,-0.06001665705189858,-0.12206310218123928,0.0374397330343996,-0.030501872575670712,-0.06418758752625897,-0.06992173124330345,-0.015852115163120704,0.04048503953666359,-0.02629984230136884,-0.09183763396092555,0.03838788514663461,0.028836026950732663,-0.05769810670163989,-0.07289756575287146,0.06550004590308067,-0.0810996022135991,0.031524662943907544,0.004584198037522259,0.012226007238272238,-0.01663919630794228,-0.1401622753030703,-0.03240083465522196,-0.16264411929593478,-0.03453819852733244,-0.08350875050452879,0.08930121440240922,0.05273241546130587,0.06423754516520473,0.05422256197480362,-0.15021897369005657,-0.2251983466304292,-0.0926689515880405,0.008167648964320599,-0.03371637060828186,0.18968550005803042,0.11549400303250967,0.020289601304313336,-0.07784901834606907,0.06419249931354913,0.08451247695234546,0.014855986012109884,-0.021017688545784462,0.07235962858536266,0.027557439821684963,-0.098696259725422,-0.060143972317687346,-0.0861264285176323,0.022105130830747916,0.06915597569120814,0.007555776313580562,0.011375345560267135,0.06813468268993897,-0.019908412505638327,0.01922426114705645,-0.14168852027541892,-0.11167193788918271,-0.13654553140569725,-0.13624235191949957,-0.07795915212319986,-0.08533032125098966,0.07546700529895677,-0.005249277163653565,0.07702979558670943,0.07413663396126799,0.13593616330106872,0.04858111684349328,-0.0374351989983293,0.06268973180256346,-0.0720876303555915,-0.08012327106224768,0.08154352432376313,-0.027968160201201953,-0.0622093817964099,0.0017925970074446577,-0.08851922413929711,-0.036196643228404594,0.1630905832569684,-0.004665893575419631,0.04866170192756271,-0.09219832934146266,0.0017317750689231234,0.02391650658832063,0.05417097500330825,-0.08063340232486463,-0.023987389907474285,-0.13228150300348296,-0.02907415988566281,-0.1346960706117542,0.01946612515344544,0.10263205778385173,0.05552891408757238,0.14601006251038762,0.2009393876246631,0.16143492664486828,0.025558094674529012,0.039049260811808456,-0.02170140445601821,0.03954280303445229,0.07493067747476966,0.07357039972575218,-0.0928113875453611,-0.061800974449636795,-0.13413335532560083,-0.10812880963953472,0.06805247127954776,-0.018595657111607225,-0.07802526352974631,-0.048698894197433604,0.005564996132585933,0.01877242226537498,-0.17365619034128027,-0.06501761961236555,0.0632157531461914,0.2416092696284743,0.11282703236100083,0.012372555595076804,0.0447981353730016,0.04659464982814338,0.2328907312174655,0.06095869828573564,0.0928960087105028,0.07989467690062298,-0.06262810710731687,0.018796410183864968,-0.052706780895177635,0.04568770609116623,-0.004323079683995662,0.03890001434085017,0.02689076663664382,-0.01264666364046266,-0.055611814382157954,0.04807614378632903,0.040870430140980366,-0.02282216207005517,0.11627586230759955,0.04020761000425569,0.061170660061418705,0.053386576414979764,-0.06312038173681446,-0.11312233378656504,0.029984818743663554,0.004890108208216658,0.05664275509843801,0.020127505152987512,0.07501557092493065,-0.07583617144977038,0.09879546252714987,-0.05128823396925056,0.008371630279367761,0.09134586628380024,0.028591466331595664,0.010493210157321048,-0.04017441933497911,-0.06031577216315278,0.07948499665622544,0.018432593646806293,-0.03331354789220469,-0.17394704127256314,-0.04496605397165365,0.1529051803537927,0.056573022306486566,0.08197243407727446,0.0802496116270453,0.13589860027422782,0.20169232225799683,0.10105167601752957,-0.1085591387186703,-0.02820546529302884,-0.2549561898860718,-0.10401998363368974,-0.17575519291708971,0.0026115063791119935,-0.019927571280716483,-0.027066931835064603,-0.11605551448057826,-0.015145836816141085,-0.031737931417463,0.07288194172390185,0.050435292424565924,0.021260885355328444,0.07647425950165333,-0.013996797641436472,0.03961311253595641,0.058748437945790107,-0.08144397555658249,-0.18425196852870487,-0.07762676640540181,0.0166686165894282,0.21666485420662715,0.06608238822527135,0.05706924416039764,0.21632244107559787,0.16316454967461216,0.0960352614959498,0.06007639272638825,0.00918755189560514,-0.057060455159320345,-0.06877192950721289,-0.16631839576474522,-0.15753895829493555,-0.05326142760823738,0.04053377933707545,0.0841019560722157,0.009374601714143666,0.07401084915942835,0.06058272936067413,0.027562740246582878,-0.08985246430350821,0.01818877720301634,-0.07376895791262773,0.03740282984009951,-0.06954641841429263,-0.08260498937053991,-0.14392003095938735,-0.04746857987919597,0.1380110637287869,0.14587660665967322,0.09926522991196415,0.16266265016792186,0.12184212615252576,0.03666305760921571,0.1293911373682443,-0.012114573819635412,0.008816553323848291,-0.06278799016184514,-0.045559468892193505,-0.07847597950641297,-0.22833230413755498,-0.10225367750874334,-0.11917697699661815,-0.17809665078352768,0.003550684389476891,-0.12579999383457457,-0.05366768998353003,0.06326138999562755,0.0010857768851715128,-0.0005375896914502707,0.062231013589443364,-0.09347219194955597,0.00776125918816812,0.07044423662009307,-0.0017411679133358718,0.08342649934289141,0.10342435547683022,-0.06659288951886438,-0.01637893071796179,0.06626127608205536,0.22162941639981215,0.014633668868242232,-0.011971697189370314,-0.055345319351844634,-0.06066508874032834,-0.029322453135754448,0.06400064536876363,0.024535050210073524,-0.05108345394284953,-0.1421645146867961,-0.07391480806487491,-0.1682339666664435,-0.24504527632794282,-0.017980309390950158,-0.0090730904138619,0.04663291171549259,-0.07802060825097622,0.008455655378234164,-0.051786635814760486,-0.07484743115932584,-0.10908683511992466,0.016332855583788792,0.15503287713900676,0.12743855988667535,0.17483006438022283,0.052909811138165695,-0.0023513907276719918,0.21682270937743772,0.03599097807084058,0.11644380216275826,0.11988217372832606,0.0702446677114732,0.22032179379487488,0.08372584255717488,0.015564867709782777,-0.01763360364374716,-0.025574782856820112,-0.05084325813101757,-0.0454322635531128,-0.0029221284878275613,-0.003002434062897908,0.04576423008192224,0.03849796585109169,0.03276392080303573,0.04712019154975598,0.07979150547648903,-0.03338975506905081,-0.00892105467452966,-0.03768154014778644,0.1208136367405255,0.10021128978574534,0.17602316962060144,0.17000018628841856,0.21611710497140937,0.08728044274249176,0.3171529835365652,0.06104494136539953,0.20139204275348002,0.032615657163026494,-0.09137139086335738,0.06149115635443063,0.026340884103039558,-0.12142004922029898,0.03624748126367492,-0.10076426013019153,-0.03867438598259542,-0.16825216908480517,-0.0633316325908442,-0.02766708842891871,-0.005416048943112845,-0.07149760213951006,-0.05401713754762699,0.08424713029926097,0.07540524305378062,-0.03703668551825881,0.07822979502968183,-0.08252195266524948,-0.059219637669679505,0.15761576514153883,0.07158179257575827,0.08898691641488261,0.19351867453768737,0.18050885712154646,0.3579186509616074,0.33159091441139915,0.27138134711252343,0.15174191927868239,0.14890800580137697,-0.005693573283327342,-0.022689155595481503,0.13080866673899383,-0.06827128283323455,-0.027403101794000375,-0.0637284634343164,0.03751295576715692,-0.14864692718476635,-0.02674494390930842,-0.030397452590331886,0.01752156067556699,0.06742459830345654,0.009112137044993857,0.07139762634061644,-0.014604994076657588,0.07513643304040182,0.027933785180812735,0.03402673453388635,-0.0018794452726647128,-0.06923652325885045,-0.00043316718659655714,-0.035639634478572144,-0.009980053513849755,0.1989015325922058,0.21561789961865616,0.3899376833354928,0.22885163145591558,-0.07898460517466518,0.06150923632426006,-0.00433280401321846,0.07355641096501962,0.08728754556517114,0.027356496016387576,-0.08070262937750634,-0.11283511699434773,-0.07399961264741867,-0.04285710382028247,-0.10868643182943559,0.06714068669255364,0.07869529528345114,0.026515618694596874,-0.04993047053480523,-0.05707351765724033,-0.04257252945352421,0.00526193719721072,0.004032543229168886,-0.0603047106241395,-0.029604652863692835,-0.1070356747843274,-0.15504931457359364,-0.18013821317141532,-0.18143203000977096,0.10022845758289184,-0.012077923474906155,-0.2974701079337477,0.0025182723034490495,-0.022165877242697783,0.030107173967791105,-0.016048055433493812,-0.17339297314792654,0.004758726630759518,-0.005267879132542169,-0.0011000791698851605,-0.020256260787673223,0.015245349586026809,0.023125283382502162,0.006457039452888552,-0.014249704526574852,0.051338301617288126,0.027435519213637086,-0.013142259765689963,-0.018512263228408828,0.046239896047197374,-0.04456312125263682,0.07703664496567289,-0.04993285931276332,-0.21662183284012276,-0.46942596775937573,-0.5095195583781595,-0.3905717590176578,-0.5446605493880728,-0.5778026533590255,-0.4092569361329824,-0.12765386049791347,-0.05953102745612542,0.0197560862461327,-0.07765993205286977,-0.1409174770181147,0.03141072635985847,-0.0913627464123474,-0.04025958131716512,0.043143139968862404,0.09013206480952242,-0.05135963396490644,-0.030106006077399786,-0.0018150197996987145,0.03494247409533226,0.05595078582588381,-0.015071478294312676,-0.07504237208326761,-0.053379716010290026,-0.06710378597924864,-0.06017282890836168,-0.16824329016345166,-0.23410077813437855,-0.3319379262904731,-0.40264687808822813,-0.38225800151165124,-0.562584105346966,-0.5434815103345717,-0.19698319032906392,-0.1235693998879593,-0.06365965935115787,-0.016465530056170553,0.03537083416723559,-0.0212413790702241,-0.08385953590411446,-0.03625992365576974,-0.10274363012168028,0.04056650148003059,0.03063513856958908,0.04933591384404414,0.0018832853998183576,0.026245278995711656,-0.07591699534021266,0.08598134589908826,-0.030117330275215858,0.07001691012184559,-0.03690763220835437,0.010256641623983691,-0.018894093948527892,-0.18489179039513284,-0.13927967188802456,-0.1815686625303125,-0.2166978587436981,-0.22247421522573863,-0.13033691334361525,0.028480676823199158,0.18171261507123324,-0.026858385979516522,0.06344587121191636,0.05229834095512038,-0.08146321396632171,-0.06758102920383925,-0.04826842403007688,-0.07523211066714026,-0.07952653948816843,-0.14020487896099165,0.03578263072400704,-0.014459907370814111,0.03906123638673172,-0.05285796722629295,-0.009984636854758061,-0.05918547434508008,-0.03454713789711468,0.07226731754060171,-0.04194027385949336,0.011911218237058414,-0.12798664494272416,-0.10421115173679334,-0.08511574100449208,-0.04145719567143669,-0.11135595369253956,0.03939444367873687,0.026630958692315167,0.08334587775492018,-0.06730016291768998,-0.12216505074906013,-0.10328018011622378,0.026741055123573484,-0.07028480422652486,-0.18054242959045538,-0.21854792115970204,-0.0498082974830017,-0.14850073056348267,-0.02991852236060445,0.030118390574002053,0.06672676200322361,-0.07412991798619993,0.06992541828559504,0.031343012379665,-0.0356743605136214,-0.0018303240649331365,0.01513637640323784,0.05289263877519182,0.00658036682408276,-0.027414982025957522,0.11870737509360502,0.084402992082202,0.0011375209094746448,0.03166873791509105,0.031025757500751986,0.04211925419717951,0.0657043449211579,0.1154892424347508,0.17308952376329684,0.04872143548404238,0.0149719092928781,-0.018184824029224993,-0.18637791813759827,-0.0574188700058027,-0.06725214632976773,-0.0764503250227102,0.05639551852819608,0.06462681279208561,0.0602626745054617,-0.055208103381238306,0.03192885392741309,0.034995511206683386,0.05691762668340972,0.016943898138577634,0.05754301825972009,-0.005714197676519146,-0.010544592963198698,-0.017215906568381654,0.1453461692505626,0.11535413113193205,0.06742223383014646,0.18645107173301384,0.15053762558996966,0.12512480001096377,0.24048610992048386,0.1941559237188028,0.074280186784495,-0.023024236841459815,-0.08415038355083868,-0.044139036113299,-0.014923823362881752,-0.16108755595320523,-0.0014300306914550194,0.03874625663973647,-0.005408301006306782,0.07827895268099697,-0.017260412663276183,-0.012787594639316944,0.051265212780631515,-0.013719020976981883,0.011101980706271164,0.04466932933115428,0.05583165808453828,-0.020265985465254273,-0.030536517294443732,0.023584854050896168,0.158352967032003,0.053688808954188615,-0.05871775939880652,0.04970102078674622,0.10664984410936945,0.023648395640722644,0.10707369182703273,0.1279084037052799,0.010140223688545036,-0.009519916856540299,0.03324629423827053,0.012377327448601207,0.040874787154024574,-0.02484511023696065,-0.044918256304446826,0.07723640858357105,-0.07169121533707495,-0.03825966505963178,0.10141808348953521,0.046595669680403455,-0.04214846894132746,-0.08037772078439072,0.031206989872156532,-0.049530556283753115,0.08692876655624471,0.028545396613647092,0.060710344912760776,0.07025286213905516,0.11655302610468406,-0.0027298001978176265,-0.06599023351689082,0.06772049053746867,-0.04042974416193949,0.0017277698324847423,0.08316237701304034,0.05878171892570065,0.0011717115153215244,0.03984036144277384,0.10346873003372514,0.062425219878428126,-0.005656795290180252,0.09296096917483027,0.044682596911443474,0.055345479935246016,-0.01628498581148695,0.03543527647699037,-0.04115930389629582,-0.044827551677053976,-0.07468237973660193,-0.05935998566612453,0.040163005974331784,-0.03566806962654873,-0.02268099906013342,0.01005077554013703,0.06798502975663137,-0.04185585458231168,0.07714573589597183,0.07751182554092849,-0.025775809814366717,-0.023570885994405582,-0.016449611280067677,-0.02958796387573208,0.08069164274978743,-0.06761455257395703,0.016404153206281774,-0.05979346375373932,0.00899968874196293,-0.057797411704188666,0.06364735724967134,-0.009001657134911046,-0.08819325040536659,-0.07612598354199826,0.05659057589924169,-0.03228928541954884,0.06658808172559866,0.05056201889162232,-0.035090057894524046,0.015024169129314327,0.05685362131022692,-0.08297382784217298,-0.04235634136229554,0.006878485257017619,-0.05089225971953161,0.033891085729168755,0.06568905208005502,-0.07708820818350037,-0.05306148419884341,0.026732279168833042,0.03791151600875847,-0.041183898117992015,0.07653451792036924,0.043786197377783484,0.07181157718552253,0.013748734130035132,-0.08587243188547306,0.08681862726994086,-0.016035920338556678,-0.004289664007058991,0.05416348908398483,0.021782540294382854,0.0540503200468721,0.038671330239383184,-0.0027913084655643156,-0.01273510765432001,-0.037261978203180654,0.043151488780168695,0.007942047029363741,-0.04318073205384255,0.0153042083731416,0.05229830706485661,0.08072259409837819,-0.03535454100165711,-0.01654218983777324,0.013524615791614824,-0.011081110617963946,-0.016136502941716948,-0.033264513355835204,0.0343261197351814,-0.050310346440553703,-0.019172089705007243,0.010403704794252594,0.01861107766402023,0.021426074963138236,0.009644603241710478,0.07655619130468644,0.055291623527412806,-0.011032703507609974,0.04779718327425693,-0.02987299148078332,-0.03821429104195503,0.009779194765404578,-0.016929229764151565,0.034383543917465245,0.07681171987882296,-0.0025880768410927457,0.04557207243816269,0.009462321920675226,-0.005326335817101469,0.08040272225349449,-0.033585637612741435,-0.020506546117815463,-0.05859797732995446,0.009784935814999242,0.020308890640655705,0.08148625981119244,-0.012533803376001462,-0.035674750428876245,0.014272428327958366,0.02586733091954405,0.09308722688368888,-0.04948422087836818,0.05052139262665521,0.08839242665363377,0.060319467588936256,0.06273164838778089,-0.007296116269163629,0.09070572522703274,0.044152575380136866,-0.04030132407065872,-0.06558609129099757,0.04380479083010272,0.06936217392166302,0.01522402185404001,0.056905723075437786,0.0012224310918468025,0.02697802502818549,0.03643451228097,-0.07149012382904721,-0.039731768710019856,-0.03310586724319922,0.04159013872712297,0.07092330739249289,-0.0061363202088022895,-0.0370087934010214,-0.064825294814549,0.022747255812326426,0.05288848333609002,-0.008335392159162658,0.04368510044152493,-0.08292100638343419,-0.07473743048791709,-0.009451320027625162,0.028342031992970303,-0.05313982263256834,0.05694447883188934,-0.041600464990654944,-0.028809312365502986,-0.04831436216275419,0.058054406091364724,-0.022732299090463592,0.07234948733222538,-0.055188377505753866,0.021880250060404612,-0.04098267454537208,0.012473466782452185,-0.0028467086054616334,-0.07868594307178874,0.07154935184766184,0.040480178100522075,-0.06284433590820415,0.048853163122518535,-0.07828362332310465,0.0055191340767131334,-0.05394694310992987,0.03920335615702035,0.022660691831112512,-0.12133934684043307,-0.0402953220305429,0.008666523558852241,0.01780814157693743,-0.06625715558613422,-0.04611690570830621,-0.018217827673352872,0.06070802938253302,-0.04471886257083738,-0.05619032069651414,0.025223200574034255,-0.06890947075085352,0.007080374505922818,-0.07045692752702495,0.03627894903260527,0.025940442110472653,0.00472484383031619,-0.04513347028583368,0.011376029776760692,-0.022021493067092262,-0.05956119096753782,0.04964830546145483,0.048053170111260916,0.000505111053645693,-0.055375819477395165,0.04999064627624519,0.09944775478935287,0.009898415679446345,0.021133859668917412,-0.0000691834109087627,-0.039587974281913504,-0.05277517465875084,0.09604093644604753,0.07125747939932275,0.07734593792807722,0.057045342051546516,0.017147155049518394,-0.0037540863302561508,-0.06995088773548726,-0.057286774266374914,-0.01639044276450058,0.027816834019197437,-0.0651976823154048,0.058540344224351365,-0.012896602282915988,-0.03179246727787524,-0.06253276379008031,-0.07500169809830991,-0.006099000815928353,-0.023672037829223048,-0.09567799576900445,-0.08436481584116691,-0.11758878131799376,0.0080762360913253,-0.000185787442573614,0.09364853599686676,0.21234745178971098,0.1449094592619557,0.31809131581032807,0.10702915656360999,0.09046022402402946,0.08996520175124882,-0.0016183129748570915,-0.03802660768623131,0.05411817913054866,0.037483873987260476,0.006412512027341621,0.07940692002436614,-0.008214611234912308,-0.046408823924510456,-0.05671376051131478,0.06403056119685345,-0.049980128361498136,0.051734860235054844,-0.06557761945385701,-0.049987236226987704,-0.0334508514592399,-0.13008370559869964,-0.16364315902153664,-0.12305351042611949,-0.007326475739211769,0.08972938199208683,0.11831245417203336,0.2448429481340217,0.17741592364463235,0.18789927551223298,0.28580020964488073,0.21065134720184198,0.0530166132876214,0.0769438141528576,-0.06138912167598622,-0.05388896668128505,0.00175692434824169,0.007335895228484506,-0.013425841553594607,0.007530887836090541,-0.01943885500808769,-0.07287429489307375,-0.01078497071970108,0.0709707332377684,0.06058959688560095,0.04141527438758038,-0.007441848688926609,-0.08233079070045031,-0.0794862678887488,-0.005287223739169015,0.021075385873063762,0.15246036950367073,0.12744468428357766,0.006243047089887718,-0.01569655232834384,-0.0074089142463300735,0.029599315833901296,-0.008774932415435139,-0.09030497175683193,-0.08621621893261784,-0.03920781844435659,-0.06543056858033894,0.0206360804849379,-0.03233158209373189,0.049209814166822075,0.04482725922296116,0.0736181267707042,0.047637993473789116,0.01601498740191698,-0.06785931080600151,0.0853693029544807,0.07137769076744067,0.024327447363335183,-0.0950364760250068,-0.02009739944126606,-0.03705101825922271,-0.047503194754132366,0.047694701141566626,0.05909283664831568,0.05172977225528647,0.0090796086785327,0.050914928181217706,-0.14968094865027703,-0.12672714806294158,-0.0760167141288362,-0.08989380914656765,-0.053602039563955546,-0.11864910040399966,0.02810503582497366,0.02368812447425287,-0.07216161775796404,-0.06661176969085299,-0.03940749737861267,0.06544825404841009,0.0548144574542513,0.007584745515719326,0.06238191057083012,-0.06495859953987647,-0.01969968016514688,-0.07819677873063875,0.04155910231261169,0.06755591842096918,-0.1016901338006879,-0.13137810537277136,-0.014879341563840298,-0.0315934076198079,0.05642467025593951,0.06847831714417969,-0.0932645364982321,-0.01770504594994562,-0.1988759068324022,-0.165114519589902,-0.20659672813050003,-0.3110964811817991,0.005052408761542893,-0.12967020149854339,-0.09817394819410598,-0.05301671219450769,0.010680668384961891,-0.09219709115041677,-0.09371615388530226,-0.0806018739893551,0.003580358103033227,0.02232018765794758,-0.06364567148273073,0.016661388300588113,-0.012362435040782816,-0.08303601824377561,-0.07231749848479838,-0.056502162088783614,-0.06765166985703121,-0.056128865822933256,-0.028203312158557373,0.07258716719494858,-0.01240003643319495,-0.07284130693137623,0.0033644395354324266,-0.1242356709406167,-0.09692673420181189,-0.07487206612963006,-0.19827085941215203,-0.1903726939005769,-0.10177446880519868,0.037243676077554765,-0.0751262744528972,-0.004163778239976476,-0.02638435447014578,-0.06723413631328011,0.045003506273364795,0.044755250338565256,0.07053682473518784,-0.050927162352151126,0.012225747118827152,0.0456005798667724,-0.014022383643633262,0.018924465848036906,0.011680201916018975,0.026439091552525464,-0.006842226129243659,-0.038432167096225794,-0.14711286243051325,0.02131940338775055,0.05764027501052633,0.01682813386277909,-0.019671447805210674,-0.0016351972155229787,-0.14058595105284205,0.06764055359837025,-0.05626474752833831,-0.014664752108373594,0.13918536316797234,-0.009839361190560288,-0.04941256597346716,0.11244098757948486,0.04168975327783421,0.08389370684539132,0.0008553363429939794,0.004606443042456527,-0.014644202604437044,-0.0167996420627172,0.013632655109840972,-0.006009598012892461,0.0795057398033568,0.08755542812607,-0.0703188185360792,0.03007051458415683,0.03847342406972989,-0.009841905899671892,-0.03198697376660356,-0.09367929726813946,-0.005218282318265885,-0.049872133352568196,-0.06918096903149988,-0.026927122659561493,-0.03349195641874419,-0.03410757018577313,-0.020393002458034326,0.07445410905150136,0.09735817775847301,0.007251461730101438,0.006221827311046322,0.09163066659154985,-0.01041296035702535,0.08555246472372516,0.020707155731786192,0.023430992687528157,0.04000023300364747,-0.025197016418082304,-0.039315540274475966,0.02089341218437565,-0.05137365033791136,0.07641859527411368,-0.019298737113387403,-0.0015932329588827445,0.05961798738758996,-0.14231098065482325,-0.05631336441135692,-0.006155247682168269,-0.04933412765251495,0.00914813854274272,-0.04565597415034033,-0.03572112752111533,0.19015449141994512,0.04360260337944849,0.018058844506926634,0.04602215641279117,-0.09938261401454657,-0.0010229154111212153,-0.01732874261645989,0.01793575690796274,0.007034061870806448,-0.03625319388824869,-0.023307050677177935,0.011023455242536853,0.05086568255729308,0.054741155565084965,0.027006991527311838,-0.018884406603586402,-0.03397597526036485,-0.055884682547984094,-0.012458327010465026,0.06309599177740097,0.11251580923157146,-0.065217956381029,-0.07920020299772751,0.005242066543040108,-0.11700481399381214,0.09683808543063237,0.07823841218392667,0.09776145115206669,0.06234636536186567,0.11521037847435231,0.03584909395952548,-0.0328551171295773,0.03602737712306358,-0.0988151774099321,-0.0149752360566101,-0.02832275367330512,0.1049794833803544,0.05108502195159354,-0.08259797245432879,0.035847205632609756,-0.0708087667905498,-0.0687106226855275,-0.01660151037761093,-0.06413355662551536,0.03766873432513997,0.01738905192714247,-0.07154871362363685,0.05598447726851908,-0.027717728186225185,-0.07891430669550872,-0.012908007044411007,-0.02797274445284417,-0.04338950542673121,0.06564308211296621,0.041083440077698916,0.11305878491902503,0.06901524785335453,0.01106669345891708,-0.053802942275706055,-0.03341110415070267,-0.06443057585204885,-0.031238157028489227,-0.0716015663222778,-0.11556517622954356,-0.07240736937085515,0.02707358256934582,-0.04786462032901668,-0.0802167160946896,0.04785079480904443,0.021151672116582552,-0.03841798735270249,0.008063585016115545,0.010882109387828177,-0.006053108157964346,-0.051200632190604195,-0.010274831750673532,0.055441238633545956,-0.0037773710833475145,-0.0734467182603457,0.034466029429584474,0.055800583118966025,0.059652109777356355,0.004719231834888859,-0.05662713516990835,0.02441074662600736,0.09016178923135718,0.018088743419383775,0.0033762554642840347,-0.055740649820233225,-0.14079775903365072,-0.13178495435975213,-0.08985515892208573,-0.025796914803722214,0.023198909108221907,0.08038818699686778,0.0026289782821755227,-0.036194900668770326,0.021002768833208767,0.039561163975374854,-0.030744551117280756,-0.0684761497625993,-0.07879388304084693,-0.039042550684056515,-0.04281701115778609,0.08618323592141135,0.08829762243337036,0.058594265684908844,-0.044700506156407575,-0.018712006323599765,0.05449812114940103,-0.0033452824280256342,0.04524360010162315,-0.08385098419938071,0.17368955664728092,0.13903112214886448,0.07951707487429246,-0.09278243959898766,-0.11523152649230253,-0.06799492242205828,-0.040256779284202994,-0.015079590154436003,-0.06049016035635204,-0.06330718717905383,0.013309790249927293,-0.02424196708308489,-0.020139872367265128,-0.08360870422080455,-0.042005306330048856,-0.08518154163654955,-0.08395571843468264,-0.04602904440866492,-0.07369089978079557,0.02841765154031273,-0.07052035121931594,0.09159499416388049,0.0043535700122864915,0.03144248241348811,0.07479800866487236,-0.018770596532617423,0.10539944167560758,0.14846336966295592,-0.001069883781634108,-0.01532977720418182,0.04266209087417948,-0.11199776403806558,-0.05625504001537742,0.024399969806586607,0.04021290719295868,0.03057577107984727,-0.06340010385535072,0.0575611734370019,0.028109975713274657,-0.046089602880068734,-0.041720275446515465,0.06606588041354128,0.044749212465960454,-0.008643231555217325,-0.034611440010863484,0.02560449311742024,0.010569914383605623,-0.11546477060831985,-0.03257744632388842,0.0037167916755436303,-0.018614433082863584,-0.048386126701702045,0.051584830500590935,0.1555643875937268,0.08212430469098649,0.023595138286121496,0.006081125091118868,-0.016494697851186943,-0.007898469050715552,-0.08167726655254806,-0.10541354519673687,0.02634960432980503,-0.031563486205848486,-0.06394509615225275,-0.03698780003396645,-0.03564240867397857,-0.08170644496983816,-0.047803063965111914,0.02787051578952975,0.03215741216484617,-0.07805966831599168,-0.05680621527081366,-0.04699778980041778,-0.0048146716617865366,0.0012211519479095624,-0.10107248472732863,0.027004111128201714,0.011389814206964888,-0.1300256149535961,0.03763672149210103,-0.09808432355704086,-0.06314034587436719,0.08729310894378951,-0.01796432556294071,-0.0216077752881051,0.105792638863679,-0.039571162405693944,-0.055065487518424855,-0.009181690579261872,-0.08566660921067047,0.05371043724009882,-0.035059394729978856,0.03032787821478492,-0.02937550555955422,-0.012951989049861067,0.0702840536960707,0.04893990847250515,-0.05887269340806835,0.07154758165246412,0.05182588123837899,0.02133620092146673,-0.014395107208436276,0.008084837640467305,-0.07143974307012438,-0.08148425567931576,0.018679527017237654,-0.006490049068617825,-0.08553089744533739,0.014056121950422383,-0.0873520345345913,-0.05176640017414877,0.07337496297483265,-0.025070242484845687,-0.057487179946574575,0.053207523231353415,-0.08305300493317054,0.029679583787005828,0.01469573894507217,-0.05499712091003785,-0.035483667269351045,0.08540926668502374,-0.028269314778566666,-0.005416192216397045,-0.002979095548474576,-0.024002388648569517,-0.052632962152925,-0.04295892218466222,0.06331660892644923,0.04269032471387092,0.007436208968199196,0.010914913479941966,0.06210938242398517,0.0005559224871236239,-0.01701750955016546,-0.017607931654060043,0.024679544710241457,-0.04533501046410891,-0.07418362202608318,-0.06324692744143626,-0.03406517913906838,0.10841418662159898,-0.08519222010269764,-0.07360237379347769,-0.04015025928232762,-0.07385394672585213,-0.08081438694001938,0.0571337898019182,-0.05920961961804936,-0.05155885732353453,-0.03530082491045059,0.058959974399045795,0.05833563248060621,-0.0035764803535563577,0.02318571424932006,0.014340059001733643,-0.02864179642887234,0.055628437953149444,-0.07829291160414135,-0.09908325637281276,-0.08650392345165861,-0.06250312651166864,0.05637710727754403,-0.00013513284486112907,0.03938850443986746,-0.06474328214843124,-0.05578796328352738,0.043693118695213605,-0.009223392149300527,0.05588736263771481,-0.04675724319053528,-0.08397191599425913,-0.014748762067618534,-0.05618948585000939,0.0048128715985539024,-0.0662169408166443,-0.07565435741831308,-0.0721976806745081,-0.0177480086994069,0.04483850425532923,-0.05604204544506868,0.03326748098184379,-0.056522373123060396,0.013581060144708085,-0.04505139117214465,-0.059157445208261224,-0.01751443230212492,0.007103490277919309,-0.07108636968534339,-0.07748611186015533,-0.05792090853339765,0.03451205378154278,-0.010206985200447303,0.005949010015293638,0.013892934879008887,0.00482048716981202,0.038051501682075196,-0.05391428778825652,0.08443276604870323,0.05882557253661819,-0.06517501568779663,-0.09445665254474542,-0.043875049456392,-0.09099002127107744,-0.0234714599961831,-0.03371211322400916,-0.04386499619761206,-0.061988490922605506,0.02216775454219101,0.07629234038096802,-0.013065872182590074,0.011836159991435877,0.02215516520589214,-0.08397606985881924,-0.08538635152622102,-0.04098694841341181,0.031635340827068946,-0.025091039202572562,0.04287769346223385,-0.08124350391664532,-0.0011736049756822355,0.008465452036009596,-0.0745857427509508,0.12332547859986333,0.11125228002895075,-0.051125209726732485,0.06581559693608871,0.06952799957392398,-0.05638990139714208,-0.03069482672599031,0.037721377946245596,0.08502615038796311,-0.052948397621068614,-0.06421897087170142,0.049532779840247794,0.060606028583699845,0.032526955271807434,0.05443836886276593,-0.013546754559953869,-0.05376411088588388,0.020987017798260288,-0.06034475841314018,-0.011457043083012736,-0.020557661366575997,0.04113044983107441,-0.06312447823246062,-0.07113208947133917,0.01246205853141805,0.0014908879231375074,-0.08067475631437278,0.06813997814885997,0.08715539584760618,-0.07190892977186036,-0.07144512812129863,-0.0689132759341101,-0.07205588533671145,0.03588370055516345,0.035209846289518246,-0.03809677831324461,0.06099389513436255,-0.05941780508323841,0.008163098551466588,-0.012241774953886633,-0.02021329636671576,-0.04568876052908979,-0.041055169215084404,-0.012744264169271893,-0.061306286462238374,0.07379711743048062,0.018623613121278096,0.0346597487959074,0.07058454906880265,-0.025291837643308723,0.08469763860329463,-0.08613288717071192,0.02557261523323047,0.07066918256332058,0.00558233806395067,-0.07440264694855139,0.08414992228082221,0.018838331818319867,-0.049739543529996266,0.055633970975575264,0.04029250355343755,0.007860251459688009,0.054840133977206273,0.022609510258898693,-0.054537770833820075,-0.06579570835391504,-0.04455427694136935,0.07368893400720378,-0.007805700546125505,-0.02583558327188641,-0.04616397427094146,-0.022997516701672174,-0.07139535990175773,0.02246550372132078,0.03771052183834761,0.04419771315517015,0.06334757776698813,0.024747792153237243,0.0013639841263707558,0.038506346591209495,0.06176363140576127,0.004179177081743587,-0.04519259506090226,-0.04455718352257837,0.08240117696863122,-0.08630660952139156,-0.03424816991292553,0.03912645905749055,-0.04242510286680717,-0.054485368163179546,0.022388523817298354,-0.02627291247023204,-0.03013173614481318,0.027994363913519928,-0.024979085014025376,-0.0669458530022721,-0.06915865996395554,0.028171491204783294,-0.00906448516755129,-0.04138746457381886,0.0679584684212669,-0.06798493975916159,0.056769470960972915,-0.059059735638424586,0.01945024923870331,0.06742369423288593,0.022773525792024026,-0.08022130032250513,0.00020606157828657987,-0.018651491445496955,0.055120436241455836,-0.005509792745256483,0.02293215045426076,0.05401025008556975,0.07766936665990438,-0.06416532069617326,-0.04531598845628039,0.0491797384040883,0.027435877947171793,0.03420637623481582,0.02123273161569058,0.07637233649693141,0.06293274000291621,-0.04859449068613183,0.053359950167916254,-0.06950721883407499,0.012543681024010114,-0.022243971112609298,-0.053459784068228294,-0.0016156980415474949,-0.025368482975031678,-0.08463862681725919,-0.007251277568195476,-0.04227643671660339,0.019198065884622525,-0.05043288694530099,0.056257764868915414,-0.008383635975884448,-0.01892409113968345,0.014737682762381812,-0.03593085447361411,-0.0920297575111042,0.041816791983362196,0.052305209240645335,-0.06081624171622248,0.0760414807676802,0.004183606085894363,-0.002095237781970406,-0.018744783990739138,0.07243168396724511,0.012913299330858009,-0.0005965677962434697,-0.02083287610296564,0.029228020580664236,0.03209623473199569,-0.03453142828288406,0.015014799305016457,0.027808197802332263,-0.009498087757600087,0.011080686412908415,-0.04502482440126253,0.010684826994328963,-0.06117461493048198,-0.000360316491931645,0.005595818034584938,0.11977783426377303,0.012684716945724876,0.048569197037247124,0.063973370457723,0.0636731472245661,0.03185202520146252,0.024573205491398353,0.0901656796144732,-0.05608165999463773,0.04443754914693686,0.08597759392771295,-0.03530962475589616,-0.0983190691321745,0.03459661836929982,0.06423242587409314,0.061893519212653146,0.07938389331453487,-0.02157906665684366,0.0008390769788931413,0.06612798154327626,0.03044476864396802,-0.0038242728742886125,-0.018361752423844167,0.026915761078767145,0.034557724386818554,0.024132948290564775,-0.02221750632988282,-0.10487377651362799,-0.06667947487570523,0.051823287131480184,0.09801198649788058,-0.010717146548347744,0.05618116964897065,0.11350110871340052,0.12579632630030638,0.043701098418266485,0.0474081068057482,0.036042674309252475,0.03686617811978875,0.015873773024629882,-0.043409954121318366,0.02644325309528751,-0.004229353112328436,0.020164145872388097,0.008125013841031899,-0.0443604463351465,0.036398674967540415,-0.002664526265072288,0.06416346795944255,-0.042416846898427,-0.002074554496955459,-0.09806954939143656,-0.07675205210687377,-0.0703769432240787,-0.17597209492483348,-0.17248414198681292,-0.0674745118774997,0.059586921468819345,-0.0317966329287804,-0.04351086269373907,-0.09315448405079498,-0.03963950717274743,0.02150246752522204,0.014524202756448917,-0.040703422226659604,0.011133789060814093,-0.05353422956676569,-0.058952981504423504,-0.01893377979604455,-0.06841951003915,-0.13093215181249016,-0.05040569894679454,-0.031225266199628485,-0.06804746628844704,-0.026704505710070558,0.05318766196947317,0.050958715379317225,-0.06793844630152024,0.018956019420200747,-0.052501529641445964,-0.11173498987927262,-0.1761692062951498,-0.09382360831142572,0.002539411797916822,-0.0864937754048079,0.0765288358707829,-0.05303447440875255,0.08073110006135302,0.08620459965205496,-0.10537074315237517,0.050863982815591756,0.05793175580953993,0.025407862722037697,0.013509518318901102,-0.02092791307117855,0.06086401267388222,-0.006766667043775499,-0.1698684795260513,-0.03617890072864081,0.04054084705202889,-0.051793239181181415,-0.044501427640343434,-0.04880755088971869,-0.05783398817993955,-0.012239821733196574,0.05769874076345161,0.0001259725561607876,0.04989083532129329,0.05355487898781184,-0.13073574351995562,-0.13002082335428963,-0.12598632378134833,-0.016124463544409672,0.03496407153114485,0.043849330752947106,0.04022533640022299,-0.03803080723861737,-0.012509542813436395,0.045734200067493895,0.022203878530311975,-0.016930050021070255,0.03414359025750322,-0.09509047895934726,0.05799541381280179,-0.045545534125219785,-0.1851470079988766,-0.15629856966883604,-0.05442276027380657,0.030565536045824973,0.05910519766346356,-0.07396678990977772,-0.0726743243342868,-0.021043672798630182,-0.03517750846017421,0.04154402928448119,-0.0026363217222941655,-0.06504253037021214,-0.010858009808691912,0.013927605504478005,0.004796241718914182,0.01330586293554763,0.01920662158459864,-0.030649117510162402,-0.04072963148898938,0.00967237826993172,0.038485556613509234,0.07875784092271422,0.038878071155379904,0.014878100348371894,0.04236059517963416,-0.06314646242042338,-0.06664408296633585,0.04402765426865908,-0.1328717841921355,-0.08794021081698646,0.0487054167314875,-0.0624886277160514,-0.08673743088313869,-0.008066051644596018,-0.03245715577566643,-0.03982211534922309,-0.07149931150697876,-0.03902237284087566,0.02187635631196195,0.016727817474512217,0.030236896584362266,-0.027859610973265562,-0.16582524114998903,0.03213150407331935,0.1430953847186596,0.12499396196793006,-0.015757590814533668,0.04496742539175063,-0.062068665249090244,-0.08066739252967912,-0.016782878118044603,-0.07410453261343891,0.009894517538154488,-0.04641443616778373,0.016839182179850677,-0.05803314655480815,0.058130977703380035,-0.14133059695954667,-0.06599313976190174,-0.01483990570959755,0.07642084664061984,-0.016704198647305362,-0.02987670764961518,-0.0326498991874728,0.026329829881767974,-0.029554925883315198,0.13171934428852,0.04972695540208427,-0.14450440166267858,-0.0521559410172254,0.04661709418527265,-0.017109840621680295,-0.0021366939585936878,0.03182466501216167,0.012632305238178368,0.11649573237255621,0.012184329885904708,0.07296001230895045,-0.10236866273642693,0.038881104797132575,-0.04208216475519841,-0.01057500723135372,-0.03983260585775317,-0.06119517629411632,-0.007061552653144596,0.10353240450020713,0.07291556198291244,-0.005929495930800187,0.016936906275838007,0.043438429728101254,-0.06985493615223513,-0.06757553168015579,0.03134710206260815,0.03951278455826353,0.016503159661471742,-0.030173170467196125,-0.0739254950953016,-0.04209009237929676,-0.060177649485653746,-0.002548440603464839,-0.015971057121891213,-0.14368097166341887,-0.10312687340978606,0.08377853855899797,-0.09872218616142904,-0.009562782719974162,0.04875260505693647,-0.08478270402942378,-0.05958623477987723,0.05122489615032485,0.01012839255126958,0.03121416637909364,0.08438097322636555,0.048927232675418736,0.051768317347575615,0.014503868820757151,-0.06722472193574841,0.0677699286961726,-0.005435815546264447,0.013009623429308746,-0.041936859248938724,-0.08406623905500078,-0.01789592722535625,-0.09964463053613504,-0.07982910568180107,-0.005297566364463157,-0.006369241833877125,-0.08762067982800324,-0.03210259767394769,0.002782811281758202,0.11902593252399297,0.11301859919927884,0.11690399877238102,0.0023643111817489675,0.04169467725046681,0.005016404984761589,0.03033068284995559,0.03871028925361554,0.09050020012794995,0.12925521683366165,-0.006682917958279844,-0.04406379530792134,0.07865376569299924,0.06405306626972941,0.07480477263625543,0.0055046334461679195,-0.019405580312339587,0.05288247599483446,0.07070562624319936,-0.1320127060512297,0.017558007443753916,0.04993743394384593,0.07562593859290474,0.0811029773574744,-0.10492642505872302,-0.16088194375639334,-0.11315878539483464,-0.11234545942974832,-0.049816821717150496,0.055099908889614004,0.07060653439821152,0.07617311147038233,-0.07901538124866277,0.011250411623313014,-0.02114029494882877,0.010892412860467963,0.08910576370848845,-0.041260179520090375,-0.12407424000269666,-0.11435766490070134,0.024395092197565103,0.023281801690885978,0.02547244105423917,0.02184522518494489,-0.050303771118351846,-0.021901491270380723,-0.041277337939866585,-0.016578737208004474,-0.06682674232507249,0.07826486867169002,0.08828921007622838,0.11363430656388707,-0.06888571386911838,0.026848208152907973,-0.06808014319768532,-0.08065702785984318,0.056171793356131865,0.0639860733675824,0.007580503569509732,0.1431093218631422,0.06586014652108085,0.008093295948936678,0.14444901679603261,-0.06899952428613505,0.03217699756600714,-0.11508756023751072,-0.13543822519631646,-0.12173582996914986,0.09605324349727079,0.006536591008003035,-0.03237502497488037,-0.04046697872553607,-0.005936565259132379,0.06925550058587487,0.02596096631231638,0.05561322252755451,-0.04548314893935031,0.07451637382081533,-0.008243244301571712,-0.07559102752934493,0.04388938062607188,0.04003931679937498,0.029582056548048175,-0.045727222396995816,-0.05071279528701604,0.005162789873512556,0.05232684377745386,0.18063448394048082,0.01599716412006423,0.10194992949402719,0.05620314372522043,-0.11259265711770612,-0.06329933925862187,0.021768538783000033,-0.030893045482743076,0.03868057813994775,0.06187017242403662,-0.035933421832709145,0.07196322275203916,0.021655771660580816,0.020378654505557984,-0.06537285157773633,0.08306723125765825,0.08703882847593492,-0.01333947902591437,0.07534776615537267,-0.080077115881087,-0.007109306153821197,-0.060357545834213384,-0.11303945907560584,-0.0949519339629956,0.01990816961113116,0.05377267837083293,0.06316083069207766,0.038185567803859385,0.07250570660606254,-0.027868265743305726,-0.015357508349181967,0.04654496409326181,-0.008299943590523636,0.01883776889545518,0.06395955299911099,-0.03798081570675981,0.04271860892924159,0.03937060030225108,-0.031761936062478145,0.05668258285725084,-0.011224754634590465,0.03022628306988854,-0.09185179234166807,0.006628883663580919,-0.04370773687213965,0.12409574349685909,0.1456845773283685,0.028137075180418174,0.04010277585351081,-0.10169829666148499,0.006586067059110659,-0.18753588034015603,-0.07436741667807886,-0.07935370978310051,0.07863412748633496,0.06978801508270294,0.03890323366111492,-0.08781458995586551,-0.07604223471669881,0.06261394571392782,-0.049432276552351585,-0.04227405281539826,-0.016335190014143214,0.12733805313003377,0.14057279356840044,-0.05070324522045711,0.03148103874951507,0.022084227845599488,-0.0410408110564969,-0.08031718721680534,-0.012651962965963801,0.027496490424988217,0.023978718987417765,0.07737031516847852,0.0764046661144582,0.08783300140838045,0.06226495064259156,-0.027270259292276965,-0.06157723378993421,-0.08540979192670045,-0.10622957992128433,0.042467237715154565,0.0030106742627988574,0.07972578757114954,0.05881598390855775,0.17144543392905026,0.10442020863027189,0.035139461473694227,0.017955798592643766,-0.04948468810828117,0.06096554575582243,0.08898976026871921,0.02029100263896214,0.09554595946133661,0.04129346373631841,0.08360374907035738,0.07241591253421079,-0.03424012484067229,0.012980974516259902,0.035237661144320344,0.1036473467628518,0.11071396941023341,0.1497358210150857,0.1288741922321754,-0.0012124698367658301,0.025241309391231443,-0.07360932046446823,0.06322837868301177,-0.018852978443008712,0.0904434800407332,0.04801563973951892,0.10174227110851582,0.09109736035904771,0.11061114496237025,0.023072561658139097,0.09533070915002112,-0.012310488087029291,-0.022589647429734006,0.06968389533134407,0.16839967499902234,0.007188646159148456,-0.061212287985375244,-0.0626001115034535,0.08433541766115825,0.07864411920753431,-0.0788989487622905,-0.0820719756145152,0.012836656755221325,0.012412562961491095,0.1428480280907304,0.17360980787322394,0.027291316464299276,0.09741392291630659,0.11227397457075229,-0.03546894936192822,-0.048799136940394394,-0.06034171409460571,0.11939356849128936,0.14023933875798553,0.0784150106106537,0.10923485158268753,0.07454128475629389,0.04872192629165502,0.11711995479649019,0.10333599983913991,0.07796735945696731,0.11832812788761464,0.16857938440635395,0.06865203372661187,0.086570105026288,-0.004326367265108012,0.024460081894811914,-0.05071038143420891,0.0011570171800616743,0.07832101015873955,0.0680578794235472,0.008357396433405426,0.10432328334000644,0.03193752504572777,0.09930790442350608,0.16055804461528952,0.0039470772789430815,0.025881739795090845,0.13439127992836392,0.05223669534817659,0.14060352240532686,0.0631235207322391,-0.011689739231473815,-0.07458878519362964,0.07074436579961459,0.16048337789446668,0.07792042745838458,0.020590805475297336,0.06386278810235045,0.014787984572196322,0.04647832323752215,-0.02412627454642711,0.04317761244604809,0.07127128524805713,-0.06717956551158505,-0.07005416894147036,-0.08305660861241035,0.06689317922179937,0.07132737485670668,0.051467804341184066,0.06107351778226425,-0.11230798428256168,-0.027569269779453474,0.028977421194861304,0.03629125295215259,-0.04879089603587935,-0.11778387453967439,0.07192258227452816,-0.10704466139123968,-0.1502745240138316,-0.1608776921515116,-0.027674811850984173,0.0025013927186754987,-0.028800274444546053,0.1296838921053573,0.10675249518897816,0.09880211658062968,0.04146576732618429,-0.01645639424803573,0.023956232426239142,0.07202392104392738,-0.03583937856368309,0.04136387867972649,-0.04268454575460416,-0.060677928284131114,-0.07369691880419828,-0.01755131607649308,-0.003574976446018731,0.01563075234988403,-0.13763586192063637,-0.1637682643419664,-0.009508181794685178,0.04396791947870337,-0.17237145597218034,-0.17434706692579235,-0.17759266756991504,-0.1436685883910247,-0.060807756678807244,-0.08288413947390987,0.045614436991238023,-0.13472939582746746,-0.0519891156551852,0.07565466404826993,0.06065935526911792,-0.030261262170987614,0.049147937828054995,-0.004008541901698231,0.039522531304657715,0.062314177495566836,0.017690226371586758,0.05474289475766306,0.01402423449324243,-0.038549303158265824,-0.017383908128548,-0.03172844269889859,-0.0103199298111599,-0.045077585916674524,-0.03545869932745769,-0.06889312231286539,-0.02671346285225583,-0.11587489995285125,-0.06783139685911595,-0.11611622538099743,-0.1123500271067871,-0.08082571139929225,-0.03094688976344118,0.02951302211389369,0.03382339036780733,0.08047689831035712,-0.005396049658120904,0.05439283071686065,0.08936152868289986,0.07660188232567844,0.06415692352476099,-0.014107575151011681,0.03764342461733386,-0.022490210811998177,-0.06752675325344239,0.036645690607685924,0.03621391291989848,-0.04660045217044583,-0.06519608304998138,-0.05367686996491831,-0.021354220084571503,-0.034795877438967664,0.08043758754431798,-0.05713003020926053,0.03589950315793042,0.08179790471276545,-0.03118594476650577,0.03745656101854256,-0.007347089497275341,0.07786275232737723,0.012360172202565644,0.02982245231582132,-0.015378693684666603,0.10606667968043132,0.07518080599927143,0.017869992267416153,0.05566267866995164,-0.01989430568682844,-0.07377426811332242,0.008059483510917339,0.01668488601334114,0.040804946395172535,0.0449199257007766,0.06951173358655016,0.009018473765265461,0.011550296323082632,-0.07381947812460783,-0.0632798150842297,-0.0746105889010258,0.03283574299797308,0.004391126924355398,0.035573669766767686,0.07918071186930055,0.0809742421641929,0.05924543236472716,0.03562345754650656,0.09199334166136479,-0.08417269143101476,-0.003593203885160698,0.04107971963656406,-0.0703465882313325,-0.029170700136036863,0.0297263832811089,0.058536134731609166,-0.04434686071952855,-0.03069762023860873,-0.07324241722847867,0.039111006472483834,0.04979079675370715,-0.02076803015798237,-0.0016441390809621842,-0.061227373150202005,0.04660460922844831,-0.022196174103290375,-0.08319425993901922,-0.027058214210727786,0.014229951862523196,0.013691293684148967,0.04693942502707646,-0.03586507487664318,0.029483372719893042,-0.08565504180499654,0.07762372577619886,-0.046958742540209125,0.08066716239224607,0.08796316255070571,0.022826631328442603,-0.028291154808105984,-0.0644765769952291,-0.04417256177642598,-0.06234524592487209,0.07391308003616981,-0.01752534268175894,-0.06875461607565711,-0.02598916620173846,-0.05271347780997063,-0.05439874883837471,0.05559930099277227,0.05047508897031386,-0.002086209583358853,-0.021467542685945612,-0.00244024920137742,-0.046230413844152676,0.00769637018302885,-0.01358605502761696,0.01633289890083787,0.057132238853815416,-0.023138517429884074,-0.059319665307389365,0.02940110501735832,0.06178451787843855,-0.015244451209924686,-0.040105082695562455,-0.05724726059343197,-0.05837618320998283,-0.08059319729118933,-0.029978431149194504,0.03788248375180333,-0.04071523656414785,0.07491486762911327,-0.052536506671095135,-0.007881020344374072,-0.04340830308393243,-0.07267958582380285,0.011158596032462706,0.06509820997544677,0.08270859957537566,0.06801821093410693,0.017429983027904397,0.008720871109842349,-0.08106916858111458,0.05208945614111248,0.07400353231695841,0.05572907465975921,0.0212687500798734,0.06995753135844472,0.10719502231379281,0.0021971859252770246,-0.055727904550304075,0.030674686189733798,0.06842254015069306,0.04841322721219444,-0.02234574561778652,0.0347661106674546,-0.005089369556332929,0.13075592252580415,0.12285338925422622,-0.028333513286952952,-0.04344013269274858,0.015355053405673946,0.016834282803107788,0.08226625301160691,0.059146018288299705,0.023021127009100428,0.007285537770757855,0.05098397024390275,-0.07620838141044693,-0.07454388468030218,0.0454859034304187,-0.0597032625559379,-0.04743576956038717,0.06221810691669153,-0.04791390584520579,-0.026987646331512058,0.11105004941905805,0.009371802438285663,0.11263254558221661,0.03645591069034221,0.09864485742304077,0.09647821306533254,0.13264660730132707,0.004838372980779314,0.059366165744602836,0.05475994762682737,0.10933809148824186,0.09673849532455855,0.06953272472606385,0.07982501275818947,0.08683554926643255,-0.020368589462577028,-0.07060392825725806,0.01617925009429721,0.04474974641559268,-0.031790113442674045,0.05457800431642762,-0.008324397788860238,0.07933241533037794,-0.04596534916971429,-0.0003970702005119276,-0.051275975630759356,-0.009653188914295912,0.11944278645587589,0.08517298114265878,0.0312662791563455,0.06513058130615963,0.08102470386262427,0.08850837074397697,0.04702503424931346,0.05080160076443768,0.01765710903184248,0.08579638388057353,0.04357710327684319,0.05646514819474235,0.014372383228465813,-0.0009396975577378106,0.0391624947936167,0.07755424511405855,-0.027889656921893168,0.06852409459358039,0.03505897913707764,-0.07468000696724025,0.009330240538310124,-0.009311942528448289,0.019835498442941593,0.05398733183991095,-0.05232879141900131,0.07748475030727134,0.09150443910625325,0.1151071803960396,0.1235189360556884,0.022852939507010245,0.0018346209782956094,-0.005771556088120584,0.11738619678873952,-0.10595287723116582,-0.07440177224868405,0.07341776318883146,-0.08482849572817745,0.0142455836197291,0.0774709018849824,0.04013264207366381,-0.05258868005170579,0.10758889955264865,0.042579622982949705,-0.0498357861650137,0.013416441386291686,0.06286229820822938,-0.04959031439440445,0.00436668568306776,0.03739930824052627,-0.0025028654807395107,-0.00322204922823569,-0.05604942342730618,-0.06643795268738747,0.010821383029759248,-0.027032736307556048,0.05106387590393926,-0.04492334705865547,0.09015276183166877,-0.0543551532900671,-0.02500724974611611,0.09625037300124221,-0.10214751967409934,-0.16046834756120798,0.004309979002814815,-0.024497654013916667,-0.12181845550020719,-0.09086211603406519,0.0763050978492836,0.003660935827574287,-0.042149994152192984,-0.07594445037388406,-0.044233721098500635,-0.07475394710587774,0.013132091244652196,0.06292450497608308,0.012595997562644946,0.05304400100975591,0.06948632027263534,-0.054923325311133704,-0.08760929524811888,-0.10823331000395806,-0.0776226795848491,0.13038046206058423,0.11231539337713257,-0.014695045962235368,0.07576498242635504,-0.02614345655542957,-0.10424526925213985,0.019164477558156267,-0.02378589205962261,0.008447351734962704,-0.0509322031407133,-0.03032799197823302,-0.06317146852259044,-0.03822682494068219,-0.03507272272190357,-0.04388919906737565,-0.1971443548798623,-0.10038350844117247,-0.1683454359009223,-0.22150339253912077,-0.011646240102406035,-0.09197144391178975,-0.07505361448953143,0.043273033687041725,-0.010980333837299034,0.031972459409781516,0.07349144429038935,-0.055932399779679565,0.03931460402643135,-0.04488405618553395,-0.0025740555611842336,-0.007137082765943204,0.08954888283584872,0.019191630440983685,-0.17347372213372725,-0.14211411107117342,-0.03893338572545505,0.1348065300349063,-0.051970474373649406,-0.173499805903282,0.019082421877991064,-0.15230520552802534,-0.211191942791289,-0.176587089358798,-0.2353833923361933,-0.08642982047338074,-0.07290473972278615,-0.09946175524839158,-0.11050895833944782,0.03171417162956964,0.011069862882265528,-0.0019261273862478626,0.07057034118002987,0.0484520888272665,-0.05274848631867418,-0.09264816415345636,-0.10591354368348681,0.052283451445703545,0.03282337900479797,0.1738994240853956,0.05285504173559036,-0.08742030528372809,-0.16122273654424016,-0.030142144439531077,-0.046598439751477747,-0.06930163279455631,0.015768455259181316,-0.0029641150228581744,-0.08539321089521748,-0.12336232401837639,-0.16112651217933271,-0.03155034670014245,-0.04514613121287831,-0.028752048053176087,-0.014962160588561837,0.02507680710039729,-0.030141291186412403,0.06694221678826953,0.09703749507765358,-0.08228608548445367,-0.08177438021722057,-0.020187081283791996,0.03611683166582708,0.012521219805253189,0.00037210225939696503,-0.036992983421629225,0.1660263476295421,0.04816670353190703,0.049137506989145215,-0.07137587952967844,-0.06545811998604609,-0.07887047313770354,-0.14409726349119392,-0.08959308140340798,-0.06701078061980249,0.02497157595389582,-0.05539995120171423,-0.16209555753006394,-0.04979275230961356,0.017553325925723562,-0.09785458853069112,0.019627187807108468,-0.10260863020777396,-0.017675691393890178,0.07771139615118978,0.06807069725751862,0.0630222226600845,-0.06220680331019004,0.0447358534720651,-0.04109337291898603,-0.06311203546978486,-0.04928583443356835,-0.12807526583056017,0.093896105933997,0.09691944928224502,-0.17619461663064342,-0.12205964227362025,0.052320420142022046,0.03039171275227889,-0.1242602080256736,-0.12670908472257122,-0.23819792095733944,0.03732948612529782,-0.11806339574779175,-0.026221450523919068,-0.036536406066764594,0.16377903917084,0.04914050005669694,-0.007832204710383171,0.05637784216384844,-0.06363913018807277,0.012644223754193475,0.1304521867064474,0.03690198328156509,-0.023385919384905036,-0.019414720271255046,-0.0835907955908628,0.07690513513888683,0.01711190109429298,-0.0342447653215274,0.004099899228320616,-0.03487903388039324,-0.007041133892293886,0.04569905775142042,-0.034673109987937926,0.08920425212721088,0.10361543234459321,0.03708288225457104,-0.1464820114623585,-0.2290877797851417,-0.12210633632982872,-0.13292227406743642,0.08571950708623005,0.12760186399098386,0.01009663268049362,0.01228854681079797,0.004490794395429869,0.017127623040471968,0.08843092028523714,0.0800896659417432,0.16044460908456,0.02999096686285723,-0.015736143516388947,-0.07152224400726366,0.010690309345084461,-0.0006503036473547124,-0.10294588803654114,-0.0362269256375756,-0.08334966915659837,-0.005311372934484095,0.025082331786963286,0.10250199225293177,0.1042380594989102,0.1528104189239939,0.11033407321412171,0.07238723704032549,-0.14512403581171057,-0.17473347119694999,0.07496448376287122,-0.07495414551610256,0.02213670692951042,0.14147837580428702,0.0037380376470447616,0.000020197517497128117,-0.08470495501421621,-0.07240660981075742,-0.025994554406509236,0.1840481629459615,0.0035979508779048486,-0.017473141371036803,0.04065820556805715,-0.026807452329679692,-0.022932329309226326,0.06818833101517567,-0.07488921378057468,0.06986066286443207,0.026187990975321818,0.08355248257893796,0.00587742021714491,0.012195193255115278,0.13698325773150255,-0.046817489210985004,0.07952934312722042,0.1511781929620295,-0.04052507889913661,0.033383447051288935,0.061747981990362445,0.07803224659450436,0.043854825136371116,0.029025404196884083,0.031096695233885044,-0.19076728526222947,-0.07210931376046831,-0.022268430514502936,0.008563692067330276,-0.009944351993224841,-0.07748843133560239,0.09121134089462835,0.06802013202257941,-0.002874836292215564,0.016592766997274078,0.0007758112760156139,-0.06446785631837314,-0.042102265693253114,0.08054949746176694,-0.039836490053189635,-0.02847092981405022,0.14242071323206495,0.06561635966497331,0.027136592441350343,0.13226770875796845,0.03696125276627612,0.14609180425459664,0.09549489235695843,0.07076347249403149,0.04060405711895793,0.0764904614701367,0.021440363919333422,0.09265098183586654,0.017936889725815638,-0.03688886399705269,0.021852226403713315,-0.06217849294294218,-0.015427090308796796,-0.09647742622738055,-0.01003171965077819,0.04854562865840438,-0.014497596710507158,-0.0841638047754425,-0.039100296794229064,0.06800818499173264,0.006670393357952317,0.032982212658557185,0.05174179138998721,0.022921808079140647,-0.04356232807847069,0.08768971394123991,0.020381610022145166,0.010306515440086018,0.03712938444501438,0.00755828943524061,0.14906529120642567,0.1791179761118106,0.15941751062014345,0.1169423650557139,0.07655400358397921,-0.09337509463938394,-0.00720308408049144,-0.0004730780042946418,0.05919308283439299,-0.07745510914402189,0.07350278289965577,0.0344633781743703,-0.027831812285626378,-0.005017830543920853,0.08284931818725152,0.048296438906026334,0.022804565353052756,-0.034063531893827985,-0.06545885536496884,-0.06727143606756178,0.009839388046859323,0.12319725247670078,0.07160577376607855,0.20723546950037658,0.06869008153509343,0.04456933515094847,-0.08340652367254277,0.038108719177694636,0.11286183699718012,0.10980097071745601,0.08821497624936073,-0.035885101850200204,-0.08836606510934518,0.02352413405597817,0.026289445906535782,0.12421804530079879,0.04618054220546937,-0.0012098344382649377,0.05968925704648789,-0.017930775262112637,0.08988589779877544,-0.04363884403524898,0.08283695177302705,-0.07415415255372969,0.047182573497275886,-0.08166798899943367,0.049340978721032054,0.06074995590008756,0.12439800034386338,0.030758103705989272,-0.018431403210924444,-0.027782662974640063,0.1140461609623076,-0.047103090030621464,-0.06422242585198111,0.16777222780642828,0.13882235302619067,0.06641420510888953,-0.007461762584175141,-0.07846369493137403,-0.09073725790441979,-0.05920131653790771,-0.03952437600440518,0.03358072652489403,-0.0031167586574059156,-0.02155621507353007,0.17346296267971134,0.08590593480693075,0.023240644470732638,0.06926450488266339,-0.07614058777205536,-0.07634999001041738,0.032324271587405896,0.058575610412651066,-0.026663418056406096,-0.03577554657888664,0.06844470351264209,0.14626605974261492,-0.06100799836513167,0.01757492601815217,-0.07133400645342673,0.10785322933220169,-0.001230417160662632,0.0957894977045412,0.11610415307089099,0.09795403391189501,0.11749550406014818,-0.022192594160048523,-0.1367505210108964,-0.021584483202814288,0.025701110250354167,0.009107165297542024,0.023958534934861775,0.11197281860056343,0.06285972102722313,-0.008672308961137345,0.021697819240081954,-0.06899870880996017,-0.0030319591545323946,-0.033486099256161965,-0.07341167129915548,-0.0038352815063357397,0.08957131120142807,-0.011831174410809055,0.019022214473123963,-0.04787187632818256,0.012530573220625287,-0.04561811285483736,0.02267448048591741,0.10590783428774529,0.044541956748565224,0.12215796204655638,0.07434751625101675,0.09616117704408798,0.12527544142408023,-0.027407149956134233,-0.108626862337891,0.08079003350993477,0.03478750930906183,0.12009371449372384,0.13533271400693053,0.10321950323794545,0.0887079976153941,-0.030345070057228276,0.012007584049613192,0.03318834968057797,0.06689584090846196,-0.07116750778271365,0.004829471695357641,-0.01250984894428411,0.026960020023075765,-0.025917413374703102,0.10362959428468398,0.031800584712062326,0.04828602388231461,0.0029084555607727302,0.0025565876353447134,0.04855959630321268,0.13908386505617923,0.1567051559744884,0.10840890091802316,0.09346208131610866,0.038315888116619325,-0.08115941785283945,0.044674442893857615,0.15613014396039782,-0.022344490463625296,0.17016380831167263,0.03455618466423593,0.0776440247877928,0.018381786341286007,-0.05782268764913065,-0.004219155061260466,0.03255720755661751,-0.05921461176908052,0.0817331634264744,0.02620049177468702,0.02890315996893514,0.06759042973422065,0.010243429995487727,-0.0478566363986843,0.04634369951739992,-0.06414364281465904,-0.02195012556855396,-0.051570733989178746,-0.047853378044685264,-0.028968601908117224,0.09020672641874344,-0.11278703929893835,-0.08084503978420587,-0.04894442894569252,-0.1039048118581315,0.11925656535502319,-0.016727430219478305,0.09615216198024518,0.13945316104744673,0.16249711808534759,-0.019271509043097518,-0.004073719364001458,-0.07230249763205378,-0.05959262480958578,0.04747638868741676,0.07175637160452004,-0.0004622606580903521,0.050771997861366186,-0.0833861097028472,0.01879091493170116,0.0342977672354453,-0.08911217927937791,-0.10876572607107297,-0.16662250826877903,-0.012977118389125712,-0.09043037710235938,-0.10355075619860402,-0.13949704004711327,-0.1972215521580101,-0.10451855688876945,-0.08452443153418747,-0.10581104647810212,0.03297460121856343,-0.03813863693922472,0.010639285883574216,0.08783751784782591,0.22198553943355323,0.09859523027051816,0.10765450252465157,-0.0459093951868084,0.04964051196604849,-0.03551911775226459,0.04323094218412173,-0.048911845888510774,0.010665999896503103,0.08006010577809247,0.005179684444081525,-0.08066741914223816,-0.03469721591383142,-0.03401410299565412,-0.09130226951764941,-0.03697196122209167,-0.14395578121366143,-0.1655762799925379,-0.1246739264003309,-0.015757999586746063,-0.02981347216587036,-0.05596982302513792,0.028902713613596566,0.04725155529182455,0.1009899275400932,0.10026783039041022,0.10179190691628127,0.13106283589329373,0.054396081089806154,0.03791410856310278,0.062074617070153264,-0.014071482007738284,-0.058054242446428435,-0.08777615219836632,-0.0007126827994349471,-0.056305268535223774,0.08170171827934802,-0.046562847442183815,0.02571892746280613,0.05377995871603772,0.04606425249102958,-0.021686473401304744,0.0030176072959061584,-0.06831563855221683,0.010751914713358289,-0.04997080118775383,-0.06514222966223263,0.055708776166015224,-0.02692879383223293,0.11876828721706609,0.09345367614309547,0.013462265693310245,-0.003641456695773004,0.10616359166358587,-0.00008299968418672192,0.06959923523148664,0.08988813592110041,-0.08472224858087715,0.006853856462468846,-0.00180978488518759,0.03494790441221849,-0.07920656499809349,0.05620133053245336,-0.05717867421993876,-0.008959962902898064,-0.08201243996851763,0.060061922464487466,0.06932783188639807,0.08206645985895439,-0.010617214345022172,0.034427491351929594,0.012620169049775861,0.010145531704851057,0.04983540751597909,-0.09628114351817454,0.032661760171964475,-0.0011811946095783934,0.071876545227978,0.1088558263067617,0.08467622513906305,-0.0023545785448996458,0.04802052977355002,0.014084467662935453,0.09253578265699049,0.04159299967110002,0.02996738225181614,0.059049510264500116,-0.04098017378147676,0.07836472043759642,0.0565878549183067,0.020855288373842942,-0.04554448857636319,0.05479584284250144,0.02658247102169921,-0.008201760842194747,0.05001284637567441,0.053884938312336414,-0.03796063133611941,0.0033757963187522064,0.007371658255460439,0.03311273168050253,-0.0025821029306421785,-0.05393078420323254,0.03719681423769892,0.06972882428014969,0.07786834708244478,-0.05593629150190297,-0.06438818576351482,