{"Layers":[{"weights":[[-0.06632150957020286,0.0221833960773746,-0.015716044641892732,-0.011269448349533445,0.07855785795794237,0.004290095976341474,-0.01780779793153063,-0.009689234028072619,-0.032824554247362026,0.08512046130983028,-0.027469497196309645,0.07738119172120095,0.00019583861430279292,0.06673566885705232,-0.07690728290414332,-0.03475830430144862,-0.07449604855518958,-0.03679502285004535,-0.008514719219332584,-0.0386800925505407,0.031565856893566585,0.06451473722639584,-0.008546537172115662,0.003217620596866283,0.00048354766152851336,-0.0457166592843269,0.04465711705549244,0.012567736678555916,0.06812889551164622,0.024624899466677758,0.05528830673063728,-0.07762479395708743,-0.06370844195275324,-0.056672469735280916,0.04189079530074416,0.0502472611093252,0.05188072236442967,-0.0219855463988214,0.07585295146459273,0.0028706980552716532,-0.014450301494643117,-0.03845584972681918,-0.022605339380577655,-0.07147658840471569,0.02345315056410255,-0.024060958298209506,-0.08503281148745538,0.008433307691329717,-0.012590491904787629,0.040956481240145726,-0.03768437683400364,-0.050601317937210656,0.00994621621000033,-0.06984547208394987,-0.07260687637083613,0.07310638838870573,-0.08049781846024723,0.07955740270280146,0.008465950125847527,-0.0448335620395304,0.005610870747514485,-0.052456766996882495,-0.018936241604981488,0.012999537953902171,0.08247222996697268,0.03647541526736764,0.04647193995791027,-0.06293457445632106,0.081859608729377,-0.01991677691382074,-0.07206927635345499,-0.030736433517266543,-0.0864975173805961,0.0037645855070156803,-0.058542693311335256,-0.015836460006594694,0.07987639270160926,0.07231557926387536,-0.07840073810541247,0.025563618701268137,-0.022203623226766583,-0.04808637579555233,-0.037783692476250415,0.006308107311877406,0.01195428408879455,-0.06880127676473623,-0.08690153502948182,-0.023991603643247164,-0.02561070793648436,0.054061359481833826,-0.004755725135467112,0.05160914165506267,0.06852689375380128,-0.016313989669986803,0.017833548879860606,0.07360173983258778,-0.08611780550465367,-0.044658346141928915,0.01697405008086736,0.05000772498468961,0.08207549224510952,0.06070110500472706,-0.026826773165773178,-0.011730142390637563,0.07269068374979679,0.031989006954097385,-0.01180335117298828,0.07500745845765833,0.045965618835544786,-0.039596871456336925,-0.01002659921358777,0.03494467095226772,0.08369675041971628,0.0599970555074347,-0.03693901328315244,-0.05180377713826777,0.030569752701713304,0.03903785224964704,0.016425963592409082,-0.003074625571124645,0.057202608091386276,0.022176964679983174,-0.021036568303930817,-0.0009922920387323286,-0.028193613232138842,-0.027602979112240557,0.06599375141654934,0.02603326199996217,-0.04797990162717335,0.015228342415994564,0.053837106717267186,0.06750909675543776,-0.041085322784015395,0.047792582837004244,-0.0016793581424538323,0.03835010251779117,-0.07892018170707676,-0.023307449343042977,0.04820074327319901,-0.08163133599673354,-0.013985754060374445,-0.038070675258243106,-0.08121287764370881,-0.05694733586015713,-0.025755875165651462,0.03851942356995561,-0.08193739788435206,-0.010172982556540783,-0.036677966117040724,-0.027868340939758617,-0.07159243069688648,0.004030549572770839,0.041495339300902656,-0.03765382959197326,0.04164667552071874,0.05564992937036345,0.06932066146650279,-0.04398775147333476,-0.002838739349453112,0.017985894415550485,-0.0608853203045535,0.0024782831023682506,-0.08570242089069419,-0.05173600644193459,0.025606559470875742,0.05076052681957127,-0.03837916227529078,0.08535452297470042,0.07343515749897919,0.03176733292169222,-0.048572409037810974,-0.04261600098903459,0.057247873084915635,-0.07251344927082039,-0.04746677284655142,-0.02212349130015319,0.017580259955985264,0.018685436890643642,-0.011241574420309472,0.003291505424475899,0.07660415799160855,0.0620035287553313,0.038472085636285736,0.02325894137959887,0.03172415491742796,-0.021343787215477555,-0.012009771209383124,0.039008254728131686,0.03437366604311212,0.0705248304056392,-0.07335106223135321,0.020032839438755293,0.04977012523918281,-0.035948823546223925,0.03702130264786245,0.025898594514045137,-0.016093695251804638,-0.08239174303547456,0.08154794425862957,-0.04446514542956588,-0.037798785532822926,0.0019087493411204387,-0.01997529512832738,0.02789347676993191,0.0014607628769609249,-0.0371092368113528,0.04245688142641499,-0.04474609867747286,0.026172813856871188,-0.01853068851488668,0.026225015821794984,0.021205176782621432,-0.07978272850710116,-0.05174035097324287,0.0449955681135763,0.05734169539523251,0.01840678994448601,-0.03477150845447891,0.053215375510337615,0.0868876475081376,0.008367571614632904,0.0549579485155981,-0.05783702366976925,0.06127003080716864,0.04616547244587829,0.033808764585609594,-0.061550997467650664,-0.018159027113420892,-0.062132766379455334,-0.06106341385765206,0.008479083282388694,0.01876096307134907,-0.03916718637717704,-0.038278062566004786,-0.028193402666632353,-0.04071251334872975,-0.0026197204980721728,0.08446672540734212,0.07065192536319209,-0.0018780358869956298,0.02218505760975846,-0.03537109523916146,-0.022700376671299996,-0.020682661244882758,0.026327140509108088,0.01838778657693063,0.04718244859764373,-0.033985592995587094,0.0056493815050308455,0.042059950028855514,-0.07497651606186026,0.06441246940866266,0.048987372686899816,0.04970616357700758,0.019037956551467686,-0.025697989036685458,-0.05002119566406363,0.05458115415034953,-0.03851674317818314,0.07120980193456855,0.06155971397670368,-0.012772669686338736,-0.06760102258009966,0.07890363311543547,0.01797265683701145,-0.03452781325687017,-0.010067704747003872,0.07817851506844634,-0.02394141928239174,0.08273888449265077,-0.020998609000628374,-0.05887945337120311,-0.03630270579064929,-0.08322458292497169,0.0853240967213374,-0.07752032038820895,-0.011184983194763257,0.023947224676889714,0.0178260069311479,0.012153998581249825,0.0007702419882627681,0.0759329085499525,-0.06859350609387307,0.004255234677803935,-0.03624918854791864,-0.040908175628477136,0.005983161202833792,-0.03717378684864126,0.013209302740388576,0.0013771975181948032,0.06658260293903412,-0.0679323946196371,0.05900476260092838,-0.0748456001926158,0.030827038343240326,0.06527332411534129,0.056595244882706286,0.0691034065682079,-0.07587882188836974,0.06619115152173577,0.03137649058118033,0.08385372593407395,0.055497804862977784,0.05579659232067863,-0.019013905851056015,-0.033307684344643984,0.055384270456797696,0.018216773105627845,-0.06366681358985507,-0.055866959235629184,0.02837827051654518,-0.06627514059466663,-0.043623845587937526,0.018860350423477876,0.07759005872002853,-0.060627336015224825,0.03600905662066517,-0.02831433518727732,-0.07038875743747669,0.011832641126238885,-0.04955364609423095,0.07191889583207414,0.03072341103346614,0.03455749193087036,0.05674333935230938,-0.011423117386394094,-0.05446029993717948,-0.03949657893208901,0.01152643786877465,-0.06784880747362829,-0.02228859081219968,-0.06690438452273201,-0.004865097167460433,-0.025358261221537087,-0.054330118152524094,0.05099551894476165,0.004319923620290128,-0.0029905984460525253,0.016660364181334694,0.07473166084664504,0.06409527572493462,0.010022944842759812,0.06084468198381515,0.001049486765790919,0.047091626798566155,0.07767690015474785,-0.045831719746952604,-0.0379364851092652,-0.0012436857441668198,-0.036899700604189775,-0.03875781185462205,0.0046713509885302346,0.010439475103209278,-0.011210632998623085,-0.02179368641019902,0.00529062164221919,-0.003976677767277573,0.05642115084823143,0.028079587933197064,-0.016842727473678265,-0.005862560241683981,-0.045085452343465386,0.059552658031441,-0.0584660458402279,-0.04719160090639579,-0.016814463133288077,0.059586770156906,0.07522741228593197,-0.08087409285478131,0.07822331223451637,-0.07813030292149839,-0.024460926163035322,-0.06991069303023309,-0.02047694040475881,0.018176561308237027,-0.06260331994382283,0.015903404995158812,0.02900769024557913,0.05305952666019639,-0.022477610519212154,-0.036232385095063414,0.013380728696244529,-0.04250204568873937,-0.08409440165747299,-0.07880107521335254,-0.024633842994168785,0.0013401879405866152,0.06343704403710906,-0.024372881454916576,0.016562834963975773,0.027045496923887552,0.07004793507361051,0.003174448788583653,-0.039435870778180254,0.08558647477452327,-0.06582595481702114,-0.04406366221901422,0.05108728350750713,-0.041014818879066925,-0.01696197633091516,0.04235646888393918,0.03424761286814253,-0.0353261936459388,-0.0794660025935778,-0.07385051733104474,0.06856576945331233,-0.0868429661891328,-0.0282705328869843,0.018760478873930134,0.002930184043365855,-0.05659942536442073,0.0024448602434514882,0.006383560949486236,-0.0277258638798807,-0.07161894238219005,-0.035467747709039384,0.004985170772648456,-0.07301204787853023,-0.03819887269227389,-0.05576478387975713,-0.06644022244061171,-0.08090176062555936,-0.0037739340537673305,-0.06081085122667144,0.07530546284830891,0.048436138095552916,0.06520351092777801,0.014485437168200499,-0.01981109363485159,0.0730331136662665,0.07382175417227746,-0.03176654895892234,-0.04298239588826759,-0.01308479475302013,-0.04134028286573918,-0.021126207012959905,0.004983978366760192,0.028377989880258983,0.019974100225497116,-0.06216359900828504,-0.051029737789587366,0.03223583664372781,0.08623936636854915,-0.05291006027521462,-0.08439162929738059,-0.07390992684615579,0.04616451780680533,-0.0847438907474482,0.0152469553788675,0.0753456865815687,-0.00035211108444810346,0.08119497047211091,0.00895024318655549,-0.06091031282799675,0.034871401844074154,-0.07506286880993066,-0.03018256298101072,0.029899781079567977,-0.06862708433722628,-0.07510468787641213,-0.06182350575665614,-0.07813223771636643,0.03991750182246118,-0.012416826921644558,0.011118162492914196,-0.008343859711537352,0.029594062473934063,0.024673635650136944,0.0005050842555611168,-0.05394201247504904,-0.051878199409607126,-0.07590300125744345,-0.04900138609167782,0.07472799261320279,-0.0692550855438391,0.002802452272338385,-0.029919832628704686,0.05564845013763908,-0.027141968417825985,-0.0405202718171429,0.04654729647924158,0.034104435318059484,-0.08253192559956667,-0.052322182915087154,-0.06649555297629778,0.07469423970609354,-0.0822581436368733,-0.04985127892259369,-0.07199500720381925,0.03844722141007331,0.027139160760352957,0.0016398070226967543,0.07360947093664472,-0.007552383576955812,-0.06652396871693533,0.03166002637607111,-0.03738781769763234,0.06548894715096282,0.055884808799937125,0.019363482364994036,0.0599122418729712,0.018518510609764324,0.02464567844314984,0.07884171070181184,0.010471113273622643,0.019412574306215,0.06428737923839373,-0.07632840462128228,-0.043271848793682385,-0.039401691374722186,0.06723722546721342,0.016228120924205586,-0.08441811071346912,-0.04569853932373382,-0.06882320271567166,0.05850517668036634,-0.062144528750460684,0.05073368455056265,0.030110281072795272,-0.07558449354074832,-0.018449963664924726,0.014346753454039407,-0.01699515691845649,0.058850370434636146,-0.05885283442844966,0.03207240926013595,0.0559317083359413,-0.038367755703932076,0.05687224046350464,-0.07173081636966236,0.05607717767181605,-0.07989698630610649,-0.05603017730803346,0.06333446322617187,0.02464462264491682,0.005637221380947119,-0.021852886434348184,-0.060617337376720606,0.047599737473272924,0.007010727932087041,0.07076998734496234,0.04862440574783189,0.051594166309709616,0.024126323807798403,0.06216875718155543,-0.007216653730527003,-0.07759177559364347,-0.0003205717225458482,0.014136620221951876,-0.08437072095462277,-0.05367995915385227,0.0004236344775819245,-0.06966388830154573,-0.08517342243035256,0.0077445626040381355,0.07385523711079561,0.08291188829380436,-0.08685084900588215,0.006403748701862971,-0.07247075988969841,-0.08049296906676387,0.08162779903337955,0.015732727199117114,-0.02115357178646496,-0.013283718006549275,0.02795382636932947,-0.08080419968011894,0.06561505574930443,-0.0013610257801285192,0.006654285502681309,-0.017123186876007154,0.07824003397953824,-0.03907866337623511,0.05331908389868781,0.07031862965210708,0.05677495426263121,0.051187457368217476,0.05429620664850235,-0.05465349754025511,0.003969104351212352,-0.05459516493879647,-0.020793016078462,0.005931087020788109,0.016271305643617007,0.03144783999491291,-0.06658545661710691,0.07545568911025918,0.028816328410283754,-0.022389219213739486,0.03663050691498185,-0.0642222215382729,-0.03559021548707403,0.0037414426370580706,-0.06872811772119515,0.025583107611130473,-0.027744127024840325,-0.08111644682172539,0.0503541493630115,-0.04032754606847453,0.05973630970800012,-0.07748409363575419,0.0865882661579252,-0.004568671104568475,-0.04598438510425324,-0.08123976840131626,0.0028387926342338665,0.02620885802986149,0.008035934960610988,0.021008948179482373,0.06194824484360256,-0.046969334988802555,-0.03743361548677592,-0.02849393385983602,-0.04599699545396748,0.064843982246474,-0.0021442465911007957,-0.06041110684019306,0.07380961653621546,-0.0006433422883495021,0.02397733285371853,0.07883365412414473,-0.005849992803421619,0.01130737914988078,0.0018025736990654878,0.034114786176520404,0.048924126500131754,-0.07565581287665317,0.03563299662915349,-0.05142647428443201,0.07910039594808146,0.06125312461480101,-0.040537191915577205,0.051067384373223806,0.07307726433636214,-0.0012473682083952164,0.047086822902370346,0.0749710445594717,0.006961177862848181,-0.08629778735434901,-0.07219054703248218,-0.004870740064065279,0.04104988614419369,0.013221797868094562,0.07741909056119231,0.007683553189796563,0.04355355130502497,0.03235266122816892,0.03216655108497274,0.013895051969193079,0.023876687845702654,-0.06105005567686617,-0.026799244865464096,-0.01483406144402978,-0.024626867122617108,0.018876706283764838,-0.019130347943239118,0.03731750184482438,-0.0352331617798815,-0.05600491263575616,-0.06310498364603412,0.02924880479617363,0.06948510182671144,-0.013745696872882046,0.07842300173021483,0.061835380131048084,0.029404434906486934,0.059076954525598274,-0.0009630512252835621,0.07663356835502477,-0.04748981254648573,0.05517887280372827,-0.014895538005879769,-0.02459435308231018,0.0329358900054318,-0.07740297347977164,-0.0489667766552261,0.008674850035900017,0.05482966187351601,0.0829285603517998,-0.054582484207725844,-0.08494737302565049,-0.016954115908606335,0.06402020071969478,-0.011213810101831242,-0.016566113663516083,-0.04617536345093644,0.04138854616993268,0.02929628086797878,-0.053999142712813954,0.0011269115535603863,-0.04106331407774808,-0.05123957211247326,-0.056838095012745324,-0.07589434505560941,-0.04452895731038093,-0.024879336734653923,-0.041642269339184274,-0.05119778204363363,-0.06551479070159981,-0.0013683107664940047,0.02083718429952207,-0.03886698219676969,0.04861001051467728,0.0787409511387514,0.061606795830569994,0.016629566935706414,0.0336177880650836,-0.08284712560868235,-0.018499863368247868,0.05829011898703593,0.006571730659555672,-0.008292532326697397,0.08053830104267226,-0.045008666428092675,-0.004066509459149048,0.04141834921042031,-0.08174247880666563,-0.02082669489263521,0.01637666533293433,-0.0786215641628631,-0.08451130726063945,0.07879543077845841,-0.037921123030344873,-0.07922504476036736,-0.017445028370186855,-0.019476476341068027,0.02120278500817438,-0.07484677036335739,-0.0008120525039399668,0.044335690422800084,-0.0072672840214946105,0.05509001280367906,0.04700707994821321,-0.04566116719159503,0.04344540408902672,-0.01348159806497537,-0.018646387750984983,0.06338899490125827,-0.06783765541096691,0.004952561108774414,-0.06417047133447977,-0.035286855732730334,-0.08684193539047312,0.028143120054430662,-0.007709353530901741,-0.0046068234300934985,0.08225049827243205,-0.04618388122441592,0.07963143181512675,0.026414407760248657,-0.053143775714849045,-0.05408120641218418,-0.0032131603047900886,-0.057996863667557866,-0.08622429799793545,-0.022593425106544038,0.003221752899586497,0.08183536444268882,-0.04529204845622369,0.009302677800756554,0.06943704110901297,0.008389454961066009,0.024844998922853856,-0.019071899710728826,0.004728866769331111,-0.08578744477638532,0.013515281266535964,0.02481916556722817,0.06663506741633834,0.00046991626257220087,0.04978055276882415,0.006760964923088031,0.06622968958467487,-0.0015369846297966921,0.06787921059722066,0.020054079572348935,0.03886901156115974,-0.004989277547829338,-0.07981899797006013,-0.06886447320039732,0.0803176305025845,-0.007329814716094674,-0.03374384914329151,0.08482363098295229],[-0.06625854607440289,0.029134322130699414,-0.03818095976668738,-0.033172636432691825,0.056929863494245087,-0.08005306707950217,-0.018043072719019698,-0.08522755133951292,0.04260310993663721,0.04150705382870634,-0.01016565461314256,-0.060448667763863685,0.017781231189070226,0.02890835546426901,0.013622139683770698,-0.048336284606272435,0.08337374284595644,-0.06226856622792281,0.047740643618585404,-0.033672042194818105,-0.07211226464051566,-0.010402153839487019,0.015430891162670365,-0.030707557354459833,-0.06612971963353703,-0.025797103080427312,0.017690460065845598,-0.08356641359055493,-0.0734557901196041,-0.0011532094736827064,-0.08499285981469831,-0.0818928106183158,0.00438474522196218,-0.05203836186077037,0.00280586155981144,-0.08330617129291795,0.07852067845101834,-0.0026188680325366642,-0.011098104279356702,0.007011629135331265,-0.07611247107475945,0.005177097252111171,0.06691291850629694,-0.010635917744940812,-0.008412924191403132,-0.038156549116972346,0.023089199003430746,-0.07310022213382772,0.02314745140781116,0.02258830471930283,0.004969226677282362,-0.015021545430338012,-0.08149318081341772,-0.07103492451334878,0.08329994237913485,0.05820732492060027,-0.053092094985992294,-0.03224062199618353,-0.07814147406412258,0.06068245847518741,0.01553161180452578,-0.059487408870288944,0.021593592530697675,-0.08037748808090958,-0.061058553928356324,-0.04711859977757908,0.050396350851699134,0.006259379229722972,0.02114091293367748,0.03749481105999761,-0.07349610684487547,-0.046148673189186896,0.058104716167735326,0.059892554770361234,0.0493073801631459,-0.04365599213666912,0.023454258857379798,-0.034060169907650394,-0.06373169164077294,0.0028574466002752735,0.05842205323982749,0.01169687011836719,0.0038817043756213254,-0.002802550906527812,0.06074867963114769,-0.06447152160697521,-0.03709346331415726,0.05656038490024626,-0.01348748226078636,-0.05532144992263537,0.05622739469364749,-0.016765436500399813,-0.00940137376492467,0.03339144900332838,-0.0568635713555393,-0.031135928204514184,0.03614176412029102,0.08194565784741503,0.05110245912967867,-0.029804209545010812,0.04224852193775672,-0.07090585085862414,-0.08350112996863698,0.044662303147807336,-0.07933283253416762,-0.06778239765197573,0.053225050835240484,0.061424363640937646,-0.056652536553238916,-0.07811527833752847,-0.0050769630508678415,-0.002303001819723635,0.008934077670973303,0.043259486542809006,-0.07642480030611994,-0.04695040404021564,-0.022539443957325836,-0.045480873743659084,0.08621519850743989,-0.08548449001273306,-0.018154898244046896,-0.05252910989494989,0.06471749145077693,0.0017678117504879715,-0.07164588912765464,-0.07227198633956719,0.04447931338332639,-0.05897261561478343,0.02631319342247182,-0.040647015082032126,-0.01063933761824061,0.08441450280856025,0.0730022319719239,-0.026750906165122976,0.009771318188569633,0.02288039335653512,0.07826619044823058,-0.018614634235351313,-0.03931232549746052,0.041527650790368964,0.03525293389300248,0.07102730653151779,-0.07580675873069283,-0.0661496415712528,-0.037945768471130396,-0.07428719035737538,-0.03169492985148221,-0.01114811742916591,-0.04087701982059373,-0.00003896702879704894,0.08274240575864347,0.028060356724928,-0.013796878411052704,-0.030558832887170477,-0.037570401352148765,0.001589349436443746,0.06260087763651595,-0.002930993180323166,0.00931040379097993,0.045988955198175446,-0.02481510674080685,-0.04274414270180557,0.06711984573375807,0.06709203108317871,0.012965295833065563,-0.009501832120003911,-0.07446109775870706,0.027277739419528588,-0.04676677912841915,0.048439276270832526,0.07035515698504383,0.060984839605511015,0.05131842132787551,0.06312994211603035,0.04246707253883611,0.029090629517248418,0.013258293549514313,0.07132910176881652,0.019788491131683808,-0.0026602684561933265,-0.00893405299599892,0.034454266216799145,0.07728843602049065,0.06966158362162092,-0.07130377226275295,0.008100564392155937,-0.04006459377692313,-0.0020956538626431126,0.07073495030625887,0.021307613055239497,-0.08468942169421678,-0.044892165260359704,0.001895236787851154,0.08383422317104541,-0.04614501755604353,-0.037952903859612405,0.05590787251280882,0.03219516939336162,-0.07334653360249516,0.009796360624716088,0.06769109247942331,0.056005368876858974,0.014517950673724231,-0.051307239688576804,-0.007545576995269088,0.07881061231476322,0.05855227183087203,-0.04800163289440873,-0.04305121454267281,0.0006093637983725364,-0.054725909616495455,-0.07425927385268134,-0.010750947625364118,-0.011701731910182117,-0.017771584827533035,-0.08263738788796385,-0.05678256704204432,0.020541975850883562,-0.012616833888132492,0.01859954920763844,-0.057925545681279805,0.032699609817563396,-0.07954138268478725,0.013024640237927834,0.03969668117189262,0.08314931160074235,-0.020362382599753065,-0.0016264304755165548,-0.025413832429005065,-0.037274681315507,0.04454825872894286,0.03254508058092771,0.0030705896292453766,0.05438340789646931,-0.01443739481470796,-0.00043212120685238997,-0.017510803506861128,-0.07990899431700628,0.05104767197494142,-0.019130384861859806,0.017240427132223818,-0.08000720908043354,-0.01758422286266037,-0.08184819581606154,0.036313463277331384,-0.022774533398594213,0.03929126542515515,0.05714265490114684,0.06211044762168125,0.024103588494602673,-0.07772587235865575,0.025656836710137063,-0.07779829056773738,0.020901603531264537,0.049345423667073285,0.07214901498815696,-0.0298801523406586,-0.0768351065343279,0.06100960608350625,-0.019298038771424914,0.00693339287373082,0.04420638115263631,0.03725476988864922,0.06888774665246244,0.08323129718502931,-0.019389930403040698,0.06950203617107695,0.030337400097649,0.024132647634611357,-0.06203798372657333,-0.06568013506385392,0.07670911856811424,-0.024849298972432786,-0.06965877940264227,-0.07103410276027153,0.08373357906844855,0.08047478206667799,-0.017262765173550465,0.0451053826723638,-0.013109240751908488,0.0476519198189779,-0.0847475856740479,0.009891864235857403,-0.0490766922180309,-0.07027462477908952,0.014112635771951335,0.021505092904304704,0.058850636387543565,0.053369734564247095,0.029017796628337214,-0.06213666065847891,-0.049958849508647166,0.06863467737029197,0.027114080947922295,0.034356626280491576,-0.027710475349785865,0.04494588666965754,0.08118420055835612,0.04452441071057245,0.0797945829822658,-0.08435669999845521,-0.0418502026172613,-0.05019202205521056,-0.06248113074314774,-0.04571216763564112,-0.08412468085122504,-0.000030233121313893996,-0.08140251271288143,0.012198459145400478,0.0679081146879611,-0.014593071733684737,0.04441412502586056,-0.04714608804435691,-0.03346850190994162,0.07557389414516452,0.03652890763672473,-0.013728357514413508,-0.024205274221506784,0.03331725715211396,0.07866307768605185,-0.03772784543771041,0.0624118903334798,0.0016619685813423768,-0.03390474670762236,-0.046113578442456275,-0.030982228965747663,-0.0006714069971430481,0.04517494307224193,0.056073004424010114,0.03645117335132042,-0.057706257943132534,0.04109891920392797,-0.04955234111516085,-0.0031403898135289182,-0.002520428828568219,0.05892688872663321,-0.056147221220846824,-0.08504229992191824,-0.018012594195177076,0.03870872579302115,0.05380404492381344,-0.08592026791903874,0.07727408309834521,0.012778759044829793,-0.07574837494708114,0.05230235689081125,-0.029168117850030588,-0.06044948673180364,0.03901238445357283,-0.05719176239711339,-0.050294940701551376,0.041653607388194513,0.08404225056368683,0.04465757598264675,-0.011879874092032325,-0.05834005258829344,-0.036961255367566156,-0.05819575472698365,-0.07901583871024784,0.017246595292128963,-0.003908066172001526,0.08387100042518822,-0.06832443338705856,-0.020948984129220707,-0.03462201898787093,0.0011549775381469451,-0.024255272233604422,0.06827497495634599,-0.06068517546668545,0.08183380869938994,0.04956532538794922,0.08296931602143859,-0.04755495326458768,0.08329257228495024,0.027884055942564254,-0.04226814603723407,-0.06339522974369904,0.06515609525779958,-0.07659464174344421,0.0430040473097498,0.04202278099955897,0.013579278995945396,-0.07624245966386274,0.010821996293438899,0.05033227758468764,-0.045016803182145626,-0.06228791729641793,-0.02916999789654843,0.03169473303494641,-0.06291767931555749,-0.0177219430640687,-0.0339372555733682,-0.03241953390240422,0.038289361630337526,0.055007516180095,-0.06315358390472219,-0.01745565012987431,-0.0687558709867585,0.059169202921613234,-0.08321893940715985,-0.07527618464734935,0.07059103330979591,-0.07498159382460125,-0.06892858618093733,-0.058197216133620985,-0.06940087207311733,-0.0001285676121552809,-0.04663408824094251,-0.05387800969591777,0.020653432641899033,0.024420975336331294,-0.015605532304983585,-0.0735492638538612,0.025821178047939986,-0.002136844384116196,-0.002381200512149864,-0.07287272569266104,-0.005307302867239516,-0.026302664792608045,0.029934843663530095,-0.058630682001129836,0.007190081011969829,0.07764363685922626,0.02003011494324168,-0.009062969167784249,-0.04910977607500867,-0.014173038415130512,0.0279920888242947,-0.06324285956217479,-0.03488794060438657,0.034338390379185194,0.027248720396476897,-0.017657094924966768,-0.033630735763662066,0.013577218201147975,-0.03651561772089193,-0.08114480387547275,0.06766867527707787,-0.08392649676813857,0.035956859649978565,-0.05553319137476968,-0.002474715866775265,0.07472100050193128,0.08362407095690977,-0.07449535071466201,0.008740086655337695,-0.06504615111850012,-0.07158173871110048,0.06051019037507435,0.004407805179760804,0.025946654036605926,0.07900288592777324,0.015054152726602224,0.03312649435382012,0.00647979062051722,-0.08323486755911016,-0.07155324602324843,0.022512497727476433,0.06715166577678758,-0.06000200143765576,0.011089612506276908,0.06769125451039229,0.08493002749282816,-0.020770074618634726,-0.08088643362093967,-0.0008664772524149683,0.03207793169678615,-0.02347548534042758,0.07177073812782739,0.05971465292041986,0.04345151325126362,-0.0566271134672304,-0.08327164233275383,-0.009111821549606533,-0.07907822887833876,-0.05572206554403114,-0.06677611632439993,-0.07763063662699066,-0.06365134892097303,0.07437013085686847,-0.015517956533696836,-0.07624582397207053,0.011747075947281749,0.02578845505631089,-0.046599095445078786,-0.028839828909111444,0.005688693374921366,0.06381959142803537,-0.05968555034733062,-0.05961798974064862,-0.012887990149247311,0.03654941394760572,-0.07581716854020251,0.0012273675890804997,-0.020717369237050573,-0.06907336977745397,-0.0014396643261392061,0.013770163384459286,-0.07328802564331333,0.05423601700427971,0.03523827882004121,-0.06591088460381202,-0.0711362657010571,-0.07406143740984532,0.048679938010269486,-0.08093426863531428,0.05608702998286774,0.03586918319715224,0.08003685294251126,-0.07449123358547537,-0.068653799859073,-0.04505423799639467,0.03386886162976718,-0.07776402865533967,-0.03463884860362608,0.03756853841888182,-0.030925423513682514,0.05411011461666518,0.030012176715197306,-0.08309477353253167,-0.0020656906798025843,0.06169207910669447,-0.03015613606141087,0.02898840638906458,-0.01605751252325431,0.054388597662711424,0.06370309797807902,0.04841148949705368,0.018088314732395805,-0.043722994819740346,0.05059484590301336,0.05237129739148119,-0.01565637672534753,0.01473464867924311,-0.01131765349381543,-0.04367447135095507,0.08535432157414441,0.026656636892999686,0.0732646395416317,-0.06896957224690944,-0.054141356819119184,-0.020529439415516618,0.01190877411662758,-0.0456596124614514,0.02936500052971533,-0.012443069275282825,-0.03348080623431876,0.08327005966125375,-0.030907856842583945,-0.014585040242140981,0.045167281515861746,0.06559039583385104,0.0012036592819711922,0.08489975041435602,-0.036005664163669564,0.04942138484190295,-0.07736006511195824,-0.01881014868345951,-0.06927044800294911,-0.0175206108081023,-0.00967089143507767,-0.08338414195454548,0.016937674804799283,0.02748607300284439,0.0002842191421520701,0.007675056269711558,-0.07382579729546465,-0.0025866779347956392,0.08658521246175419,0.06394876996369428,-0.06363343597077845,-0.026465361082898847,-0.027898273136215845,-0.055276443773670636,-0.03215227298308866,0.05870760406041525,-0.07006939188701247,0.05834627727618816,-0.03402524127246062,0.07667035738783165,-0.03172438168686302,0.04384525512708448,-0.08638810986057473,-0.03004346816651507,-0.014246479460881659,-0.0384069364300669,-0.047873072037258185,0.0779837174365827,0.025382036396328272,-0.05766724170095614,0.02186906223867424,0.018190598517804413,-0.04502416193776831,-0.025178015935780715,-0.03480192963527259,0.06720346914431932,0.023759146560845684,-0.040659578691901524,-0.019928131599892582,0.015288478897891505,-0.02405761365360741,-0.009858254222379834,0.007873883711366353,-0.06195789878204301,0.03250253011135169,0.01010546812681834,-0.020628119701671832,-0.019007012185052102,0.08357645897155017,-0.06831185692740224,0.015082859780443506,0.05757908499899558,-0.07290847500998407,-0.018751928750945612,0.023998823916316248,-0.07950334198989463,-0.03369678406248896,-0.0250529075589107,0.05317363280195314,-0.03324180845419611,-0.06494305041106291,0.05477766057330888,0.016706225205285183,0.07113802268422584,0.000044897142062252926,-0.009151340531386373,-0.06319708331709341,-0.021791503347392244,-0.05235969857528023,0.07584810205752815,-0.07052818906472497,-0.07599426874743201,-0.0722886464896068,0.08286800408637765,-0.0034988641642497015,0.01822303845112455,0.07013435436597093,0.011079073366234315,-0.08539534026145698,0.04612111419060683,0.017302330423912063,0.01750691901617897,0.016210609697263137,-0.06622761161130156,0.07992975932169377,0.03786288475952718,0.03990460577366886,-0.04262837257061408,-0.027034542352849154,0.018153100460253174,-0.06615373177626332,0.06290153539945276,-0.030495116797298917,0.029629230024582176,0.00024569928470670466,0.08630958941304584,-0.012493376461505362,0.04045587810500753,0.031924501201954655,-0.038166479026367474,-0.04111939785236909,-0.018542253213546994,-0.07212979428515133,0.03789305564362744,0.007614196656245409,0.08677277032332842,-0.05736727225623021,-0.027950216977572363,-0.07770808609565469,-0.03393196627683203,-0.03546299581371167,0.011961832509949005,-0.052504932825671244,0.0321029945979496,0.05557156857098497,0.06420374023491851,-0.0798605908457125,-0.04642671367209381,-0.04836616475398717,-0.07851148916831377,-0.04532312810046662,0.07655965863559994,0.07940098682489277,-0.029513849254879584,0.06192324818123879,0.030521070136295986,-0.076346618311019,0.045572769945294106,-0.07808785057764896,0.028771245192882558,0.015846925419833388,0.07413837306374191,-0.06770069705426385,0.039603702129205665,-0.0036173151969640938,0.060690534491926434,0.0555412798135522,0.0632282893238291,0.07529763340057899,0.04728078635940777,0.03395875724813724,0.07059093195446042,0.01832209993065005,-0.06212688438238595,-0.06444635885013913,0.05214358172124184,0.06961717593950167,-0.019995217625569717,-0.05629074801109733,-0.03785238327778727,-0.07550269752764942,-0.01756317815397647,-0.046014021116671015,-0.01131281801390785,0.06180862467391526,-0.009554555927020383,-0.0267220762499907,0.006565895763521304,-0.08618984551743906,0.05274661136776271,-0.06371301686415812,0.06831965625040978,-0.07283922499232266,0.039569481404276685,0.040370559233532555,0.0748790644669807,-0.08118500139264721,-0.026111673337329,-0.07494974239001481,0.026966710900328567,0.01631759813632533,-0.025453107678288726,-0.0037451763240086144,-0.015765778031482672,-0.027011654426959263,0.02825244688124122,-0.050997955723083827,-0.03890972459507727,-0.07919048548685477,-0.03558985922585433,0.052955062724692525,0.054877565652942495,-0.047063231452312254,-0.0605682543029582,0.007425428757682984,0.06368533437311144,-0.0050986099705509075,-0.0028933259095137998,0.060832972482458086,0.07242005055525377,-0.08500863769055589,-0.0444425665866396,-0.06375271420373643,-0.03042053274930861,0.0363052613392765,-0.053369513687169294,-0.012837461246978349,-0.06624524985556829,0.07070918641289517,-0.04755072175115758,0.007028912621941372,0.08147192141565451,0.02688380479392319,-0.06751990442112525,0.05689633154686541,0.024390887140967696,0.06276017056318428,0.05436535848832888,0.0640660750786434,-0.015375066809299884,-0.0655675759056695,0.026231743615386882,-0.019703463196372673,-0.056119049911131785,-0.0845402553352484,0.049089379543755335,-0.021674471526247005,-0.03770034963199152,-0.06827404330749182,-0.048486050355751875,0.0534348279459691,-0.024418264007955798,0.05626099551634314,0.06729862844808415],[-0.04812179514981488,-0.031639684982895946,0.020855784440812486,-0.01610441703405731,-0.04796201994834485,-0.06337238069743685,0.043726127566259876,-0.00839314946478903,-0.0326298225089565,-0.02091610268238528,-0.02327027132811675,0.04696768777958249,-0.007009755561283332,-0.02380822368459798,0.04021406790359047,0.0756259400137494,0.08136554250611819,0.06860551212886712,-0.03927623661779528,-0.060445518588051375,0.016748939524190917,-0.04045054013884387,0.006040801797787418,0.025952575802805466,0.053906809382037374,0.016813101163617394,0.07618981576958969,-0.03885667563565233,0.004326582461784481,-0.03976166680865903,0.003814670134753645,0.06760944076881364,0.008717701810707176,0.06792040549114531,0.07597589107136504,-0.022477800042062804,0.005093516107709389,-0.009253599101228568,-0.07258977030192809,-0.07277352545703662,0.06893610819757873,-0.0739654398481727,-0.010000448621179478,-0.07025873117504153,0.040982840238968365,-0.01916930645933225,0.07320439893968625,0.08576580752816562,0.005111546515361096,-0.06099226536699439,-0.06462352201629104,0.05556218951389927,0.08595472907289634,0.040888040641094386,0.028724118885251684,0.07530090568757886,0.08581177562883086,0.03255123506312185,0.011438060424117533,0.01476004276779784,-0.03204750842486918,0.06229381986948762,-0.03860798121960988,-0.046796199452825066,0.006217238573846345,0.01410836708077895,-0.018910358041021355,-0.05851654679958532,0.046169309576088696,0.05261997469421778,-0.05642950580876452,-0.06935844648630704,-0.0809806015529849,0.017398817571962197,0.08153888185433059,0.0673178881001387,0.021164560337228883,0.06649388503547757,-0.08162445026889187,0.0572985991244693,0.047264197649081546,0.03479742144195613,-0.004591332009245247,0.007098171890763602,-0.07819252626965062,-0.030187185357114434,0.0818299445540733,-0.03433326049466952,-0.04217745709368144,-0.0109549385061046,-0.017711453581899045,0.0600197790912925,-0.027529828235657687,-0.04098985506867175,0.02057686903813026,0.047487721894514584,-0.018645983903306754,0.008238047258498096,-0.045223380131006394,0.08553760091734663,0.06640182720584323,0.007669492758446056,-0.018589013618681732,0.08598248665384486,0.045455230783114225,0.011133833174674077,-0.04177408652860843,-0.05728345293353181,-0.05998996610973049,-0.04579894320737653,0.022688980445306844,-0.014798164608824965,-0.055156516166442446,-0.07535148238518986,0.046121100974757384,0.018162780976672926,0.015619493946341947,0.03458736456477933,0.010597050458723459,0.04618802932292049,-0.07428716611406094,-0.016423775142692595,-0.04937832849134199,0.0008405275130608375,-0.053056549336331006,-0.06456008174674649,0.031133750661195808,-0.05246408267436602,0.07420713110205829,-0.07109509260236996,-0.027488101822715612,0.03521045667030068,-0.07220032260235498,-0.01724791617804977,0.02814338543128951,0.06768030072476916,0.05515838334634296,-0.021359060577620437,-0.03362588794694924,-0.018016045107851306,0.058895804542395236,0.0432696485261686,0.056400076354369055,-0.005523557256166101,-0.007836481176792934,0.05687801002675705,0.027473244935406232,0.026003243499518783,0.05459200313708412,-0.06202799541847228,0.07495652358907257,0.02969174213615157,0.05545507245044412,-0.06557481985190838,-0.011428767746849769,0.0661466902479326,0.026198375066604426,0.08627002602642872,-0.04074733259106227,0.08644103612106752,0.00882150479776575,-0.06183133751815176,-0.08608435000993395,-0.026410367988357955,-0.0589697365914052,0.05568320125413745,0.08115776266548921,0.055721045681502684,0.05050003978232681,0.0701266567125578,0.055730106200617746,-0.04391557207153318,0.020372627966388224,-0.06688363203868397,0.03761484623267415,-0.08098457795722086,-0.0017707768127286083,0.004465678461961803,-0.0022142376624955523,0.02898858555873418,-0.0030563545814413923,0.07272588893788112,0.0038591209326254983,0.0667710936819361,-0.06494440103566837,-0.05188684607155834,0.08494847055732621,-0.07471339904227865,-0.0012156002162971996,-0.06528387821173573,0.043326578128580595,0.007279664459969956,0.050485423665749374,-0.04779747117470944,0.039095823060710216,0.017150638381979486,-0.01995297438599078,-0.010106750137132026,-0.01152298435645377,-0.0004348195592646098,0.06691125700089631,0.06637757989389775,0.0141567001549317,-0.0008916062945479586,0.04633237114680194,-0.06841242444416706,-0.013259962226576022,-0.008501198824771697,-0.0073716130745889175,-0.06201625711624994,0.06709455587768676,-0.026464835078613143,-0.06016526672751894,-0.04305062667288114,-0.011819734261641054,0.046947486651040704,0.05539970165678962,-0.006506315514587774,-0.035067446051824123,-0.05542638498482011,0.06013352055620863,-0.034919250466630386,0.006592113426693719,-0.011178697598959508,0.026162229049702182,-0.004089346568438221,0.0028723991853715353,-0.03261661453889745,-0.043379784433382154,0.004839963723478752,0.07673140693342059,-0.02647150987470545,0.02281695789150949,-0.03810571965735543,-0.0672409848314515,-0.05230006787109233,-0.05298878430285314,-0.08618788959719849,-0.07880441504490888,-0.08244448790897912,-0.04895826724078523,0.06285593633718364,-0.03189955347220001,0.06347661974830363,-0.03393299835832951,0.0255501996296119,-0.01831518402843056,-0.04703893876964781,-0.009468312351772437,-0.04415544396377604,0.02196134699343956,-0.01816875453809727,-0.010258789282183364,0.08505270623766625,0.070379019038771,0.04559415450377699,0.05291560874263426,0.04979933200121209,-0.03744294710859851,0.06821787371574853,0.016888489570155943,0.002893486699021286,-0.06549990325634608,0.025281413657305213,-0.029961259443334123,0.06582180411669175,-0.03629062360840972,-0.03906085532646629,-0.06434402049242002,-0.0024000636194043135,0.05509781008393294,0.014756155685213296,0.07978283073865758,-0.032042786220926246,-0.014748968662567682,-0.04488324214748411,0.052911455776230715,-0.01623864869320711,-0.06706973509683123,0.02565024612297201,0.011351988399292301,-0.02987544088586183,-0.06446266549493426,-0.08058487609522305,-0.050443167739127916,0.04867465603292043,-0.0585619560766905,-0.06411347550051927,-0.016317520386968945,0.03947755992012564,-0.025720430873738084,0.04318391492261606,-0.04279579413374292,-0.03297285191798568,0.01365280558296128,0.0296861800206093,0.06326086223653285,0.0022539488677574826,-0.010057151221295815,0.07140346210139187,-0.02217544235451817,-0.0493720203884987,0.016821916819272364,0.058375521968064864,0.017654830100217456,-0.046468274270504144,0.07943453593984376,0.05590770408373236,-0.005442534634680071,0.01000526995838065,0.034464976184180804,-0.025749949994544233,0.026312804844428175,-0.023679431312049096,0.07753213872283882,-0.041844363148499784,0.02991330290977104,-0.01863200908146423,0.011125813918845553,-0.023857299589258474,0.07241665436779354,0.034733319497976534,-0.022247502560218305,0.06350314452440592,-0.08683995500331931,0.06674758543007542,-0.048851703491511016,0.0508611388264672,-0.005275546003152484,0.07320359725694259,0.04406613147279148,-0.0648689183970207,0.06192920045032396,0.07662162472731668,-0.014352053518173619,0.051692561206138216,-0.02592828763708753,0.026066946416704845,-0.06204948667914912,0.005205906775756178,0.03601878506237463,-0.05140350261288311,0.04610859776027276,0.06849880300092243,-0.07528786206017508,-0.04901529755727456,-0.019165435117917684,-0.022801640113341945,-0.017904842767100818,-0.003635260148170033,0.04334301402194657,0.013728773846102216,-0.037815616808924854,0.06139820127986326,-0.048193871571342035,-0.0779293077456864,0.0023220857319355692,0.042355184360282294,0.006441533398654428,-0.07642679143066756,-0.054853047946080105,0.04965737881817617,-0.03746712578437291,-0.08016484399048997,-0.06538274714115488,0.0777732952297206,0.04110048064188179,-0.03530423812376878,0.011014018067529496,-0.0720843465096447,0.05633921390024538,0.00231492670156741,0.030760650691509753,-0.025536994658186943,-0.03668512041020732,0.03341694385535793,-0.07535353372588724,-0.014026513965612303,-0.044839452949068596,-0.07713660299423715,0.05608952661904959,0.009004009446839628,0.06749616227151287,0.008639885279311435,-0.014888420260790736,0.06359724892796928,0.07556223177902041,0.029679986657306215,-0.08677084074901942,0.020568209002377214,0.028202653613131734,0.019621916388520996,0.07438903453812681,0.0451610772838299,0.06706021069969484,0.0868881319925951,-0.0015144524273441873,0.027617625831329304,0.06939066629868418,0.08488678576121036,0.027919137998075327,0.03662625139825389,-0.03836935718753483,0.06797547023574116,-0.027385320152091296,0.0406742584835553,0.0007980029049682175,-0.003244526169608755,0.07136718263563446,0.013675085099970202,0.06568029572941994,-0.019335525101729506,-0.028659918700341194,-0.02405454883747038,0.010447394094426729,0.008030228713501827,-0.04339533652621108,-0.0379011929406023,0.004487909692453149,-0.060998266770621035,-0.04750918122688717,-0.05382969590654714,-0.06471298304419931,-0.009122931331874765,0.0778412920472788,-0.0698228424997522,0.07972511061207796,0.03685716113867907,-0.026190732538088166,0.005463240634290989,0.022005343882831666,-0.0676404083228144,0.043718428864800235,0.07924287134691002,-0.0589457315265834,-0.07365688321155234,-0.08474140639437235,-0.06382177560021353,-0.07195249785086091,0.07188234432067711,0.023396580461906222,-0.06312355780396593,-0.04656956293640709,0.02923143004047432,0.008918865980548377,-0.06347774181474902,-0.028352970076299153,-0.02147889999599406,0.010449038297396351,-0.04063343480108775,-0.08291340404760053,0.017423421390290433,-0.0761899958220921,-0.05964875114652038,0.038697730747807135,0.009059454628772709,0.05545156210165736,-0.007569018887290474,-0.03882383467681797,-0.007217988419844973,-0.07386227673951506,-0.0474151047351335,-0.0010077658019284341,-0.008918235494691479,0.011119619869902758,-0.06516440054675884,0.024395964732431177,0.030831253629286612,0.03697822963768252,0.012597559983009807,0.08632796457157232,-0.009067413807375038,0.04807236884805641,-0.012586799358379544,0.07979725793815537,-0.05490898429994565,0.05636343178173228,0.04235964373972248,0.07927334383753179,0.07231834448002103,-0.08156059846971524,0.034450635987913494,0.003408476821598172,0.0018054459310877374,0.05347643924139439,-0.003862323595768019,0.08131672639568016,-0.022098948535097987,-0.029364998087575242,-0.02905892070123354,0.04236400676372021,0.0631641859085671,-0.04040376500284021,-0.0022913034262168203,0.054135276329070836,0.07523175207344121,0.06643519670444475,0.06510721931156552,-0.015117732339131704,-0.004378576675393542,0.015690984022584578,0.04253295141095287,-0.02198267887979119,-0.06045054698295296,-0.04649096179556989,0.027949308799957356,-0.0033171667117339737,0.012802531655436891,-0.027460098924468823,0.003699836152883315,0.02661261288376489,-0.03745410450080531,-0.04004411138009826,-0.04305704708470467,-0.04627169871166858,0.027234604973092283,0.07931673562097677,-0.05421699458168777,0.029182093334717385,0.08082079497831413,0.04370701754395381,-0.055719222321524646,-0.07729101884300742,0.06347045999099293,-0.06086492311075255,-0.04177075147074083,-0.021052163685981937,-0.02882582145532099,-0.07532419174459784,-0.07523670715557845,-0.032831521224671145,0.02913302797839594,0.059251334715978016,0.02278991118524691,0.0007215065656897973,0.06001328549962873,-0.045299615523262844,0.04416326126656592,0.05373340103176971,-0.06883284489794139,-0.05798455370426932,0.07099422407352998,0.012785972687899105,0.02381906589055191,-0.04865812402265524,-0.06371496426261303,-0.03556959161703103,-0.07473383423744366,-0.044385690782658714,-0.04807348968461741,-0.006338342158195329,-0.016447183431048742,0.07188248248085838,-0.0013859650014963476,-0.06003210542759936,0.045777342704145685,0.010413818363519817,0.07239724969580189,0.07520662043122192,-0.0002595531972270637,-0.07238725838642486,0.004062046729954319,0.012970973607424885,-0.058111843707046834,-0.00564203430934368,0.0833941970738073,0.05747282243340174,-0.04836887103536712,0.032662172033328093,-0.036916156873107606,0.04219832904452245,-0.008419446154499868,0.07930071261851288,-0.012201458518395408,-0.03378422223669941,0.03075007974721297,0.057122556175653344,-0.014741612937890197,0.012387718533528491,0.03859245640129533,0.025634858675834066,0.010416547003000265,0.05055600513300859,-0.0006526425051913004,-0.06421314938655881,-0.05339671807432618,-0.013778580634291118,0.001630493368007288,0.0344824019691439,-0.009070843892230146,-0.04616473140966549,0.02534761605204401,-0.01488817120018368,-0.015084751446071562,0.08343824076111278,0.080703997965892,0.02932979883021039,-0.013619675262178166,-0.0676348822339393,-0.06733859759601993,-0.006579981476216135,0.08347757467962655,0.004887302425731432,0.05595269208446285,0.009015033788379076,-0.032323551435552204,0.08267116371569275,-0.01862069468655886,-0.03708506453287046,0.029156044016819968,0.003137937318440684,-0.074181638273565,-0.017059158419533912,0.03436011217871468,0.04573504162668329,-0.021642419152564416,-0.05817406814849074,-0.029980932348546825,-0.05138788505512719,0.005917447917751437,0.012231858959473901,0.012734778840879146,0.0028458471437378674,-0.0011889997480519082,0.014066177067556945,0.0672005690755155,0.014807779929077933,-0.07517743257460707,0.07120140774343806,0.07845550565122472,-0.022071845397143422,0.08582771941926365,-0.07210107509230458,0.0833465997835478,-0.01064180648862005,-0.03926300550866747,-0.050135677952352735,0.04487553352166748,0.07571463314731744,-0.052661143705828556,0.07338867749911726,-0.06340068249702653,-0.06539741478884283,-0.0022685350383010866,-0.05964882231428255,-0.05104911348657241,-0.08330803337500843,-0.07394365308690055,-0.03816697284517641,-0.016709493733341824,-0.04173882736244859,0.06018573284211129,-0.05698257392946798,0.040811076060699225,0.016229956757134345,-0.0290456688606706,-0.06845064127815068,0.04349065517380815,0.08682836793881529,0.027259048125662766,-0.006216563495537369,0.04554910302343518,-0.012717484803584478,0.0788956705282016,-0.06041288428287406,-0.058717166992361736,-0.04875450378477558,0.060766406899071035,0.010226947468047101,0.041767665198088944,0.024806736120381007,0.07190590750084688,0.01840862502197202,0.019384240990303253,0.0017617310273173453,-0.052824056980454025,-0.023251612159412585,0.008814829778638594,-0.08545583742608776,0.042482973219126224,0.017058026632223125,0.0521268011757923,0.028137562264953703,-0.06690389081175148,0.058939679012400215,0.019132930413707214,0.039433439433333134,-0.0031966789862295647,-0.013555546210931663,0.0626065024595634,0.006925058778228507,0.022015279538784613,-0.08167696095439324,-0.025170692920664546,0.0583271591687235,-0.034009570083040605,-0.05076994853868572,0.036683399890829596,-0.038053002650179205,0.03855635217264394,-0.030555541987658044,-0.04852363210842674,0.01076545895721269,0.0035676949227630983,-0.01283682599241913,0.028981528259813746,0.003968186222754702,-0.06947704906764662,0.0374745541950844,0.006668594019910018,0.012101436805431631,-0.029550401654016248,0.07159915869581582,-0.038516583806832934,0.0006552868824190317,0.07469385325114969,0.0686008416220733,-0.08296503314933117,0.0010355223657659007,0.023171415967214073,0.07378628195496856,-0.05600791635798926,0.024083069735890306,0.026281217625533565,0.06639409760090823,-0.0010368621313765203,0.02526282365298388,0.047984893216286906,0.07615676345672664,-0.08479105224892233,0.066912091610272,0.02353331465939071,-0.06221826284260558,-0.048453524199202354,-0.06119058654121606,0.08249628782778587,-0.006834788748958542,0.02706751002108776,-0.03684308749067983,0.05016940408037801,-0.06473816775011747,-0.02187849396564924,-0.0750042161556878,-0.07587970503040906,-0.045371678774137565,0.023941900197312738,-0.08557267277205571,0.0013903865203332977,0.07778282939388786,0.05952684012925838,0.02127589940907687,-0.048768746148789135,-0.0452655543476322,-0.06322636400316775,-0.004936989863432051,0.048505525607910244,0.05627659394106016,-0.0196787086976023,-0.04908288769062124,0.012911089457744454,0.07365088490819008,0.07267620485701545,-0.05852951414456059,-0.02882732827108777,-0.05134689729510507,0.03384396286011672,-0.04541051053126152,0.015459601111442817,0.00921427918026263,0.08543703613885942,-0.02468626535114958,0.006800646191255061,0.06824048691718129,-0.024200491674689545,-0.01971159381483631,0.0017710367007734706,0.03634987502423788,-0.03304916319244554,-0.012494879651662252,0.05330742427884508,0.06894771588219975,0.006184323757415525,0.000058675181756964734,-0.02148506017466148],[0.04238435742531335,-0.009730063719378429,-0.01961272259047224,0.06625779811004964,0.07515863345481055,0.06967046019405462,-0.05814104515742323,-0.08351211565256378,0.019436780985900307,-0.08367959330180641,0.0496703848496963,-0.055649795566178266,-0.0690573534774723,-0.06977832980626375,0.07600130547771428,0.041196211575554115,-0.055593940869537395,0.057212736156568716,0.08518109333446847,0.06328089307994991,-0.072365006943013,-0.06254070911000373,0.008617519081538572,-0.003115381291841565,-0.03929682932785735,0.06457882371299717,-0.01441506264666191,-0.0736702383111344,-0.061214060676992615,0.052480199273621714,-0.07767074808767355,0.08214723543196092,0.0012693605741485176,-0.03910115953760767,-0.035547489232605985,-0.06931415583680434,0.0609495553990812,0.08115259949666029,-0.08648852509849363,0.081179083484471,0.0707898198916804,-0.01116336345888623,0.055912859608477694,-0.07017732599615507,-0.04524942490258497,-0.0837191712924513,-0.02080968342745046,0.058528040580288876,-0.054443165507584844,-0.041958160334605525,0.04252820452472003,-0.043744277470388504,0.08363963242968639,-0.0015570427588829094,0.007692511436978425,-0.06383275865243278,0.033376298478572375,-0.05977322576642484,0.05201115981665966,-0.05691612323404474,-0.05657026389615861,0.07688700648665872,-0.010832939897076385,-0.0696257583927655,0.048264473545183345,0.026223844513080727,0.054880946793441965,0.007737381308989724,-0.07927173511535376,-0.04458239095769394,0.08115246830281031,-0.04566508003680387,-0.049313448815966575,-0.04192242674608865,-0.014025240841029754,0.024639779021337696,0.0018002763200813537,0.015459653750814387,-0.08097133934941257,0.0340186047709969,0.035963063554384306,-0.023891032842971505,0.085443360384957,0.06542443646760379,0.0736254118421096,0.04180847000814883,0.05072517969538162,0.025647703075128453,-0.05160729338879751,0.06717195673979551,-0.027152920569851566,0.03146441770782549,-0.003448092179561227,0.07999253089559433,0.00506655009482368,0.07055071034229368,0.04771551543553751,0.014469014085124604,-0.08270693673005725,0.002680931436474271,-0.004773008696422984,-0.0855400380313525,0.02770656448265449,-0.022841746426145573,-0.04240246263735586,0.06800763901978604,0.0139246470278407,0.032114674740036014,-0.014395872495320913,-0.08113257000586212,-0.011645347443237211,-0.03878539237589537,0.0708674626167074,0.08216926420403137,-0.08387986016340271,0.007172596520241728,0.0777203707520952,-0.045708367843890825,0.03226847747706253,0.017641708252838853,0.07005506402561504,0.07214532147544778,0.08250182181869947,-0.02499123008079556,0.055070373696217256,0.009531100195478273,0.047512364815518515,-0.03718093317783482,0.062177416890302845,0.006796995353614138,0.08579204023428777,0.01872117938776026,-0.07846379258807341,0.015524254437275856,-0.028346887087464495,0.057974472998037874,0.060444468313239685,0.04668861950831424,-0.005080885917851649,-0.03522432511865779,0.0203437054438763,0.07788408101898137,-0.038122631457666374,0.056758967972743046,-0.02244136820465316,0.058985428663144324,0.08379476899992533,-0.04342499201481729,-0.04707955515680066,0.054940504538072865,0.04977846059500715,0.058672960550184144,0.07093511802195637,0.07894296403208187,0.06296142415712164,-0.06825320181065314,-0.01404609904553536,0.05702811992345422,-0.01908000923869911,0.03271049034243298,-0.08143978896776818,0.06207869971303023,-0.03722241710462877,-0.05409563261278346,-0.05739899626242931,-0.0019019735218755163,-0.02149832355575189,0.06020696756391425,-0.054896702250003246,0.08381547444197182,-0.04134652912133203,-0.04486896170397439,0.06340172850572415,-0.01198506234658904,-0.008499006932687556,-0.012984813978858298,-0.050314035286657156,0.07546827173111526,-0.019274323530984863,0.02921718717245421,0.07610978471658983,-0.04067215933811124,0.08617630702586881,-0.05804464419249234,0.08048209938131048,-0.05497539860177185,0.05634780124031247,-0.0643236711371358,-0.048604771204843966,-0.07674687732969168,0.04527102353004556,-0.07365911206617407,0.07831286028478746,-0.0369730604154266,0.06730121797350516,0.039178570868031254,-0.016841733876407528,-0.05137772062998636,0.03541013270812593,-0.0008242045493212086,-0.04657630029485988,0.08332921710076766,-0.07151322854482518,-0.0705679818998544,0.07333810159910578,-0.00895098396596887,0.0821743661610726,-0.08236058147004531,0.018092315877673126,-0.058698627842327156,-0.0678088231011163,0.03867079169553633,0.07669899099041236,-0.06433489257856534,0.058904943110225955,0.06667486615005655,0.0779708039700727,-0.06089056536074401,-0.028088386258605165,0.08078036798178892,0.06011304720361493,-0.030213554571392444,-0.039018828270950025,-0.070248270341549,0.04922366310727022,0.04342355912893284,0.07227504465413909,-0.0005839931244838448,-0.015016933305069563,0.012223841256891521,0.08057361941241278,0.011947715621978841,-0.07188272185810322,-0.02363893748996304,0.02734835084227709,-0.046448905685583235,0.08312085969866187,0.06245564424653713,0.05590842833128931,-0.017774995281562886,-0.012084584055376754,0.013349595305468975,0.07615586699100285,0.040205601892889936,0.039107133569445535,0.02299530956885598,-0.0090688758062369,0.013027072919107457,-0.02163301226459456,-0.04329029675883713,0.003918228777573529,0.05900198461995074,-0.028085347355349163,0.006067878353782322,0.07812809704104429,-0.0334064283190888,-0.009588682405081206,-0.07969383046642169,0.082970065317995,-0.038247231284819695,-0.02454075679883943,0.05084204620970206,0.07915736349184521,-0.08432181152938914,-0.05316296032349809,-0.08573239293887214,-0.050828490912822,-0.07548776689466072,0.022117661413413855,0.05759269317340668,0.029564153124497117,-0.05614024810745764,0.06879765270387259,0.039798746884806946,0.019129709136186487,-0.0396720168341137,-0.0010875105818796,0.07183502879414347,-0.06760087904118231,-0.06533020656352274,-0.025169426573330426,-0.022318819707201107,-0.058004679560826646,-0.06899635067548435,0.05421027859668623,-0.05353043253143369,-0.02945582453951353,0.07546875719026302,0.05079632205709425,-0.05788916683793939,0.04804389700919501,-0.05176337912292243,0.07731685677236325,0.024863638012781228,0.07248153915298744,-0.007433457898604709,-0.048785537655882304,0.025352779330627323,-0.039929896545996525,-0.061276645955766484,0.00401543221684901,0.02967282410643582,-0.08043613053964203,0.07251915113930843,-0.035247981271245774,-0.019390842770865155,-0.05632937083720999,0.07196158119635679,-0.04578383697571546,0.027869394176473605,0.055809376680159034,-0.07421650227094233,-0.03520249093905594,-0.007896431517209673,-0.07028162810715144,-0.01556402352492535,0.04294558057724082,-0.08071413446063092,0.011882994324353233,0.03475777476230231,-0.01919654724677715,0.05678470692868612,0.00466628498276675,-0.0019359066838348926,0.08175989921151061,-0.020362944300998595,0.03025578348413617,-0.042571819922569115,0.08088443530787665,-0.02903141471415785,0.04572610457526985,-0.029679405694788802,-0.03378529944371946,-0.018038490235175605,0.054235142125357266,-0.06633174831790917,0.06013579189705878,-0.047619118604060366,0.0028441669260096114,0.04206868314207862,0.08513317190239944,0.0005663378502487604,-0.06510234161763082,0.010445010359477674,0.010876337583224996,-0.012044272358750191,-0.06713355402669247,-0.056168198100055175,0.04743238467286964,0.03277922978396315,0.08525460170373247,-0.045245906821891266,0.03351735418743276,0.004502413738552008,-0.08409955763454134,-0.007025367983853156,0.013339436321771286,0.006889554831612341,0.06591553055569482,-0.023755223792107025,-0.040443901868037146,0.03152054469997444,-0.012086324403836793,0.05647481397026699,0.0741946585474629,-0.07524789524867383,-0.0009446100416546505,0.05869357344301965,-0.0510027709985454,-0.08207228102298232,0.04854698323171949,0.04477463919455335,-0.07715360823802445,-0.009963672985480274,-0.02747309412587342,0.010989675255490314,-0.0515341860254291,0.08388462941830743,-0.0073031684465675595,0.0008933670084301792,-0.0034062462214930894,-0.06604367127429014,-0.0377023933827782,0.07436985918826378,0.04611422768153911,0.006998384154985562,-0.045201331128662925,0.0447202340716816,-0.01308698154455809,0.0055610835241257095,-0.043478895031670094,-0.07875130613510262,-0.038209476476369034,-0.06025899268554334,0.04022255107551467,-0.034772290765544916,0.013519729693702923,0.048836118730188754,-0.07332185426292906,-0.04331275746817558,-0.05445829830841005,0.012325705892431399,0.05485480502662646,0.07846163246149437,-0.0760542071206802,0.08083888058357758,-0.07615347595083517,-0.006041604896538363,0.025610525483608926,-0.013599366394267662,0.06491369601525762,0.0334954854964951,-0.06654186405069099,-0.03669162751352099,0.017596314785603112,-0.06610897830604218,0.071532163890457,0.008876763979373967,-0.025564817286382158,0.07557807480394396,0.06333092114004865,0.023701728996351604,-0.07711907454846637,-0.01472405795528861,0.04726939140692732,0.05858711411618117,0.0037985923368623747,-0.009990359753205502,-0.07387487691553718,-0.06245403255149258,0.01806682584845913,-0.012422606337083544,0.007375518946225845,0.01996656924575288,0.040888351069933854,0.07488530333467225,0.06122412100187527,-0.040094558648735235,0.06428231599679288,-0.02503122014807098,0.0324072148202922,-0.04459568008596818,0.01878304493248352,0.04049772973308882,0.004118449962773246,0.03690250715428267,-0.07912178366077662,-0.06364167047846275,0.02600538017067454,-0.025011468616502087,-0.07902239120009856,0.08406545473847138,0.06620867214554729,0.06693118894398892,-0.025164019899852848,0.07505062661702822,-0.0815604685492852,0.016834510556241744,-0.03381860957885768,0.03999352607772483,0.042327383569098376,-0.0270324631426093,-0.08363345104543118,0.059263371061068576,-0.003198280084060673,0.053033710779388316,0.0466504771573662,0.0196980065001002,-0.03078704202515132,0.07483835040081327,-0.021537102771461397,0.014088504929432671,-0.03943397897247408,0.08228648159834376,-0.058329352592612696,0.011352414282655626,0.01819817791270939,-0.037834055054381616,0.06273808790375243,-0.03831119913324832,-0.07466911924551989,0.0826189568054867,-0.052320062468389564,0.07661165558179411,0.014562018205451513,-0.08526839857461134,0.05780888057156938,-0.06448921779040168,0.025492053990414945,0.0379114833670236,0.028230148801718605,-0.03531391182445758,0.073911541314955,0.06563198749614138,-0.08451434166256934,0.07215216945912409,-0.03353598338420772,0.011369530319316368,0.0076305861180255286,-0.06876529444280226,0.05415291194891403,-0.02963407837748141,-0.030007707595324902,-0.06225704497021164,0.020801189747926274,-0.027684334880051772,0.01319454153352724,-0.017407687484813694,0.01166296313220222,-0.021669361469856444,-0.05598102216368611,0.08351497232244232,0.062048134751366474,-0.025611242755250847,-0.0064768232936635445,0.03611769999092218,-0.023240487304090243,0.08242854064853139,0.0718068888769274,-0.0809109127451709,0.053798064781153565,0.047150048391003896,0.013265967501871298,-0.07753512421362448,-0.003014323737452404,-0.021572408929924652,-0.0005740321032512291,0.020916055656721805,0.07134663151652798,0.020802773955540158,-0.006096436243750281,-0.034480433207094714,0.06949186073869154,0.07923905279777119,0.05542684379408702,0.07295875479081995,-0.028828693141047045,-0.039954085665327814,0.07324376686001544,0.06970093235400443,-0.08027250429549067,0.03992983793430932,-0.038487644679855985,0.003591092508168206,-0.05913392338129399,0.022547566126226798,0.014644085275885857,-0.04015999695683776,-0.021145270564297672,0.04613446567686688,0.009820415987046471,0.003470566820918952,-0.042391989470076386,0.05443577456228971,-0.009911302988057188,-0.027919323342962966,0.05897884972983436,-0.007364911816354583,0.07898509962646674,-0.0643399356979373,0.0482274041124878,-0.07023405148548512,-0.03167893942979921,0.001156109878323583,0.004392764612241237,-0.03452590282975623,-0.061112626105831264,0.07175351100172678,0.00959848037238388,0.03169676576752341,-0.07578708644484583,0.07726812562744492,0.030395994999827855,-0.08513227977534266,0.05192736137963169,0.04364831586406742,-0.07350034842848142,-0.003975153678616061,0.01902770739876214,-0.00614456583535318,-0.006269967222177625,0.03290096519975154,-0.033620433135519295,-0.03269766112916759,0.02635959330466707,-0.01302419409176242,0.03700873696981112,0.0007041238198043365,0.033183106333621384,0.014646669354370229,-0.022469506512856507,-0.07492221724739456,-0.016001489750073733,-0.009664490775561987,0.0036219459931774306,-0.06260138867945153,-0.03555466713008101,-0.020585495100720122,0.08461970727440915,-0.04201419433311903,0.07983528535137352,0.005071842061544568,-0.06557294853292478,-0.08065931995221594,-0.049637986936950186,0.0848749954190825,0.046922664408204695,0.0219986490363379,-0.01852011938936325,0.027774459925911918,0.07525432381062264,0.07102435721066358,0.0027304327343963958,-0.002644443879750505,-0.07682841711369615,0.0630570008891104,0.010151990968595814,-0.08274105982074342,-0.08518167597741466,0.06740104183178056,-0.08508392120382118,-0.07868415546061623,-0.017653989813888396,0.016961775993823813,-0.03393089570404,-0.06262708350121315,0.04978143415535788,0.05950578428468209,-0.06662702635958381,0.028940117416549838,0.014776599578781538,0.012423491567335326,-0.03308785416177027,-0.05806725223687136,0.07269500949856736,0.05870167391026332,-0.08256024379815373,0.08299329948392342,0.06240477466060562,-0.02015900427173202,0.08124782082440565,-0.034348710772093484,0.050415816400838975,0.07114593087776228,-0.029937786126644148,-0.05422445303516067,0.02414982880405568,-0.0330385653000194,0.057657084152460236,0.052156109636184306,-0.015509114319183129,0.07676274647807718,-0.0003619143322295404,0.005976379004033763,0.08253866081446748,-0.027041824990790615,-0.0008557224458541624,0.0786594178629462,0.007136625681773298,0.04219913499193695,-0.009696981723636908,0.058100897918081734,-0.07495395932442135,0.01987900677076425,0.040542852689065045,0.001880025641472452,-0.08603993255347363,0.06950179210152937,-0.014534883640273902,0.08263114115205308,0.06281299407441276,0.049154595140616125,-0.011062676349995235,-0.0018527901107203565,-0.014322388656274776,-0.04880231651560427,0.0608566961185554,0.07708569032197493,-0.015001591536691367,-0.02610918855663056,0.07271579390181956,-0.04879603268037699,0.01131409827796244,0.022173606809980914,-0.005819979651537341,-0.06691382210017845,0.06668035982899811,-0.06823577761137406,0.012407989186204588,-0.0459996178834368,0.08089673766341979,-0.017211401461838832,0.0586819916889145,-0.07987945351407996,0.06116575086455747,0.0817594597865276,-0.03160009966910064,-0.028545028928606185,0.05396364921115107,0.011856630853915834,0.0492730459306458,0.06584384943697932,0.07026154699661533,0.002258494283937734,0.018942755862884658,-0.05500409127925308,-0.011603423666447926,0.07184805069013162,-0.05267169404670247,0.0814166353698513,0.06849000062790095,0.004923598903268475,0.060740298547642624,0.006658600562719774,0.009354175144813529,0.07147552072600194,0.008231158100999822,-0.07213667463701055,0.05178027871465973,-0.05434856109602439,-0.0720937690642351,-0.0008331640591425493,-0.03754206459171626,-0.05571000609638414,0.03334798006623062,0.05645175957104359,-0.015743026165315963,-0.054793568844573017,-0.07896005121153993,0.045727842845430716,-0.0694537366315297,-0.08043086824783469,-0.01987308367348306,-0.02636191869396997,0.044088100613347336,0.08109112697692678,0.007725445806657405,0.060308353577841145,0.013046761393020856,-0.008401374291509958,-0.011001045141418975,-0.041705484204860255,-0.016170337318281644,0.03774670047694777,0.05168488382974876,-0.06992743972350152,-0.023771965043866472,0.009615621057616625,0.009752582923831896,-0.014834204337703188,0.08157768075129498,0.058229889812204505,-0.003719287371738253,0.010397772789530538,0.044400231649358246,-0.03970313888617607,0.07019500192007302,-0.06482810591662558,0.012285634726039302,-0.06937515327571012,-0.07787287879283818,0.047095532243471794,-0.0388838697973726,-0.0715101517775456,0.036216601357588835,-0.0469552560760764,0.027368394361694137,-0.043275185526729834,0.08492948413974732,-0.008542899041049143,0.07105933328842418,0.06766290127910021,0.03187159112472017,-0.01206418316339751,0.0007770531112935852,-0.003521001257456996,0.04207709506894619,0.052049462596654855,-0.013410380768016567,-0.06832164665190574,0.060830027791804936,-0.017757847604721655,-0.01569266399331072,0.07724466153409232],[0.04819640904116934,0.08164388101902428,-0.0199046052274736,-0.020084924424256634,-0.07962954798118173,0.0813724006344928,-0.05097297316047478,-0.024349536334768232,0.041111194740171664,0.029659058160070556,0.06505930099658208,-0.029576237808461726,-0.06839847854072853,0.010532974374040133,0.012779371727006855,0.03890045703667952,-0.010042267414147432,0.044832799703709764,-0.07434758781903861,0.01874318623786976,0.015305762241409088,-0.0591936931216866,-0.05910969791214575,0.036330643205315274,-0.023487136294554525,0.06707700853564785,0.05514250698520057,-0.02499623982286659,0.06633949370147224,-0.020458480176452673,0.0019824676686169412,-0.015392088676660684,0.07751408439462754,0.027628990426827704,-0.0668919074896051,-0.04732460354479115,0.012399201098067456,-0.0005345050478863383,0.014573263440531378,-0.05988391975625669,0.0843128133375472,-0.07373091578902644,-0.026578587117423932,-0.05222720057094813,0.011957410411182354,-0.05128877910602645,-0.0012562966995802172,-0.04237382920395045,-0.003852300694675667,-0.0038253872628409846,0.028088593705709666,0.03832863110234899,-0.02222490022908287,-0.008603666170587387,-0.032118766382918176,0.04998071071775281,0.060601080205706925,-0.03807187586167498,0.08040655370222669,-0.01812555119218194,-0.004594528144431495,-0.015493187227326247,-0.06968970925863668,-0.060473089175631725,0.08611472352082625,-0.03466795836971279,-0.07080478579781527,-0.07468234055441111,-0.02678145268488087,-0.016987768522513783,-0.011398072819598634,0.0869227368478416,0.0041590541832542405,-0.026013406044014253,0.08171670677661427,-0.016400217411203732,0.08645359027019076,0.06365845113721763,-0.03703361436130109,0.03341787847446551,-0.013802282649386294,-0.022902074844985146,-0.0463692797993522,-0.046903987316260075,0.016009672311349227,0.0061045009778641635,-0.04903202881777496,-0.03271572024239704,-0.055610965265608193,0.07018897406178773,0.010595585534663235,-0.04018114893204623,-0.03975273361866286,0.01809721026514989,0.02310812755596499,0.04107429584222805,0.05441937970233032,-0.06975935710093215,-0.01722394626830495,0.03705239513155889,-0.003794044837948027,0.058609029876893176,-0.044932019490831095,-0.04418713947786152,0.06579982270942367,0.07433750927288352,0.021281012010260572,0.015739538194160935,0.0072734779853460135,-0.04321047277868898,0.015576643955039257,0.015965849310877273,0.05770754333401262,0.03477505121975867,-0.02041241418460084,-0.020144143426622393,-0.0685524243745129,-0.02490490090294397,0.020603674222285276,-0.06431000833729741,0.05856431007405927,0.03169088256241337,0.07543355872016039,-0.0009337610211816311,-0.08612361416946751,-0.08424046381909443,0.07672880174481916,0.0012446323705114087,0.036310208373053265,-0.029010987707211437,0.0782657989492879,-0.0437978921363519,0.08435992783401544,0.06547540753068873,-0.007115951537536566,0.010482987355761489,0.02166935884363798,0.03262139744211784,0.03582674564761697,0.023162755943999996,-0.0658520224621576,-0.03503376047000901,-0.03611804965916121,-0.007538098959140718,0.03280022249215506,-0.041733173722137,-0.0020870244320483344,-0.006581743925985248,0.07601769344397138,-0.01011047032621551,0.008088169470294976,0.0764322794720379,0.048388056312354405,0.060474593678500804,-0.08420534343830302,-0.07325092698219209,0.014685673520230091,0.027181361119481884,-0.02556013628235796,0.04140120004204881,0.012540286180093063,-0.042333222663228524,-0.01484310154972543,-0.06506387209493453,-0.07908968637434301,-0.04422819131235732,0.07967324684823524,0.022625702023540514,-0.052824699482569834,-0.04313069708743236,-0.055137065490095026,0.01049102800687901,-0.07180259634842656,-0.07739393968662285,0.0043993853159436935,0.005551486962376215,0.02491693008677326,-0.06434744038429095,0.07483427295757691,-0.0027625108071397952,-0.0725344301034385,0.0703381301207879,-0.058195906764526836,-0.02794537044285452,-0.01955543440717837,0.06774748883300591,-0.0717856873042956,-0.0690449610878569,0.04890798894605966,0.083100432698789,-0.01921122509728386,-0.042398109391011116,-0.02283440005562523,0.08619898211776678,0.03480906004078149,-0.024871834656505033,0.0070259515529392524,0.003637476482449692,0.02838532239244372,-0.008439968627158831,-0.032942565203002865,0.07330893278750608,-0.020238158219998442,0.053086200567782516,0.002043850744105555,0.05574545212272089,-0.06824503183549424,-0.010140299147059051,0.032624833509824105,-0.011041133533724087,0.016469643363467623,-0.0413032455301107,-0.035848018363676494,-0.03477678323408617,0.061997716142682735,-0.08281263311046028,-0.020370509024197972,-0.06833645507945435,0.03429819494022569,0.05848860256016336,-0.04248213690008004,-0.07868484201174472,-0.07193881490645855,-0.024731572036483573,-0.07706360984128273,-0.04043811680936978,-0.06352921162613756,-0.07264644698202376,-0.06670295464359978,-0.05190722562283079,0.07973797728553189,-0.08526152828232766,-0.03217857189719026,-0.0434896034632058,-0.04467596754110102,-0.07227115669962998,0.01720372251946635,-0.07946128845159989,-0.07824208358723515,-0.0678718149327838,-0.08599965119603425,0.0768741687774579,0.011743640236304573,0.005239809257595512,-0.04667029054402453,0.053888870227090824,-0.0667735737192853,-0.060149173648916726,0.05834761798424118,-0.0250581071639287,-0.06943760546865704,-0.0727486372784559,-0.004799039424888546,0.008599275451345215,0.002900015343329357,-0.04180022928491038,0.07632256993758912,-0.02487072439768527,-0.07299264341138959,-0.04850969345968717,-0.029313958984361017,0.03606702957444695,-0.0637106129780502,0.00610317638584916,-0.04775394732547568,-0.05589834269130751,-0.03799331565085633,0.042808913746183924,0.05041949880415045,-0.009815105088635284,-0.004403731217923479,0.059266308314912725,-0.054734774293225985,0.07502567937404167,0.05035449451050611,0.054613010365457904,0.030381364215901027,0.06306870075234527,-0.04628632778065219,0.05187543642948403,0.08630028885841323,0.08618217515743709,0.05718537682452865,0.0854177672577234,0.030881037864414,0.057169290066925504,-0.08479618220563612,-0.0006532115364805691,-0.0380660059954348,-0.003414717946248494,-0.07760988462313889,0.027786749247605047,0.05349283612198788,-0.006193490578509417,0.08382809987509249,0.07783692945824844,0.005061770740289864,-0.034727029702201276,-0.08383114111570351,0.04837538197459795,-0.054458251426955345,0.08459439917436593,0.05740001403201414,0.0568490385489579,-0.04402930880577464,-0.02809361756495403,0.003876294650993331,-0.06034995949915535,-0.04552004040798173,0.0856762502957939,-0.03283107761750034,0.03220187426025531,0.07472226576458516,-0.06539635286766127,-0.08355765752989251,-0.05874486490342,0.0731333100625709,-0.01992628005039293,-0.07733745771550178,-0.011763941246829626,-0.07064112446343301,0.03303155388237557,-0.07374802855028618,0.06918368122367885,-0.04742315295961401,-0.06831409248095405,0.06593176756170702,0.01470664223875262,0.06461213876645261,0.04231986597735715,-0.01844802536365349,0.0070486954221319065,-0.07403189081414374,0.05623373754857891,-0.07988154895726851,-0.0638269732094819,-0.035868819672004754,0.016325929937525463,-0.028699245956708544,0.054370804061056155,-0.07529883842209195,0.053723995392872204,0.029254529190669412,0.07176121127681478,0.03451410238149909,-0.039889190527619356,-0.022371788571040385,-0.02236124047135475,-0.003860307157634829,0.002949518975192522,-0.026317866734969525,0.04534769404243741,-0.06924553755951246,0.03216195630211474,-0.03624475208376736,0.01980127565845731,-0.05786617878028577,0.012831540966995736,0.05805952289492913,-0.012223756048775514,0.04978058990677056,-0.005224703176646417,0.059880815715015245,0.03325227455362674,0.02185658704709778,0.06450183991158853,0.013751164243905753,0.06200395920019708,-0.04193972810108828,0.02958833893050007,0.02123903492064501,0.0032761292705811434,0.07573838371183014,-0.06567707822244158,-0.08069439122321603,-0.06547800245407595,0.07536194324870948,0.06859876798958206,0.0545555861367866,-0.05408575019134693,0.018029761424749075,0.015299495711109196,-0.07184249245020463,0.0033016889290727186,0.05916749566848856,0.07563851128183324,-0.008710038676459683,-0.022786920626220605,0.04561006070546053,0.08245957098803958,0.07561550189414629,0.06544330824301245,0.0710048193736822,-0.018805757490720276,0.004909322231897509,-0.06300569786166209,0.07102372522167139,0.03508849935128032,-0.0865668605705504,-0.06990783698354527,-0.08284932395615935,-0.03533626532597162,-0.02153355586324439,-0.048788519982046176,0.04379192781460292,-0.05092135363107421,0.04449853670250134,-0.05836991532611682,0.05545405695317282,-0.0708069157095832,0.0003319707969568625,0.034535055734559506,-0.024508388189800924,0.07499805993317835,-0.08047348388719613,0.008374496382759125,0.020070915145661464,0.06709720411128292,0.04233036147826366,-0.0035133610125617637,0.0401447220499942,-0.02315921244981614,0.025011022797016877,-0.010218052902509586,0.0583595451683315,0.06650135768209325,-0.022712166683057644,-0.035901512070454486,0.056951924489316075,-0.0017209421787649087,-0.05556737846636403,0.0031779513315736835,-0.013223689504781047,-0.05980853872594313,-0.03222156604859604,-0.01965193668433779,-0.03207256950865219,0.01328100491165081,0.011999573347869844,0.007238644359673127,0.02087138863121149,-0.06702852245831398,-0.041741126501695716,-0.07168658766254282,0.008096483342619337,0.08635014449167755,-0.05137619206137094,0.07336481052741486,-0.08261590754072626,0.03342165068846793,-0.011597879512817669,0.035164835156693636,0.06131597794608831,-0.02128181917341633,-0.01652165935332711,-0.057810567328177825,0.005593865089139963,-0.060557639549244494,-0.04354141170101324,-0.07648706845338477,0.06797760994665347,0.0375280341642549,0.005714906760480365,0.03421477377401448,-0.08274294505129848,-0.0022539664597945736,0.06304875306700711,0.08320990384686594,-0.02274500372702333,0.07598730836019507,-0.03131169834503136,0.03651215726726888,-0.003302654913833733,0.0013353302695967156,0.05707980431589335,-0.03348252766041974,0.022761644830424796,-0.05545087336105151,0.02177543469012895,-0.025801146017312072,0.0020441879666425744,0.05835176780141216,-0.08051580002156096,-0.07211030900635769,0.048678408869766515,-0.06791930078655975,0.055483028591637285,0.07048693632092506,0.0706479871581544,-0.05960922488520635,-0.023672711625349327,0.07070133937680162,-0.008541132935609583,-0.008679763852743494,-0.0849000168566481,-0.03774594410244712,0.05678260940766702,0.017805738218186387,0.055763161079050716,0.06724835824266426,0.030685325553470644,-0.036661030762762344,-0.02946851402224443,-0.08088079715483715,-0.05616165789855608,0.0024223532772299217,0.046050831051113794,-0.07383648546712791,0.02894886251793602,-0.021796154116821884,0.08404614733169208,-0.08189361595924631,0.00288081512873517,0.01957312981977591,0.04505672163690688,0.04881941709721624,0.02592033841534197,0.00492029133265387,-0.010188650738975694,0.07205026019382643,-0.022795032047874753,0.014681532171294753,-0.06811637820213864,0.0010629310817064225,0.020559610405812737,-0.006088594916316942,-0.055627142654050075,0.009516131114557735,0.0803234868673583,0.07472310249166583,-0.029602451652463578,-0.025193217254896122,0.08472830508013368,0.04533785165192175,0.0716285457780671,-0.012170486610746004,0.07984483083393043,-0.06583696682713078,-0.06075534776258522,-0.0846243008779178,0.05806750441186201,0.043161549619757045,-0.027085491323778577,0.06793732462352003,-0.026375483552223522,-0.034530997672439764,0.025032857989317828,0.07740896087086438,-0.007274056391621181,-0.05632545754049114,-0.005170708277555988,-0.07809730606831437,0.02371307832725833,-0.01873572950096132,-0.04673815192157607,0.04474810632695014,0.06761061364126056,0.0834683636104506,0.05819683074567897,0.06723045458324217,-0.06513833628114057,0.0269837011207278,-0.03240504550450377,-0.03905820155971657,0.03079167342162553,-0.034146538450791866,0.04947159414504282,-0.06513961880698103,-0.04561191418272806,-0.01783101226650098,-0.05239048500724761,0.03293482237118553,-0.01653292137105236,0.06802184639693254,-0.08309813920169501,-0.012082378861451248,0.07275332328159217,-0.0836891013812558,-0.06533469202350706,0.03318633047850768,-0.08158435550739512,-0.05823175236242252,0.033246483284833386,0.0021127436905929164,-0.017841533868770534,-0.06392081980236447,-0.08683675951202666,0.054300832499459384,0.0014282203904590618,0.051145187953116955,0.01043519852803286,-0.008451698387899137,-0.019817201860288264,-0.030573424687543663,0.017960125834158666,0.03756861386766652,-0.029595612852641395,0.06007039941294107,-0.006487838948332755,-0.06581629288461116,0.07658583252313056,-0.016906741334136513,0.05643093198151733,-0.051135350778756486,0.04295382644891968,-0.023801056652185237,0.05378539018326356,-0.0003013935508661275,-0.05435002957282183,-0.0009436276968517315,0.06707535797766906,-0.02117858974595549,0.08679764321017844,-0.04234208375015875,0.009087612049141214,-0.06411374838857936,-0.04062229793542651,-0.07590070858207011,0.0824907220621744,0.05198388696757103,-0.04382707762852087,-0.034311976856336246,-0.07538635333132783,0.01926325165360024,0.015847435228999937,-0.0037189704695114595,0.008617781740801647,0.044400415561980267,-0.044698005886291275,-0.04800872626038709,-0.06988005706396674,0.016579412484263895,-0.004509184568451369,-0.016000010756662714,-0.014056318988553376,-0.05481121541199038,-0.03178219243501258,0.07083793053232276,0.07602425679193983,-0.04478059940022649,0.07163845922522158,-0.05609226154427123,0.009592784709436808,-0.06625253536075816,0.0031408238715684156,-0.030471801880638104,-0.03783706235101206,0.07047745297148617,-0.02893348807985184,-0.008324420070688565,-0.04298243541626579,-0.0430122173127458,0.06791251411674865,0.062261121618986254,0.015608606461590971,-0.007281484693259135,-0.08051120514666833,0.07473834837489907,-0.009423677982661888,0.07314738498878334,0.0794674810955957,-0.06302492181811199,0.0554416380124583,0.04195004130508653,-0.06487966478271665,0.007505833279682059,-0.06847471026499434,-0.05099996487866999,-0.004270589995760354,0.042215547154977884,0.048785232547446655,-0.03415393087408681,-0.02350908884958519,0.032391155195085786,-0.006864851960298277,0.04599012318142856,-0.005107302787955251,0.03607329329244231,-0.009122186652067502,0.0027270463700928838,0.0015176796603193904,0.03813260982139033,0.019441629862836193,-0.008447643538161048,0.0580878911939709,-0.05009743552251723,0.06621846175628518,0.0126630520546,0.007000353515951574,-0.056211348501868236,-0.04305029046389701,-0.06999131038784459,0.08168643369973455,0.05926761802979283,-0.039550860738875926,-0.024822633381591915,0.06833498400327992,-0.01673181387400026,0.03070539501221549,-0.0108952784943194,-0.01660103337945254,-0.017405806961371353,-0.08222969961943773,0.05555897645701621,-0.06303015568130452,0.04914785414092468,-0.08506789210963518,0.07548348843404643,-0.0072206795092482345,0.008119143424830763,-0.03446141049710344,0.08126814512489275,-0.07088475286804059,0.08600374040224087,-0.02039535212963277,-0.084406428745026,0.06990884845411058,-0.031678064793259283,0.06778327110761995,0.08421167512088346,0.07430910079894465,-0.07802607133102374,0.06119025625815208,0.005624645778817133,0.07972055111499005,0.07264941057413299,0.06413042782548092,-0.04771475519496589,-0.08476536765183428,-0.04370999083807758,0.01012732289275707,-0.02203058822912146,0.033780655321701714,0.00411087463467015,0.04994347724138304,-0.08555306929254435,-0.05038330375194711,-0.042036688820272824,-0.05710031755488354,-0.04404885107350498,-0.026714331640494617,0.02300947115782466,-0.07781623577793141,0.08356965344033732,0.009768994651096027,-0.004761032231813719,0.04989481681731381,-0.032076224830238524,-0.036241762460812926,-0.03363048849558792,-0.05922696059558933,-0.023384977740506907,0.04712485334629357,-0.07547177265985779,0.002328252960211011,-0.07096888860320684,-0.0654821426784448,0.05765965761113803,-0.022072288655653388,0.023537196537532418,0.00305073831876726,0.02286444997069685,-0.040279284299964635,-0.04756259628275481,0.0748933967286887,-0.037667811381884915,0.024620230597815485,-0.02710916157673697,0.0017708782265947604,0.0591292615077155,-0.01525938527377535,0.04694423618196403,-0.0537517327705038,0.0351426759449983,0.01828415132539006,-0.027964494527275847,-0.03896740507277427,-0.040896621467018064,0.04676331998679589,0.08487042805866302,-0.05720696231668826,-0.053128372645053865,0.021322269986551914,0.05848993838779673],[-0.08037188479351752,-0.058690253601496226,-0.023377583588924236,0.05244322477305599,-0.038825812842003087,0.04206676369389589,0.07577377810108499,-0.04092320507368046,0.04838383650003569,0.049149310687508996,0.01170754082868572,-0.01899731207205614,0.023819894694395424,0.0715682443221684,0.07373718428177323,-0.024572118792727943,0.009823059873595316,0.07076061378608528,-0.05532291751486816,0.0015112726857015313,-0.03566710547780502,0.04856274345207939,0.05424805844653033,-0.03932337451525855,-0.005724683277403136,0.07795886757827866,-0.05086317492932529,-0.04869647511953496,-0.06782350750908694,-0.05543236811784652,0.02419726683691832,0.01799625378221624,-0.07045433185478506,0.047166560660568735,-0.07152818257820143,-0.02936957615253709,-0.018412850153921828,-0.04331388966658495,-0.005911803254956272,-0.0543554756636099,-0.004556404932824096,0.08550642023803312,0.061771537281546884,0.001271113445206598,-0.02289930734039837,0.009688616939937014,-0.06737650617913452,-0.07533895199551875,0.06887768923036083,-0.025104928454691824,0.07229585515102055,0.06601572289109917,-0.023429204805826165,-0.009369750830157425,0.026321634157048968,0.05847137482368639,-0.010425466974968461,-0.029461757207825012,-0.0730625295472244,-0.07722742610631637,0.0863958727316459,-0.07456453453650848,-0.002660338241370644,-0.024148054502654545,0.008205718382660446,0.07349275911383593,-0.046784923682802904,0.014697362662424426,0.0030409853418321975,0.045296649732133265,0.005826423003043535,-0.08454920476628351,0.026713768117505823,-0.058286391104945934,0.0029056544638708937,0.052769615546995885,-0.06222476364540066,-0.047259844593837905,0.07188297574004726,-0.086372246013246,-0.06844420939519921,-0.04628379648397524,-0.015183003419108429,-0.0018885997615971234,-0.0009059677801852711,-0.07339944957642276,0.07196335916153132,0.07524779410078955,0.07861564507747762,-0.027442531494293924,0.042711827135714614,0.06380647546928095,0.03240558150841516,-0.03508554341350867,0.0616546621788277,0.010735768747356642,0.015816555548942707,-0.031607264739376195,0.05480104745472575,-0.026010534932727036,-0.07617217632042085,0.012432928148932931,-0.07198082810397109,-0.06757611353475476,-0.01835555298323785,-0.0545280057484706,-0.0390808578049823,0.022221895504084793,-0.010864247958137438,0.042556480494617466,-0.07185287231437207,0.05524791249355285,0.03318357662697191,-0.06045276333639968,0.01076356768873396,0.05781150653760658,0.053348506895177755,0.015155143477174102,-0.001221143538457592,0.03697749697454503,0.07045016380452923,-0.007042685637083393,0.030877755531429935,0.010612218090147965,0.01762802408880207,-0.07975842662861816,-0.07334870776725547,-0.030360547013901083,0.008845495148166613,0.03438827266497142,-0.07546760619185579,0.001986649636395235,-0.07104343822507452,0.008037028648789066,0.011464770729398444,-0.029325305301685506,-0.08687418501792617,0.055117634635609536,-0.08051309963027094,0.07272559985340984,-0.02791427871574822,0.0240841149162572,-0.06512025540750552,-0.07530364115708509,-0.05074576849413261,-0.07313371279906336,-0.011497158305553867,0.06520407905205261,-0.05157044850790646,0.022187931773534453,0.08467846190273054,0.04413305012196375,-0.0670379871125833,-0.0293947657118801,-0.07092239129519723,-0.04554490843225629,-0.022787865317112882,0.08268107658420956,0.02890278235620028,0.05137442411753523,0.07771346479999736,0.03676217622098443,-0.054786133638325574,-0.04747820753890499,-0.020212054111146655,-0.06672060995567436,-0.0061968741331375615,0.002907185125959208,-0.07452781823268342,0.06434318278693546,-0.04957370425499444,-0.06142818268462996,-0.006322083715354226,-0.002175720208085513,-0.03067182018874736,-0.0014631052240053344,-0.07901626326378124,0.03148701161970095,-0.05778687422341297,-0.057869901788471484,-0.03472436835572182,-0.06220392180208943,0.06005641957289043,0.013837100243987752,0.03014444564694914,0.04301361808588075,-0.006588652378035437,0.07601576067691815,-0.0069378272349042425,-0.0331252210741745,0.05711761440659799,0.03283106038837065,0.0687514908503801,-0.08565866311571631,0.06098972323215751,-0.07571142452491833,-0.03726351173269159,0.05625036792047844,0.06864487202613281,-0.007349280921160398,0.060121548557303534,0.049165101564801805,0.056627905534070655,0.02890283547426309,0.0858767628497874,-0.058813564101991636,0.07334542057595236,0.06842943825111525,0.029465193256302633,-0.05203938889674755,0.012979890476530656,0.001729612567054603,0.056440992882680535,0.0649119656253003,-0.06963277697313446,0.03928640151662524,-0.0534962785989801,0.0018032583191049667,0.061135934195839015,0.0223952869181525,0.044188977638417476,0.04065065018639477,-0.013966043802386835,0.08058682791951383,0.036640260995536744,-0.05007453641717756,-0.05889407177139008,0.06510839042884181,-0.0036322097346417476,0.055466250432711334,0.04248473086929047,-0.05908829618560696,-0.011642847020046407,0.08433526025442051,-0.04538707773779738,0.08349330517833484,-0.05218760363020883,0.03392421973159816,-0.07970833063127607,0.06816006465831873,-0.02337457223081514,-0.05296466453191645,-0.04528476915169773,0.06948191857439179,-0.0600907942543082,-0.061766263900781625,-0.052080357495987724,0.05319170569482998,0.08556139886384517,0.07611251888149703,0.049164931996496214,0.06637461838733008,0.013374062437651935,-0.034284265025473507,-0.02710102021895424,-0.036954325054502794,-0.033680663340233306,-0.021002674263229312,0.014084752836214659,-0.06677956151139144,0.05992397221275922,-0.023112836000299966,-0.02999528840555222,-0.009791773779174548,-0.07777587678394916,-0.038129085474161675,0.0052910743347172745,0.025702867058820023,-0.0851381092504376,0.056817374650824676,-0.0367692461481803,0.05103195572539898,-0.0002520921874770571,-0.0007592999582139992,-0.017087813911584593,0.04525062192992241,-0.019555674712630047,0.07823423477925884,-0.04765032001621583,-0.011388176646943776,-0.04639154369800755,0.0009755022349976772,-0.03451847644302946,0.0837528208129206,0.07964565971529639,0.0761928321537467,-0.025092830378937767,0.05325116678489206,-0.003967066127752522,0.010500222772999362,-0.0579496537040617,-0.05304862042855476,0.008977435398163494,0.019621321207562825,0.014876445640338284,-0.03454030592047981,-0.025868479749239934,-0.07080335188313938,-0.055207305015662664,-0.027405850393355573,0.0779743836842966,0.08635642497576226,-0.04009804010665644,-0.026414039331955165,0.07964190256510048,0.0669410289078072,-0.08515429269379954,0.02195120458160174,-0.0511456801597743,-0.07453213593742944,-0.03799262647248942,-0.05484725989881336,-0.0038694295059975015,-0.03310698812479536,-0.07284543619464835,0.03423959474907072,0.0012519216881816952,0.06341839504778587,-0.029872852936203058,0.07350099887798536,-0.052402669751078414,-0.027044635019119828,0.04352664370462758,-0.028763739440964782,-0.01610790500004644,0.005764436527837563,-0.042291201389311944,0.05292950798637497,0.06652681286811979,0.07157593067496365,-0.014813102615637355,0.04973410900811184,0.010910016093814812,0.04776600670098585,-0.07372251592687888,0.0012248915160189278,0.04657830562833273,-0.08235534027944795,-0.013377018541986571,0.0835631115325865,-0.033237555903106175,-0.06210949691215806,0.029951125353060062,0.060608503744569775,-0.04872199248178622,-0.08641269543450392,0.037738947774316176,-0.058506368581902696,0.011506156206099918,0.0018610755321354783,0.03955627374951076,0.03468500103001518,-0.026742533143715642,0.07830424085576268,-0.051994188597696604,-0.005107289149211255,0.0278381228509441,0.031892706031414295,-0.0514021128658927,0.04343359924696097,-0.07638666240020306,0.015506788376103295,0.06969949316309837,0.07795816036351016,-0.003151166258415175,-0.06945043068087225,0.08199333705151937,0.046630588319559324,0.06505476266616181,-0.05904852281805607,0.005049402445743159,0.08574528543846227,-0.057578470942055635,-0.08483931310690775,-0.012873005860666864,0.061004328019359455,0.07938548772602502,-0.012732738694431436,0.04126054122441544,0.07840767075517457,0.04747385944281812,0.052298300074123616,0.04980100884933358,-0.053449929400689905,-0.08091190309555384,0.0666615735209134,0.06565146783177603,-0.030644324988772995,-0.0063079897969627735,-0.04306293815347235,-0.014705097875146941,0.04055885835438769,-0.043361319692878424,0.03475159293882289,-0.07707188822062486,0.07893495300282374,0.06937684318696072,-0.08528201954232255,-0.06426405668821794,-0.007938541325030538,0.007964320932141139,0.03372068987073276,0.05901180566155559,-0.06352886335336276,-0.03280640596288003,0.056784904994034296,-0.05430038200987465,-0.050847861800682785,-0.03791100659897662,-0.05928227229918381,0.02723653613287806,-0.003500482416634587,-0.029987850148466874,-0.038986459178564255,-0.0715459305639744,-0.014781920816822863,-0.05742176382298439,-0.07500632462578703,0.07068325702077174,-0.0647131173170718,-0.06961574641566759,0.057709011379121294,0.0006004289010988345,-0.05955728599642983,0.08605148788977665,-0.060006024554469004,0.023734167047007024,0.06876203592012323,-0.0006458002712446675,-0.04174516262583308,-0.051810750736638184,-0.0457679819986561,-0.022037933240398377,-0.0036109947453757812,-0.05321175568725141,-0.041645531053886096,0.07241570186963386,0.047012695380136166,-0.06921029805761428,0.08284293001889276,0.0548105052705844,0.0012760106829362156,-0.017540538606561212,0.05212904776833624,-0.07119745730607524,0.0029026303513021295,-0.05600244400005029,-0.03992904198845815,-0.08111667930455989,-0.01800542493119403,-0.0481509625054453,0.03826046156071883,-0.0003899820177536012,-0.011772754866985938,-0.07775988052446603,-0.041548266644600824,-0.007985512000870262,-0.000420094671532506,-0.002110364976375484,0.03298872619353782,-0.005847272875861856,-0.012286631919387503,0.038982084688550384,-0.06744649604222584,0.027860963227987187,-0.03424780677500968,0.05744273041554246,0.0020365512586592027,-0.08098833588626488,0.016215007101298,0.04577392990377652,-0.0016299168835465089,-0.05305265181548325,0.027466317356906675,0.05134626531319397,-0.06641428834402031,0.06369735634126797,0.012751930611352227,0.022922264576549667,-0.03138177057372706,0.06148459556027894,-0.044084971540581344,0.057935613260475666,-0.06393627276101148,-0.08637152865530678,-0.03528390513720781,0.012361388575692966,0.02152397050733139,0.052334365696210805,0.0816695457472422,0.06321436825420099,-0.07614040216348836,-0.009807575805421243,0.07840064873353836,0.0138640606350805,-0.08160052811372803,-0.08656669937906689,-0.017802285070391027,0.009913768959993616,-0.03293492449512373,-0.044521987404206376,-0.07454275941246744,-0.004064722911186244,-0.021079538148529836,0.010020746098096875,-0.08340627910432183,-0.08391132645898398,-0.05720968253626721,0.039935203787308055,0.031243841867484523,-0.031687078516412545,0.00560060374800278,-0.06428867068607404,-0.05242012403060533,-0.08346557666284249,0.0690181264679508,0.016715764712796247,0.06823954620016698,0.07430755976029244,-0.07613514737020599,0.014129691840997521,0.05052163458263825,0.005653627030445432,-0.06058576997004815,0.06517936201690352,0.0739845823027474,-0.060675789116400966,0.07921630068273006,-0.055141424419884795,-0.021700661809670035,0.04902476127589522,0.06509489174599903,0.0012751081121086805,0.03243931239850574,-0.02754026865089656,-0.03766387729823028,-0.0217032884384694,0.057523704697277855,0.05605766213957661,-0.05416804782795924,-0.03228536155407262,-0.05463940590534477,-0.060185742907494594,0.03445353842240442,0.08499791458458122,-0.0639922333585849,-0.029496022268917517,0.06296692721307617,0.02323240085427976,0.0019190831303166622,0.06672223912588238,0.08198747919480362,0.08688739421028652,-0.005431807956808213,0.04967871696973633,-0.012154364360383169,0.0009984881310864113,-0.055485406935306555,0.04561267256405485,-0.048049097951601435,-0.06601740680178919,0.06730112950479195,-0.022196483698755418,0.04266317197892003,-0.004273087135563278,-0.03291378577782409,0.0779348310406402,-0.0861402266527606,0.037012700948791874,0.08672573436297865,-0.05079695420678749,0.08329886010100454,-0.06544633049185723,-0.02049062195264334,-0.075291972456927,-0.07640080823468957,-0.04060135131039216,0.07375626720761588,-0.029649880402028955,-0.01850026145865813,-0.05941307135706116,-0.0492342619719785,-0.0664607750229676,0.05418344960906735,-0.05956120528941763,0.013230989320873646,0.027391640502084688,0.06377465965406179,0.046413363311986006,0.07233363172575744,-0.06183709016184345,-0.006061206792348006,-0.006687118524969393,0.029588302276326334,0.020048684909296316,-0.05965814422685356,-0.024350560474156457,-0.006124114970930475,-0.08674199971291074,-0.013622271877371764,0.08456372459943487,0.032565946631592,0.04168703284840969,0.0664141985847321,-0.04987259560589873,-0.045189808992500566,0.04323576101878002,-0.03415909567645108,-0.03133603827080389,0.05142598391910888,0.01285277194305301,0.08494775816234532,0.027064871864511494,-0.03171100703533558,0.04338495343950405,-0.07116280816818467,0.032645011072408456,0.0039914873350883895,-0.032445205888000636,-0.07296058420391277,-0.06529721445865651,0.08030864901310325,0.08295938994279306,-0.08005671078326419,0.056600282390050355,0.003984539379972618,-0.049006586204269516,0.0720256393520265,-0.034370844516237696,-0.05221742696947795,0.010230412667507668,0.06184074056280939,-0.07287472649795605,0.06865646404967049,0.04024071165508816,-0.08593888898544785,-0.03519277195150527,0.06442640998441962,-0.053958149354789174,-0.010519213258778401,-0.01685278470447478,0.07448250722749414,-0.057043756701077086,0.04094972731587801,-0.04826338999009278,-0.06729013656448764,0.08064257293836269,0.07700643284459813,0.08332171053481088,0.03967319725728835,-0.05748676279078174,-0.05975294158984987,0.017146879940555762,-0.08231689082857788,0.05762665061266617,0.07892994823289612,0.048083245706618205,-0.08005531042486894,-0.08552159019999485,-0.031110492652589465,0.0025955586977913503,-0.025488162851308206,-0.017709503439213625,-0.08605372593338542,0.07862402473289098,-0.00467986431492351,-0.03667317774361565,0.08619260968850206,-0.02884192725666551,-0.03673340431179228,0.07008582137627842,0.0016347997445027018,-0.06086729731793958,0.04315180790114759,-0.013617523004570364,-0.058513965027588224,0.03052137522644416,-0.05181836116476253,-0.07017892535896722,0.03260315870117758,0.05625630219231917,-0.003216665438059804,-0.07044098019729148,-0.008231563298478517,-0.04982013499029206,0.004156333173649343,0.06960268191753521,-0.032711051062873225,0.05256615131988404,0.002899742921197365,-0.05436189842607554,-0.026938543379035312,-0.07831906371894092,0.052890648458886996,0.031126459927187475,-0.0741741657578507,0.028689803563159838,0.07288715203645343,0.010562082649167345,0.038366239617676434,-0.024583964409074968,0.009782714880140833,-0.049105026706200414,-0.05159154185922417,0.07591648430930756,-0.008912648553461688,-0.03286704191147847,0.052602465769968465,0.022484133648586063,0.015021236288588147,0.00887801692095938,-0.08208432138399861,0.004808311403543444,-0.006146596978738067,0.01989690987166473,0.049972812288003376,0.005788416758645734,0.017710729979654075,0.007001053896943055,0.07973534941534968,0.05062695730994518,-0.006566385188715815,-0.04591728295741324,-0.02756567777280098,-0.050991125262746385,0.06613658933871375,-0.0017157562773875007,0.042547069677678906,0.04278241754283818,0.08474488073358594,0.0754941021504291,0.03508011394463191,0.023747452972447472,-0.014416079990200878,0.0153755365135098,-0.05911989868964329,-0.0697364768854428,0.05213148189442107,-0.0319034469113459,-0.0522422914035907,-0.0749728845606322,-0.07035716002774108,0.029005585339472964,0.057157839648915604,0.027571391493404818,0.04204368166158917,0.04697251763303184,0.08315253997007416,0.03732211567825354,0.03547466864037445,0.05685936502677194,0.06934496290815895,-0.06579487922013977,0.08605386752432412,-0.008756812058097141,0.04089102534904662,-0.04354447346937083,0.002063014799005683,-0.08487644224604037,0.061126223292366944,0.05926757337476088,-0.02149086121014479,-0.02414991190345532,0.04099867646945746,0.005306826732688577,-0.038175380427243624,0.04580907287321545,-0.0036008062792572543,-0.05803907548326129,-0.05472562334690335,0.06508089111414647,0.014907707250344113,0.020038933389287736,0.011064936338403192,-0.05969666211232623,0.052700827488112,0.06442495919557273,0.08116427859819891,0.005142270831008058,-0.042239957031141105,-0.0007064573514528466,0.014818115693079892,-0.03768386341664099,-0.021270306367554115],[0.003276206652052527,0.046431530165531476,0.07794551492510463,-0.06954524700016501,0.08511146934496999,-0.05552440044297871,0.0661978356405071,-0.02132166956315172,-0.054587421725051224,-0.014829880828508779,-0.04476669308685436,-0.04713747450213649,-0.030191495403495305,0.06337266129492897,0.045004439952958025,-0.020167372554466018,-0.020117242332712643,0.050862497189607,0.02405752414973228,-0.020503332009975436,0.03020942010827385,0.013483462528553786,-0.06401066835866955,-0.0071730280933561125,-0.05575441053772623,-0.035292247095169815,0.010949688022956997,0.058221278885487754,0.07307392266820012,0.07834681008424318,0.048525573026142105,0.0192611311556683,0.013612051807435147,-0.04998012266746789,0.07987496257716148,0.05227083906260219,0.06842569544800117,0.021952945812690222,0.05029595648768634,-0.04637068804180564,-0.07719134151976235,-0.07977583384991388,-0.006754743912125077,-0.014177842530910478,0.03127996956077267,0.0811926196127829,-0.0512654829863287,0.07279601691116752,0.0063233631676980345,0.08352791362860479,0.048441219820407194,0.05929493434024444,-0.04198611831333088,0.0034706441103344726,0.0002936213103688634,-0.031514508481248746,0.025137836782154505,0.020151141790863164,-0.07447451267228868,-0.00785610648867198,0.04578966008484714,-0.012920535586749923,0.024309128112843068,-0.03598428352120178,0.05749378650945933,0.04377156632229062,-0.05810582209781006,0.07016568697504491,0.03234724288742363,-0.013857753455036231,-0.04014681428695859,-0.046664981406103236,-0.03116073903086984,0.031010547105712494,0.0022985830947657715,-0.016054221273992697,-0.032934710722031205,0.05979904721382903,0.06806930797312716,0.038924340988652106,0.01733925782657647,-0.0035566769871784587,-0.0860607441649174,-0.05848338352162962,0.058240625449211963,0.056560488228516476,-0.07782398334741931,