{"file_name":"TestNet","learn_rate":2,"learn_rate_decay":0.0001,"input_size":784,"output_size":10,"cost_interface":"meansquare","layer_types":["DenseLayer","DenseLayer"],"layer_activations":["relu","relu"],"layer_sizes":[[100],[10]],"layer_biases":[[0,0,0,0,0,0,0,0,0,0,0,0,0,0,0,0,0,0,0,0,0,0,0,0,0,0,0,0,0,0,0,0,0,0,0,0,0,0,0,0,0,0,0,0,0,0,0,0,0,0,0,0,0,0,0,0,0,0,0,0,0,0,0,0,0,0,0,0,0,0,0,0,0,0,0,0,0,0,0,0,0,0,0,0,0,0,0,0,0,0,0,0,0,0,0,0,0,0,0,0],[0,0,0,0,0,0,0,0,0,0]],"layer_weights":[[-0.07168751573678482,0.05185209117938652,0.016527040951691316,-0.04566035188372987,-0.07931949017820303,0.014973411349827478,-0.08656750298271551,-0.027275229047196196,0.010248261489730986,-0.04704376800824296,0.08010991569893239,0.04915368531554723,0.08014850164627213,-0.05102072617869919,0.07527322370073572,0.027877148082975547,-0.07687751280060667,0.07259747820494847,0.04096859212800549,-0.06383669046924416,0.02836590151459842,0.034015230847680336,-0.048616986837304636,0.06250518308670672,-0.04992281175908996,-0.05650853144786081,0.07873073173321352,0.03949606565340427,-0.052752465667759055,0.0797966374049762,-0.06669116042564507,-0.052421590951953506,-0.01301110616565132,-0.08679330784511347,-0.021571713373709098,-0.01177958284987475,0.06300360134544172,0.043370432770293926,0.05533578373248901,-0.07760646226952125,0.04981394801996977,0.03975801799565162,-0.04753837135567115,0.0695921639665793,-0.005812059706768541,-0.010347996600419546,0.07819222553538471,0.03672626684196838,-0.05687533587187761,0.06201233109232679,-0.07724298622840457,-0.011976029374285838,-0.08156200974406301,0.02627188937527926,0.03227390330159595,0.04657955317221854,0.05538174464915449,0.03935825134488283,-0.051215036710250586,0.027982594029571956,0.07608316313760127,-0.05471911416098958,-0.01588696388046916,-0.008107899915114763,-0.010881499981354056,-0.0090464899997202,0.07546949326921423,0.014080521701416021,-0.04897895658126533,-0.055416370781414766,0.06455209414793117,-0.051331438783788916,0.0792306046113998,-0.013801628169539573,-0.06441303668172627,-0.00542277524049771,-0.06555382673909392,-0.0738267265553926,0.02071699963646635,0.016717581634894826,-0.05670009938041938,-0.062204830096815156,-0.045048336005953094,-0.07632529231794312,0.08055591133816922,0.0698351686981439,-0.059080653596114294,0.08552953764945484,-0.046544085682162936,0.036661671074903326,-0.0684573635366311,-0.060951484575643325,-0.08071294682638747,0.03021497033990815,-0.03249659758396076,0.008526680260708006,-0.001727198525356119,0.03192332746236684,-0.015229566487386964,0.06447353841129819,0.08432615315549186,-0.08361426299213974,-0.04935783358362803,0.02703864903361082,-0.0696085443957089,-0.00090773244289441,0.0668730916479219,0.05877641114557883,0.027258260039553575,-0.07806944027227984,-0.019395248471783588,0.07652282759775789,-0.029140393937715767,0.03116066525675945,-0.02864592906956985,-0.039046865772118224,-0.019603714615810022,0.025002715804718842,-0.037681164489371456,0.013440057493302099,-0.06330149179508476,0.016434030413368064,0.07500919954985763,-0.045482547181474375,-0.06096738214968812,0.0482624924603218,0.04137760383034589,-0.07127077654944652,0.06350584739503914,0.04044634525415078,-0.026807240071995232,0.07177299830818107,0.0036900047139516445,0.07489924659972838,-0.0028783312581196485,0.08675547063006628,-0.07491569149160576,-0.05284636987855605,-0.06820835569768145,0.055439855414750466,-0.013152815747543248,-0.015870292474918418,-0.02516762056252496,-0.08651245905742558,-0.017472931281621737,0.07141868359912643,-0.021682553554564346,-0.0007021882300492915,0.08031743932888058,-0.05712290291225892,0.0537863662813976,0.04154511047263429,-0.019604453576015604,0.058384121574570125,-0.04538418910736352,0.03577393979135028,0.02203064538044229,-0.06315403845270154,-0.07049887989828701,0.08178194694322671,0.04873653276984369,-0.005628132617736953,-0.05448827462026607,0.006345348435929515,0.043819894896051065,-0.038611131657281327,-0.059243177666432625,0.033687771497337524,0.06503490082295565,-0.07614993173827599,-0.017230103312858916,0.060688634488688525,-0.04504108608546105,0.057640579154789345,-0.026698730228638383,-0.019005214740125356,-0.06618469394475526,-0.036105358579591205,-0.024754654837677907,0.04239667412780121,-0.03064812283700697,0.05707707237295412,0.07545866086128628,0.0757954841849359,0.009807901181894146,0.07759315932936184,-0.08232499892283504,0.02881472067153555,-0.06701863469573588,-0.01073021896521513,-0.05489000942771566,-0.039541670310169724,-0.04654218461938439,-0.05270597685679612,-0.04210009534044047,0.02037673928856898,0.0408155011041009,-0.056961341507699555,0.01929525214728632,0.07703087063928915,0.009345208524512233,0.010221632929079613,0.032202768884970395,0.011760882243598073,-0.040100605260128284,-0.06765428131585724,0.05769110589445367,0.06345027051713453,0.015466533591554615,0.07123192915989121,0.022210036247953396,0.04051631243841397,0.051383082848804634,-0.07096142958011549,-0.07063821770910987,0.0041614331209204325,-0.0671090312051074,0.025360939293207097,0.028917004654157197,0.06034942644830582,0.07506138143215008,0.03934729058393305,0.061127202981000134,-0.05609123860781552,-0.08120613872642428,-0.07236564246258985,0.0748474407906492,0.05419540541390691,-0.04159246151919002,0.07672221043667682,-0.05257814229511368,0.0076788993713621245,-0.03100272789800468,0.05678518174983915,-0.041652277677888455,-0.022407691866213206,0.06529572555297927,0.019501935192430306,0.06400346979629604,-0.072501459033467,-0.044889743695266625,-0.009848408051172736,0.0815195790329083,-0.0321069932075122,0.006724794783650262,-0.050704360490891706,0.06957440846975516,-0.016764490738401847,0.0740766557620354,0.018422799959718975,0.08622814081294583,0.03888147200494793,0.07342137321419318,-0.00929865960369268,-0.006241198506347023,-0.012002951652665655,-0.07258359976617698,0.043458213812774066,-0.0021524266107947054,-0.08380907886923547,-0.05201221602450434,0.06554017792478548,-0.01645304000856916,0.01354049308783184,0.004746054659690732,-0.0030771043029779593,-0.019862703749851968,0.060217173049942035,-0.07582854899630967,-0.0801797370215401,-0.0029358968774605143,0.07005007022145093,0.060308237506053186,0.06354640407751552,-0.07950319852251742,-0.06309454243558563,0.024096132247767937,-0.06906350714060129,0.07498707443628258,-0.06708749495274119,-0.0145335947019552,-0.08160685387333047,-0.05578787599791343,-0.04603204766339391,-0.03606713417313097,0.06266084615544254,-0.020044555585335314,-0.01342029467027063,0.02837141543352595,-0.018990063013324468,-0.028643902280532436,0.014164124398084635,0.07626297167336984,0.03362188865638868,0.08648562622577893,0.013941250558121662,0.07929567312540176,0.01670069154379676,0.041761859544272445,-0.01006562545207726,-0.010265551598775985,-0.07496487358802888,0.021121174798220732,0.03956495117879044,0.078457732826162,0.007945917758923587,-0.04320896388266696,-0.029588435601039312,-0.034420882579675016,-0.06874565507327322,-0.029480971701087745,-0.08097537003202714,-0.02983308997942751,-0.018580944350821707,-0.03833048087695989,0.012658133528696186,0.07801732029632302,0.04977237309378116,0.01702914944542036,-0.025700688823922756,-0.0830244568694963,-0.0734224481237709,-0.038993495755650004,-0.05928875731232674,-0.05619916386915373,0.08021975706509976,-0.021521696238883406,-0.07130187718011563,0.04670283437896253,-0.06609624761304048,-0.06260221435377704,-0.07154271283124382,-0.07545889621638799,0.048986224407210927,0.038206147409117375,-0.08466184033798171,0.046119576976542676,0.08134649360376653,-0.0014407254453281393,-0.08161885980368075,-0.04350490750155719,-0.06429054953588824,0.010828392298555048,-0.05360977004082329,0.07959543560637322,0.021874846676983084,0.02102316250503443,-0.02571439958512222,-0.0834608899067134,-0.07733549569226264,-0.021999206338536886,-0.00515168813404597,0.024424874810079947,0.007797463834251589,-0.04782093719004642,0.07097513156585136,-0.04916035656352898,0.03241833532643816,0.06425093867087792,0.025725192964932614,-0.05244496339242904,0.05652500978259131,0.060415441107134454,-0.030026643596674167,-0.059581174067790454,0.07678587120379846,-0.03469027939471965,-0.05841224644990237,0.05781431415523902,-0.08308239928469555,0.0761461092695179,-0.04064026279662947,-0.08567724907958645,0.0851880157487071,0.07930495729458514,0.058445363455652266,-0.05092839611300869,-0.0785647145950956,0.057506773466304534,0.07190972581745089,-0.06994150993439577,-0.028899280050509818,0.06232103024206312,-0.04877373166978046,0.0484601676597044,0.03373631682783024,-0.039000522049968255,-0.01397807760250401,-0.061740596108706344,-0.011079078361277181,0.07505923719301633,0.01712449830561394,-0.057259904545992404,-0.012767828795951147,0.03303362205322288,-0.003866692384749723,-0.08102639987069161,0.0020897670279970276,-0.008184628013038084,-0.04925884306963265,-0.06553021453421481,-0.07651296288032912,-0.07558298518735276,-0.05297754127414689,-0.07360970336463574,0.08161262041133271,0.0027464503612086993,0.0839713583770555,0.08423037639105571,0.019126116284422942,0.01914244252646989,-0.07092778828010848,-0.036009292796187184,-0.07934817413030598,0.06294617299078303,-0.036622996542517015,0.08287816626646607,0.08623733212571572,-0.00670479165371933,0.06327546488528626,-0.006534905342492875,0.04323041945309525,-0.0016335229035027987,-0.001959215727533728,-0.0646507564249369,-0.05065712613789847,0.060188403010584285,0.06273233381740001,-0.02531003261665394,-0.0009221427466478138,-0.0330652405147987,0.07252602969615929,0.03400511535100101,-0.02418354902604851,-0.060681285368985,0.04157363706026021,-0.054248986372611975,-0.06980755209809479,0.057887399694897784,0.03454780010290524,-0.07771177325068694,0.04258980888275288,-0.07690589743709651,-0.06417554205468545,-0.012002689927065713,0.06789720955706724,0.05569273344117903,-0.031929045150131855,0.027954144284618856,-0.0030622032933112636,0.07117460793660318,0.040451384596293466,-0.05835591407976844,-0.007084766349953586,0.003263228461721751,0.060781857564842307,0.019457769944773343,0.045573770632427096,-0.08600197504167952,0.08675684734776601,-0.01482721550519664,-0.05935016981612159,-0.02727280847481653,0.03007591164050881,-0.034855174154248235,-0.016364062787219455,-0.04066602360388927,-0.03565668191838439,0.04704969968377998,0.061695510546993015,-0.07435458069120707,0.06860803260478437,0.012304083266804253,-0.02313799552174642,0.02120019098586065,-0.05500993130015085,-0.07437558758480899,-0.0460787963980204,0.07715017729225213,-0.03299307888934208,0.05923958460678155,0.03880477728403614,0.04291164209081513,-0.08567491189918439,-0.056172697519720274,-0.03659322815502312,0.009730156450642347,0.07042423476985432,-0.045175644452924366,0.061400012448165536,-0.03565420226959549,-0.05440191623755417,0.025973837318072943,0.0030980187512110874,0.05531897120854165,-0.05677369804394347,0.03579119502593993,0.02912737662685047,0.040966989027434314,-0.024070167548547017,-0.07268833952119086,-0.04023248950355569,-0.0635930351110714,-0.000519676067690919,-0.04454337030220221,-0.07792281452658885,-0.07185255818685893,-0.04177651430682281,-0.0538113921467121,-0.06391298741673748,-0.06651305946367006,0.007177024639668614,0.00849244932561094,-0.001156233222379205,-0.027697512140952812,-0.05607075332989468,-0.022078641302974086,-0.06476970550064831,-0.056418864942715106,0.020429808953800296,-0.07193841740665909,-0.08247491738545065,0.05841963258305957,0.05774677806560327,0.04773059629417495,0.031183808637286134,0.027555684223448437,-0.06357544157356448,-0.04068999234451632,0.0544655609917509,0.04587347106617848,-0.046284639081412955,0.058370528140165134,-0.006551031597497883,0.06444975777022688,-0.032979007064481626,0.02564488467383,0.07638437296232217,0.019798141629722918,-0.006090157671434296,-0.040324144318517684,0.010362155229389408,-0.015960765353975073,0.08197220910155723,-0.008691606929468201,-0.0826424307983643,0.03361219777358666,-0.07765255706277911,0.05854938297881304,0.020779071842375943,-0.04567031641115514,0.0295292206870105,-0.0421073922341492,0.04437957699122355,0.030056556834383477,-0.034887424504305695,-0.04258151905064234,-0.012079648378907251,-0.050314837721604014,-0.07512602422218516,-0.024693327233925512,-0.07873752254989166,0.017473148975767544,-0.0039359272616313334,0.08578118820284808,0.04009390694686199,-0.049858451563262116,-0.054793459566128605,-0.08453187355404349,0.06278153819983906,-0.04592769652773911,0.04389242212021552,-0.010343227011844564,-0.05248491768034756,0.06523299219132758,-0.05672141554565517,-0.007708016342078766,-0.04840294963493503,0.02950310506695797,-0.04155776949153128,0.08313434795308786,0.08479940400006336,-0.016117556227674065,-0.03723359591067397,0.04481228571153936,0.08263673973961125,-0.008977205124168719,-0.07527219265697108,0.002685605164924207,0.0062912228992761665,0.030955941205997678,0.07579031434456057,0.02519985911431949,0.0025082239282275126,0.03470671776446552,0.08133661598299866,0.022730878741506533,-0.05726552370463982,-0.036152777956229475,0.049242982736771135,-0.00828015929406653,-0.05605281597582802,0.026890924384125756,-0.06399882329213115,-0.0476021834213803,0.008760702567701867,0.07250265555133428,-0.0599386032573879,-0.041451837648048516,-0.0383960383553255,0.08590416559013803,-0.08203876406976919,0.009780621812211052,-0.0364058781205873,-0.03725837844822411,0.046917498710565775,-0.039870487382259234,0.07281889522364604,0.037964842135368576,-0.027376547646276887,0.038627391587996246,0.037340847447830935,0.041353065634831654,-0.06629820714042295,-0.03456289662540654,-0.06397818823569335,0.05961536653915153,-0.0037335322141446997,0.0028334207492183017,-0.02172243079927351,0.034364208398545065,0.0655648616682307,-0.048667933340519394,0.040573925827194185,0.028806389416347236,0.003771706939601896,-0.04640751819815351,0.056397104915353324,-0.07524318276190353,0.031552740987913636,0.03200160476869578,0.0077968091617394986,-0.003095557312430594,-0.04790749919823162,-0.0281533837110116,0.05742284162484351,-0.07902443566256913,0.05803225192053299,-0.0500030566150827,-0.0045053306885604605,0.07677260302104813,-0.06958499120513173,0.04701054685049488,0.04674901586203223,-0.07739827588010134,-0.058079381266248925,-0.005915697477912318,0.025012974869876373,-0.008610172032902527,-0.0032337716289998625,0.06425032720294147,0.07182472067445722,-0.010409712344998628,-0.04472380576553091,-0.037301768514256435,-0.0747291769544563,0.008764881470010172,-0.0640330757828961,-0.02563594526970374,0.07489653106447727,0.019973183529586297,0.08506035860907524,0.06103597948775527,-0.006056682416377468,-0.06950405597344422,-0.005084435858132827,-0.006221672888473445,-0.07171080690389262,-0.05114202508344629,-0.08456781562704972,0.01426448040633195,-0.02937379749951024,-0.06372612288235945,-0.04195349733425478,0.005854908422769617,-0.06503057118139172,0.03210166339889306,-0.07589317939041863,0.05857691329753392,0.022081836345372016,-0.06950055684592613,0.08678918721219211,0.04610745554269102,0.0017284922091632265,0.0437158482580704,-0.002995817546940241,0.013869977036010978,0.06679870710305791,0.03367686958217804,0.05406537516726878,0.07292700059385773,0.013269178211325977,-0.08337588228162271,-0.05930893012621337,0.05350058524701873,-0.046160291119419536,-0.0553332047940341,0.06877822443594955,-0.047474351915374066,0.01928118699943991,0.018380838600925722,0.011364620550058241,0.03349183098142411,0.08230689846608905,-0.005697909010035571,-0.03390653994162405,0.020204078741847376,0.05935742873888655,0.062263894304363576,0.015037348978391096,-0.06596741725920864,0.015117780982828288,-0.07514666060438847,-0.0757185077765431,0.03851749898366924,0.016850498132156555,-0.03316457567081318,-0.06440558176894025,0.011541036498978682,-0.049405276357796506,-0.017205658341126764,0.031868409040135645,0.01769822733651817,-0.01004545656653369,-0.03574055475266383,0.01637958328346613,-0.05225534591913999,0.008564102687227806,0.006868186556683864,0.04389112129695821,-0.05382091484858585,0.04969582316730006,0.08605665227616857,-0.07850560921125772,0.07380291669458111,-0.05442958927011547,-0.06554858485145088,0.0633162298486124,-0.06653316567085468,-0.08002209390330109,-0.0360388812607954,-0.0030201396272851316,0.07904118198392102,-0.02347453452355272,-0.012350598273681263,-0.07998656483843786,0.022866172097204623,-0.05042123559033087,0.03854243453651343,0.01328890188771173,-0.04433335830778027,-0.015609088502677004,0.05150781566929652,-0.02159228703397066,0.020863976779341528,-0.08293104461897702,0.023990520835495674,-0.008924275805557547,-0.0019766966434591887,-0.020928994662417558,0.013335406539748476,-0.06599105445186128,0.06751959811115016,-0.005662600819545213,0.04174035810223331,-0.012553828767826361,0.05298659485374413,0.03577498865547386,-0.0449390719234592,0.05963005001336141,-0.0022616088369353388,-0.046956344654508965,0.05380461863796476,0.04736296349752139,0.058181852055777056,-0.023186734133149325,0.006699288017862751,-0.0002475310713513784,0.07408526087284165,0.01364705683980355,0.06400108321182532,0.08599490315022562,0.04772394976359212,-0.004917389391860705,-0.063548010813992,0.06370867125177396,-0.047480490700317166,-0.026666121293888886,0.02048420546357302,0.05837384084244515,0.0263045300436643,-0.06825462446971976,-0.020113620798562354,0.05975640067996932,-0.018798129914168876,0.06981428487793398,0.06983899945692615,-0.03927013064248911,-0.06086508455842421,-0.06560782229297009,-0.04015215105009714,0.046954598547977844,0.08273711997252833,0.08400564421045886,0.04303653790000475,0.05426546873707483,0.0016776599952306043,-0.029460675506737297,-0.023548591134811073,0.0029579294116084537,0.03263719795870523,0.004313953071965887,-0.03594685703608297,0.07756657898933247,0.046137759523246,-0.08182576631389045,-0.07530109714366497,0.05981973189005804,-0.024874433461744297,-0.08388954551377918,-0.019445263725507644,-0.04460459051740739,0.007816214125557316,-0.03730499424233732,0.04415709905420839,0.017945301120007473,-0.07357864178432034,0.01796585215563426,-0.07445068157598887,0.01828275675396393,-0.08409548806179781,0.05921716714419595,-0.052077887938589786,0.018826320338091465,0.05988783412324103,0.08643082256532447,-0.03236568921236396,0.08450525565839431,0.02508466060522263,0.009598689128242716,-0.07898052115649701,0.07363578531635454,-0.07246014374973528,0.0761644676689284,-0.035322319356569265,-0.07455959244140217,0.007895100727885171,0.01175291959879747,0.03576610621753752,0.027882385820931666,-0.03995570613502651,-0.07900026347452616,0.0660153573158726,0.08668892782418247,0.02819202672156526,0.022880039223723087,-0.01102537522337016,-0.08079643017032341,0.04160279274337389,0.006805749000185712,0.08053487047323604,0.08060745550296938,-0.06951065033481252,-0.056035039314081395,-0.023689238508934243,0.00026066669337197756,-0.01670712459898413,-0.08030258215313525,0.08652929578698298,0.023678396961696643,0.038195701513083796,-0.04400514524924285,0.006967060669191338,0.0030493976679688423,-0.07807981833865857,0.07437075719007563,0.06499427805970037,0.07338699904872287,0.051321797861161894,-0.06871240340132875,0.030600285612408337,0.07473078323657886,-0.0728815941282619,-0.030958609300250343,-0.06906841800172239,-0.03973311289083128,0.025098903224139865,0.004185336251926922,-0.07768216682368874,-0.03897260163476662,0.030958876081911557,-0.07544323084857496,0.047126619580041634,-0.059328258201511344,-0.014716162139451539,0.04662913824814022,0.03894452608048177,0.021211876634660898,-0.04182229148611657,-0.08007340226139263,0.07205369374801257,0.02252561190599156,-0.06468934830288742,-0.08133515221483317,-0.08077005850922565,0.04441286380415993,0.004956492547017591,0.0017508593501637942,0.005066891349133851,-0.07042361539533593,0.00016264652423211845,-0.08069516604900523,-0.07554176978512248,-0.07305759340215712,0.0767112241457904,-0.042325251021342096,-0.07770900542438502,0.04287670807046079,-0.010874535180575545,0.009969319083782804,-0.02920353253063051,0.026212357842443357,0.05968963084425957,-0.083180310461989,0.05875635136640836,0.08656800527700223,-0.02083652701473357,0.020390699929515865,0.05676318266957525,0.041208693160885296,0.07139791944576906,0.0161098314928496,0.021430866872021545,0.05229798904693403,-0.05556902915993703,0.07299595759026165,-0.027818803191678385,-0.013779895978383055,-0.020758775653774583,0.07437595718938428,0.036721170675045475,-0.08431527108725069,0.04942485436974198,0.02875280737238918,0.0623560530236503,0.08624605921597062,-0.08134483674242068,-0.03663695194988328,0.06181120005712645,-0.0336311902447776,-0.04847737805971615,0.009696968252189353,0.07108459925655272,0.03221332802301745,-0.041771315515547296,0.02528043750126968,-0.014015666585130968,0.04714681597803777,0.05529237601220985,0.04965525941899673,-0.048716691202019435,-0.03400666634379874,-0.07519709074037784,-0.06105458820876345,0.024589526498929565,0.04505374456800629,0.02170056551018107,0.0020298055775000295,0.04898752352975902,0.05539834235084609,-0.07551350982617926,-0.07214283068922686,-0.02377900799733812,0.024168696260387312,0.07004451612414123,-0.048077307429217786,0.04345511374250763,0.07490991123900206,-0.035424676910483725,-0.08395991611375593,0.03719986764742943,-0.04549989113419813,-0.04547707978669086,0.0800972101644411,0.04445202949231203,-0.0016839543051938993,0.024392455470873292,0.043770479547821095,-0.04972262013817128,0.06598067732482052,0.03284985292462528,-0.0007460623876630601,0.04172221298184814,-0.05745098020018539,-0.04435283350149414,-0.03622793634817731,0.04066457959790437,0.014831541855411051,0.0516756529406264,-0.03974255586144724,-0.020955422560937922,-0.009583449146228482,-0.021796361675961717,0.0711853452801254,-0.014353920923024899,-0.019254782689205274,0.010163690631001462,0.023656754996491045,-0.08257136841435737,0.004989038489659578,-0.029567910192436653,-0.03475871425709035,0.011041734240315015,0.07739880085564357,-0.05556149201186574,0.06403522582184248,0.01483731956619673,0.03878207908928999,-0.0796238783830364,0.0435014832216194,0.07805842134378513,0.06668990775954545,0.08072882424069253,-0.07870712657333498,-0.05137523632920853,0.022537245786048085,-0.06647149726422599,-0.0505658128851913,0.04388436857596836,-0.036213638830316565,-0.08602710301230969,0.07729148517276913,-0.02414873948181316,0.0713831802938098,-0.015322858328675304,-0.057599470209402565,-0.05936138393132509,0.026500160914289514,0.008885503827118016,0.03202478955896371,0.028240276816615895,0.08420498433276885,-0.003091346166483211,-0.06947286502084013,-0.06731035764022483,-0.0067467331719651275,-0.03439158216240158,-0.03972840212136193,0.010267007938439349,0.07540778004323864,0.0021688706499239235,0.08615366246541498,-0.04708292166884062,0.017194562211746825,0.049085980800393114,0.05395002817583061,0.018812489418083042,-0.036657840651656386,-0.07958241589144896,-0.07294688992528675,-0.017755337254333453,0.024105523910156954,-0.012322800021143138,-0.07732422074655841,-0.0481386576277519,0.04839319079802237,-0.041627931831773976,-0.06091030378197649,0.06989809240898184,-0.012962684042237549,-0.0646705470842997,0.07551284689445484,-0.07811016577382389,-0.002488489812236677,-0.04135978185591484,-0.07143732920378577,-0.04262134756567155,0.035637250426035744,0.025442702798785036,0.06815781821731012,-0.08485598761115189,0.0813136205514047,-0.03158348487944097,-0.0839252114022217,0.02717703491922531,-0.08121984798218777,0.02950968371556356,0.008667364589381332,0.0842144187256921,-0.041623298552252976,-0.08015328574132337,0.06343137847992758,-0.05575346417734174,-0.06351471072705041,0.04678302315133859,0.060528096474118,0.07452620306431468,0.03333814580749597,0.017770005041315942,-0.06972281621653664,0.05948425674820462,0.057274541338706936,-0.016289054942149064,0.03384135484518756,0.05769506477034905,-0.0273787355833889,-0.03031560111698329,-0.06163655515526715,0.024845962225468837,-0.04442352280348612,-0.03255039803531904,-0.07966875312600585,0.005329672668459018,0.05251857364039331,-0.0018684018264013974,0.011143019913849264,-0.005166153183504718,0.05365345582090861,0.04931378421942628,-0.06564953700363374,0.03947386422223817,0.0034457922823634274,0.017797525952971502,-0.061045095331836795,-0.009063989642022471,-0.03103160076388612,0.08638573090395693,0.03770685917948176,-0.04452261845807774,-0.08480831243668924,0.022489843336430324,0.07895491961206591,0.056506218544334796,-0.019710651832836476,0.08258362877704356,0.04233952398376131,-0.041289379997497745,-0.0635103677232524,0.07358639035255676,-0.07920699212546425,-0.0841712984720999,0.017423038811075306,0.08177429875075776,-0.03661595745896923,-0.07305351446342336,-0.02109749989705649,0.03036183911945703,-0.014201323136168814,0.08484739625191123,-0.02270901673499652,-0.016233056975572244,-0.00627927093476939,0.06593306846499031,-0.032065463034650396,-0.013111847486560926,0.04139058145583613,-0.04309656302720062,0.04695231219384047,-0.010772831950133108,0.014830660111428667,0.08204609964773407,-0.041977531773215615,-0.02649704073439786,0.02677699031884362,-0.05679830829283242,-0.03238686805171739,0.0023086935518466523,0.08175222358419804,0.039801880397761835,0.018454608869005046,-0.0845357241125578,-0.029485863744740486,-0.0797285301834677,-0.06097835387400212,0.04049948728310421,-0.003932255225714609,0.06921109263728631,-0.038222500206770524,0.020922459755592204,0.056805805545183524,-0.03146011871982821,-0.06338166114900866,0.058577611972003646,-0.022136477339921426,-0.07387727533824884,0.05083500615609127,-0.01814340405685995,-0.015214728042316245,-0.07731576094593845,-0.013670395505955418,-0.05913598443334438,0.02437887954268557,0.0036506479464459285,0.027542403728347015,-0.05206880861537594,0.012553054327075583,0.0830536840986624,0.01065091462013247,0.0035400937360274692,-0.0024132794596946755,0.03377334665999679,0.05145938277366163,0.026373637078279583,0.013959045121773983,-0.06665193083353439,0.04032523409642624,0.06171052392805457,0.039673580348851295,-0.011699902122095235,0.06920537518400588,-0.011427569189711564,-0.012915390432184856,-0.07414115639011395,0.030424349564448255,-0.06027904036760818,-0.06808144610400907,0.06212034196701094,0.020695506776242795,-0.006427774888884463,-0.019231198100782984,0.06483765215190593,0.061337655006932584,0.008829571159157237,-0.05445867085688856,0.0018973621564143534,0.03044654737866584,0.055627027355465236,-0.007332006208675482,0.027055017924186575,0.0027530304603529815,-0.07066398569998503,0.05415743676441048,0.05305418377595669,-0.052227117748516974,0.049513831776689415,-0.03244628228336005,0.07172772114895998,0.05769482735560713,-0.04961792902782851,-0.06959737524223818,0.07195002124919572,-0.01959217931250043,0.014584974236075798,0.022888836765400697,-0.06733622467619334,0.06072284633072794,0.04914775581967204,-0.04315752132695966,0.031106440246798928,0.07096041403106634,0.043931138738011605,-0.030154122068348693,0.04162236720192855,-0.030210078764760763,-0.014993521192693746,0.06635863093513902,0.06107102102543588,0.02336323365406487,0.041903569316853906,0.005435573439657254,0.020976499869711368,-0.016919381084567947,0.03805022099837692,0.0054132113709715185,0.01928195244678886,-0.023137572039668236,-0.08125437893943618,-0.02217400307653726,-0.036188219655373964,-0.019439495158391468,-0.02621194372745954,0.013731169693912151,-0.008924540307143042,0.05227676871417952,-0.07100505623868059,0.0848788955450624,0.000995523816202798,-0.018079113021452625,-0.0012201299256863057,0.05719842966857386,0.08442435081035563,-0.018140259283783752,-0.017471524724496992,0.035569571350912196,-0.07953813131558382,0.028925462783089564,-0.030443844578432515,-0.08346508993400088,-0.05413672367459714,0.07103435419928669,0.03373763037544211,-0.01207034822309877,0.08396341396318785,0.02298179034045253,-0.04353304378062242,-0.00596150785361968,-0.05612868758975316,-0.05610750874917085,-0.06393533722427729,-0.015757912142616695,0.049894308666091625,0.0830527968977823,-0.0811535055209764,0.05257667881729575,0.017175759071706154,0.00921022844909307,0.04426898588734546,0.014618956225065372,0.008519909156808142,0.020011208262467967,0.036465720310453725,0.05913315816029932,-0.06443696386176986,0.03761045805850538,-0.04572205006898443,0.05976540349084211,0.004862162996345731,-0.02060134447233551,-0.030074846682699878,-0.07757624122201096,-0.05978509488351952,0.07226010602973906,-0.0020018048997825777,-0.062358124980529145,-0.048203517946899005,-0.0129688436689408,0.021631006409129655,-0.036639333647722476,-0.07965522826714143,0.0488155263375204,0.053231223184346144,0.05418700862486597,-0.01946915940658707,-0.06735664060090467,0.01096303287500075,-0.051993218789231105,0.05688050707581491,-0.07814442208718204,-0.0623843015817626,0.030726736019130493,0.07695619825129346,-0.06534492657373736,-0.008611522464381502,-0.07970112710831076,0.08554125555255068,0.06225521102226739,-0.07261232686419263,-0.08251013191297701,-0.07368830964127036,-0.07361257473114842,0.06305601109725648,0.047020895462297874,0.030722149601310575,0.022736605525733117,-0.003686428399243838,-0.046006977085505614,0.028468927926667234,0.0642983054223302,0.035549563303703166,-0.07939895291482509,0.039309205870059066,-0.061524195284093586,0.008393778619069328,0.02397319078884927,-0.010551270862809173,0.02979317466270695,0.020005323446060888,-0.07080761542175912,0.0458706118056576,-0.08135350428433831,0.04122988565508448,-0.06077078192985426,0.07523807023642048,-0.03984672765803806,0.03278288056328829,-0.06559223688237502,0.08585769660595066,-0.03450263048287315,0.05978767675931218,0.07643745111363834,0.007359969155198792,0.02270758597127108,0.06846137910039227,0.0022788419138530525,-0.03802370277105289,0.04708286463632316,-0.07303873678276138,0.04753131860119436,-0.006482492145451463,-0.07886850775594395,0.0256198619918062,0.04532352592486785,-0.07550803979136571,-0.0739100627031167,0.0072975140077139455,-0.051066576905864365,-0.06734872793119744,0.06964731212961284,0.05607149983899487,0.025602527199116,0.06980311355002661,-0.06749998601067711,-0.01313361375560089,0.005302000620569444,0.009909467514064171,-0.06358502080539785,0.022441846557644002,-0.060998416452306574,0.06882335951849652,0.041663558736782846,0.06891178135694648,-0.029530519672171823,-0.006213810231229411,-0.020284771546241254,0.030512210478549906,-0.05480751872768663,-0.07946788937463871,0.04855107516904608,0.009431707408738554,-0.004275843397190851,0.06198650652646545,0.0852822515445534,0.03954939497584378,-0.06849528507534694,0.02289335234526292,0.08284818618580153,0.08059765006065228,-0.08603849154873353,-0.03288418043439494,0.060588154867908556,-0.06904172421664403,-0.04945429405414613,0.04341034016657477,-0.06132978506853061,-0.07937897703897492,0.04999714654322496,0.017725908475793653,-0.01972812925053924,0.05521819251733018,0.0028922534321837168,-0.08141279778575164,-0.08274939280778656,0.07455948008356114,-0.01440223555206302,0.05924758620936965,0.024913136465634075,-0.047959591905885536,-0.02447097263069837,0.016202773258556208,-0.028477206814179666,-0.05028820913659096,0.03429436151798995,-0.025561652729143715,-0.032970941676129746,0.0307605905194384,0.020562517025388916,0.0538873267393945,0.0014154539065963645,-0.015278385756706342,-0.015101234715772807,0.009798325361496482,-0.06865539225710313,0.002271734694087868,-0.07615830849762109,-0.013217079831968362,-0.014303162324198995,0.018169586555264156,-0.0009660326911946071,-0.031457718237136806,-0.053366784067110436,0.07778306675432084,-0.008872829756650422,-0.0832721619424554,-0.023641762422728002,-0.009916960386529103,-0.0726983651313192,-0.022861435847797082,0.008104118191782597,-0.033276672275622116,0.07462917069683431,-0.04407468143040733,-0.050709096856321675,0.058996343352755554,0.03318724490807108,-0.05226781172661112,-0.054580088295557036,0.04610380486062485,0.029142526426755008,0.01976627789237606,0.0660790812744497,0.0762402883399691,0.051626460475400565,0.007426881794079715,0.034984327546910735,0.059098406115491026,0.02648847680313972,-0.023469727445406,0.08632307962214325,-0.08298661737702522,-0.07409467411606777,-0.02088617111613035,-0.0770716785295809,0.0054434447760571825,-0.01801610718884629,0.013998203516807056,-0.02340750612442162,-0.023103458709835642,0.03380915775242485,0.06688662929014,-0.06399828481004746,-0.040145585337359554,-0.012147426297272598,-0.026521434226935772,-0.035394794061287024,0.042266355410927964,0.03838132193679905,-0.03705502106120832,0.01282595157564241,-0.04870607081978159,-0.03781056739715876,0.0001267048527907877,-0.06469555915752895,-0.07601705062545795,-0.08532897473207816,0.009914566299283126,-0.01762786531866932,-0.025505747932103785,0.04770045358735067,0.00006584689946619038,0.07618840244283326,-0.04369259627132367,-0.05944679712203449,0.06769479157199632,0.024612266023558982,-0.005888109418444559,0.05574090786047817,0.03512263894092249,0.011593544188581176,0.0605438119362989,0.0101423154961678,-0.02393855050261355,-0.05189741032863721,0.0423665089787463,0.05110057246245528,0.04634173419993243,0.004839880224352236,-0.04717532149779872,0.02511263582975766,-0.07762648115305847,-0.055574183611637885,0.026886080256037392,-0.07394902960555776,-0.0431818558636276,-0.01183181665165714,-0.009016953444716577,-0.05550912066135824,0.04845710914099008,-0.01991417256997685,-0.014487315310530921,0.048091804238636654,0.0010802754609412907,-0.07769921500825858,0.07752504953986283,0.07296478737613526,-0.031156088983781922,0.015876167416979323,-0.043269430897142594,0.01832823486854611,0.03907072741530848,0.04030683783616512,-0.025091722195715288,0.007980717705779128,0.07163842580528099,0.06252509035472686,0.08083145887635831,-0.01418898357250864,0.061049475306390794,-0.018431064298018413,-0.08141695171446793,-0.07794474813811209,-0.08565723640876767,0.05465877847915365,-0.028655587907017506,0.03210461172034468,-0.06284128001862066,-0.030105577896804694,0.04983466594385319,-0.033204966173416055,0.009275574414986054,0.02919455000877849,0.06075719982629407,-0.006983702869875763,-0.0347406080691421,0.04916386883044507,-0.07420480051292391,0.08123362036086645,0.06679782585745098,0.018690918498213374,-0.051118039964009127,0.010095005114999833,-0.011936786120285231,-0.023280935910599654,0.06609578840351374,0.06316107504306989,-0.04303663852400759,0.043681707960315286,-0.01094156368311705,0.028014727525577127,-0.05515663890421971,-0.07071572786064446,0.0027990385668318907,0.0003086574746804932,-0.008105908718869154,0.02979018484231108,-0.05851804621198032,-0.02637577741056829,-0.010497743985946842,0.037027692650364125,-0.02751935261583622,0.05150327372285965,0.019054575530633958,0.02112047387162666,0.02168130591745343,0.027889288222088554,0.0020196790470182746,-0.08161622629586494,0.007764858369282729,0.016302196627925314,0.01179517913569128,-0.07302400923798887,-0.030310098352926904,-0.0046779858040266326,0.01460145672321965,-0.03118293350537172,0.005321944583667679,0.07632674770145167,-0.029515996384552136,0.04303929687302249,0.005999466813795887,0.043246923567928586,0.008021035459029782,0.010864258478536115,-0.0393187605041425,0.05930185179615327,-0.06176611302803299,0.06529227797900208,-0.047796320888204166,-0.007596327367422814,0.0311910556986197,0.03339642654104236,0.03894944018623869,-0.06658514116556319,0.015063750038143656,0.07870753748514447,-0.08242203479937123,0.020597646977813286,-0.02939380916395242,-0.028651358699287012,-0.017277523050421864,0.05875558291486449,0.06457957187180632,0.06176602113523599,0.00918823475627134,-0.07386305952723812,-0.07540112133956588,-0.057811341626125556,-0.020040825077383917,-0.009218156279364759,0.07831448942612765,0.07735840473747777,0.023883291251753827,0.08469900395487248,-0.08211992113527501,0.006702801765422137,-0.00882256307355482,-0.07077377419926997,-0.06995325810627247,0.08188183742482896,0.04530289583709102,0.08652857213138365,0.04247611679993932,-0.03002989638473636,-0.02433367270399034,-0.06551821813619098,0.03164552356478119,-0.009737139635396491,0.042371367255656434,0.04455661398180108,-0.00561924748004014,-0.02457066225667339,0.07544465821245383,-0.08540053948749636,0.040208697309775915,-0.07099174114826505,0.06619154741007363,0.005690073292217129,0.04960755900219521,-0.043615432645460125,0.03613755763640454,0.034581313251910134,-0.0743359265485574,-0.0213644493100814,0.05920062937983789,-0.0008784006449838039,-0.04335496827128215,-0.02743845905566098,0.05003438839293345,0.07230331610563076,0.018869178442397078,-0.0660724595547784,-0.06007673760457531,-0.0551287480203613,-0.01980349068222989,0.05479921598908072,0.06535266067814444,0.0009003143714397394,0.025977219081490643,0.04264730620201329,0.03532750528371341,-0.08531819870878095,-0.06339601882947864,-0.08522121251670657,-0.014692414340798987,-0.03341102914557033,-0.06065646274208268,-0.004635144370493852,0.06762820470550199,0.08676284256209796,0.027503003567853027,0.0655710349779422,-0.0497335948866,-0.037645224402258974,0.015519743002567657,0.046197018689382724,0.06292099948604202,0.07153705715010428,-0.07375825911546029,-0.018305828399509408,0.008603840370798255,0.05426003119687789,-0.07383929232722315,-0.0011304088602707568,0.03050682965675547,0.08587083462635856,0.0645482976920981,0.08373653256529029,0.013053551573864716,0.04267358430168214,-0.08178894584087709,-0.016021899698719436,0.017670930408809016,-0.03486718736449374,-0.022854059952482617,0.05401019400269785,0.043518866856198546,0.07553222455856168,0.07285171971726523,-0.04099071812197013,0.03970061055212712,-0.007380752046768704,0.08045280178916067,-0.060483475589910025,0.005031373578314402,-0.056374804907032214,0.07560268663118497,0.027814947900837772,0.06540195180934813,0.04104232178884065,0.0446841950875983,-0.013767950864693096,0.03394130569464182,0.03465442119777867,0.07681275403596122,0.03750086499721661,-0.029468846512312297,0.02752864342204661,0.08113372316350523,0.04186351559726023,0.017818108686087603,0.04384481558485148,-0.034948385028465596,0.0782205803928567,-0.07242760664733203,-0.06107552661235411,0.015317489077038698,0.04610357841122509,0.054964934046267205,0.05964344384860054,-0.04088666834222319,-0.04261987281213112,0.05199602614731466,-0.07540335179564069,0.054902057922787045,0.018130882605211854,0.0035718655240293135,0.06793166273609516,-0.019036318476060937,0.0419798178270335,0.009321247621440876,-0.02695895996265986,0.0840658271165105,0.0280035231092267,0.024953498240145186,-0.0519311393656287,-0.03032531583548098,-0.02788909731377734,-0.08184811005370272,0.024754661993234714,-0.04844411979806447,0.08642698316492989,0.01768169359990876,-0.0865628584622834,-0.047874608403907164,-0.031169403444364495,0.08391092943413048,0.021102966576361737,-0.020746845368660977,-0.010247735567107188,0.05247538439084115,-0.0447986342074788,-0.030984383754438016,0.01179005772077546,0.06457290534979601,-0.07946207201036425,-0.03389026050184301,0.027131214271655102,-0.019923877470801155,-0.027905618453556602,-0.0846965933624513,0.032022963724217784,-0.043808823856682506,-0.03398650412217292,0.007139731182925227,0.011823410616062291,0.02063302933689931,-0.07185567653685927,0.0693521750347221,0.06378624835664301,0.0015464658173569845,-0.0720412901713221,0.0867041611968021,-0.07395901402580396,-0.060486798455670454,0.08513621886469935,-0.01041126980046772,0.07697612653867089,-0.0782530735190423,-0.016653779010859765,0.009388796430139776,-0.055947672170103914,0.08142119018065341,0.045689421585566464,0.06550225916625674,0.05382374273841109,0.05365831647084318,0.08179602493847582,0.009357947227024682,-0.07239140530642271,-0.005730488713858867,-0.05632878984308164,-0.027631548913948638,0.019289894815914144,-0.030865625155763063,0.026196995643335122,-0.0785226778843121,0.042839469149329484,0.013337755583157987,0.014050268304198754,0.01440761233464273,-0.08441964103552078,-0.08661701753795707,0.050576956578341575,0.003588101951904593,0.0655876217364344,-0.023660835955679485,0.06228090408475112,0.010753084051612655,-0.04908552621191363,-0.07465881824142,0.012535046696597774,0.0714406504424421,-0.010723953911236678,0.03256146776417901,-0.08350887182866938,0.02079749761587446,-0.0062108000661044716,0.031045074814629356,0.042920644449775724,0.03805912924448639,0.008858141785015206,0.014249292298529767,0.07198403100396747,-0.016178162426376444,0.07095228235129608,0.08596935043485715,0.004384433581859581,-0.06292477244854253,0.05899999329382874,0.04735524840064806,0.027987141071487573,-0.06490914091912484,0.034578743855940355,0.054169448848508855,0.017424558991575217,0.08552740742152845,-0.015201273577301472,0.011211901829350723,-0.07241564020640884,0.03530470318816331,0.08128668578502646,0.05223163237174494,-0.014572188297788613,-0.05512191947408003,-0.0014715033027743601,-0.03129426805691696,-0.061144517760334104,-0.053584299589217455,-0.018242598960454284,0.016609199935305657,0.029276977239948362,-0.010239475673286605,-0.05591444808744273,-0.015106834907615746,0.05691428392564937,0.06978704320704202,0.019111536416337116,0.023576170370400565,0.07043191548389488,0.01727962913534399,0.06056260152348966,-0.013342600382051789,-0.07117520331775434,0.029213964109257973,0.04180272320034245,-0.00707463302109318,0.04258359888084007,0.019527225088698932,0.016475798153564883,-0.043865570654007875,-0.02450354893713199,-0.08087028306068066,0.04678959334754279,0.04038581111136735,-0.07352905272282528,-0.07144110428855788,0.043459382250440826,-0.057305920789588696,0.014829677499066052,-0.03539448760638998,-0.0006599438783029127,-0.0012460608960125769,-0.06668599971615458,0.014873113856864753,0.013906910879120424,0.08541159844709931,-0.0814555617138435,-0.029934114925700125,0.06688349584681733,-0.036706161921843,0.024720835394852037,0.06655106466903035,-0.02768796588633092,-0.08468531314318127,-0.017552974594816265,0.007523815077709536,-0.012585257122705085,0.06923286882695256,0.07532782749381761,0.03772734540694793,0.011058822485609812,0.028311305336704853,-0.0805827583309879,-0.023588321407647994,-0.06687268944228589,-0.035003477976399265,-0.00224733932168196,-0.024438105709138264,-0.024644763037681462,-0.07934199759533407,0.06605852525712011,-0.04957902377200543,-0.04895721838296612,0.06165508837231404,0.060979427141360454,-0.05368986809602333,0.06457825762781472,-0.06619226385302941,0.0821996245154793,-0.008594679903286884,0.03374093402426845,-0.08474248379206477,-0.06294783017635815,-0.07582053538245329,0.03618552982135731,-0.03603095154671249,-0.04434887853977668,0.07211604420422638,0.022162546228012503,-0.015659378452792944,0.03073832688083447,-0.0760876043518394,-0.00013274882171428193,0.06899996161912766,-0.08663297061929866,-0.003727268594450217,-0.0717534440134,-0.06502583940750666,-0.026920358637148124,0.08577059780319757,0.033826035671289584,0.052669502884293284,0.04757211816818277,0.07749209259761947,0.04344279366289183,-0.055437329184207365,0.04940313555530676,-0.050873722706240604,0.024727338489673942,0.07215209313060894,-0.040558078208425406,-0.03679576857949317,0.07240724868259307,0.05622757671018913,0.026797393260757918,0.06485863335218023,-0.06517802359199062,0.037809300375893584,-0.04918799017801675,-0.03467782424327484,0.0038867603511227033,0.042120726938420894,0.072484768742645,-0.008435392601552613,-0.018363441778081566,0.059913988500648135,0.04024730625845169,-0.07144024118317607,-0.02480210355491798,0.04656555232106371,0.039138306708429466,0.06524579349315224,-0.04076768532715855,-0.058929323071268185,0.005101787139452432,0.0719212324827917,0.07314162070530769,-0.0007505408069252845,0.06138417739884122,0.04861066346713075,-0.06234557927400092,0.07778496949884767,-0.044846482364446945,-0.03951714189628243,-0.038237465219169646,-0.018366927433123112,-0.029483614054714495,-0.033789118241632214,0.06510031410925296,-0.04452579306277864,-0.03502519164328874,0.023637286623462678,0.033431633813654604,-0.06412960849292962,-0.010029526237071706,-0.010705793113546566,-0.03132959666429174,0.054028748486537714,0.08324799583904632,-0.013242212884832766,-0.04127732245812765,0.016492335020700133,0.05287961670775215,0.012062989095469517,0.007249888931652709,-0.01857651537186336,0.027266699969076283,-0.06914530696509699,0.04157792041455988,-0.03570865005774785,0.07948052767287303,-0.05402578832037855,0.033915607301067754,0.0072118109771203,0.06374395558270815,0.03072448836728746,0.07222646135734045,0.04491981218171598,-0.05709554239791793,-0.034026391867903585,-0.057022541108170746,-0.013584849659641296,0.06714241277537195,-0.07154601122434816,-0.03462166842048615,-0.013265864051681703,0.04843585545304327,0.027155197493175007,-0.046420098470856624,0.03205752740700106,-0.07667198592131215,0.043103418733585586,-0.02603312363346407,0.009018175856410904,-0.010109513205918602,0.07935153356395114,0.03687105986263646,0.061670382724906714,0.036985963686023485,0.05144256081224863,0.012412521697473297,-0.0579755193446433,-0.04885656442191684,-0.06335982910998798,0.008878987131630156,-0.036443979057818904,-0.027924758199111603,0.0500588032581101,-0.07780512978854577,0.08045821834682357,0.004454342741221556,0.07793467587110031,0.04948085246310227,-0.03036717503960426,0.0690943782779172,0.03271856859410552,-0.0797235879716723,0.04142593124271196,-0.05119659617513374,0.020177880507815216,-0.029483880265802453,-0.07510938689527669,0.05611580903021876,-0.016615037759484308,0.04936626044519554,0.011790932990515673,0.047574370837432184,-0.06236214978506684,-0.01779228312690319,-0.020470772037433915,0.03177676422886684,-0.06348445965905535,0.03833892608102654,-0.0448275210175491,-0.036616842123976166,0.07523924689515457,0.08320372230914364,0.08239421318377466,0.04885491146359913,0.08247592622252967,0.08033974305308372,0.003490305362627094,0.045594913329160824,0.03242375800686176,-0.05177600232890192,-0.06349996589603489,0.01721741889331649,0.05959361237303962,0.07188107509550803,0.0028575335049344786,0.06684438717782468,0.039291011422419336,-0.06201477842736491,0.014147262555610163,-0.036799635524455664,0.07755749801334005,-0.08204229054460478,-0.07003966238233461,0.08591988992196015,0.0316372204346784,-0.005184665207441777,-0.07451108223440299,0.027586836128555267,-0.04847292996150029,0.03328839291690963,-0.057996673371256614,-0.04966606463861532,-0.01374377240205217,-0.03869457410734112,0.05379483883740191,0.006937140621116902,-0.062102667462064956,-0.052454342694768834,-0.03697201887064157,0.06315821185603357,-0.03031927852175178,-0.05622195593927559,-0.05521007105160434,0.042898858103397025,-0.03051415535418258,0.04302773624535777,0.048019367483259384,0.07364183118992773,0.08550175392489212,-0.08425784581159235,0.05604189323471773,0.03385631864919354,-0.08084015715196828,-0.08076746154043749,-0.060231374897835505,0.00790041070813971,0.06165372933970348,0.06097192019805406,0.04089906146061753,-0.03873366862372736,0.034226340758040166,0.06650854810181064,-0.06566293787279992,0.00033156430678964177,-0.02799335381334655,0.0012529894708342149,0.010794102633235436,0.033594472090385435,-0.040678927136213065,-0.06404659362978127,0.05889436127433886,-0.012290130484555614,-0.017155203692653914,0.0619474118748127,0.08102027945605811,-0.04153293838220577,-0.05888745852354813,0.0016906480546442088,-0.018226436807891266,-0.06907810447657431,-0.053145946523535006,0.06687417551965594,-0.07981843106095272,0.03355258153867413,0.053707042119070375,-0.0679988736903977,0.07028716704054874,0.05815746834990912,0.04054475644720304,0.05976446369585897,0.002263785438949839,-0.07730268313633824,0.028313903965554124,-0.028056804324319666,0.03208755986210608,-0.05020965818175516,0.04534641444546658,0.024646532867334717,-0.08680863689348295,-0.034067282927564654,-0.020510071354536946,-0.04465921666184357,-0.041006220057803695,0.03572581058124409,-0.0038804433886502343,0.05528439918172792,0.031036535360211892,-0.011626284941055692,0.06357183599634797,0.01874465865184352,0.008895587363999563,-0.05753360469292973,-0.031062048370437002,-0.077211076290375,0.06329330578119818,0.02821104128681376,-0.06713318484572783,-0.06428914674384623,-0.07591466538009094,-0.060436535856810275,-0.06611275246131,0.009111251211822102,-0.08565158735361642,-0.04347223140239774,-0.0804381067043308,-0.013800021077029961,-0.07206645950229608,-0.08577505893560713,0.05231019179134691,0.017855142983656785,-0.01101105500331144,0.0751814028982124,0.06868984854826321,0.059306531946333146,-0.0353873415506187,-0.03593420186290579,-0.016269642918583155,-0.06982906406058015,-0.022026818866671516,-0.06768591113530277,-0.08057943300474711,-0.030960616566184623,0.02293889814643031,0.049839183248158475,-0.008871181917294649,0.05455064990641886,-0.03262326739278287,-0.07230750608265635,-0.07499082549541564,-0.01388176205897021,-0.017491718780829807,0.010820245358489994,-0.022178353820794194,0.06501916733362806,-0.013162556072159604,0.03454371997613703,0.08217956878148411,0.018959690879314484,0.0864658701342404,0.00829920055416343,0.04156406124559611,-0.017972407937462673,-0.013852505909307533,-0.013122737653462738,0.0286641225558652,0.07572270909765971,0.03773137296775603,0.017592701451876983,0.016133469458688696,0.0715585499861573,0.009560657828587865,-0.07984237353735633,-0.05166399218232267,-0.021648315810052415,-0.04179872401944855,-0.07518641425868104,0.032178956215912255,-0.07893827607071044,-0.04890581726809457,0.07026615227317304,-0.04507815395352356,0.008290004219759575,-0.08543442999373747,-0.07980400311521835,-0.038514760176976026,0.05079125551793595,-0.05659831913387746,-0.027693748442401606,0.0409005110477246,0.06450358093221123,-0.06521887804671166,-0.0726539673898189,-0.07884651320661307,-0.0072471548292197124,0.001728852240329995,-0.07078023481988288,0.05915167582819553,-0.07978313782679093,-0.06265622076761443,0.004987947698379694,0.007954602090153529,0.0067243260222741436,0.00010700440620939333,-0.013968319547046346,0.03376046034502604,0.0007543314148538288,-0.05225491429719514,0.03839842395988405,-0.08447965085218176,0.010641269488837618,0.042156867696264005,-0.0349782827123331,-0.05417290147555808,-0.07859313870325539,-0.024040437242662527,0.004899598986550291,-0.0352668561289015,-0.05961128546986063,-0.016561459680106277,0.08048844654732223,0.0305880617588037,0.04518567946122434,0.0830711510129297,0.022615572311099758,-0.04666613631934526,0.05633825487435465,0.05499119955515333,0.004364743927386908,0.02679721324371108,0.03284095357568935,-0.02413894688477379,0.03284634663248137,-0.08170020832305865,0.04452116408095563,-0.039090930946076616,-0.08547174667230248,-0.06439725232752921,0.006421687622158709,-0.03327212036906974,0.07970974333586084,-0.006748875940951554,-0.0682287553910442,0.04997495962578241,0.07462832716965773,-0.06724834388835745,-0.06180197018190012,-0.041958023469496994,-0.03135140234583848,0.037510640372573636,-0.06940823067354329,0.04036164832731734,0.03425320788092062,0.07021820887665667,-0.021346727140177477,0.07631996385046474,0.02388879380215421,-0.06362280972608464,0.053377521795806626,-0.05172244577322784,-0.04804691951111915,0.04544085762192568,0.07802243012897397,-0.07818489671605368,-0.012748496680869095,0.04760215788198449,0.03228210512884175,0.05612922717058946,-0.01580671938851952,-0.0011565006444262116,-0.01036887346630945,0.029227521814113602,0.028116834591244033,-0.07201577702949692,-0.06972293622043638,0.023026176968998877,0.033832768655371825,-0.07592066679550273,0.010711006254198852,0.08132347884429653,-0.0612222535629412,0.08154325313233415,0.08620571310061603,-0.015406752176280611,-0.01729126954057754,-0.08499071277673048,-0.038099502718481684,0.02179239570598074,0.0156638787500067,0.020646276440977288,0.003977041700450129,0.05790711800664783,0.07130732440007079,0.07860678653269879,-0.06763649835892172,0.07108810144934721,-0.08332378157585188,-0.06990852104412815,-0.06474975117555141,-0.07741482294970857,0.07771384769732681,-0.037619754453364386,0.0641695428392374,-0.029503363276036018,-0.017650438282270378,0.016707500746105622,-0.0028535214195680447,0.005364741274110477,-0.03978043790816325,0.03279008664309628,0.017633677052698873,0.03509264955029315,-0.00716436793709628,0.04915570794800575,-0.04576677248884645,-0.02383120863411227,0.0003649678053262162,-0.04767108724578484,0.0851272525740431,0.07238052547212692,0.08325065670615892,0.07562281241387409,0.05386642896150312,0.004966074757250263,0.055953827401580336,-0.07151440057697006,0.08651105703264844,-0.025136653354680134,-0.04779136234608781,0.0680012001912157,0.06017796638770645,-0.05812402660435978,-0.07111671784788012,-0.06152479643474741,-0.01871278361826413,-0.07082054026018386,0.05543401658927233,0.00997831566053442,0.0705947990051988,0.06078652985308586,-0.02104288664283331,-0.00046186868916492374,-0.07323504591005436,0.07307141327146377,0.024894916882425164,0.054591788893421006,-0.06136215171749744,-0.03791942631363556,0.045462228835052826,-0.020066715576741542,0.018971150398707115,-0.01539948574101524,0.05413021060738221,-0.005623338087320934,0.06083229648200292,0.08586178872218342,-0.016174058856152057,0.04813048253201141,-0.011020109159065705,0.060743887714688666,-0.04598877786764745,0.006006251939700807,-0.049468857893581505,0.0783681105111296,-0.0769279829409177,0.028643318345729266,-0.008607571189323968,0.03437790097590479,0.07300679978248883,-0.08245045977080445,0.0260453416527711,0.01701512026609292,-0.07712741935761652,-0.030186756488079752,-0.06865363088762802,-0.04798267603610918,-0.07268008438777909,-0.029525277130828385,-0.04162306065261298,0.046261059311732106,-0.06568020045727714,0.0406344587525011,-0.041247156892042794,0.027542935886948713,0.07847463290880308,-0.07146132173922884,0.07424801493349853,-0.05636910209567601,0.03658207084195217,-0.06575744386283276,-0.05661839218460894,-0.08082378958189862,-0.06938265473646937,-0.06447604479456073,-0.07073105767185141,0.022466285950036996,-0.06745199222402927,-0.028750958530789898,0.08386080753388048,-0.008035745611525993,-0.02192428155388386,0.062145364363292876,-0.001850342491118609,0.06346357182390136,-0.010647409518342019,-0.06937077840194192,0.043693459175484894,-0.019965845682511127,0.02840449496037091,-0.04394187893462697,-0.04444047621926597,-0.05623254105522981,0.054761274795803366,-0.02193424742809802,0.017537516642388062,-0.043041667634151355,0.008236291936672635,-0.057354162542284565,-0.0708722981104211,0.07233271359914534,0.03151931988671032,0.08586082680160104,0.02957876769917711,-0.04057688355288393,0.016741169458602365,-0.017667198186312197,-0.03060496747404909,-0.008060251982739117,-0.015801900127016988,-0.027444467238399176,0.08345772993662376,0.002891342832092969,0.03331712512934809,0.021905413192171,0.003500837010040045,0.009447954656914628,-0.05492103552815672,-0.059476518291713104,0.029454280446918127,-0.05977677994397099,-0.06419563080754473,0.014138157105907212,0.02975501515271735,0.0841336678923319,-0.06156842451191911,-0.06424478893501491,-0.08404064696665794,0.014025370586737473,-0.08272199899746412,0.03293081708672585,0.01760812025117635,-0.041297735365158995,0.042332068675396656,0.08436775653428483,-0.06858691133483144,-0.023647708523017105,-0.03431386857719447,0.008788951453208321,0.007047554546600068,-0.05478225690712719,0.03499186386684676,-0.023932320785650718,0.04050045907446473,0.028717225328429977,0.019523772313051954,-0.04761627120045188,-0.07955254375179965,0.007882072366675028,0.03027623487821103,0.06703062590410339,0.028169409640200163,-0.04027142827929556,-0.013763952156713624,0.016398154755358607,-0.028763676217553553,0.07637766628510312,-0.06568540924226982,0.07172371305325481,-0.017400534354574337,0.01177861231383838,0.00327533741282153,-0.06717540500395675,-0.023919651329577685,0.01565798698030353,0.05262583159588827,-0.003579771575816945,-0.07079237119589078,-0.04604270198708014,-0.00652778081659873,0.07317261088668572,0.07014755030488631,-0.044549378100784735,-0.07776202343713592,-0.07760744072206521,-0.05959598105999134,-0.03600506923143831,0.029080929127075425,0.0007058197760823615,-0.033805165688670986,-0.0844614703371234,-0.024967629634502456,-0.04172211605327724,-0.0404678546948585,0.03235226970661302,-0.08215230731361761,0.07688604452273304,-0.02766182314463362,-0.0022863995505621876,0.08314037978103017,-0.07533360133044345,0.005279226410688537,-0.020735688779319167,-0.06412079375086632,0.06711387026004312,0.056743306989120224,0.05316532420292938,0.018265801275942073,-0.015270565612315337,-0.02828177788513124,-0.07879270292389978,-0.07302490074999989,-0.07984723857169697,-0.08494462200116003,-0.05342761436268764,-0.015940780899768803,0.05048504474789786,-0.0009379041463819793,0.06761227822024268,-0.08251420124536699,0.05424239080010437,0.0006043355674758416,-0.08622219375816036,-0.07879387582791385,-0.05346554203564222,-0.04183832220463671,0.007630732913274277,0.04184536560149277,0.06981187572042633,-0.053328450415724,0.0503961601042508,0.08190904348991027,0.035039801009345686,-0.08311616865819249,0.004362979119935148,0.06976150097539024,0.014589328840980825,0.045086772952519505,0.049424942032484126,0.05695300381999227,0.0076246985232125,-0.006078817686519342,-0.054165066109173106,-0.06830051205600636,0.07329952756213048,0.05125008133525469,-0.08478608154549527,-0.04204866163512117,-0.050066364445026046,-0.028075882407140186,-0.001224903712691211,0.038810398800034174,-0.04683585913583156,0.009552741384970961,0.012959817875775173,0.012483425727176284,-0.03754085849763902,0.007235360802751847,-0.06862205935135213,-0.028044123095722344,0.0015089909323995343,0.07071739614710085,-0.05686359489350555,-0.04848445491463246,0.06406932796474701,-0.04609419732054864,0.044826543349155534,-0.07273972291150471,0.0737175583122184,0.08582900835783136,-0.07050546693169549,-0.0865589708475643,-0.039971198556819576,-0.06326929831160866,0.016998450159603024,0.07960247450215732,-0.01390145202754986,0.0216722499082294,-0.05892525655348868,0.05363553094385101,0.02120504797350728,-0.04179659591278388,-0.04649460831150515,-0.009337059211791718,0.04465067593314179,-0.008583163215537648,0.030021722427493347,-0.056673286556458494,0.06005842522413565,0.06791814372667246,0.0626389592577957,-0.07060053919730154,0.06358251194016687,0.07978958412825105,0.06180473750167417,0.024285836871982797,-0.05858481573994205,0.07425199555103928,0.067977074395422,0.0721791486638198,-0.044110236940439876,-0.07912527189943458,0.04788705733735604,-0.04314663534092284,-0.051820147098614704,0.00317826327239637,0.0832577408554297,0.07286324149529491,-0.07790632922798525,-0.07106651817946504,0.009196313196024639,0.040224896372111435,0.06584513674806283,0.05515286187344179,-0.05275508208157806,0.06091204239969694,-0.017532814099896488,-0.018512914010652012,-0.008002877440793504,0.0009626243320683403,0.039233762239515135,0.032343523730141946,-0.05309185667765995,-0.06798543148113549,0.0017312860170879824,-0.040547464455468266,-0.041344110434292765,-0.0743266024022789,-0.057373919093786016,-0.04145783119565423,-0.03995568050936575,0.07195500229752824,0.06515952631368799,0.08438821041181865,-0.07058261870221635,0.042868102002085434,-0.007833028347628376,0.06649768378909723,-0.014849682677999188,-0.01826405638193182,-0.01666325727108628,-0.029590129405938574,-0.04138407100966574,-0.07108987809144315,-0.05191905848811199,0.07947298873933856,-0.08385732722134341,0.08299892472601367,0.07893799064445656,-0.020383786741540552,0.02662123653531094,0.005381610290356567,0.035591000133921635,-0.059665094170777845,0.043554871093512915,-0.02639026529623379,0.0814132675289086,0.06559922408856039,-0.055751020667417536,0.00586138377043377,-0.01676593279886983,-0.04114857112722358,-0.08656437824651635,-0.02269121313974938,-0.07511309207246465,0.02129305968168911,0.02012569292150297,0.05779594582245809,0.07462438385408685,-0.008194376403205916,-0.06509501358724219,0.03489041461462927,-0.03888965116177822,0.008099533952698815,0.07606115241979688,0.020577628117598,-0.03502497713244424,-0.01895853268683445,-0.08578146651577086,0.0227497682238902,-0.07944460193905155,0.04086998424586072,-0.02718383760742607,-0.030886287315415012,-0.05881044189672476,-0.0496959828664554,0.08134844439699973,0.031047179020204693,0.03596624345257779,0.026392567281471324,-0.055807302267955675,-0.07903979680065605,0.003101963769857996,-0.01792743596004362,0.01743480461140723,0.04809882993024844,0.08541322863697864,0.03446117398772197,-0.0531822353867951,-0.0750157205683756,0.03397955453038029,-0.02184565830470693,0.0542707271423947,-0.07699688301930878,-0.029835857807929085,0.0562201939118353,-0.06064124417593493,-0.0735135632130612,0.02012944103390861,-0.03940603592729321,-0.046816239829825544,-0.053644933075067465,0.07213867852574332,-0.017375464208564367,-0.044472569337864164,0.0046971391230148235,0.07418219674994325,0.047385001748591365,-0.08376101624199543,-0.0535441849138928,-0.08479298331216456,-0.06608255649580866,-0.05566447540377295,-0.02208100636146651,-0.02138923666028661,-0.05952410142822416,-0.03768953724712173,-0.0201975920199762,0.06275255735487092,-0.055070037678186315,0.07654962985811858,0.04308067856595532,-0.05491605270087022,0.0014693807994385216,0.03627629164745835,0.0019355007568351845,-0.007401448586496259,0.034173697054877106,0.04556055951731644,0.05043413951072401,-0.02511489832982059,0.03918471667042936,-0.06352802448638084,0.07474522082865032,-0.023633356064410832,-0.02838627152147668,-0.04311001535990103,0.06664235300085555,0.061136061422935234,0.030835740406436538,0.012441489990764693,0.036807402108019416,-0.04105773306761581,0.052501435349760595,-0.03550423111336856,0.05216005397283707,-0.06487815059609969,-0.01865399849394596,0.026434049496473766,0.0648311398742712,-0.06876474038933544,0.037641565077901645,0.06511957289371922,-0.04553570283734083,-0.08018531878905308,0.030957325072737976,0.06802857261789874,-0.01197648382596575,0.036119509415960024,-0.06691391554433604,-0.07922119163895253,0.04481415578219078,0.07287989394959771,-0.05767676295469215,-0.0437924385084861,-0.06964481151845588,-0.025313318633023683,-0.03206925337621079,-0.019560542347768994,0.003360834349059247,0.0003779923427207482,0.0597647011228046,0.05488441762226107,0.02542537849139935,-0.059126707705018336,-0.012295687610787143,0.06079547264804791,-0.05230772373989795,0.033143786250863436,0.07508003190604973,0.07874840414061987,-0.01738496597742968,0.01945327792455334,0.05659691095795252,-0.07499364950455274,0.06539611581432817,-0.059980178179297336,0.03216952847521071,0.07214274482641078,0.0526772567339841,-0.0007913850171615694,-0.019916748336311532,-0.05550343817136823,0.038832707758036766,0.012219213411817878,-0.06565642043268899,-0.02543712708860666,0.0015974445727156839,-0.039845040027692076,-0.08578914505859961,0.06206769248883823,0.08623572085283926,-0.028534553057486617,-0.051647108065539106,0.06350708504597205,0.08349482182918053,-0.030429488421509138,0.06093201928037367,-0.052148546271801724,0.03719317393453672,0.05259573706255413,-0.020555697338639878,-0.0044453614608381264,0.060070499364867774,0.08663138381146374,0.0073782215293470566,0.029957150015774536,-0.0707105821806592,-0.024127036513823488,-0.004476708656018527,0.025882971983302666,-0.0003344357230334605,0.05477978226708943,-0.016413163770215497,-0.047529275765370416,-0.0060475888578408465,-0.07458502658812918,0.0377542966427096,-0.046782758876055076,-0.010528489831125837,0.030754961910470446,-0.025435726457991664,0.028260848159745902,0.055182553348027436,0.02932397848562221,-0.023577414206077868,0.05603548367174313,-0.039417700549465064,0.05863240081435617,-0.026431037619286626,-0.06185429286387846,0.04287121803181343,0.029783454268683354,0.013214168250597152,0.04532009465536985,-0.07961931838267294,0.04916226438117727,0.05173047494838531,-0.06961219402805645,0.017445948885398285,-0.042822478794178664,0.07056380874190174,0.013925042564599893,0.011091864659880768,-0.08207136134370405,-0.05694597537880419,-0.05518817948347927,-0.04548445332947729,0.06672832207299625,-0.062393333747002296,0.05103308180758054,-0.04274643239444249,0.029372331144826833,0.02088019058626195,-0.017326595539086456,-0.06918406853755044,-0.03648790065347198,-0.04487861987460867,-0.038456346448830406,-0.01698111790485962,-0.01831510828388906,-0.020345127845858235,-0.025847018156639832,0.03667656977950691,0.0448759985584935,-0.07986770414638544,0.03656958432271784,-0.008534232749201842,-0.04941504767564101,0.07927827334850823,-0.02417608983880329,-0.030853542249982435,0.06202268712753112,-0.0458011227617664,-0.0191021520809824,-0.030361817616535676,0.06565485208475369,-0.03529814497393327,0.043397706097653616,0.03197394015727585,0.05683607853554118,0.002201713100303551,0.03191833219923196,0.050113895221661764,-0.0036242206539159882,0.009343036970113364,0.054141164972322076,-0.08596986529206903,-0.057081769138596264,0.030332726637483265,-0.084076944806998,-0.01914392836826763,0.05794150540631762,-0.06623557800749164,-0.010813065040389536,0.023381998950183253,-0.02234126392601836,0.0771032526193513,0.042029092855664835,-0.07958904540455203,-0.0865016717679654,0.009228525359786119,-0.06871192258886025,0.020067028160502737,0.06756925144799891,-0.02347043763755946,-0.01887965967839747,0.05994641298327316,0.056527551254192704,0.05873588062353932,0.016402540964840867,0.05385899859503754,0.0738525036903333,-0.04567911783171947,0.0005245758412169427,-0.06902829331775247,-0.05248269857191031,0.07288555939243221,0.04232469231397851,0.03196982752178522,-0.04964356391698308,-0.04049105245909234,-0.05991574308662315,0.023163018213586267,-0.0016003508762798546,0.06060262666592875,-0.023663996180013122,0.08370358696357419,0.012382415579877182,0.07714656155636804,-0.008669714446640081,0.0014098515509989723,-0.05686859871018017,0.07404799052071889,-0.04323767260032058,-0.08023670908606638,-0.019648705661852353,-0.0015459934323374391,0.040689600597457354,-0.013215578286895735,-0.05316181662659628,-0.07091575349343582,-0.019280322883673526,-0.02915188173350307,0.003590968810743639,-0.04107524293851455,-0.08614863832705719,-0.038030748163227206,-0.02646370588296005,-0.04035363896425545,-0.02805392932027151,0.03154091445516358,-0.034357899928505735,-0.032856072490324,0.03648904755059443,0.03772945670001057,0.03870290929592432,0.08250982422834244,0.086467812848631,-0.05159660068825358,-0.06787447963876127,-0.05041358067951713,-0.04117786630532264,-0.013422361084654916,0.0028967511646553895,-0.0034402204084019172,0.08063097068372269,-0.031966991240976926,0.05890352431143836,-0.026347710625728604,-0.009489660552222959,0.00891605903082858,-0.043480337732041546,-0.04832527820227209,-0.03962985954330094,0.03778460369425263,-0.03157467016626124,-0.023682210764882153,0.02541077001142865,0.07565042961215049,0.04094343882869636,0.030493902239641754,0.0731696001487368,-0.043006816594872974,0.053950278411845104,0.03406181457839344,-0.0542610564848324,0.011934629673492167,0.06667850548715365,-0.009526377192667593,0.003373549780536486,0.07308883845065378,-0.03140232958423069,-0.018006877634815455,-0.02966587109348548,-0.04089497195424347,-0.013884794742306417,0.05753968167067375,0.07502371805517549,-0.08233975238267272,0.019358626517027328,-0.03411830797500914,0.020519338178935892,0.0022805659910196258,0.014809791239884948,-0.009957023856445202,0.071663879566735,-0.024668828330294046,-0.013382924006092242,0.07699278215660904,-0.033969732665408967,-0.011666924110485491,0.07289842540534766,0.06302300342428085,-0.08240480047954454,-0.03327516168688494,0.06179220083555778,-0.05722186772552762,-0.018099382005629452,0.013062864508073299,0.07043184668098842,0.06565609122615271,-0.08060839156141844,-0.008686600492670518,-0.07015091971311176,-0.03802380296091172,0.0036738377511999903,0.013212299564485233,0.022711256201973354,-0.027939410893126723,0.03010709943335746,-0.06879182897442507,-0.07368071148345477,0.08035316627121286,0.035826134691652495,0.08112236057344493,0.07736435913277007,0.06107589875855984,0.08036786431888693,0.0016034312987736055,0.01158071066291294,0.020871983564382177,0.05169275266874382,-0.067783587882239,0.06724443025359791,0.07966068302204374,0.011702938402921442,0.012774255781317134,0.06666488981929844,-0.013668665178469791,-0.07303438121773913,0.08067746072303694,0.05241036190212975,-0.08236215299846707,-0.05612584974521813,-0.012469893791346498,-0.06695593860583783,0.049055684785859366,-0.03687379077027002,-0.013906355295242853,-0.02632520472313827,0.039054010987326526,0.06904943153426868,-0.03079163220694152,-0.020915601779697063,-0.045587726286744,-0.03339795945324069,0.00688650066671756,0.07068752074919446,-0.06903903382912699,0.06516957478872917,-0.07456710637864869,-0.05438235121863697,0.06144311907569233,0.06153868576417368,-0.05277553030966798,0.07661592212293583,-0.06929498911474088,0.049068564923273245,0.06507089330327345,-0.043968053003263674,-0.08687026104385753,-0.07123577344089578,0.04539537235570398,0.0765223916452493,-0.0048928921099287565,0.06618896567759622,-0.08118902833854123,0.043222370545478006,0.068288094984021,0.026525909945967235,0.06635829874634597,-0.05846837378437705,-0.00019362185694389578,0.03665862003866127,0.07175600271247182,-0.0010563932611157012,0.03784143186240378,0.012313138060996875,-0.04001048678902951,-0.027606847050306985,0.02521272919479156,0.02324557180380217,0.04215328051933018,0.00913455058073008,0.045114953101480365,-0.05483031140108173,0.054105548665815795,-0.02865506245119892,-0.024465003322623004,0.02183820166688387,0.03218346554415645,-0.03346135729077901,-0.05832515494883142,-0.07736414244556114,-0.03463483038853543,0.046185714761825175,0.05572202668709647,-0.07454000106110639,0.04644915018995188,-0.08383646665137791,0.027580272571471623,0.03534315115939071,0.007025338193093325,-0.016013716470741277,-0.022779200417299847,-0.08485187651486532,-0.06015368202830622,0.02044475103501521,0.05577265026709266,0.008492629453158956,0.052161249121894515,-0.02864604855299012,0.05237950416486753,-0.06752095111952941,0.046187258582013946,-0.05490245275696386,0.011466232393814488,-0.01573703111790596,0.05584394168292145,-0.042289016073324096,-0.006273856666987432,-0.0313655284509737,-0.017849787220030985,-0.03258478930362947,0.06294758995123448,-0.020010856430016113,-0.07249395866938117,-0.028780609186436622,-0.06164666011010857,-0.026101795261195514,-0.059171737651044665,-0.01058092237902089,-0.050945268983940674,0.0023299879652963484,0.08413815251805465,-0.053612755978473946,-0.05940449030110152,0.051965210364286585,0.08257800663942139,-0.014668544054228225,-0.019177354707821448,0.0010188072814509425,-0.07110266708996228,-0.02830224296783035,-0.03995388514602901,-0.02246981495201264,0.06845503295506047,-0.022872928324397898,-0.07183757960806302,-0.07926422655229538,0.003134099664422782,-0.0820468727031699,-0.05434674027772267,-0.0012488106953423839,0.0866950782045085,-0.05072363353109343,-0.007482858097105791,-0.015128038925522433,-0.06620051249012265,-0.03323879673463994,-0.02478156008934254,-0.014341554591166983,-0.058007216005576956,-0.04644937238806814,-0.0730074990898671,-0.043476147897702835,0.08453956019878398,-0.043742694382705664,-0.015040679563887618,0.06724063535073752,0.06111883105296642,-0.02609317322154852,-0.064558895704665,0.047788239160729135,0.07051287850996704,-0.06329351989015633,0.002719070711611024,0.08384386770682692,-0.020194387673711206,0.03212333196940417,-0.024304400682510274,0.0743104216914321,0.08073554663780516,-0.040217902885870016,0.03174360420500011,0.044816591254028065,0.055727771774068374,0.049713828692815015,-0.04635530999454603,-0.0490076643519718,0.020286633423701378,-0.06165559632104001,-0.010478309656339987,0.05795612385922444,0.058275025017308024,0.03180228115500887,0.08465516044130239,-0.0036846495301181698,-0.013846435397992463,0.0777377069170688,0.033753201618823156,-0.05903649999120063,-0.031860427607328566,0.0608118518783832,-0.04837046222447391,0.05838191796216702,0.04104901724244309,-0.05071724618430185,-0.0579213964878163,-0.07493827626361448,0.021713749053514392,0.05656196441093422,-0.012679552272085073,0.057494027561813155,-0.03259481380391505,0.029556803219267416,-0.07000080882983042,-0.05035026730541545,0.023796552669976087,0.027643349928710537,0.016884377341140774,-0.0714054827739702,0.07812370036190783,0.06589063241132231,-0.04719043430104034,0.05763257268258687,0.012229916414516179,0.052101651199241705,0.02792359408719275,0.04142090526207681,-0.010766179795062253,0.051555290916298624,0.04142319740037162,0.05702873787752766,0.05361313800329995,0.03114933331458472,-0.06731279686852794,0.0026468426581887222,0.020785743026157225,-0.04384810551859745,-0.023978109939963646,0.08442607856255718,-0.04720667361342695,0.06855705549296745,0.043761372322234676,-0.07405570673507,0.04653919569831161,-0.04377131496681088,-0.002127874980010047,-0.04476698661493624,0.061860257957158354,0.059931032552895086,-0.03887453228833908,0.052242928337704914,-0.02914679792043999,-0.051754930671199496,0.04874938903854795,0.005695354901291569,-0.0737654008181734,0.017811387122893693,0.003371267295177935,0.07682812956867563,0.0651677425299231,-0.03567472112230231,0.06164812667048636,-0.05072819195410539,-0.04514648259016506,0.07264591971187645,0.028765220239735517,0.041281789396420854,-0.053500984734785505,-0.0447020723929107,0.04307894801981427,-0.07287145867701558,-0.004662235150798985,-0.05300187435021847,0.01752760146010067,-0.039392086081998755,0.029287855038921576,0.0632120918494905,0.05266701407136112,-0.06444047390114757,-0.041851974560286345,-0.052487057468017836,0.07686929555512939,-0.04091989164636638,-0.0655047241732656,-0.0535211225020821,-0.03656657829057825,-0.03545775493793238,-0.06405047397026518,-0.04286629626744281,0.0513966602527825,0.07933907079876892,-0.024186512559499232,0.04440875324313323,0.026040293882486798,0.01862968116132599,-0.04782583435690714,0.04578012888063837,-0.016675010029886916,-0.005597040125926878,-0.029402142041762475,0.04552418047068674,-0.07228137069727873,0.06359111659457642,0.04738321997873901,-0.06619010754904117,0.03191691137908448,0.011129449476487474,0.05031147989141488,-0.023866200483527,0.06192960630661884,-0.05149394342013301,-0.07051384946941162,0.0344248753193155,-0.08574815305964106,-0.01006778973934655,-0.06972374710249717,-0.07094605263884224,-0.030539345279247253,-0.0576477776854943,-0.06753884909120214,0.026706763457909538,0.0002716281315759961,0.0018955814525278836,-0.050483995295599056,-0.05280764837228988,-0.07536054814005284,-0.03095944879488878,-0.02027256424891001,0.06933494804489787,0.024562679423496825,0.06538640084888561,0.006603282946889832,-0.07963100712227997,0.002823921532438531,0.006733709352027967,-0.07647681413156487,-0.06842931994133533,0.06876757777835457,-0.07121256871790721,-0.03953433146050361,-0.041188970653916954,0.062208772223482894,0.04362126974809405,-0.0724365641093149,0.01686474669847833,0.04291681688775317,-0.04058686733735566,0.051735423984331674,0.07956435424398559,0.04101481313870056,0.027092723190758172,0.0829042304685507,-0.02534911197245575,-0.02659034509780237,-0.006072359478505346,0.01362195400814413,0.07743441852586588,0.052069670789784195,0.08568472390399778,0.024422437353261245,-0.01888747022877832,-0.052930966014408096,0.06620155362067826,-0.03801768336103549,-0.01276091761740726,0.055504831217446565,-0.05026556031146652,-0.08060644203834505,0.0504504851188316,-0.04450618656571662,0.060066788912752134,0.018550779829347733,-0.07069800886687908,0.008769544941633622,0.02724582502524782,-0.05532203319944442,-0.06878124483392392,0.05772884451208407,-0.062469082343318286,-0.01187511040049341,-0.05965215414072947,0.0027295652660546815,-0.02530110832629872,-0.050900716077392244,0.041136931702398766,0.006487626938414023,0.028885860490582657,0.08071702984843887,-0.08277198775955164,-0.016710121395578717,-0.010483354682562604,0.05406382697820836,0.0025310879048139473,-0.010980468902200849,-0.025271024603289297,-0.06631255230332041,-0.05108062945764124,0.003674274300009897,0.032305339564679625,-0.0692676330541358,-0.03536620733566565,0.050192676506140205,0.0646176408502179,0.019540090254664993,0.05319043118364564,-0.05966927437633687,0.021515775949157448,-0.07391147528589874,0.07164580528679634,0.06689819798140526,-0.018533990982285073,0.0015423831693178736,-0.06022906336243851,-0.022836148092157796,-0.02589575946878156,0.04974850770383307,0.04451691323098356,-0.06418029507240292,0.012865009733475888,-0.01655817562021658,0.07860460399578315,0.012017674461309413,0.051272132689628463,0.029327568796032724,0.08214698047776617,0.021640368922595785,-0.005503791135765199,0.021678467954193648,-0.08108518821953414,-0.03195599724191693,0.05154477746625383,0.0027562077343190744,-0.06937695903677513,0.03766225621945725,0.03380069399346314,-0.008895146433717221,-0.03793429753487536,0.08418779230104781,-0.011662134919955727,-0.04774654468774731,-0.03461464125010108,-0.060698138215035675,0.025431117204876508,0.07024609100479418,-0.05424204999557187,0.07677908712645595,0.06735972859138842,0.0007513719827199755,-0.013187835845430415,0.0073743162610906965,-0.03240344186221796,0.029750728634143506,0.0037353649309569137,-0.0319145446661833,-0.033020843590969705,-0.07046918873280886,-0.04424973067116857,-0.035162347976605605,-0.026906772019997575,0.03996982062128915,-0.04711100548028409,0.052996841630824965,-0.07963286983366331,0.06830463260030445,-0.08030537549538,-0.0443386414343491,-0.038456628909042695,-0.010966403980576953,0.03648606479614934,0.018894398821835384,0.020679689611170088,-0.037900960072880414,0.07764301053366005,-0.013688042049694968,0.002569634154928044,-0.07092963306754517,-0.04548255848164371,-0.030587043861041392,-0.06185558100283555,-0.05896224481954469,0.0033699882479477083,-0.033707334603521384,-0.061695964860708274,-0.07565245246829051,-0.013145265179440396,-0.052020901758982954,-0.010099559770245528,0.076167474810719,-0.04940539131558577,0.06249458452009454,-0.06016754000018003,-0.05083352941204913,-0.060355502985883935,0.05824256940809361,-0.014803513773426522,0.06609936291038929,0.04266336672662993,0.007471544291487123,0.055306738499364544,0.060582490761994956,0.05682607270261303,0.002928859611363091,0.009200185567164607,-0.02699866110338086,0.01303007504522953,0.012646446844338063,-0.025051886197674983,0.07662289961548277,-0.05593593053275055,0.0741599371475134,0.046230618099007276,-0.01041240189013197,-0.08358948063395286,0.005996763429358579,0.04788776979017337,0.01356684888539407,0.0280330743144874,0.0177613009589591,0.029537039605335214,-0.04998256176945352,-0.02339073145187641,-0.08293466479540451,0.005680612232572754,0.07202016074759904,-0.026467203841341574,0.037654535094438266,-0.021157919695620475,-0.05286967999752157,-0.06655181935580179,-0.007966420684004744,0.04835852212453501,-0.08434237265083593,0.019035079532545587,0.03531591288123974,0.0027008269420735614,0.06557351747478976,-0.061720360244153366,-0.078558340372394,0.024325491576495342,0.023455330510484443,0.08578858375192919,-0.08571807442565486,-0.05077396980289451,0.01378973196026001,0.03653562405295814,0.027840447162272422,-0.009562427731787684,-0.038558174553900176,0.07384817670586058,0.05379990286626274,-0.048189586026699024,-0.04927495766858327,0.025495387376223172,-0.029407636654003318,-0.032794921609506714,0.07124439084165693,0.023923116866854416,0.06985666789069919,0.0038795480679731237,0.05858842001594475,0.060672934618716895,-0.0033711483930743275,0.037407584430458996,-0.04255627281647976,-0.07154404376914081,-0.04096954086427194,-0.045365349185260695,0.02806332412517573,-0.005242894976837803,0.07848294269222725,-0.05768054496301572,0.04904227325605409,-0.06953290589700192,-0.06081104488475695,0.030885202208426693,-0.0337943674882189,-0.08024361746574939,-0.06512062039206895,0.0748101446296438,-0.06511253801948354,-0.012043334761225752,-0.006552983909662524,-0.06230985569055681,0.02307700483873211,-0.053363617756920334,-0.062191014591255346,0.059380654382699266,-0.042144289920057455,-0.051487732807152686,-0.05208272496910752,-0.019443272544966722,-0.03903830402332255,-0.0006543304745375567,0.04321332017044838,0.02164740643318347,0.049610600625890316,0.03379236758116026,-0.05452618034677646,0.08122076737317,0.04066813629147076,-0.02267035777341332,-0.07732685775600337,0.02486859927967064,0.04804465298355898,0.0023663844498549164,0.059073344496879204,-0.05392601255051817,-0.013137565177529772,-0.03753493220905751,0.01993135841058985,-0.042412422239464946,0.037704959351499284,-0.04916546034186237,-0.07180313604862262,0.03125323240756485,-0.06260356069336384,-0.0338836019311717,-0.04600646574847251,0.04664439652716787,0.06177452429585095,0.012702429310171667,0.03008468423975333,0.06455543301889399,0.008649234571303746,0.04943708013401968,-0.02074228774223509,-0.05580990879097002,0.0067585200650361055,-0.0645095761417819,-0.03297890138991455,0.026355596591978003,-0.06063004592197575,0.0022140602392416164,-0.05717514744014476,-0.02044039606506752,0.04701580894708704,0.02117481691574484,0.0427115810888887,-0.06031619588810916,0.08276887954629664,0.026581376785476965,-0.08068551668362965,-0.031629289936574205,0.04035917966656885,0.0004385741904010809,-0.055467882160385076,-0.06253667190880957,0.016776278978934356,-0.0743212110954697,-0.00845940895691702,0.061964695327136526,-0.04590144952840585,0.02190936873343509,0.025861250282997975,0.031897535081827535,-0.07057020743303387,-0.05827556364661049,-0.010676983194599754,-0.04689237592920278,0.04168596161902058,-0.05816998213213523,-0.042130223812494955,-0.021391568061288307,0.01159150652604761,0.084589216818205,0.04981270232736901,-0.057971775047384044,-0.0012361392547650812,-0.07205307001927932,-0.021958850616307146,0.020873183137715592,-0.08205010674628793,0.0795873370250933,-0.07415976994543015,0.024206465890992346,-0.07739950030118718,-0.022531131262212123,-0.0855307100614347,0.02272337831456371,-0.08106285058757774,0.05456782892110468,0.08492385774000244,0.012057667661394544,-0.07509805344093738,0.05331106532786864,0.02227776246353018,0.031477380859658274,0.013274008851417524,-0.0016544519031119198,0.014507993301583533,-0.040127455063242126,-0.08513714225098067,-0.04755858888456665,0.03252493693467576,0.05617458525151209,0.030224899601507982,-0.012757081084481842,-0.01688801590299141,-0.04496401855323028,0.02277336960432312,-0.05440285221252267,-0.016283153977710046,0.025842443248941416,0.03175789928040096,-0.014798714759845219,-0.0006264434707165256,-0.025533332774625425,0.06600191689956866,-0.05402096594905984,0.08673219823311346,0.0341474488964713,0.0866174944619901,-0.06235225964716788,0.03559147872804057,-0.009037546242166183,-0.08011034180940647,-0.07756894478137659,-0.028386399367429274,0.021909583527253307,0.018422189965058927,-0.01793699973265471,0.02348060328206822,-0.04632895009828181,-0.03562237605609147,-0.0453541233461973,-0.05143751719926146,-0.04697517109325835,0.036356725161656694,-0.02675373661377893,-0.02617574946517119,-0.04405921630537451,-0.03503228211832823,-0.08607454782693695,-0.025155907865977337,0.057447141952984254,-0.009181895177647517,-0.07039909208396962,-0.04042502292373932,0.06474554124042586,-0.0419457113932387,-0.052222754252813704,0.03218284948594616,-0.04407399207852173,-0.01801152265037105,0.08600891699086033,-0.03629219016055387,-0.04174843562940288,-0.024769892494959075,0.04766032076641147,-0.06743809115721713,-0.01129108340948938,0.025950488616320683,0.05442263317250212,0.029376920851442043,-0.03239441605778214,0.06571775643978786,0.08200056144459847,0.004682637947998156,0.02495856498157238,-0.05990492993774571,-0.00264325755952316,0.046704146521687556,0.019481529461667327,-0.06459677934184599,0.0695462809212242,-0.0362452033724323,0.08601162790298908,-0.08542858480082555,0.06519864172518111,-0.0766325309520655,-0.08280186171771246,-0.013783024264884952,0.025363762009758706,0.01407131337226343,-0.08286754554922635,0.04251263904331831,0.030869024393745906,0.01691196188181618,-0.02845623132890452,-0.03757426269344077,-0.06019617829276948,0.07095990527495288,-0.02897704070765192,0.008780633670292734,0.052656612084543336,-0.08501495383379955,-0.036499066096541015,0.039814012748853045,0.03265749812613182,0.07679434662306406,-0.0449641581403846,-0.07340413151839915,-0.018564334145355937,-0.03578337462174622,0.030780818143272368,-0.005919607445407246,0.07467712828143735,-0.031013597096486614,0.03432507329921326,-0.06740637899191365,0.016280480709596507,0.08109378170745729,-0.023954632596961734,-0.00798133860926191,-0.028847970777935154,0.06769519646716898,0.019403236907316185,-0.04620025840000892,0.03708589377837129,-0.012000689207483484,0.054387838200715244,0.022944143280456214,0.07465406698083726,0.03006660783563654,0.06632094095603738,0.0832984689819306,0.06284863719925488,-0.001510830189810769,0.054402551434962115,-0.07687521077517481,0.06103266613665284,0.07519806374655211,-0.01512632574058985,0.04462339093808762,-0.03197030571486745,0.020022268538945828,0.05597618587977482,-0.058576299423134234,-0.07607675433414038,0.051516906394500045,-0.054680493034735274,-0.06848062202292361,-0.08372419801678677,0.02555877504616573,0.017016106989189234,-0.06511168456598126,0.061521652994731946,0.06875101224720731,-0.03390206213165497,0.03301482293112126,0.03182829696508087,0.06111673789524136,0.04712068587661844,0.03166630520605311,0.06964221458642197,0.053821229548305954,0.009380017935082266,-0.08375504008416722,-0.049525684698477686,-0.02789890331143237,0.014887006810416825,0.052964513728137486,0.06998150253278113,-0.031030172123014475,-0.0817562841673467,-0.07349805140820762,0.06934550004527604,-0.07238137251246113,0.0394844720381467,0.05703271072919158,-0.08045652451195973,0.04444335857546178,-0.08585875709246092,0.0342433551468171,-0.0010280824981913211,-0.039261673951292375,-0.05736671112372615,0.03228730930709145,-0.04373443541043283,-0.07831369745775489,-0.023083400755808905,-0.07001920791571596,0.0534848955652826,0.0077104706654350375,-0.02024215186312668,-0.05065008670486401,0.05161781708529942,-0.024643629923740182,-0.08481549588798248,0.07487012576325133,-0.043479352176558426,-0.08463179379822006,0.084926987703977,-0.06701030962793059,-0.07552296766228508,0.07251112800451542,0.03672877899625157,-0.0698118265637123,-0.0427542284172484,0.03035205703913292,-0.05831696142219026,0.06607113103684331,-0.016563280832117347,0.084870586085693,0.06323628531278402,-0.04492277966952789,-0.0781329026644649,-0.019258454915314444,-0.0818984650719054,0.0545671899105013,0.0023090993416793326,-0.07099767441328972,0.08437286861891621,0.03457306428549621,0.07956217234666793,-0.001393065239778432,-0.04030315326430666,0.037606291436250994,0.04146922775868381,-0.08514274958949927,-0.0003810514607432425,-0.026046159907052134,0.0709600828752765,-0.015363218962622202,-0.056074698284599364,-0.05538857647820461,-0.07805869678942318,-0.060589903477898145,0.04993798258713056,-0.05530861162360758,0.04309026518836745,0.06164092289802753,0.0684643410835486,-0.04728988022021821,-0.003586360746583625,0.021522566378590555,0.03711715017913403,-0.048223602181685664,0.0698809464942437,0.025582285382705253,0.06120372129140175,-0.06142632237140271,0.01089994601561399,-0.008964995154195937,0.06696036471248479,-0.0049570617647850534,-0.05170781183652288,0.05096926793955586,0.08494155146442917,-0.06507279354843827,-0.035624542298830546,-0.006903479924050576,0.012793878492902935,-0.08592975630552979,-0.08284436533667905,-0.08224233350931456,0.06535619841614262,0.006657150453627372,-0.03403166229605254,0.01478120096004057,0.00894430468660913,0.014840217219397711,0.011465934261503538,-0.03281308869885721,-0.042274463732660174,-0.037532726615975266,0.08668690321385553,-0.06651569203472865,-0.00949559250214771,0.048463513226156496,-0.06530007924143325,-0.015975646686924347,0.07213243558329321,0.04895075796169657,-0.0461014758753808,-0.06627323046067092,-0.07621370118213024,-0.08505722249062031,-0.004175192632000793,-0.008699711000072247,-0.055288780952565134,0.04683652551641729,0.032019369275676474,0.013663215703238113,-0.05392464892954545,0.05151776394677601,-0.0570770253663331,0.08058952706866931,0.0700238917903227,-0.04885093474768679,0.024326167612812533,0.08139940266621784,0.016868697038637845,-0.016872067287707793,0.07102792751994852,0.08118084517731258,0.08083057895956425,-0.020063125372867155,0.05667376267033003,0.04559683965240163,0.052888603745517154,-0.008764396109857603,-0.05606433384387326,0.04038631701411299,-0.05889843823487327,-0.03887028120572015,0.07051155971499948,0.053413985061804475,0.06777114447097604,0.0061454672039959884,0.020046457035332033,-0.031739591252840545,-0.06620217870773756,0.07688820594044607,-0.07375404627040763,-0.0003777155660068393,-0.03824728448194849,-0.004339016373520965,-0.028645555363101198,-0.06998111014682278,0.06282169496444528,0.022464970356554884,-0.04311769066903387,-0.04503359840122074,0.008861992447841763,-0.002864799044898253,0.061879683776920574,-0.03762569450014424,0.01295285380035785,-0.04041508382254239,-0.07964901944439755,-0.050948737048666586,0.050002781186036876,0.08382203351528827,-0.08254649135330867,0.011037921818905533,-0.03835571766348699,0.0028835297631131657,0.01189306145129905,-0.05509449152572639,0.07790166639457907,-0.08479475864333878,-0.014160322328833505,0.06992883977914288,-0.06182203203394886,0.021827265233363174,-0.08615280361111297,0.04666499494406434,-0.06137630707058437,-0.024205519943837572,-0.06277239695895723,-0.022233589676814894,-0.023772059648747318,0.020711974548319648,0.06772168080022212,0.04685547479828597,0.021164597391106668,-0.02587050884803952,-0.07922256848824215,0.034839838186827815,0.014816704040133286,-0.04588848871279933,-0.0822733322228876,0.057740928256643176,-0.04845292668057964,-0.03389137523087478,-0.061329284073725246,0.06047219361296549,0.062467351961461304,0.040700765476823664,-0.056766431367132664,-0.075374499504007,0.03553901920672836,0.05406877153285944,-0.05498130054027811,-0.08218499312630004,0.05155831723659507,0.07416522725860678,-0.044726115435233374,0.08575102925820743,-0.009362078781349495,0.05697802771566579,0.019227213165173077,0.03163791659636794,-0.05990975437452127,-0.06559961717631253,-0.028706392687199253,0.07901248644105524,-0.033098076458099146,-0.0015531488993441867,0.05813073753679465,0.04295813165083964,-0.059910238306354,-0.06518845103564243,-0.08394504351747446,0.009584987128444522,0.008378159233100216,0.057213856781371475,0.08221900114186112,0.02303442824413139,-0.05181904900223842,0.022728811221860157,-0.060030722142959375,-0.06052929383481425,-0.05407340357307919,-0.06961951417543014,-0.010975322321880657,0.01751367519151216,0.07433386498175687,-0.01885548536314359,0.08431649770460994,-0.06274215316795491,-0.009147046536426881,0.07186577861756357,0.06497523422703491,0.0610678902067362,-0.06780362278182475,-0.030711899918894094,-0.04274264339373668,0.009976945620432581,0.061134376523137524,-0.031900251098865226,0.02221609085317844,-0.007237934798407619,-0.08691386569446237,-0.008891105531691867,-0.043037860221125074,-0.02644287881207416,0.007342487683122484,-0.07993423616929078,-0.06199930335833491,0.03312551493527295,-0.04402878801993345,-0.012700015111316826,-0.03144259769986701,0.008482870327227027,-0.039052867908113804,0.080590665960203,0.08149999890062237,0.060583711253677425,0.03222432701117957,-0.056763825672555085,0.010020028065344161,-0.004324402603828048,-0.06737802949247579,-0.05332782436365719,0.015509993897591542,-0.08209553942674516,0.0002646492950541951,0.07230356643041116,-0.07548487796260892,-0.08373790305705041,-0.0014959789649579142,-0.0696294204043882,0.04143948784499349,-0.04677228732440042,-0.017812105794605806,0.02862889680739575,-0.07259830858414823,0.014945097488970688,-0.014870502787353218,0.06478727169959439,-0.04729775545069303,0.07003851470183425,0.053467829938835226,0.005415086250206147,-0.005092116195903801,-0.021051450336573574,-0.01988488128769153,-0.04349960374109344,-0.027989257549355315,0.0028104664304485355,-0.035829653174405264,0.08341580321810452,-0.07041399267044354,-0.05076817083774795,0.08410687741165476,-0.005263607645133797,-0.083877732119519,0.014630078920878184,0.07896181361528279,0.024371331324341133,-0.04761366062049495,0.014583116884112304,-0.06295120853286466,-0.08384997253694759,0.07764487337930878,-0.02705601068196979,-0.0014672961164106518,-0.07295843030908367,0.08678710687064833,0.08555569001899999,-0.05126489530589215,0.008483769165170671,0.048909911284026636,0.06715313791083494,0.013177160559182999,0.07481284782904427,-0.028003828807980156,-0.026319446540417277,-0.07594558262132416,0.031946947116491334,-0.059802282367997235,0.03556795939560997,-0.007559271495279005,0.022895408573861672,-0.06161301597386785,0.04400329744332776,-0.06541037305920896,0.022458280735638464,0.06462508533707498,0.03964173254619624,0.03869846071410374,-0.0021602412687425077,-0.06116549988021662,0.08338952766868271,-0.02449875288298961,0.03521741842188182,0.0056153746187362075,0.058594233962017045,0.008256763495451735,-0.0019917964850943853,0.06378561623372442,-0.07068437896382924,0.008363304422346826,0.03338607919492226,0.07821182945660074,0.05974529711360982,-0.014607864631084919,-0.05624239065704936,-0.00852439411817478,-0.07033556131723984,-0.03867393920820071,0.008016279520097827,-0.04913147582362688,-0.01275700919170103,0.07506376128986353,0.07284713069265486,-0.054346959737970754,0.07272863026629284,0.020666256678002884,0.06353976918090307,0.03294339648767919,-0.04216381978342898,0.03336447207001478,0.014870805240446094,0.04608869465013882,-0.011599899287074528,0.007448576679517371,-0.05921970486508947,0.008940646722096643,0.026300460326644112,-0.0025653941485503096,0.05868076935365296,0.07882773342646152,-0.08688295422883928,-0.06790637200462865,0.0785882382031162,-0.017831025595179434,-0.04742498814829295,0.0495762482318263,0.01496163086644449,-0.048244789090285865,0.08161211167992935,0.03684493952266914,-0.03119519329036321,0.047526238268470355,0.04108980482019481,-0.053100217957598506,-0.05525760457473476,-0.04439541033859534,-0.017351544027931126,-0.06593796980172706,-0.010942995000986458,0.07496605491476985,-0.013046943670784072,-0.0516049191820618,0.013668012230340282,0.018858493881485097,0.052536084968188235,0.02978710306335665,0.005066190645596616,-0.07728211511776314,-0.028346172138374807,0.08562001067035538,-0.006307912387792672,-0.07215738454139732,0.04513623980750628,0.05355383539847072,-0.08529163409267945,0.04370092016193963,-0.03868734468553861,-0.01617768814937104,0.08409626825120856,0.029061389047416036,0.03739266221127932,-0.04178324182861579,-0.013928378477770745,-0.05603464340517175,0.07003586895660108,-0.08198886180242848,0.08377102621218255,0.015374225442438286,0.02648603914000691,0.04879593368055335,0.08131304166334213,0.04260886736743005,0.011996084589756179,0.023042546895701163,0.031112676720707846,0.05999446901976341,-0.07519560776333652,0.02116103530987347,-0.04453776692188033,0.0010351636768475836,0.05873013910374486,-0.01530152433998673,0.07325266217035889,-0.026671228061924214,0.010091800617279642,-0.08151764898598038,0.06709584588045903,0.04043657085161345,-0.04812169997910951,0.06225902722646659,0.006232012231958045,-0.021196223522277235,0.06841703376662753,-0.07844877625078853,0.04865781713990128,0.06088115761278548,0.07293311230708646,0.05456196460054746,0.04779080653686968,-0.04839891089215944,-0.007775441313701378,0.07152461792894316,-0.016715806121554447,-0.08656282632281397,-0.02304374987851661,0.051996181481212905,0.07818547675294754,0.06894464395148822,-0.021009461070137597,0.046818673906963176,-0.03417271697758506,0.03970754764636433,0.04204052442377734,-0.06887710586665169,0.0689852790792303,0.07037114308116418,0.045220476395382014,0.055142786285028805,-0.02566791250851516,0.07385477005536342,-0.008883809263243461,0.0024674894865922975,-0.07930151818195157,0.002359161779771274,0.024274274230716625,-0.04681165868893409,-0.04100154187945601,0.05197043812427682,0.018665896393823267,-0.040760674686685,-0.07947950335024348,0.02067500387346273,0.010991724551427745,-0.04508620114532676,0.03708412258377304,-0.024937861796528675,-0.06161393429798595,0.08170785281023663,-0.02529674532606674,-0.06568846435618961,-0.025826786171394146,-0.02583183738331423,-0.08500528483462429,-0.05951922952222917,-0.08466410071131632,-0.017367360210647803,0.03993645810431151,0.011658347197693375,-0.0647724020498599,0.050991564199890344,-0.015959062778035785,-0.055776427990072014,0.037502909544019705,0.0838876273471805,-0.08657786695631275,-0.04062369691127873,-0.00601651574793538,-0.06545727262634074,0.058565631351747804,-0.033142646969451565,-0.06807733980851191,0.051099448770552086,0.027480067086045487,-0.027020589961000353,-0.006857308423509789,0.01660062115156498,-0.05608746820105627,-0.0027201379960488103,-0.020149722009342785,0.015356810032097962,-0.005009497393740292,0.05849015419731479,0.016735285765791558,-0.050930843967099744,0.0698704448134368,0.06632585687214226,-0.07423297574558407,0.03213848540120563,-0.0284868729756095,0.00748542171777361,0.08220519851891339,-0.06324771907216069,0.08532015719192504,0.008402428050566402,-0.011005576177044299,-0.038973773882805963,0.019728637775669314,0.031130525240048487,0.028394604814695037,-0.011759526423080258,-0.016789621059442844,-0.008603306815889389,0.06509980514357058,0.048391601531968254,-0.07115848861180657,-0.03725394649467269,-0.003959640010935184,-0.058641615509744505,-0.07536002549651119,0.004863979905478627,-0.05477347422292733,-0.06028643620000006,-0.026189985097474014,0.028937162877625225,-0.041139556169284816,0.06696048679055164,0.03853514321564444,-0.0063807107918574385,-0.06945830513726185,0.030175488718545446,0.05764216093802779,0.03161057855641168,0.08143673692177036,0.009878844365891495,0.018803058263286626,-0.013611997869476894,0.0017528585756506065,-0.05055617098238292,0.06740207561058609,0.003781968727775406,0.03762770243339218,0.02653790671257411,0.06477619205155158,0.029722547610658873,0.039155338928871714,0.03780470493829398,-0.02540031114246602,0.026173400656074555,-0.013852933190262456,0.012063179437109772,0.0032695630285620725,0.020791040639147537,-0.07841522376762212,-0.050482726364638755,-0.01296726051574798,-0.05205624925291367,-0.03028984716546116,-0.07676573996426406,-0.005083957769200204,0.04932908649469772,-0.07095273492633408,-0.06957236305606042,-0.06432698964637429,-0.06771997804919533,0.05357541611200542,0.025418402459950473,-0.015463443972025204,-0.06793597864041057,-0.060169767959413104,-0.07655255564783515,0.024779225399445423,0.08168043779634918,0.056685854953519216,0.03513991817960202,-0.03688285085505698,0.041735298581633384,-0.0056971103557759695,0.07704290390988891,-0.07282759151457353,0.021300615908428952,0.08030243005775822,0.04380998552254878,0.008942772554633896,0.04573906194048452,0.010278537020743661,-0.03183539402240872,0.031743681867073464,-0.004689787303526094,-0.07654889067620836,0.06343813384310498,-0.00257888890114788,0.051743501000343556,-0.008017894441022813,0.025883932987724914,0.08572570230918714,-0.015942502279109316,-0.05967719798953851,0.044379995374529746,-0.044959058165548876,0.04637782691647757,-0.009271927229167962,0.07163026925539584,-0.05487919202033007,0.08277768655409143,-0.02398424267923739,-0.002805280312527511,-0.07575584249077497,0.009587031062796444,-0.018591810727156585,0.034345481273065206,0.013533967426021629,-0.05488342877613804,-0.06748773707813299,0.07279978397032807,-0.0297080987731681,-0.044300677736126934,-0.04529380318200478,0.08305004657285833,-0.06668760970789765,-0.08350772387617406,0.025929374252286655,-0.027844422674126443,-0.0009308164037189898,-0.028791486315837465,-0.03231662768542923,0.035917542586663964,0.05359137904113706,0.029001103928322572,-0.05305159836324536,-0.07651558778410768,0.028501569880467398,0.08490416990769417,-0.010520355799716885,0.00305996750634209,0.0039399689089793105,-0.0265149487918133,-0.04336570548645063,0.015021564544016389,0.004897752445466794,-0.006120446380756275,0.043685752163728,-0.04821152451408615,0.06955756663580778,0.01183071241586707,-0.02302818589219703,-0.027659729052777186,-0.08561031266077976,0.04282194124873076,0.07795417473559041,-0.06733960170981773,0.054312745159787346,-0.05741464600571579,-0.03363833614791519,-0.013812425024054178,-0.03726584655691875,-0.03165527345625033,0.07861216399999418,0.06961075985143833,-0.05290440090699618,-0.07240752089409955,0.0014284234073047436,0.03851365968042761,0.07768185650985415,-0.06470753281761668,0.027002088984963063,