{"file_name":"TrainedMNIST","learn_rate":2,"learn_rate_decay":0.0001,"input_size":784,"output_size":10,"cost_interface":"meansquare","layer_types":["DenseLayer","DenseLayer"],"layer_activations":["relu","sigmoid"],"layer_sizes":[[100],[10]],"layer_biases":[[-0.018925981048945318,-0.0681451655873824,-0.007348034728350152,0.039854947684109875,0.19900076004200354,0.03535391104480298,0.2338639075994394,0.017828964020381265,0.017982014015961646,0.14502518642419832,0.2150647457750454,0.12535449498787665,0.0924122127604422,-0.02128116685076134,0.04556980512561728,0.31753511229956266,-0.0401762553546851,0.06388839502727456,0.04197102756635165,0.1428570391192651,0.18702760255375456,0.0034995715663582836,-0.019387395913173865,0.14592813788403972,0.08988628097183096,-0.16387677243243157,-0.0430683314406764,0.11396479319661543,-0.17282228208414083,-0.003429378116798424,0.17845572633443224,0.10598934545321015,0.3027328613718723,0.12867277115304174,0.01956470808831252,0.004063193689844074,0.25730248807250583,0.11101416706028361,0.0291746919349355,0.13802520524817727,0.03216011782548268,-0.02784312636500016,0.27107835445543216,0.042908973347230615,0.06504076448125491,0.17294687899567537,0.18475898252295012,0.09666142209183831,0.061998469217969115,0.0972138368422229,0.043910190752051034,0.16956865416038805,0.08446377765750794,0.08959618563932248,0.14518552535550172,-0.0524904739762969,0.1970953100004821,0.045607715480266584,-0.10226970352992283,-0.045032612106712076,0.11460008447352561,-0.11707901313377743,0.20206560310707475,0.10054063696503504,-0.041610745017780115,0.10026675529633138,0.059008578944545184,0.08583530448936957,0.20601555347007786,-0.02930793214443807,0.3360032814362206,0.07696676321448104,0.19261270320605728,0.13727599142971494,-0.004721918257667036,0.04779698160119693,0.1818617874458663,-0.027140741500889874,-0.07134808447211623,-0.03951912095266326,-0.08132620980202643,-0.2602818204536444,-0.038080723342480804,-0.03609302933142307,0.18982554057739628,-0.114812314804718,-0.0005021523087533442,0.18763390882445122,0.0846113548937396,-0.0013639791595950893,0.023020805213355335,-0.09642822152097985,0.16788720656536205,-0.010736787391607347,-0.039523989525741404,0.11048881835256288,0.10503108088393431,0.11257035916970184,0.1919316690419654,0.12957491703996743],[-0.44139954466200304,-0.3611736320141489,-0.27371787007604925,-0.345906314410679,-0.20732810117573164,0.06215739135435142,-0.20774053277210436,-0.23919563535797306,-0.2622324258565081,-0.32029313631189105]],"layer_weights":[[-0.07493582046129688,0.022375354822468635,-0.002329396322647004,0.03513179924187096,0.029033987079396334,0.03993845421755696,-0.061245501413062065,0.010787648469695349,0.007936760590212796,-0.012902315398604647,0.05581808771064417,-0.07955129953272391,0.01495878147421037,-0.07012764569619769,0.0630977064702499,-0.07586212300604186,-0.04759543548327136,-0.07126942311170222,-0.07108083946968677,0.0011412044656207848,0.0020643529608910666,-0.026163263560008226,-0.01541062341773862,0.07119934655559301,-0.05260318388398902,-0.027309199903614877,-0.0781761694060665,0.05617113694696538,0.03790580126734211,0.009625879891318592,-0.054050203930386266,-0.08061259604538583,0.056025314575329985,-0.041475168688655,-0.0007320246602877985,-0.042736633904703746,0.0725652496595431,-0.07396779032677203,0.05733583489843486,-0.07962254261088775,0.0423669073517125,-0.08119636144947175,-0.027569828147367904,-0.07521118369367957,0.07622213160744361,0.0137853245241609,0.006884878182637405,-0.0634532915325521,-0.04363470803456472,0.08571663614243531,0.006509123681395968,0.07323562316796843,0.045348558972586855,0.07237296041613767,0.013786098237951502,-0.039965463834377137,0.04002646725919132,0.08041703679047024,-0.05049298694696958,-0.06486333925454066,0.01302218761281728,-0.020923129955293118,-0.06027049159031492,-0.0032118044301678384,0.008723107494588607,-0.0027509648742709216,0.035566816386485664,-0.043284129979725555,-0.04203086405308626,0.014227781531149609,0.03697310733762568,-0.07486690887433085,-0.04455305454984073,0.061620585264386685,-0.014115941468673886,0.07628218484872748,-0.026740759181028053,0.08210963329470307,0.07578672535994803,-0.025804645395102604,0.04220619309053337,0.04344733323619348,-0.0642610937208948,-0.004859777227959161,0.057955606936684945,-0.03868832923388592,0.070003024844994,0.004659238818530335,0.021063033474253288,-0.0012237617110098882,0.0771548168235651,0.03799757784893934,-0.07137876666412546,0.08563024682620986,0.0015202567288419091,0.0268972114035272,0.01495806727812954,-0.05471295978046249,0.006683401759484377,-0.04622717677655411,0.015522815545104728,-0.046875123114876016,-0.04497491461911177,-0.004739678538773113,0.02730469753424036,-0.06648308807495504,0.024723442027023024,0.06134581054767599,0.025784742947374633,0.03963328621558969,0.08232101687950749,0.023909002238926905,0.05801447819515437,-0.04582487540727297,0.07721667687090547,-0.04975474578659217,-0.03593885694288285,-0.023077627329043563,0.08388407265189415,0.0680306244018841,-0.03861604376155192,0.04089649906231831,0.05784342909237196,-0.03856936372031225,0.05128682837155629,-0.014515691746972436,0.07215271142663991,-0.038007717509838355,0.052412869916479574,-0.09354994304637879,0.037287522148111395,0.038071220679349364,-0.04213654769396883,0.06087429972083973,-0.010388271449872321,-0.01920985306285385,0.08361982004787413,-0.0017895215053679188,0.009120381791660324,-0.007396619231196695,0.0005287213534675983,0.04423453057146565,-0.0035164727648775013,-0.031140263113673832,0.029284791189148465,0.07959025558298123,-0.0035169947657868366,0.06968385765682517,-0.01377721167137317,-0.07649759858629462,0.04840844650496589,0.039627095838157586,0.08268442790904229,-0.05005685783680893,-0.01740995050272261,-0.018890859786819862,-0.027538254148561068,-0.042852341323906244,-0.021827529023550996,-0.10054587381205772,0.01274818081151666,-0.06363265733354029,-0.05571458359877484,-0.015579088206347324,-0.023833325743984113,-0.009888942086534399,-0.03918082704376838,-0.07460795671005668,-0.08282158515395588,-0.014741581910031627,0.027145357685401703,-0.05407782199171566,0.025518462043028673,-0.01576928441014967,-0.030465177994936744,-0.03536048634949459,-0.07977783992699607,-0.02016129329753213,-0.03964254841056638,0.05626613494661749,-0.08421427083147981,-0.02639531527982813,0.05354495817842861,-0.055900883076484546,-0.05594674499269065,-0.07182784696589199,0.0187844956751253,-0.12386117293405213,-0.11518222214644143,-0.062041338797029395,0.046317303287473445,-0.0057415175459221935,0.030155915733626398,-0.042562146182250585,0.07410508582697548,-0.08584142699737196,-0.018161927962232434,0.04788408968204885,0.04461866224823485,0.021138763022705138,-0.03470203086840354,0.06772239955236904,-0.010373140137044148,0.06655931034800984,-0.007793314678451011,-0.006240869023891048,0.044848313400773186,-0.00012700460687716146,0.017265710351953928,0.08241540036862886,0.062368095389452524,0.07554637556766641,-0.06911451298041332,0.0009486757947131875,-0.026269802216312414,-0.005333226790148825,0.024407728591963426,-0.05192428257175391,0.02995616553841986,0.07742799798789106,0.10465330916319293,0.024286922675831563,-0.021336228380215067,0.031103988446978082,0.08145291738093387,-0.0510394832308918,-0.02196376761908499,-0.08452958366631534,-0.06781068140457616,-0.019401669083742804,0.08038614477507983,0.022683405739220553,-0.10083018015738884,-0.0032729778064192216,-0.028320515436400084,-0.01363313762577448,-0.00011837590953953477,0.08345764237831668,-0.05890728578030424,-0.05399274022191468,-0.004002630808677628,-0.05157362291205257,-0.10752462452730957,0.04517900311435728,0.03134364261984913,0.09310759002493724,0.08853645572873647,0.032949032396539395,-0.052274316302562504,-0.06486639796927768,-0.05612516417614635,0.07789290603706986,-0.03175437942135285,0.04449959726066907,-0.08186907596642154,-0.010756118190597061,-0.06675638758286606,-0.0023917643199326396,0.02629145719320674,-0.05148854100094905,-0.0030930891699747463,0.019697444026292026,0.0857964112896164,0.07318340078733401,-0.046151698993052236,-0.00750819163767299,-0.048165624351724404,-0.01467058105836473,-0.0063695427451330635,0.022392078031593866,-0.042824081295238355,-0.03173209523694407,-0.05405896980180928,0.060663588378820577,-0.04241413054970789,0.05570689954148995,0.0921752211006708,0.06723856712564448,0.07941083341351333,0.05112547937913357,0.0012963388349794944,0.004525484053981705,-0.04652999247418774,0.03591010012592434,-0.02473420951614076,-0.07866811761648611,0.016382969299200037,0.03332140886840142,-0.09657987647570902,0.03391167329897737,-0.013592291042466025,-0.03311660702153399,0.004779809978918248,0.06251717902904746,-0.02646474018853463,0.04972902150475394,-0.05057468791797213,0.048630036833575314,-0.0907802590325896,-0.07967893240265898,0.04159024735220287,-0.06721929102222508,0.050213401320466214,0.07555184912900462,-0.047437469374441585,0.03666959973023807,-0.004272997484300363,0.05675149338925702,0.019704840115251872,0.008535202857336461,0.08272836496926743,0.06566614137572932,0.02667884561471971,0.030945411489220993,0.035345120983588794,-0.08598376339558406,-0.07780771419420959,-0.005381307193753166,-0.060717219996151664,0.05686296577275284,0.008314758251924204,-0.024869203393363015,0.004261949085443215,-0.019660893247241303,-0.0017759102813567356,-0.058029726887000734,0.01694273958930971,-0.08652252921503203,-0.0566099488155504,-0.09673033570862277,-0.06657905089726827,0.05417692496228409,0.07741473193568045,0.03255550918651737,0.022503992563615533,0.01512971970241719,-0.02251233068937756,0.052451472903925926,0.018270757734257532,0.0528074352249396,-0.0014787476525675465,-0.08827648589044333,-0.01804601805159106,-0.03150631884485698,-0.0033246054989899427,-0.0024664682624080557,0.08938601490923256,0.0824446751269803,-0.07169395642498042,-0.0304980910803208,0.026941187439013716,-0.033517067296347486,-0.07232276488421223,-0.024617217384717078,0.046632696978761615,0.009447166486703058,-0.09386259824146875,-0.09859307258632917,-0.0006196352633839929,-0.054641156606494906,-0.041060454626443005,-0.01581157102014075,-0.03391655912503594,-0.01257577262089598,0.05662924970645383,0.051322927625640676,-0.08571247692962607,-0.05056130265110566,-0.0701524589542446,0.0006918493127448882,-0.06057116642392605,0.008368854423702096,-0.057116713793803724,0.011334926627287762,0.031390027396339594,-0.042345717596370014,-0.08893507481370228,-0.009353143830934,0.04242351835443503,-0.03372009104077266,-0.06463904112888584,-0.06650067154165881,-0.10648310751852202,-0.020501917205762832,0.01824288533704455,-0.09910742387293688,0.02972895882842466,0.06273655891444563,0.04762134648270366,-0.04900393491002974,-0.004881536228905529,-0.06312595546802761,0.0685128603143262,0.05104811036453032,0.07523107496705209,-0.03063839094807571,-0.002805437179184457,-0.08374517060644555,0.042307856371170204,-0.035290797853970976,0.03341049579730429,-0.012726091329619068,-0.014223821586062044,0.0326989546689971,0.048699249153181405,-0.004296623983455293,0.051291067811740074,-0.014318988363913886,0.08179266556687372,0.05920854914867463,-0.051007562150372505,-0.041279603522921336,-0.044667140808423225,-0.01867866408933259,-0.0636485158349691,0.07393705219870793,-0.014229137516639177,-0.03395531809171158,-0.03916122952924474,0.05436747921589935,-0.050422208858792825,-0.006654555825252276,-0.07251048858865101,-0.014792748323397949,0.009831143733050619,0.012873094212318761,-0.043145571290345984,-0.08817690570367495,-0.03433360219341738,-0.00786167641985368,0.055260683675317154,0.059808297704354904,0.0033938336114746888,-0.08825621151653686,0.07232462647573235,0.060754063485736934,0.08557895848853221,0.004008780554592918,0.029265168659187553,-0.10033667915710907,-0.05031186186641055,0.009546860099998415,-0.05510404842552709,-0.06730030520113792,-0.028203527242767663,0.07420768127494777,0.06419267069355379,0.025155720029477156,0.06301181009079004,0.059915987767173155,-0.07048972780454639,0.04262632968048296,-0.06096346684449005,0.0024081027604900954,0.005521171514609227,-0.012126765879590735,0.017016554577043198,-0.08528435813587623,0.04129730669761196,0.07998779966821846,-0.06423791418397154,-0.07136318722702092,-0.02952664312105521,-0.021229757206294254,-0.02749466214253453,0.0411280734262606,0.011202560512902533,-0.10430029817606591,-0.00867545338527829,0.06847828410221163,0.014260575077316697,0.004569209825058892,-0.05410455181204046,0.029925842914540757,-0.06153351769013816,-0.08642995688074961,-0.016588895047326954,-0.027372616316398608,-0.03563526767345679,0.02297510453355107,0.07461713283824542,-0.03719897518792875,-0.019788099721865227,-0.00937154686608938,0.006300913353621954,0.057597946106566135,-0.07734080539900763,0.012333464427350015,-0.007819118344067129,-0.023680224775877664,0.09418543826973551,-0.01224369094019237,0.027617779171025262,-0.04140650706424156,0.00738778542011648,-0.10856796232251749,-0.028852616608775073,0.07056327102573245,0.05582467321962659,-0.014693058900597099,0.04953565373513928,-0.03886533150281431,0.04902415613898414,-0.002597075566917996,0.011506858600047187,0.07596812760058676,0.014637349804707444,-0.07862582136290946,-0.03869034479914535,-0.0700844465157461,-0.03740447973688439,0.07401278343377515,0.010393108580189516,-0.037582537499164806,-0.08340425122250605,-0.06920084481968095,0.008321180558898772,-0.06521622183131397,0.07576928878767507,0.08632655110710405,0.0068339754147795535,0.006150364778541887,-0.023177984654260474,-0.03471578769126169,0.0714545451881426,0.03506863628693704,0.01937541731673102,-0.023869075853385602,-0.03235082088509242,-0.08231418922597811,-0.08619730182711334,-0.022551997079714857,0.028428647841026278,-0.003490255856510845,0.03098229914409478,0.06274916619805093,-0.07600014577108295,-0.08257227148219942,0.060183130282218306,0.07743147875119302,-0.038491474089240446,0.05094550386379063,0.016183766565594834,-0.006770684724110601,-0.10231414934419107,0.052023760069447283,-0.02603580951639612,0.12156713691758367,0.09764647023414523,0.0631701043373401,-0.02087860782011572,-0.06796214189616061,0.009143486123461083,-0.07523594015468119,-0.050045111617243884,0.07748819215270529,0.014452683949147125,-0.00667218495333339,0.05663351467288463,0.002286192492299553,0.07959814384655167,0.028476086265282162,-0.004218615019351641,-0.010879513255034369,0.06651028622322347,-0.02113125683835043,0.06633189882159539,0.03703648117359338,0.05770192818773253,-0.04944362001686566,-0.055062093989092634,-0.09796183400778033,0.030648637098807444,0.013659980943124478,0.07501991601132207,0.10027143187027432,0.02542751477101372,0.11892199540491208,-0.008141336497107016,0.02760459459398266,-0.058490237652126284,-0.013539301549089085,0.05082298560153773,0.03212305544179535,0.07346124578840015,0.01736946487852172,0.0628377967376807,-0.056940845900135574,-0.017880991207775324,0.06929852051451464,0.022139102446194277,0.02664182224129111,0.07195419119070902,0.024579110024770656,-0.08026453206298093,0.013368927949163565,0.11402889543401512,-0.056616754344676654,0.06369469158794006,-0.08752571722272443,-0.036340923470623246,0.04496668211069453,0.0584218138599764,0.13315529132970122,0.07990232285199794,0.020310823998833043,0.05551889835523353,0.012493913745003356,-0.06449448282687797,0.05609696995817474,-0.0027198806773571496,-0.03781201435194939,0.008779622691333923,0.028337631321392304,0.01667737371803715,0.08193391755064833,0.043905365846161254,-0.03056398615382288,-0.027653150164707676,-0.01648365182309258,0.05962429322935313,0.06011241512141465,-0.019747577607693863,-0.08590823258234756,0.020871523789337952,-0.006200734919071901,0.0655570135522686,-0.03763013280283273,-0.08521840294401847,-0.004706077693269957,0.09144953789604075,0.06954010768136587,0.03635483881256431,-0.014940435615374387,-0.06056708743035835,-0.11304637665161797,0.06397058254900265,-0.09205885117036457,0.05178028931880055,0.05738326826928302,-0.0033847550963790243,0.014916194141233404,0.0480593904848703,-0.07030434143581457,0.028357651140941645,-0.07439795759315304,0.005413823054664003,-0.057863685569526535,-0.06513383881809556,-0.034440179554845955,0.012119715539125709,0.02584865307382121,-0.1037637807210001,0.014285402061831296,-0.05419255009509427,-0.056643822908502554,-0.002173738770998593,-0.04056785099209773,0.08538798931955924,0.008376067402456529,0.051541061666433435,-0.031208480139246677,-0.022325723371683502,-0.0808713465804597,-0.08878579340107742,-0.07265941998491715,0.07143640439098498,-0.0004293453522392167,0.03486562533650896,0.02419230193197863,0.0028591866605453876,-0.035988199550696494,0.06899179270166997,-0.0007443022798225007,0.025112357058601598,0.00696466285226025,-0.0377301463456317,0.0207874240352647,0.006839183354474896,-0.08113196681885584,-0.05094321779161418,-0.06424444333193881,0.019514374825637643,-0.007605767155342515,-0.037190411216900095,-0.04103572065571206,0.04187410728625258,0.060747092947221804,0.022607060468091675,0.01182371543662257,0.04085185120480548,-0.08207093830059725,-0.07872602155682043,-0.06997976748116544,0.08206626722576238,0.0334578969384897,0.07132678515877143,0.0016146750369971524,-0.03490791236425893,-0.028098300140963442,-0.06146445592527222,0.07495936672923495,-0.07585883405706138,-0.038491448701576704,-0.0871877507145627,-0.08366256265230003,-0.06263787980130946,-0.010939661170894453,-0.10941663605331581,0.05763064345405763,0.015081466946703655,-0.054249883337737774,-0.06387073145890729,0.0910910413326086,0.007241728020290014,0.06772786496651739,0.07430385598736287,-0.024852785405681352,0.009468176303998821,0.030488051673068187,0.06381687183661414,0.051201678375417926,-0.07851767852763666,-0.0209496048464258,-0.06698091751921031,-0.060620838033459586,-0.013747586649957025,0.05230844318989733,-0.04668360933989961,-0.002580183050700513,-0.039228585142834636,-0.027275753787445386,-0.07786623002161729,0.07606425066502515,-0.01827867223210058,-0.062311560092086674,-0.049489785274500625,0.057829800841667986,-0.0318669104747045,0.08031711089028266,0.09147306608536819,-0.05787576851090917,0.003210047826193719,0.034356025454806774,-0.0698111524431141,0.055073373650230996,-0.05781791388862298,0.028296917448947988,0.04534333555589008,0.06584408709986657,0.028425970239113498,0.08090472680235895,0.01815868820456322,-0.0129686459857975,-0.05406454626935974,0.049538095944823085,-0.005996591582950489,-0.04261264593028709,0.018613554579930136,0.07987520442186544,0.0021142618206587277,0.057652883162027824,0.05578161933104259,-0.0357386829418669,0.004540132884013809,-0.08602643255795875,-0.04877224745628392,-0.041748464248932055,-0.03278620673643001,0.03379522041553223,-0.02098311566853396,-0.05227245089388753,0.061007285753444045,-0.08043898342889641,-0.028879177248896434,0.05315975131029415,0.06974308953833983,-0.04832986310684892,-0.06442856459333542,-0.04560000152583648,-0.0033286228028286957,0.01992045883831954,-0.016583293750660866,-0.030937110380617652,-0.04925169029213164,0.037126285754270835,-0.06762606700260697,-0.06744648466168898,-0.007666255305791916,0.01834517290168934,0.007167568020770135,0.06161602665604965,0.05890471465691177,-0.04094497115725509,0.01377778430147747,-0.0012184302107347833,0.031832848169879635,0.04234922080575573,-0.06077127747049156,-0.044786278999039385,0.011103693319515967,-0.053437511516225514,-0.08523846176721353,-0.01731250504073048,-0.06233195383732233,-0.014163357830649051,-0.06940393108538287,0.08572067824967747,0.047694570924592505,0.0008154972655851356,0.07555257843276728,-0.03964097365550022,-0.029343716572917802,0.08658128319020092,-0.03665160978756973,-0.04334183880833848,0.01161510217633506,0.0863939720859174,0.03954606185606854,-0.0783858563051818,-0.002893740373430367,-0.000534588780137218,0.022989062215077013,-0.047983620244544015,-0.02971891029023901,-0.06463966119328653,0.0735070027639311,-0.04117938811082933,-0.004374032014025142,0.0711582030466018,-0.06635083964344266,0.05123572387597846,0.03767793432726595,-0.02954783575750385,0.031540402962953795,0.017647783716405938,0.058982840387341834,0.06463110143823284,-0.06125804622897914,0.06125618746868208,-0.056001459993543744,-0.07221196768856274,-0.010608020879419242,0.034188470238583055,0.0867621158518549,0.08172022891264283,0.04053107489240661,-0.05932078223883462,-0.0753136146241681,-0.028976250621895707,0.07701945247846163,-0.057496443816479115,0.030391748346810014,-0.06365879619358279,0.09639412300986411,0.09541538729186996,0.05296891171256156,-0.07637843619833432,-0.002170151368601832,-0.05978891755338792,0.07088688823438988,-0.015021239483742444,-0.027148041550420027,0.04766846792187188,-0.054857831142221467,0.02260410523485963,0.08629352773258991,0.025209015204278012,-0.04576044665120704,0.07411669841084201,0.05312009375695245,0.08501524290531393,-0.01215899577839375,-0.0008531105710459031,-0.05449351494148723,-0.030671744176660458,0.04419963119234868,0.08227869275063283,0.08386226298868432,-0.054274704093975674,0.031511545285257875,-0.02694709699626439,-0.04088120267082766,-0.029889308519290038,-0.09044224086379567,-0.04756204006983628,-0.059497654533753934,-0.09866622318712774,-0.022283759599004086,0.061570854073553345,-0.08906243196670065,0.03913071795852617,0.0017015731392081839,0.00880523881018144,0.028028164582015198,-0.0024598346660738013,0.05891847748464965,0.0710332934978629,0.003339729012325618,-0.023929576564128273,-0.0726554202708682,-0.021024055544441426,0.010674318766174242,0.006475782609113557,0.09198237529906234,0.06272747635504256,0.04623029497387669,-0.043965862666457016,-0.022758829640411867,0.06333591952534708,0.023256806529178945,-0.07053053728235818,-0.019226405232204317,-0.004062107400947173,-0.0848395244431476,-0.10577222917714556,-0.0618652048465647,-0.04477154294848332,0.03026284821853532,-0.07474624596538416,0.06366443687610962,0.07049818264527763,-0.024454409151376057,0.04457265884253692,-0.051858593333387534,-0.0762314801118992,-0.015423154543931719,0.05302296567820762,0.02565240177811583,-0.032474289725214406,0.13735435312137817,0.0899132972747989,0.08767490982220813,0.03065267050648612,0.019204845252393635,0.04018765374575908,-0.020307734114548313,0.034878050979967753,0.1631451222505038,0.21901953503521793,0.054011592593497755,-0.04125880259053222,-0.1316609215439673,-0.07405781812809151,-0.23678319521633184,-0.10496894534408284,-0.09457777101857641,-0.09598732437680983,0.003992384042163194,0.032292295152051835,0.07993850805661086,-0.06924598935429024,-0.00984496136768287,-0.05065791884116987,-0.06824939848597025,0.07936070598689857,-0.034407745839334584,0.007856197102921465,0.10723263878663736,-0.06258241685065971,-0.022564089200774712,0.03768499431947779,-0.021300538503513933,0.11415687840016533,-0.057804170760743255,0.06869618844356591,0.04090444135927547,-0.000009408645325250623,0.03007822783379582,-0.024413847148708135,0.047644423382532226,-0.21237974812979749,-0.2092155015358891,-0.16203428014218774,-0.13838278906837517,-0.10749400135865657,0.03029067865312264,-0.06412093192590008,0.018801036676791782,-0.01572104732069665,-0.08536031263863016,-0.010846606581819195,-0.06712631297024353,0.0669411312482064,0.1397985353574305,-0.03134738828753727,0.029377212452518443,0.016480730655183778,-0.10596872095418985,0.10531025314357036,0.08358411778333322,-0.00849067185522402,0.04900603650469592,0.034348927249717054,0.090848266226642,0.14963224406355652,0.0797017184874913,0.03361952178156941,-0.11955801928389014,-0.15427038111254995,-0.12896569057148685,-0.18963287865007017,-0.04980583810892637,-0.015793368544162696,-0.05910841934704611,0.04008720584462563,-0.027598448024901433,-0.05385160442172916,0.008100352264127239,0.0037926005252919867,0.01084495233858904,-0.026304329672141896,0.055591408641868185,0.08770802828980169,0.01325955469295385,-0.030061977838386034,-0.026593018595369576,-0.04357179104960485,-0.08011369955789824,-0.08980510771001372,-0.13541669200239828,0.08414884473911309,0.17674213982277379,0.11413236878187602,0.06031911438492027,0.11698691054488747,-0.09726787242730986,-0.14949732652193423,-0.20119608512264042,-0.13677824520424411,-0.07656644819969914,-0.14660031501802584,-0.04595983558158132,0.025240478540757724,0.08076229568775198,-0.04466916219207887,0.03631193807388086,-0.04005079216532313,0.06973740106172319,0.0671806659270538,0.0016105889587323537,-0.026794480538694983,-0.012629284724917506,-0.05352333457315765,-0.06382206381722545,-0.09562104435857485,-0.15912541987318343,-0.04901784961789887,-0.054272656788225855,0.018588754246942143,0.2013408211138071,0.29823904016595254,0.14117634504977686,0.010741247610125286,-0.12354362837227675,-0.1734800432022253,-0.20429643925231777,-0.16441922777482315,-0.10997298507353497,-0.13315017301923784,-0.03344092221763839,0.05830587672812167,-0.07463222858588321,-0.048827483880646706,0.07349808282637142,0.0004325017331957109,-0.08141349245708092,0.04279810487359236,0.03513218160390075,0.06078765705488983,0.019448715462583196,-0.07520052400883147,-0.03906840031050047,-0.15750004362299738,-0.06339141089858068,0.048832670625055544,-0.014929291842004143,0.11954882638233962,0.3034341182266236,0.2014021388400633,0.10257163945765323,0.0006514073055561499,-0.1675095215124015,-0.19532004251727786,-0.13099731901782297,-0.07830188735476312,-0.048757554348523635,-0.10649648813206046,-0.03349788009678537,0.057141663378678285,-0.020571987813893598,-0.04750946196183163,0.07214503689729365,-0.0024531459430688464,0.06800171777961742,-0.05619526890778324,0.055168759782026476,-0.06859816539773726,-0.12033494154111213,-0.10147365881534992,-0.06751158887109407,-0.10677402846870959,-0.08917057263408021,0.06406650422789627,0.08020132087262985,0.08903175865997258,0.23796343659188518,0.13113223108225372,-0.025588325557153985,-0.10825469860300971,-0.20194499432705412,-0.13005545420189588,-0.06725339995245182,-0.028690750315373773,-0.09782167590856784,0.016323788073756326,0.03150422196980646,-0.058120644964810966,0.044859528869731276,-0.06453119412584182,-0.02003477731564171,-0.06343690166198386,0.004077393961545935,0.042448983006273894,0.0023907910053821194,-0.05050322801164962,-0.023575676980525748,-0.0823938071903741,-0.04851392646024041,-0.026217497277960432,0.04635748399766389,0.011109907645244057,0.09993824622959349,0.06933835679727164,0.17542181583881664,0.038265196355873395,0.0061257352549833124,-0.14613232881294996,-0.017341476921661495,-0.06471499451142873,-0.1558634740515193,0.024234038640384103,0.024480756771235197,0.059258585093766664,0.08791419185261025,-0.06096425138739503,-0.044473855102785106,-0.03682813416893798,0.08313947771042861,-0.02034480185083118,0.008943072276601695,-0.05748745084174881,-0.09764932024081197,-0.0251437732526038,-0.09255606485733223,-0.07739135713611911,-0.07537232585201131,0.02544701590724556,-0.0047303667940831965,0.00930983644685945,-0.05461926265482361,0.06705315195359852,0.1329320892308741,0.016669748147950185,-0.013090160258511377,0.0056663621253139115,-0.06679074931187963,-0.0008844767060475563,-0.06445361425591292,-0.0616980203377058,-0.05116505903850947,-0.023494809604113206,0.028805860934028715,0.06277733658155416,0.05765192446157593,-0.07746049861327131,-0.005493014011398026,0.08522983148055076,0.040313756323681546,-0.007102473542368245,0.019451534064075016,0.024000867388491783,-0.02926989702731727,-0.06788058548235862,-0.1022853908531765,0.0248204327373575,-0.11503831038292622,-0.12558819926112205,0.014388736643791861,0.01935619483774197,0.03514819426913195,0.04770418955479271,0.035666365320083014,0.06063606793655504,-0.08033371402594502,0.06770544210211947,0.02144421279341961,0.06475729284099138,0.025408695449332722,-0.020294579424647408,-0.012620022935728252,0.010049284547293043,0.014223627909571105,0.06199755584038984,0.028456734978242346,0.03456408289422582,0.024723125647531735,0.08539905627110936,0.014152946157666671,0.04946065473013745,-0.08382882899288045,0.006104765976470197,-0.05084047775905552,-0.158010467428305,-0.21920053651072788,-0.10428547519244938,0.014452913157528972,0.07460288654506321,0.13162784485501716,0.010715215481916554,0.028208949669019448,-0.05761495410948232,0.001970140671028923,0.059988610337430935,0.02522730299131046,0.09180308354870768,0.05461952008789411,0.09462765520013632,0.03831305020929197,-0.0011894397389858732,-0.025304489562264842,-0.014176349063298675,-0.006741418414804828,-0.052035012295126165,0.07717644001225989,-0.003412225688452318,-0.009218649240945903,-0.07351541063446766,-0.04131452515850416,0.04512886886664728,-0.028026984419862136,-0.0728527778253119,-0.1466388966574628,0.0522271566393158,-0.0498328307907899,0.13214397951624024,0.15485516521948117,-0.06113594045787321,-0.010297061382847703,-0.07701981912895925,-0.040773447792001746,0.01297946266195939,0.028795137753479732,0.05953154756800327,0.08184917557480179,-0.01976701983333051,-0.07862958217338345,0.010114104833815751,0.05860131175051351,-0.0026283306745873733,-0.028994839197935537,-0.03387753510981901,-0.04488003470868803,-0.0073072126623569,0.036092017242525476,0.009565093688257453,-0.1047480415975922,-0.05255610526862089,-0.08912544265376462,-0.1154251099422372,-0.009963011137893768,-0.09121839136071055,-0.041300283061974086,0.060902576762999615,0.11805467893432711,-0.009697410274959394,-0.04650995022167764,0.002119377343043132,-0.12252271283432023,-0.00389884854159853,0.04239342788873469,-0.025402666463580224,-0.01966897670324911,0.07900071831779577,0.0261818176567381,-0.08775250550197324,-0.08038584556344638,0.07952822919475709,0.007999864682685813,-0.03272380958830459,-0.07932883734920333,0.023488154983828478,0.04941340684529145,0.04636197058010878,-0.001717495893361401,-0.07047926530276609,-0.04913670993540147,-0.1661548024137095,0.004963821943291333,-0.10758877414314912,-0.06349537360193756,-0.02255070383515131,-0.007423254735320672,-0.019517307236663905,-0.02026309488024145,0.040891118094439745,-0.04739520219361764,0.0058005954378806904,-0.0011562268894216331,0.09075173390553776,0.04274840540405687,0.06361688226990111,-0.00048759640761402725,-0.021032630323685058,0.05298373397357492,0.000002529766746733684,-0.06673674414156593,-0.03243476900483541,0.07128486417437388,-0.02697269437851169,0.019445322370927196,0.04178198203641552,0.03985927891209924,-0.08876565319135349,-0.019448477350223002,-0.021752912319570127,-0.1724991848066241,-0.16247469010617674,-0.1393664249737665,-0.06762297676407535,0.004213870676482126,-0.010600012302808333,0.029777616920384505,-0.04929093625220093,0.1449219475799654,0.08042269537803629,0.09336040079522938,-0.022906076698515312,0.07307503410688013,-0.06179260721087939,-0.005237255230035004,-0.08642029235384166,-0.07021091628626157,-0.06491073462472095,-0.08299532569593182,-0.07013758444802706,-0.06065690250016641,-0.036609651353822915,0.01145956473644242,-0.004552431004462635,-0.04979735488935604,0.07800958315617908,-0.08444666142360978,0.0851406186470558,0.006642640669414483,-0.07136921766180342,-0.0770736000231585,-0.07695993589642904,0.04345156933802114,-0.05742086694596456,0.10664383540591298,0.10849219354300789,0.16356484800049031,0.14363251086401127,0.04274404430370352,0.017951943600539554,0.0035322805042728622,-0.02845138792896442,0.06338122151668053,0.021580682755206367,0.019709045286203635,0.04456593570561354,-0.03302605532707748,0.011847854354729787,-0.025365184549203435,-0.017739866481897543,-0.030811711696687505,-0.09960711153713765,0.005844751999185657,-0.01761468203842197,-0.019380715489900866,-0.05712933010389078,0.025728043192272055,-0.06010363758613927,0.001783208945964784,-0.01148019108223587,-0.13503736991342932,-0.01212657945742075,-0.012850585250477756,-0.041319376762059504,0.08950707229082881,0.1284254637053147,0.03333613388155161,-0.02353144161569366,-0.05845372558618059,0.04911351880466762,-0.039857019623769106,-0.06147568086783683,-0.03842758274100629,0.018120816792501077,0.020276621845493746,0.0714718455714402,0.02574077388972484,-0.03731684489791859,-0.025225930774141044,-0.06825504579004614,0.05538733038269717,-0.013633155348291693,0.06766656014905968,0.046800314871060816,0.0016783399148607423,-0.15034083485907948,-0.20553378201680086,-0.15689281290373389,-0.05046559163350863,-0.1079275469432697,-0.09584532021143684,0.06875346914112555,0.03686071370698936,0.03565542172322734,-0.03657966248304636,-0.08283826303892397,-0.007307387037653221,-0.08924003437436086,-0.06845394671004446,0.045192420084145486,0.021470458207832426,0.027181776497649718,0.0643891001151562,0.0653895249771928,0.04747370474269714,0.08697320002418774,-0.05672069762035122,-0.060836769672064354,0.08127306520332304,0.010418780294626829,0.037433143224140784,0.018905497314278714,-0.028354244937668197,0.08299283598806222,0.06769426844268153,-0.008045433055077624,-0.04337294234771828,-0.10558354531943917,-0.05577077913866356,0.13301285173910588,0.06343567198375866,-0.07157438639043828,-0.08832058753192364,0.011141468696399436,-0.008098838475275207,0.022828549970646896,-0.01259862777189427,-0.01929604507695545,0.07605972548736008,0.025042388975747495,0.02680263003499453,0.08081138439457919,-0.08153093438568794,-0.03833359752337043,0.05449269437103306,0.07444053761489935,-0.028015150430731325,-0.07332225978163161,0.08986197590474664,-0.001137440373813335,0.1014083318574849,-0.04096111831032284,-0.08013947672143334,-0.10945460235733585,0.009998199321641536,0.0064607010714611696,0.05924797340108687,0.024164609522252002,-0.03990089199001731,0.05536961074647558,0.012618625864543195,-0.02978360317189095,0.02428469671596602,-0.07597241792118474,-0.00481439454150854,0.045473030951796965,-0.0576020210785747,0.08261007250897476,0.02135419501618431,-0.020147956300838418,-0.06460528987873226,0.013090513047512433,0.05949222085843738,-0.024152106271799458,-0.0701566459026966,0.0814292422728369,-0.00100553990120871,-0.0354875471981167,-0.04812121278693915,-0.060509443915869855,0.021704397607489767,-0.014519491541517753,-0.014163395219171,-0.10337572215896859,-0.02878590651033769,-0.02326939238856405,-0.06818159107583606,-0.03048617698777811,-0.021206353754871936,0.08301387584476964,0.011088997318062732,0.08629811554393044,0.04700457778719351,0.06598631752623464,0.020265674927027983,-0.05124058460045564,0.026040941909201545,-0.041215463884108426,-0.015546091196803113,-0.02154695657595821,0.03060283296935492,-0.07789629240370287,-0.08593370671554597,-0.001025348013560684,0.01012570240700528,-0.06242290432434544,0.07901708766847614,0.06928464203244328,0.057084571252310125,-0.029505513364095095,0.026585008696501853,-0.008220654229702003,-0.05828368807843598,0.007466504105151618,-0.002112949219449969,-0.0655130924559891,0.011223060757628585,0.04179044914101709,-0.07341768082362776,0.04552371038511773,0.005091330245578993,0.017860442855175254,-0.02819455589059145,0.06432098009570766,-0.08187372718937916,0.0428359630665095,0.061601226854182234,-0.07842272765525937,0.028544052363271885,-0.02308430657891443,-0.014070421421873883,0.06933924791577223,0.06152516158056838,0.02285463390737619,0.04985200208993252,-0.054764778709001954,0.04137890592193583,0.08462996703134913,-0.030415557930809693,0.02433696677610244,0.01102782859124586,0.06574177632234682,-0.04788857891035654,-0.0022333620013822325,-0.05767197522378351,0.024767505457536,-0.05308945931142328,-0.06526316621947105,0.06828176313583603,0.0120094310478229,0.06877424805619173,-0.08093142630670414,-0.07878023534324542,-0.08588663330282313,0.07743229300445864,-0.054174510122253744,0.08627362083205237,0.06260078659204263,0.005785097321739069,-0.023464115480352085,0.049637563758483966,0.017841152901024615,0.08207269588361152,-0.04644166497716453,-0.03734657722424171,-0.03167020630358229,0.07335487820503761,-0.025240914617740813,-0.07224579480668943,-0.012388620933226402,0.06394601740827249,0.05514518947744154,0.07429318607626528,-0.047172811516151936,-0.06527494286786076,0.07849752424438608,-0.01731332928549338,-0.0706046305965456,-0.009648236552139464,0.07723712738677502,-0.061987155148308215,0.030879800544022895,-0.07129294174216089,0.05268504164931995,0.04068089412481973,0.04487431599014499,-0.07610440631937493,-0.03574328159516239,-0.05814646648284728,0.034742215221190344,-0.022118663627481397,-0.023371333938712532,-0.0016955104949103739,0.002555081274472765,0.07902505985343997,-0.046726663304437546,0.0669528435080671,0.07303180020072282,-0.05233630788469867,0.024256631403529242,0.02512581258050557,0.014950541627859248,-0.021888444749012123,0.035310213120505,-0.05262758928827874,-0.03954736219105919,0.07600549403113893,0.049958009594942426,-0.033279011592400785,-0.052780976754797926,-0.0405643996743428,0.02104099180296179,-0.06196987322670232,-0.08062492003823396,-0.02093718811477986,0.06195022109196381,-0.06654781608089802,0.06611794541298187,-0.06633439657723879,0.0754989937362057,-0.01677558330463723,-0.06139293609007128,0.031375301555603564,0.08523126255366945,-0.05729643533809241,0.0669622193241505,0.06464931244056564,-0.032186930087190625,-0.08204121347733809,-0.049578110131807004,-0.02412405295865415,0.021960937361716247,0.026858762010306694,0.06033022998698179,-0.043120602296923,-0.041785703015805885,-0.06028483519116525,0.01738355413220609,0.0641274011719668,0.05518221986210681,-0.025499356000578288,-0.036333940753363374,-0.018630371584447906,-0.05828903022076792,0.0819996010219865,0.015259864438536603,-0.0065404833990127765,0.03567957737719837,-0.03819382755390672,-0.036032189912257304,0.04233393009387969,0.06511462848685533,0.07971420355258241,-0.013547218390620145,-0.02030736526092972,-0.0513637083335499,-0.06816909688611143,0.02588907705065576,0.0076186447268046485,-0.04307407803173276,-0.05490181881640958,-0.056848413674831455,-0.04246243468157417,0.017353308587558514,0.010291177896253043,-0.06309262416055199,-0.012093445011723242,0.07857685445885218,0.06507078020451144,-0.08343740979517819,0.0006654925120381122,0.012299515933752206,-0.003552215081380454,0.06488611888076302,-0.04165461814498824,-0.07968010659313714,-0.04601472941726441,0.07002015334274998,-0.005427366741703091,-0.059062905476989044,-0.08177233909551497,0.009389553428877826,-0.08656079244229786,0.006324488580147806,-0.06199964421603643,0.04646811324388967,0.07706283975289203,0.013415802302669592,-0.036624809127007434,-0.028226526202902766,-0.023028703317904506,-0.037938902265984245,-0.007665944954624984,0.011367538188482199,0.08234625915106425,0.07239737480842048,-0.027493017580722975,0.032052594511520344,-0.039839506452458893,0.048750548861492736,0.05527882804934098,0.024503580052842734,0.01836372417921391,0.0018727954334826877,0.04728533761804537,-0.04220957365878542,0.019133623484482255,-0.004780322626212,0.07585539755197515,-0.05539669788500517,0.0028800829656110164,-0.0323233616221701,0.049202638189965814,-0.05328518582519398,0.03220620226885501,0.02613509594964647,0.0353770122372652,0.005165995084386076,-0.051648766103302816,0.022567690531930695,-0.060357264748025934,-0.0016732166488760553,0.061288551735018904,0.0617418132528491,0.016057301319684237,0.07937334007169035,0.023083684541395078,-0.0184011128298716,-0.07004971017775692,0.0807441778200742,-0.06664204432172705,-0.02982175347360903,0.043270234310072216,0.008673343754663275,-0.029935388361122875,0.02968115136077813,-0.05035789307138986,0.0435219064936811,-0.07959585597705712,-0.06201253400627434,-0.024418166793054148,-0.05446721869339261,0.008244816709736735,-0.056843433535849426,-0.06143546368323664,0.08298253347263569,0.026684942359506653,-0.04284222545629273,-0.014649029479184505,0.08465446109325432,-0.0489057419776125,-0.008964255827088978,0.0726082680004173,0.018428101492246916,-0.07581017281627835,0.03678772576415796,-0.004627877806051519,0.011758684898041117,-0.07566428245037234,-0.05569040811699448,0.007631858959460994,0.03187003504389362,-0.01766652277451428,-0.03536908793550522,0.06034119655747354,0.017545496743397223,0.07415314430721899,-0.0732159493689304,-0.05386036965061961,-0.02161966134164238,0.037553300971973236,-0.0762757415562545,-0.061813628233623345,-0.04627554242666702,-0.028761682918695776,-0.07984414111803423,-0.016881685197200735,-0.054408057995574334,0.05030984812350125,0.05802232181722974,-0.02231482459247303,-0.05068517780370376,-0.03814536504397043,0.004665570052137604,-0.039425008360851825,-0.04313207106740192,-0.0397508489447976,-0.07470934109756351,0.07033786608851703,-0.03725686443149068,-0.07054751204299001,0.006329061170568777,-0.03272986619030361,-0.06296979718655958,-0.00826446180576653,-0.08791126215874703,0.010010083987519042,0.026190454739295724,0.03736819672779154,-0.012704314221506561,0.07424541307537147,0.06937691554788969,-0.0862612562953809,0.05810193594303906,0.07821602008808023,0.06972046532099832,-0.07227621397181704,0.006320294627289973,0.04962216872272895,0.003576461861446629,0.056425225086661084,-0.06681841687596318,0.04940087892507576,-0.04718750972466862,0.013527973308540357,0.02366415554322466,-0.040351671881393165,0.05084520837305385,0.01882296161988432,0.08165502076592338,0.028736473985809346,-0.03753792032098479,0.08406087049819318,-0.025664398137949643,-0.04918936574286464,0.08004809574751375,-0.006728673908008964,-0.01925229346602186,-0.02217792878412761,-0.011563489496726895,0.04951254623589773,-0.05366191513796906,0.03777379198268449,-0.08599302365361758,0.0022395077650581483,-0.06758079765734039,-0.053229577281260335,-0.04088719941306063,0.07326849685521333,0.02291191452506018,0.07206788932362687,-0.028372064883633964,0.032926401117087764,-0.027718328314188887,-0.024247450915561623,0.0070580060687945026,-0.0011143052586859072,-0.036854362064173224,0.020678257847330617,-0.03897197872967679,0.014227217070797327,0.04800441667292168,-0.04613155818514637,-0.02575937595476036,-0.07050794165177335,0.04993616277424498,-0.0002502520121585928,0.05268378016396674,-0.04624006545252804,-0.04265438632502763,-0.022668623074172042,0.0791442916899936,-0.07188124999433478,0.05048408586679386,0.06466218497590732,-0.059683332870400486,-0.08559117082857472,-0.03027541276392898,-0.06857486753595327,0.08001489417665386,-0.059509306422675934,0.06928082494187268,0.05927091209645466,0.03846436439910916,-0.010386132240127117,-0.03629512273015365,0.05649514024013697,-0.04438528244509981,-0.04512864087468511,-0.0023496197356376704,-0.07162578967681334,-0.032686877992930914,0.046399866664493986,-0.08271912770965954,-0.009087369205295678,0.06824870423394216,0.004736127583038037,-0.08032446268997068,0.0679252966480536,-0.06783955746399664,-0.05030829104368654,0.022564967589911798,-0.059011559173712834,0.02520251273977463,0.03767580613920647,-0.02748393039738791,0.05758838934741348,-0.040589764532761904,-0.08396024422101878,-0.07788998821483331,-0.07157684001203825,0.013586006336665212,-0.06663472955357586,-0.05601864345079143,-0.0717810106538236,-0.007433490875980878,-0.026913238511816512,-0.023304208832790593,0.009160034910917367,-0.07278303608816676,0.07106743131933851,0.0032078698214907005,0.02576537134178825,-0.03641578108382521,0.0015520828073917609,-0.054666810508256655,0.06782139315749844,-0.08124440358569507,0.039739611056031916,0.006369124998448058,0.07443168150732893,0.08213278038451018,0.06370267759502764,-0.05972028417881654,0.07559534183674525,0.0395702746152311,0.04366651887787664,-0.0693471039296275,-0.01578221054403372,0.07942077262137479,0.03964137277457268,-0.06712697269935666,-0.04359315222201669,-0.042784274153889516,-0.03674982589848557,-0.03999450850927619,0.030155256942388627,0.03766849618051239,-0.013221948622831164,-0.06574404434063201,0.02731419814320561,-0.053818818522969825,0.08320560950885932,0.003627146951139651,-0.024083907556238113,-0.07957118640633186,-0.06270404311611359,-0.0028421756855347043,-0.03143247610669466,0.05623139509297983,-0.061825443338631415,-0.06761619119938406,0.06373255700030837,0.034483749299604516,-0.017510931232035405,-0.0037908654278541263,-0.07938494196206,0.013017791118319485,-0.0586022616766732,0.05706260131529766,-0.05596336992853302,0.06312679167995965,-0.073331480583014,0.027115030892710185,0.05758204493335677,0.049330351612924137,0.07466118056569644,-0.027259246422377422,-0.07761488409665529,-0.07177345331007465,-0.040706211753312974,0.04365413991907635,0.0840780590116387,-0.04319100852375657,0.07118610355045657,0.007299305148986415,-0.013764879683264423,0.048292051000969415,0.06735893583192336,0.07654378956755124,0.026026344529751607,-0.007551017632831165,-0.06331808875243242,-0.029806874085335867,0.04718316290797012,-0.08652375743764967,-0.05781294184760786,-0.08978308964157736,0.04660809488095878,0.07740538740623268,-0.06771367361170336,0.05213272147916381,0.004077085505729185,0.04947686413890854,0.03939604886619049,-0.06569272794772361,0.0710155847193147,-0.016596733604258604,-0.03575079749870141,-0.00747354721384956,-0.05288355434311883,0.034329222825479885,-0.06710067017445477,-0.05233297153064409,0.009591616874912867,0.030001660177573938,-0.06485350398656309,0.03157374796788022,0.011586071573727928,0.020690568924444108,-0.029420149969038113,-0.037230386760662065,-0.025542439534316206,0.07721738266398243,-0.03883064968817965,0.028723927228478247,0.07072407920269709,0.040999065213288964,0.01829812949071915,-0.002105974174632475,-0.06968642764541594,-0.05555862162841416,0.08169063991337466,-0.029200692020798804,0.002017433631648273,0.061003758780016605,0.08524902909279428,0.012965587412378618,-0.08185549312869744,0.022405658279444268,-0.024185856278883436,-0.08312781917286705,-0.0841083187738523,-0.004517805492080481,0.06723554024774536,0.030510724651330888,-0.05358658696492164,0.011740382931332973,0.016915514057222948,-0.07989497485730203,0.07744960037984298,0.06032618665067418,-0.07173306737383668,-0.06366654704857608,-0.011805209882184952,-0.07821058619455715,0.059477040050132664,0.07722193887271135,-0.08983507278212759,-0.012237943390509078,-0.00538654946625538,0.010562482275266027,0.032893457550435955,0.030038942423946776,-0.048569994769615564,-0.047417281782275,0.06382577869641234,-0.043895032116272784,-0.03765409679638377,-0.0061359182853719975,-0.07144346737357592,0.005199179099605212,-0.04989698149891984,-0.07250316114347347,-0.08414504816978324,0.006326892173139345,-0.08866170658250558,-0.04735956190983645,-0.008507750208317724,-0.04583387274627072,0.038050781111776746,-0.053419433804727835,-0.054348925346126495,-0.07327098482242958,0.05852948426811869,0.013546003552835108,-0.05294000996712808,-0.07410822610035585,-0.0035422794981024683,0.06839752760265302,0.05549777121388573,0.05154018608100991,-0.018708804957140366,-0.057429693976217125,-0.02204584851111574,-0.07320567264491733,-0.013005259114146586,-0.036233624533112005,-0.06545026596345421,0.0538375862517732,0.07686286603054628,-0.06442423955733736,-0.011435156239115585,0.038052740826445226,0.00575483121434918,-0.03350046377668354,-0.030986537225552696,0.047380955896306094,0.07899826504096169,-0.04580011165933548,-0.04027440814393079,0.08104929142687564,0.016378763942324105,-0.020809536011970237,-0.011417230019678449,-0.06515981089160985,-0.020401654894702036,-0.05359115109637708,-0.05815237149504946,-0.05144326585672116,0.04580214374198738,-0.0010280584177317365,0.05144539232441672,0.07138443267774439,-0.0383352132626639,0.019575575826502208,0.050327924915837985,-0.06822354935904328,-0.07802315004455739,0.02791698008872851,0.05395146292732175,-0.07773824593501442,-0.023616900552636173,-0.06449119858111226,0.002462796742400583,-0.02991651235898163,-0.06390844730721124,0.024275060593997026,-0.0220102745878907,0.05186189809730864,0.02028462400025624,-0.04908133236528198,-0.08947152685142232,-0.048766327961834076,-0.08611019895906262,0.04426455711999462,-0.05918098320179689,-0.03482667638520433,-0.07635368714265156,0.06649204382324736,0.08523375176924158,0.07379300598422389,-0.057868049258949936,0.07196140267458516,0.06570483568859477,-0.057456789433576676,-0.026169845131797514,0.08614096627631186,-0.05843763292302318,-0.07886520493033401,0.03936016700251968,-0.018105589674651743,-0.06508245267599291,-0.03717431241017535,-0.007063908813150097,0.03142789996480013,0.015445806179069826,-0.03227040074268789,0.06709141465115392,0.006461110744968779,-0.08145757021020793,0.05756181278174035,-0.03541545505826204,-0.05172337580499587,-0.0017555042168962821,0.03522342134719457,-0.08367365405411295,0.0031153536521218578,0.0810711910016658,0.0546996768320577,0.00038959091372130217,-0.03466256633718676,-0.023580759883902725,-0.08518808781030923,0.07541503087338393,-0.051684799511277295,0.01847418287776207,0.07815477584692984,-0.03888426983084878,-0.04100064878997058,0.016005753185421332,0.03224183794757142,-0.07892676426976235,-0.030723989135855674,0.019153761649260068,-0.0745730721090801,-0.05070931415345177,0.02212546992536977,0.06159250419331937,0.08230919368991578,0.05769077062734873,-0.007668871460009614,-0.035538037208032794,0.08603360553407018,-0.03909059576932826,-0.07946104302432373,0.06460532815413647,-0.031733013642805334,-0.06913114621985746,-0.045348327218941255,0.018251338084352253,-0.024288933232523582,-0.05459246518222574,0.02048485378786346,-0.08102390304658233,-0.0072887838929419175,0.07210623410662004,0.0756734961349828,0.06293107010739357,-0.07546099176311058,-0.010526865974229803,0.02193884827832299,-0.020291694837197487,0.01348238617279888,0.08056364490915514,-0.03959215200780137,0.03597552900238741,0.02138920748007385,0.0274730220018138,-0.03823413053122403,0.004316809453767132,0.036265184277603266,0.03317876300970565,-0.04016140064244016,-0.08595342882205902,-0.08612235934352899,0.02734689698840235,0.054495440840552745,0.02362892223667613,0.04328501573769873,0.014959029417600588,-0.02663318434275099,0.03978972055147436,-0.0732154969767181,-0.05018057388545333,-0.06576152965165676,0.06812535883721638,-0.049705646280061834,-0.01356494840445254,0.015463066737906789,-0.05579360640390686,-0.03546748644869391,-0.028123050355199204,-0.01597297048623688,-0.028075773754425243,0.060378926622176934,-0.07550235326203754,-0.041474425671599056,0.05947786529247614,0.05740718595822514,0.0784708265529763,0.06382485527899498,0.007396784195325343,-0.062246311391586956,-0.05218308556436069,-0.009829926365394398,0.027967953994881948,0.011916773398047193,0.07287686632311326,-0.05997630777508043,-0.010740653190741268,-0.05242540729414707,-0.053815725235401235,-0.045011322875863805,-0.005576157171421351,-0.07208167627469429,-0.07840139436955941,0.07289437145370525,-0.03445820914439115,-0.05743942880134805,-0.08516800479158584,0.06177029121393182,0.015859118421930454,0.021419112699720102,0.025561071855517207,0.08461299926127472,-0.04776322329591518,-0.07509885022786186,-0.04298136513720058,0.02128382425550962,0.014245895474854608,0.0643153256441982,0.03668619590150232,0.020862933228095737,-0.04226583938778737,0.06919026417497698,-0.05864153761271501,-0.024989893466389336,-0.039823545066183075,0.07945704266390026,-0.03373047567878446,0.048313256085186156,-0.036286015522529344,-0.07392536517751021,0.04676396268242633,-0.04139711421563239,0.029299928801932832,0.06678400882202629,-0.06321181552366727,-0.009279748751691538,-0.062368729402789494,-0.08652202661036458,0.007805840339566882,0.03510361722494478,0.036368460395663826,-0.03529041701434441,-0.04113251905153127,0.038653713088808245,-0.027528525316185645,0.05655458593219276,-0.06692099630624884,-0.014186968087931712,-0.02531203009203719,0.0201745044303928,-0.023407126332225074,-0.07389191607226427,-0.02512229741619639,0.08310140322020758,-0.01927514242912648,0.02786593476058415,-0.05515828588174912,0.033554777771751004,-0.07202369049981319,-0.05790343179291634,-0.07245193442542747,0.06755045579331699,-0.03436162203996645,-0.02223228413590129,0.03782722206099484,0.03818434299839813,-0.06907246450948155,0.06526278400050195,-0.013314641264513219,0.03967133175812615,0.07471732355736757,-0.030741272881922986,-0.0757925678307852,-0.061667704240362615,0.06698761345448767,0.04790337602900077,0.05594152169867961,0.05275011220702988,0.07566768609493127,0.08209607814290937,0.08262211204769412,-0.04198725065102604,-0.04409308859765756,-0.045461694395360845,0.05498516239493718,0.04646242459754573,-0.04277494931726648,0.02195409564181974,0.06366359090949178,-0.005224682967188948,-0.07810287052483747,0.05357641880911185,-0.05970578963949896,0.015972288885481925,0.0047751097088551825,-0.02729585129470615,0.06972672114061393,-0.053455854830055924,0.005579679561906373,-0.010986406801090934,0.037316226907345346,0.0017702682517894558,0.07244309968868273,-0.0685745708432247,-0.0838499683327805,0.03999904144175477,-0.0700176432816664,0.059366196087577046,0.06270546624515666,-0.048856831268850376,-0.07383469722281294,0.05863714725186821,0.05475160101484281,-0.05597038234380426,-0.053920116057523296,0.0023177400673898675,-0.017255812958335212,-0.0014723951375261001,-0.04438594316259482,-0.058013531418271494,0.03133281725939096,0.013316573340313007,0.04064548835797608,0.02644319716671189,0.056970861473091494,-0.072745092143984,0.025900146862875756,-0.02607506519573846,0.07463935800013036,-0.07108355153774346,-0.06261571645312136,-0.03695002214391802,-0.011920199954160831,0.020872028829569837,0.06597600150787777,-0.0056106246528397595,0.048691252912267544,0.06025945817312204,0.05872134704288057,-0.04385836710448555,0.07135541929475278,0.03690865354521462,0.02608040452090859,0.07415387074419716,0.02576617968104113,-0.05888385973424772,-0.06450457007043009,-0.08516562657392598,0.04891833241746831,-0.07434998826178361,-0.009005493016210685,0.07793070868289435,-0.010772690933057494,0.03642470590753408,-0.034223417104781655,-0.059611902300956573,-0.04486327126262921,0.04460033770645275,0.03468271215424342,-0.08600960995452424,-0.05179035747833703,0.04187187319220414,-0.03942540909230917,-0.06335405252902426,0.07864508546450179,0.014204610696265142,0.03831974699074076,-0.05418544113174654,0.0008150742689260615,-0.0059010974244859925,-0.04934564054821787,0.026386226078791587,0.02103886339694665,-0.04434534286483603,0.06740464951931172,0.04631173955544617,0.002709158201807523,-0.002721263278273999,0.07863130418448361,0.034467039167324465,0.01268551120401112,-0.03568732769956774,0.026821485312803258,0.06440814855792087,0.011096716692156935,-0.03293302594924506,-0.03447474782714865,0.023943303309586376,0.052403264157968164,-0.07084573929463191,0.0861934080328511,0.03490574933420452,0.024499976744373597,-0.029148086926969196,0.08983433739118442,0.005556442075518591,-0.07007274135816376,0.07668654358893102,0.0007492956478269132,-0.07750577990190037,-0.08007674807153972,-0.016742364108408077,-0.04130169645710709,0.05463798402517501,0.12164851595658015,0.10688089598312629,-0.048508950166663574,0.09239403156710124,-0.018464741525744247,0.019576073033154326,0.0376289901910598,-0.03162528873605833,0.016928582119923527,-0.05199198015882054,-0.026930191861465464,0.04386216437529466,0.027008944710137223,-0.0242431281609417,-0.008272435293589502,-0.024006106283254405,0.08505413364977518,0.07029530876139407,-0.021076265001664513,-0.04782356294713807,0.009889598691311632,-0.09692140391591875,-0.12024062654614437,-0.21173196285340323,-0.15495132914992474,-0.07797246309365793,0.10804801743837594,0.09837274147231952,0.042881492452349096,0.01049716095097759,0.051306702432093,0.06933184616352167,-0.000678097725756089,-0.027383542132448722,-0.06944402731519121,-0.012852243874372326,0.020215961665436655,0.04268068356372055,-0.06587621568731802,-0.037250280525026214,0.0334582339918126,-0.07572082376597077,0.005599320160137654,0.03686096534990896,-0.03667325434326239,0.07916963224846522,0.09387274438624746,0.10021817310276596,-0.014479726110788833,-0.16664613630916908,-0.23589005812796385,-0.19474272626477945,-0.10802303362041772,-0.0059502654361994365,0.03554583160054053,0.177539659226333,0.14803006021705287,-0.008323210261768639,0.0333267419852496,-0.06269356765126101,-0.019510871649113946,0.0023793290471956887,0.04138737677647096,0.06316988717688933,0.06812093620072084,-0.05466214995539143,-0.03785366753405111,0.015253317662589912,-0.05038668554275915,-0.026383517803581637,-0.02608222208021897,-0.002918404139067324,-0.013981223520735313,0.0773040513365611,0.08293619537967088,0.1421084305213098,0.02530482257710295,-0.18726679757236137,-0.1314656291898371,-0.19860189724387348,-0.10956929108817627,0.04616225682219222,0.16631430083244325,0.12954368338787284,0.07850122519492528,0.05425871344127018,-0.028808619506483567,-0.09074604537746495,-0.027912783349703582,-0.020601126105253022,-0.08204787279737778,-0.07857955248941925,-0.07262089071798057,0.03001739176778225,-0.008057353646667145,-0.01886029080097965,-0.016392026745854976,0.015468483830297293,0.08034532286021359,0.07633533993622371,-0.0657586762221459,0.07630814795868725,0.0826660966178802,0.12729823825634526,-0.06375544308511925,-0.19665090726542758,-0.2041690709281921,-0.12772649040807665,0.04587183686482473,0.22172119631917803,0.06426711976357849,0.022557697318587772,0.07191163788883569,-0.05429310655286662,-0.04416039669283988,-0.01398851913376782,-0.0775891168304167,-0.0504255103339179,0.005410982380491421,-0.08099641449351162,0.01146416659778686,0.0004048321695848089,-0.029398107999218173,-0.05609686633305021,0.032869502739450045,-0.006083569734809649,0.013946251098279619,0.03646890424801517,-0.07395674570073797,-0.05770732605749567,0.06516071270833243,0.10169459583047714,-0.06319339620684028,-0.14484903612192349,-0.1311554251780766,-0.17755284535568858,0.05980444557293317,0.18570568377213895,0.06473506412055995,-0.05171932163173591,-0.10554250910090811,-0.07757617084374552,-0.06495214381726554,-0.04843227924819694,-0.02807462644137538,0.06804284640964971,-0.004416029317789846,0.0073544349451266176,0.02363035129403773,-0.026497739243334074,0.013803934460883318,0.02096327641829643,-0.04559388360288259,-0.05304949240550688,-0.021796517829203572,-0.05289447356997403,-0.022509297884227012,-0.019394917203166946,0.09673715846614084,-0.01934955118138285,0.03590166157065814,-0.22800380111022833,-0.10853283449439062,-0.14738908994764277,0.04549752770617824,0.2347987721950736,0.12198968212136516,0.012118204586834127,-0.10340440253846467,-0.09992463441015428,-0.03402278180066557,0.039050853917401096,-0.004005966834768731,0.062282413456432255,-0.016973263306656695,-0.03427727905615096,-0.010046770231762698,0.0010093630950100002,-0.0429516656946758,-0.08226070919629636,0.02710440930525669,0.08118887324521576,-0.02015869245328566,0.030241859670611236,0.011366153355461369,-0.04003128871372587,0.02745317860791177,-0.029994930227810482,-0.04555325665669583,-0.1852903111829103,-0.15463093550811627,-0.036593521558303456,0.07210230391301113,0.060697194842429456,0.03169513083790785,-0.008920101904551553,0.017883855750054068,-0.06538448749895417,-0.016563916508778035,-0.0782896263215564,0.02728343695304435,0.015003964933882254,0.03181017506740192,0.06867554995428814,-0.08336574588912908,0.05223095714829125,-0.07393390026562292,-0.03803631377036252,-0.01926542649207397,0.019508156745759283,0.09719004479015107,0.06767205884308448,-0.11109580608010061,-0.051183410199237375,0.046189450701994955,-0.04093983900589766,-0.12776623041306176,-0.101653605347748,0.026017396997465865,-0.051024851941551826,0.10602652167088349,0.16115021134450608,0.09954558787798905,0.062121842438846046,-0.006813871780403456,0.03803090378138556,-0.07544842718636867,0.04301751342109205,0.050106438561113305,-0.060681442529804445,0.06343717385987978,0.037217293041157215,0.06511761829021306,0.0044505694415040865,0.06890056221381055,-0.08417623607300738,0.07402707600767551,0.007782463393595055,0.07075326543006956,0.00845143758287402,0.022646960808228866,-0.066643818698675,0.00773396857697391,-0.06790741618847444,-0.0019431335068730744,0.015959926585351683,0.007805363688499717,-0.06828483901281218,0.12055461628489013,0.07382308149886795,0.09623981981866352,0.04810039954734606,0.08363987758428006,0.07177539082346915,0.08525127279548897,-0.06782676191398876,0.0468906040968302,0.06738556564979821,0.04450033315002448,0.05135135736245685,0.04167744957009133,0.08219709985130683,-0.030896392652911213,-0.017995939420118626,0.07702123991602756,-0.028714576796094897,0.04368650415859118,-0.03621679385931445,-0.06519933547855875,0.08031306973715717,0.07119264614503794,-0.07014047555150771,0.03702685797441153,-0.0890158016778659,0.06109644793051531,-0.0007293183212243855,0.01876271540344256,0.06432611760529804,0.05789291201432421,0.11622979290387106,0.005365748113908374,0.0450361338815943,-0.06919240586772998,-0.057478212844835744,0.07703221570607133,0.08924657250245463,-0.03722419551896095,0.003933091372098192,-0.03189257930381107,0.015360530794082833,-0.08303123488198995,-0.0441987224201267,-0.00028828641440368943,-0.03371258691685678,-0.023194804309551797,-0.0024589649224569464,-0.009144509515390663,-0.06231641155093526,0.0395577139655708,0.04121939222486006,-0.024197775477367074,0.06633380458773139,0.03183434353941901,-0.011339713306660086,0.05634532607604676,0.0024718938095140424,0.09710405259346941,-0.025491090439288547,-0.049655415892036425,-0.09122054969475532,-0.09802165122697595,-0.007051715414015901,-0.03527646519223852,0.02670441689211158,-0.04930185214301396,0.0862193957742932,-0.008090436193439585,-0.03105100045625204,0.0471923793395735,-0.03847249883080871,0.025682712020669223,0.026296239693711188,0.03765146393746839,0.07303015828162306,0.00765921380340384,0.030201461180843873,-0.08942063181061607,0.06320406046526668,0.04569166905810146,0.038780989968724214,0.06920336552584139,0.16025243559126942,-0.0049827838726842705,-0.0059342019129863125,0.012175135974625162,0.011185425850562026,-0.09297096169817251,0.05003263747277075,-0.03265636058053875,0.053184614044896376,0.07527509827732548,-0.01216039259329063,0.05527573368197403,-0.04624804057516248,0.04578410754314807,-0.06867001969016856,0.0019898670496515765,-0.036433968745710796,0.054122259260311875,-0.08316553314791342,0.01303185780475229,-0.07985108294250508,0.021842245041439518,-0.07806064119532663,0.00997524142397199,-0.009654745995690299,-0.044082786721332846,-0.07537314920912658,-0.08161796207634679,0.09045415290678716,0.05401367894188726,-0.08233759768257234,0.01941429431848616,-0.11406778982344754,-0.11913001043923632,-0.004672326802942433,-0.0309562099767379,-0.08326088741572943,-0.07642960213046074,0.08601405124395524,0.05679280542873957,0.025574153628746037,-0.07844461733714105,-0.02411081845733855,0.06376839482341082,-0.012801730463616354,-0.05667802338409193,0.011642296836861942,-0.003156835945295133,-0.020711965227235535,0.05053825221995592,-0.05640980227478833,0.0016521587524679557,0.01662037640540698,-0.05305076115705366,-0.1017230305928396,0.005185610514559068,-0.06268291235052235,-0.02595252792196213,-0.10543643769195352,-0.0901693595590023,-0.0897665874260671,-0.08338949427607024,0.01870807124802525,0.0609639124471067,0.08644773289360165,0.05243061085105855,0.024817079508917695,0.00569358851846746,-0.061157627594494786,-0.06965609680509569,-0.027149108113346795,-0.007500531357328532,-0.05508566144483054,0.071500734632506,-0.06855315385691316,-0.03371820681467401,-0.06769539218983811,-0.06842909738763492,-0.03721530801608771,0.01859825976688899,0.07664036040585752,0.01812982412000485,0.027080458099430174,-0.04783502260021062,0.021547513080068817,0.006698548762354642,-0.017007890596502838,-0.03515334164322655,-0.09452649721572814,-0.012720360670002661,-0.022705581755528594,0.07722305420121142,0.06875208440254833,0.024084196202740233,-0.014841307443604013,-0.00021002295962108166,0.044240242943387305,-0.058038726218546985,0.035337709494647096,-0.03831622823632496,-0.03935441075157773,-0.03794867479440284,0.04311899856935252,-0.008737763801715549,0.029374472955374126,0.0714798184668284,-0.03399492082033427,-0.03326142421348446,0.05927967018938751,-0.017989128536891656,0.006370943165694433,0.029960846309981755,-0.04882195430638383,-0.023533049728885,0.028178742426781807,0.006377148207856664,0.0626604296983132,-0.03379348917287449,0.039238744151362824,0.09186145624156497,0.049044625090690186,0.04507447351586495,-0.07277001589853596,-0.08363831107920743,0.034831501614706176,0.023025930655635823,0.08558209518303381,0.08192043152373445,0.030083122973384318,0.08659274945377778,0.07124218336563705,-0.008238139264113249,-0.03329563581589212,-0.03279559328626852,-0.0002196488087092836,-0.03883071878264725,-0.09631776272460801,-0.0973166125363927,-0.002453755864442585,-0.10213230500959421,0.068301724931721,0.06100452330205399,0.026296274369166428,0.0726699114093234,0.056332907272998355,-0.05611944737860121,0.10495746245557643,0.0454080826884962,0.10213771028876895,-0.055859777255458376,-0.01341988393168208,0.02689137389186191,0.07426810597382474,-0.06367481514696183,-0.03804581937372499,0.04945259037988485,0.022713217826881946,-0.058697225458526577,0.009472605823918468,0.11137789145892704,0.0872428674568277,0.05126394667712221,0.032707503964796304,-0.016796291222369385,-0.08875553842462858,-0.07853120666014801,0.023128346546043177,-0.10506868179531519,0.06081288860594025,-0.11088625068811081,-0.04283233926834826,0.027929854345953405,0.05253393394322785,-0.014111635683811375,0.08088548277282975,0.04758405327397992,0.08892466752345694,0.05320044982112961,-0.07740469300201044,-0.0189119948823678,0.028941677178053987,0.044284982210983065,0.04341993524401927,-0.06162454799161416,0.007316621139534647,0.001231502581183119,-0.07433540286517398,-0.002834797504255044,-0.04997050968311689,0.022777100299707607,-0.08150671343417148,-0.01863042632359468,-0.023817963559591315,-0.09078023015841652,-0.007229402845717533,-0.0021580909111544046,0.03414526417920025,-0.04824440815480389,-0.010848284764086053,-0.018369641445844406,0.07760061525974035,0.09438846298911763,0.08527108197141445,-0.0344832621508682,0.04472196407326367,-0.08725403449663689,0.036291454423550445,0.026343838496989964,-0.011098292090278655,-0.08218475812443328,-0.08402198681042293,-0.05104851888687303,0.039496350277213564,0.07588905855040338,-0.015443119598307856,0.0480123773373382,-0.05043008100946693,-0.03170945792863352,-0.030962608941585406,-0.0227067977771225,-0.039682099179818776,0.051190040958038925,0.0698423376667138,0.057605490096691234,0.03175091217584627,0.13089420096075305,-0.0018403173733197709,-0.02172663805773571,0.017988725021659126,-0.03547156027281868,-0.07709063818210728,0.019686094613174575,-0.047894971495553454,0.07769196409167398,0.026615164549904924,-0.04330412104349591,-0.05625990788825165,0.05917346277317609,-0.05988561718817062,-0.038978361491975325,-0.05509414721293781,-0.0366040948475806,0.020658944087970095,-0.036910095396543434,-0.10025147641076969,-0.025294880490477054,-0.021244663631198847,-0.0709850649253857,-0.026480379356382974,-0.004398434087039105,-0.04431443612698914,0.05966204688718255,0.030473933299100944,0.0824663004332699,0.10564503974469235,0.0015259157972250064,0.026737174744903724,-0.05301987403460882,0.032901014942335896,0.07467861532054727,0.01674490754083689,-0.025983101336779803,0.01783795299810198,-0.03935203626164911,-0.05013607215537159,-0.05638038708448839,0.02996018020802839,-0.03961539959214856,-0.08067372018901837,0.06435474062163958,0.013832895917333181,-0.07952034663752437,0.08034907197648515,-0.0009719431110025428,-0.019860778934150412,-0.027955518433066106,0.010234163816767287,-0.0009624872749661531,-0.05649023198199354,0.06419060779871709,0.0475371492890184,-0.009666336930634296,0.012379769512180066,0.00653309521561802,-0.033237586626169,-0.020052018101764605,-0.07595733775359338,0.05577834546065929,-0.05607955617038838,0.01849180689853385,-0.06396686031938376,-0.03471654224730664,0.004112989371929485,0.04348959370676275,0.0820522762894565,-0.04706862776559393,-0.06621132074982866,0.054772137370508775,0.06920237853182244,-0.01049716171448679,-0.05521155525664522,0.07577629761559385,-0.0013153015483936652,0.03724793034599578,-0.07787965776607428,-0.044653560638631476,0.03186695219285013,0.002131486858647221,0.07546889329747895,-0.014189272968723568,-0.053150320818406975,-0.02771265530764927,-0.01309911207396903,-0.018468079847815653,-0.05771490923089218,0.02426284599213518,0.013119149282415829,-0.006865568412264683,0.014324148277135157,-0.0601388988532145,0.03491823308781761,-0.08120204655119691,0.010336083694197251,-0.07807122911222276,0.07285488038485749,0.030520831607455542,-0.005477465043798327,0.044747966483096174,-0.07512400369112954,0.012086704074897522,-0.01767814701613063,0.08656203435644075,-0.08403039411709397,-0.020378059830356073,0.06468232782791102,0.07016182047305577,-0.02039903276734747,0.006447464925357194,0.0013776173695791566,-0.004222484162101567,-0.014069734779794368,-0.028650102635365673,-0.01953404041287972,0.07583226145084607,0.027044861375250084,-0.021258035019712115,-0.06489256905976523,0.0028040321359427828,0.008649921670855584,0.03979725153543742,0.02053703959358072,0.08626375650862164,-0.0585463190542162,0.05294672841259107,-0.0010961090243928574,0.08573662352275707,-0.019947297050610505,0.05614477559692502,-0.06558471047581671,-0.025491322345789144,-0.04128243275068733,0.05555707152371906,0.04650205532416569,-0.02366891150952283,-0.0037497811788090216,-0.02271491802020701,0.018052115872932376,-0.013178945701538394,0.011826670662194897,-0.012028133582260023,0.021057072965883484,-0.0710125155237164,0.0261374457644474,0.044031473960691875,-0.05694046703947248,0.039816885649092415,0.004628233807597429,-0.02808590197066662,-0.0048083939340993614,-0.0329791254418536,0.012347188144435459,0.08308682697192361,0.06964309209107337,-0.047325462598251246,0.023049679929457972,-0.02807581583983027,-0.008281052373044497,-0.0416249209672941,0.047635221067865524,-0.04031019229014833,0.041288291789058025,-0.03449257782354797,-0.027704886629276195,0.10918824569750346,-0.016346465157877466,-0.06440791544667748,0.0014364682124784086,-0.0552867925266841,0.07452868048341205,-0.05701913592287428,0.027409587748804042,-0.07836647704852542,0.0269157410069088,0.015021194193375373,-0.006251052800568563,-0.01057898949114755,-0.08287799121898119,-0.0053426915281749665,0.016378909323025118,-0.0037851571542527607,-0.06959474979399222,0.05591963997557237,0.013215486126453917,0.08484373147636122,0.015151702534076342,0.14393897609138567,0.18050789407240825,0.17431133119911507,0.09486473237894587,0.06461372346568517,0.008627124891247407,0.14342251002802442,0.05119316189555412,0.08458787098706909,-0.042672080137307056,-0.04192160479763052,0.04384835483889397,0.07209059128074059,-0.09325761927763628,0.042391905304492314,0.018638346313743528,0.009892910083309593,-0.03759860687321622,-0.0296879129271544,0.04187407406722579,0.08385397924217898,0.02191154790215846,-0.06669630343053927,-0.046566147264860976,0.08541510464733128,-0.018373911543906322,0.10186581891278798,0.1263025440262717,0.17452386896364833,0.11828354287224824,0.11893521707384494,0.08922952101844658,0.08324002179724002,-0.03530219071980249,0.08474812454457163,-0.018276413338778122,0.007147965227423998,0.07045692866701925,-0.05698386590128945,-0.09987265663677933,0.017676076048544466,0.018909654033641136,-0.026279892467574686,0.06051142348657873,0.036769051928120106,-0.0810488936053221,-0.019143521222124954,-0.07378559183451214,-0.01701026165842078,-0.06905017168084293,0.023354331768295045,-0.06392502595624569,0.07910585464602383,0.07147254861832127,0.07393506047469046,0.01646159526837177,0.11378310071669637,0.058298554600637195,0.075855388212353,0.012314922269192174,-0.03254113447948466,-0.007063196748992638,0.01861810594251826,0.02022767265814722,-0.01217066961532214,0.006271353645816125,-0.07751667935265957,-0.12295404703113812,-0.10879280396414355,-0.051485961088997514,-0.056332298762262506,0.06386174592118417,-0.017185665863632276,0.08182072567824698,0.06796767839310888,-0.04794646274475664,0.0435252776215564,0.006454090245035653,0.00913360397959527,0.0188823765657798,0.07102346772750409,-0.01849988047254175,-0.0871386392253134,0.007258328603276582,0.04050659462045863,-0.023499780813256953,-0.06720992445937009,-0.024484425450184612,0.019086686066482613,-0.013270241957404243,-0.03864175976416145,-0.04415888523628167,-0.09155039987236592,-0.12057166628947692,-0.05782293722048471,-0.05098806769673062,-0.17500906851934897,-0.18011335998087902,-0.018844723824101267,-0.08711870700031595,-0.0573415893960452,-0.08437424036416157,-0.025895298087153833,-0.06656414017804714,0.04883171869637838,-0.07687716688457129,-0.03970827330512372,-0.07479888954017996,-0.059384307380106624,-0.010268661569809321,0.04455439621235975,0.005995465941121216,-0.003227192382354743,0.038871165207227436,0.04761638367143518,-0.05381424261531161,-0.0007165831252832492,-0.03894731598756233,-0.1119343021862996,-0.21241066283132756,-0.14501580891545746,-0.1288064023081955,-0.13831914559997754,-0.11917655902457575,-0.21076389488465086,-0.2398643959804083,-0.12745746362022245,-0.029914273035942764,0.03704989816670273,-0.04455232018676416,0.07689870493456732,-0.03314890755148696,0.025842286631439153,-0.052216999531242946,-0.004502678765879856,-0.07828879213867089,-0.035549325988888617,-0.08788590596074904,-0.06897558134103575,-0.05869815229541979,0.05983623965432959,0.11775437783826213,-0.07244916939948202,-0.02404046659534957,-0.10057850369623517,-0.05343526850769662,-0.18859024235106037,-0.04517030514021693,-0.12882947249843654,-0.04064397561329067,-0.1204151332976252,-0.08717303509620794,-0.20630234981050632,-0.15019551672398798,-0.1828910916230975,-0.14133250337897676,-0.07228340214533455,0.06811095777542596,-0.036435994012087566,0.011168826330034687,-0.04232525098081362,-0.06618943319834819,0.017684112116627602,-0.022235286826038016,0.017772127787679663,-0.08419266075667875,-0.0037591313963932236,0.007590765965777933,0.014346114659092203,0.009132971688487588,-0.05146885032567703,-0.13093343471084937,-0.057061860494765713,-0.01244823224799717,-0.09103798890795807,-0.014087848637085768,-0.060311838075693874,-0.07691769695703156,-0.14438503880313458,-0.051525774410626876,-0.08713721585004847,-0.14322022775548424,-0.13087995846070913,-0.09847488939276874,-0.017222703356494833,0.014767867254868602,0.06189347546205307,0.012870927572356241,-0.043332149571153854,0.0425491819380004,0.00236052490321447,-0.09508890485704885,0.04548988266339817,-0.11904816090631669,-0.09230521056683391,-0.11219421699756832,-0.1314935485381518,-0.06187875615630948,-0.136238820371038,-0.10541219868733805,-0.18096015562893916,-0.08275114912134245,-0.10027651904491418,-0.04607993125428601,-0.06746446370293796,-0.11422997855650799,-0.014987091101422084,-0.09644538708235689,-0.05421128598169986,-0.04804677913651603,-0.1357747103573364,-0.05180753597677415,0.016574076812137194,0.06270415484946397,-0.00042053121836070737,-0.0401138634735526,-0.020206257512391117,-0.0010152222712048224,-0.024386730708236087,-0.004596279936438227,-0.05581359101822089,-0.13287251819381768,-0.05942989360892976,-0.02307017814407251,-0.15214510568027725,-0.13171953399813727,-0.16820805587464616,-0.11685733805348744,-0.13675995448080203,-0.200396812802785,-0.019676188098954876,-0.045847699239625624,-0.00270584721783855,0.013895763314430019,0.08752213825836865,-0.0414603371082132,0.060724508350102714,-0.007961537723637812,-0.06865930242469484,0.0037501011385387426,-0.02484218296574626,-0.07142189025700761,0.03456001790372345,0.017577978918312163,0.027607042829087172,-0.060447196619063684,-0.00877737474565301,-0.061865133457654556,-0.07632797970066113,-0.10604457764620709,-0.1270305250765573,-0.20505049156319136,-0.19672779645919702,-0.07809916005997608,-0.09819790070747682,-0.15372393467737586,0.04407827028743978,0.017328361016726516,-0.062111940605860484,-0.04981019850232796,-0.014304528524971367,0.00043951477348114026,0.042888246479356726,0.06901199657966257,0.0027851338611187557,0.039514844317687266,0.11437976001556326,0.08673083578612223,-0.03492837856077327,0.07190506666898235,0.028514947372318748,-0.043199568840701655,0.07086495910970497,0.020934913933188807,-0.014910094983296221,-0.145834154779669,-0.014256744459842282,-0.005516231150244233,-0.03165975533229065,-0.08345386646686463,-0.025413036008179662,0.010700656536112924,0.1176159284005325,0.1207625375243604,0.09216549314716,0.007963964113208962,0.0008225914904921791,-0.09556905339916771,-0.03483840158572724,0.0012010624082310776,0.01692260426589534,0.00865702954695308,-0.0034079234430760825,0.07608078679063308,0.09669904525980375,0.061567136575833334,0.07846243290915446,0.04943816833848758,0.005512118259507887,-0.06026950371997246,0.028582397419356687,-0.002103127903183324,-0.08891333999202686,-0.07004021514817721,-0.06978609115421969,0.10798400467122744,-0.032426129406979746,0.06283448316120673,0.10528867015928894,0.0797140520955346,0.08912729087724529,0.03648306255247524,0.08546396883438437,0.004106389239744498,0.06260868233057,-0.04427415997993908,0.07038934582878184,-0.028117652303901793,-0.06501887959826141,0.006390671002538012,0.10620495163859374,0.0692454359466474,0.12446796289829254,0.14169763649404873,0.021993021908910265,-0.03844979997960971,-0.008904578715656822,-0.05294432630098739,-0.0028555461937623114,-0.052029504413088,-0.025407019457477597,0.0871814355332164,0.07195383725207034,0.007949868347098094,0.16991925194950777,0.051974801085523194,0.02911110270193874,0.07937013821843512,0.019197997996913477,0.1200690976575649,0.006295974511642002,0.03613618126415142,-0.04718771199959172,-0.018375839550664515,0.09712905575786111,0.0667645378602786,0.03979424639609483,0.07764555648349797,0.06316019204789379,0.11210523654906476,0.17333836641377587,0.08641302868473139,0.05790361980578066,0.04489110134799825,-0.03934546520219028,-0.08484066807154694,0.058230452024432354,-0.037447401313724156,-0.04439422869248336,-0.011831167994087004,0.06180301761358725,0.14074133185330664,0.0803506294291398,0.1271904413530341,0.021412852806869585,0.05250013584870081,0.026225140386041318,0.02700929907874115,0.1821458127019353,0.1659647695138248,0.017971475019597883,0.02205010256392727,0.06509654180135752,0.14959065712879613,0.11241800044327974,0.10072865856368506,0.12557717494727672,0.04112971157350002,0.04719682667391005,0.1614408054236862,0.029719446012663537,0.0696164949439524,0.06495668060254614,-0.009368217582967476,-0.076104709476982,0.016964018985820794,0.07463105697679794,-0.03851399595615755,0.1466185440252414,-0.07039860534569732,-0.01664291031076022,0.07136611268793364,0.13746974295284708,0.017803935044578913,0.06903186794061042,0.01622668000810214,0.039155052941552394,0.01289224543987279,0.10760510255806133,0.12373378016889598,0.11176838730957403,0.09969088000362994,0.08137582695171529,0.07122230790492236,0.028194690268202698,0.08268146299722486,0.1450381983987872,0.11189951482556536,0.05867942865257466,0.09141184563962415,0.0306931584336997,0.045690424697492564,-0.029087295235855345,-0.039532749853394805,0.06778349170129995,0.10033066335580121,-0.0724299806700924,-0.021697026614194526,0.12933422567454012,0.038260849335309745,0.09720784155348203,0.10372812844343055,0.06123371778638055,0.04250301700020382,0.1422282806334881,-0.008688134249905749,0.0643694767428464,0.10734854037070836,0.023982770618134912,0.16421504542448057,-0.010527614995961483,0.08663806880998792,0.13951189911253245,0.14517517565632662,0.1962713579735465,0.008455394299709172,0.05330663233108756,-0.04315468461086732,0.002859898084619167,0.02829086317868843,0.03830280282714504,0.062074896702913655,0.08384740807435569,-0.012746107993878597,-0.09948773896375668,0.009173280829648568,0.07857379000027068,0.06686013316986521,-0.0034732213557946688,0.13990978102373922,0.00842734253022314,0.10890947612930224,0.02090770275618758,0.0403499010363589,0.06183137226166829,0.15235301117646793,0.09971188489208818,0.11152821882935172,0.02426324031091808,-0.02294665040181799,0.08155648535566966,0.02173245212644264,0.049299843040977336,0.10917240483308896,-0.052786557769529355,-0.02550225570147128,-0.016653510497335045,-0.014841730285788097,0.03583528323295957,0.06082668221606721,0.12933608141483535,0.01647240839108214,0.027692473908074403,0.10552364117658586,0.049965616138743646,0.037343772179854615,0.010920431671527259,0.10544005408466775,0.009886501505401449,0.031928121517092005,0.056673432007473434,0.02985323780005266,0.08191053596648368,-0.022373174188548964,0.14275626464715635,0.060228417856937715,0.062435170057998396,0.00603293484510807,-0.04890462916392919,-0.04014673635389029,0.032523725891090816,-0.055843447696720054,0.09291135010141184,0.015459070553054925,0.022768322708350452,-0.03453449705684101,0.09640213948731619,0.10317063453679519,-0.001541522670249156,0.11845585224090441,0.09652922883252985,-0.01271533956299081,0.014579433545157356,0.07075027411307146,0.09884848191220905,-0.046105736501419796,0.06250389460284188,-0.009597268715683683,0.0222394564081458,-0.09349637264026822,-0.1664568908539119,-0.11052877638710852,-0.04358892265362016,0.006390986377409653,-0.027660532450122337,-0.015219137288792093,-0.025302151635759433,-0.023893673559045325,0.05121542654537138,-0.0027795562340835497,0.01897041893397146,-0.035050331196418906,0.06790579919526754,-0.03753891168248965,-0.07221880143305708,0.08486349669463879,0.00325647857293325,0.008105437722236233,0.039622983073675795,0.027140788869698163,-0.00017445074672176893,0.04064292553619941,0.10148285947835291,-0.08219486025146314,-0.13936602179344385,-0.0682531335765621,-0.14833513823534986,-0.1282152126229671,-0.148186913690019,-0.17246557728311596,-0.0905430785973843,0.023369013254422706,-0.058460254913405986,0.0046745112952750354,-0.014811092116712556,0.03148685729480047,-0.05243086972322328,0.023651280968031603,-0.00946528981245542,0.043546490410616256,0.08305085404510434,-0.07495450531559973,0.039897515168075895,0.01333559891952631,-0.04670880340215226,-0.0665803150244344,0.02977370939481158,0.03925360296506829,-0.1362047492221537,-0.01733947070470977,-0.011562237588124764,-0.010897902222098316,-0.10480645127559036,-0.2067156979495854,-0.19613677542497326,-0.12471012600918896,-0.21896741782522947,-0.24925624086921122,-0.16641802998424177,-0.10605563553258662,-0.09886809200000372,0.055714402342353295,0.06472392670582203,0.026411171783245854,-0.016638910596967108,-0.00866214766716461,-0.0864390921882942,-0.048413871683626965,-0.04246043868497527,-0.05872473440420256,-0.07197927806764887,0.07060464854307681,-0.10149887800591008,-0.031143269537336274,-0.10415768081977085,-0.03617759542910526,-0.016365395898388264,-0.1756520499610049,-0.17559989415120553,-0.06347510521157353,-0.1050980555691986,-0.11636138792981067,-0.1310728780522439,-0.014042989572005478,0.006223696397192279,-0.06364961277988557,-0.01034228764675849,0.08229096631747129,-0.01759632065416442,0.09893343231760544,0.06840692677107005,0.07730494653387372,-0.04521028247395639,-0.044419561810429505,-0.0240794843107904,-0.06573186520176431,-0.049045143627066426,0.03571589083863273,-0.02269735617839104,-0.01579621675615181,-0.08676553355043243,0.06437164676843418,0.04443471799193867,0.048228390374650064,-0.11889157699370718,-0.11058530279644754,-0.05442296345732535,-0.07354582305849093,-0.04595768784247819,-0.05670196625680066,0.034735681758201,0.012353044458582508,0.011708316524784842,0.024532854597814596,0.07085840038767896,0.1021999906491126,0.04164496447766869,-0.0017760526588083171,0.04068893665683198,-0.08618605676961356,-0.027950511947054578,0.08083260177665341,-0.011723795409127019,-0.06665195879710012,0.02414455836000648,0.03049667645663469,0.018070604754980277,-0.07474168899523032,-0.025887883663846926,0.026431342695504675,0.01038010381244202,0.0009516098285386159,-0.06520959651299449,0.02723426925900071,0.08081524257907326,0.08163479625546637,-0.07509966962778007,0.024268314608246487,-0.012235427468169384,-0.04916087898465394,-0.035726916057661325,0.0836032519372751,0.07327947795472796,0.05606659948827456,0.09124187813337498,-0.02993673240716595,0.01205877493699703,0.03115844192563666,0.025926356001321725,0.04608666470426662,0.07692712934300902,0.048954182950659786,0.00006557038193043263,-0.08455569808427237,-0.009043266966933389,0.028654155092710007,0.03971483926175178,-0.08628697029403382,0.007121525806814184,0.033207175761910894,0.049316645211260536,-0.020875043824763663,0.005217265769354356,-0.055939335515751996,0.07394583770592028,0.01630578428288893,0.05805238221173372,-0.007896077861806726,0.01037475032939422,-0.05800764710103019,0.0010991630185681169,0.0062886789286470245,-0.04841132903679244,-0.008874692255528734,-0.02834768750017473,0.0699651803485372,0.07133716432166742,0.023224120854454522,-0.022069965717422507,-0.001879591891614199,-0.07433401912960381,0.06669982880921607,0.037581172110288455,0.026056162067451483,-0.041367678067890636,-0.004781632942942149,-0.061292676813986355,-0.02329879788864979,0.07689217670667348,0.01871910238268505,0.0161170287077608,0.0674976038132801,0.04306470149809336,-0.043074398848630235,0.0511684520886969,-0.0011656785146593152,0.039728466380630933,0.08668648048919542,-0.06787769797814686,-0.0741020573669179,-0.028947951001155707,-0.03671828471620068,0.04396989583885455,-0.07747679045496272,-0.0714672180467495,-0.07732964844886597,-0.07086943686594373,-0.08569708364255796,-0.08024630520937953,-0.024036667230906056,-0.08623135585662782,-0.07277950915847581,-0.0668716871991847,-0.05060152767859818,0.03678644734294222,0.06299355523796699,-0.03417244250308295,0.030826296645227184,0.05432673734919979,0.03658837949784567,-0.0527710555058531,-0.027356901372513082,-0.04521596636774825,0.06491491800038167,0.030817661538288132,-0.04958582873066195,-0.06533398384976218,-0.06995132668939093,0.032216506780234105,-0.07645473888095973,0.028677992639387143,-0.03757868149659334,0.08100989275363193,0.0009600846787575917,0.02615266072171485,0.06605268373985679,0.06094853903364841,0.07669455906093256,0.03254835840568895,0.05220404486746335,-0.026645462391889176,0.038025325221835,-0.03564725206468619,0.025734092309788455,0.004133741686609014,0.022063233676434205,-0.04423306666532215,-0.042277952300046266,-0.03511965347482739,-0.054248129221843036,0.007970601476090678,0.060025064446224005,-0.02108415085871918,0.03920518838825571,0.10088507147484634,-0.002384152375555921,-0.03401752940002309,0.09714786695631136,0.01238832301453402,0.04935719299766711,0.0019726534623056608,-0.0888404382254997,0.08055819288356442,-0.029490223329856423,-0.007393449588438808,0.03690990805053097,0.018994315074464453,0.009017220602674009,0.02849138887782772,0.026396566158924037,0.014974474605056257,-0.06883233396241165,-0.059433989971890575,0.04466425071289211,0.10174865263465614,0.007656906628028007,-0.02022608567567887,0.025463676194153427,0.023659772239875712,-0.036351757281188016,0.04850939781748027,-0.03360323437291511,0.12761993138795302,0.037846519618703854,0.1065517803246071,-0.016058465278286395,-0.03384525755339109,0.08339318991580982,0.07639737159745055,-0.08782363028438488,-0.038540384749625026,0.02391851246216556,0.021599546563012204,0.014967305198238426,-0.018444937210250697,-0.01609094535193877,0.07998967468595593,-0.0037103059217983344,0.04493529247151431,0.04385906949183435,0.08923858273975727,0.10719802371104878,0.07231981097841089,-0.04951025721246155,-0.012660465373155369,0.05180798353758716,0.08523724763208816,0.13388762676439106,0.022861483508850554,0.119214443367604,0.05982439905643834,0.13807382218681022,-0.04305689959732666,0.019204193740254692,0.050616137605218325,-0.019112094061069725,-0.033283737583149675,0.050370569243633916,-0.05858332103213911,-0.041920017067881274,0.05074436334008614,0.033694130367972724,-0.026483616666623806,-0.06505232066215282,0.05975332470037115,-0.04058770980963134,0.018223496138430186,0.11548078326603332,0.03557872702708781,0.005881542072739254,0.10513501857533247,0.06938080228842274,0.036361881001512504,-0.009213160945345604,0.0416814537507549,0.08519523234022167,-0.018102912083022567,0.0976610961709877,0.0646785344660626,0.1306693829669084,0.11840463297850234,0.09540520317042969,-0.028500264301456846,0.05442485670926161,0.0024770366074259743,0.03263271278473941,0.08675122547164776,0.003846778098571946,0.023534090104028474,-0.06262892682201524,-0.015624792315207518,-0.00727334280852679,0.11485120110093129,0.019399744545937386,0.005568020883435493,0.00833579585234177,0.017016320140055444,0.07900838204041796,-0.08857927539821187,-0.055133167806958164,0.06912954683248464,0.025420342830934885,-0.004467000345681518,0.0785912334544994,-0.045458217992147734,-0.10680490314775487,-0.14751863013828098,-0.05352508380726774,0.036422106694983886,-0.05624018678305902,-0.01744803759733736,-0.06320905025695231,0.02662059560800668,-0.08643138552731457,0.04379794622806603,0.016939927925171544,-0.01436739052225966,0.04871778060241772,-0.002230915902628259,0.08270774369282609,0.02622994600985615,0.12317156526989698,0.06420345733585021,-0.03213016115851029,0.018815009963248194,0.008754733062869724,-0.11588614075531346,-0.03128781582362084,-0.04987272367686446,-0.02463153475933466,0.05800812053730562,0.004145328967779993,-0.06746487170335069,-0.09567317368662376,-0.006251396463197927,0.052641044332982126,-0.06743981684424971,-0.08324493052344917,-0.08879887640558849,0.0717758330166488,0.034917298753770434,-0.01621752894751478,0.018338905890350105,0.020633758772473434,-0.08575672857117812,-0.07234456125155396,-0.06323097606914692,-0.026752587775877513,-0.03955953306123784,0.07150979378732135,-0.05734189650557035,-0.04319497356340691,-0.09552142337081701,0.017318029389815977,-0.12560142571867725,-0.03930811327606203,-0.08783913116102977,0.004706899940690925,-0.07566639188052256,-0.09958189869956563,-0.03878768252445882,-0.12436530529583134,-0.13086225584044175,-0.11472647666426751,0.016297813447951025,-0.17494106143348243,-0.10514997185164178,0.029479710746177085,0.009747800094377257,-0.058676346568058875,-0.07447133541903647,-0.02198357829832917,-0.07484902762652394,-0.040394780213096074,-0.08334834062199792,-0.07280251058126823,0.12240872412914437,0.1062371349383642,-0.11796693236853519,-0.004499609878023452,-0.07922457228781316,-0.0907979601655824,-0.11545541719167696,-0.11417660184868796,-0.138310096804939,-0.1665791935094666,-0.15429253972574605,-0.2160894671991035,-0.14833801478893024,-0.05038109135774649,-0.06846599711607629,-0.0270368833222094,-0.021001185988303674,0.07478107301482508,-0.1029477104329747,0.07036150980671826,0.04733320498588615,-0.009477912199226694,-0.03744382224818269,0.07137179457158796,-0.03122213673909156,-0.026070894931746108,-0.052134797417305305,0.003856814733599019,-0.015687000533006933,-0.017339247493480835,-0.10017964544066063,-0.11399195662472107,-0.03321956317369767,-0.1121121444505747,-0.08330549865723749,-0.09534746981149106,-0.09310980229931376,0.015369903667418949,-0.029791801505980847,-0.01815354384545317,-0.014224789268262584,-0.018584711245633153,0.056556019292121056,0.08163839677521693,0.019103506073315932,-0.059549491572172875,0.06747666071556795,0.06829181675727872,-0.04681361539789539,-0.10392631603805513,-0.058623019081812715,0.05215023703202049,-0.002120548627889995,-0.0787480796929036,0.08385203843923814,0.04055416327260281,-0.049307526735143783,-0.031847539284728034,-0.07658255421079722,0.06904328367814035,-0.0013822173458481325,-0.018424526301784837,0.025852771261409044,-0.08670463002212453,-0.006657587224053834,0.16316072310749846,0.14250897793796446,-0.02737248146198232,-0.02775581752640752,-0.041704583393996845,-0.06590862293678573,-0.04370409631646978,-0.0059462635683395475,-0.04880201705567342,-0.034507778830367326,0.01468861082591977,0.0504042839933254,-0.02876921077558384,0.0751813177140233,-0.04081279400128008,0.07471771034246874,0.06697172276941087,0.002732138132458557,0.04323374754483476,0.025014284802263614,-0.07621926525871502,-0.10394735779918102,-0.001807166981935432,-0.06772742223202417,0.016591955067757947,0.04333356548989029,0.1420745432575526,0.2219013951259295,0.26873327118169976,0.17571408420519258,-0.0021200299537295552,0.004474505851622641,-0.10739597981924592,-0.07603858871072533,-0.004901348280095,0.03798127094552829,-0.02623404385373041,0.08169345076424313,0.09095616974637945,0.14538296720103927,0.03278512903829961,-0.08645749862366607,-0.00880916184486279,0.04007167317558122,0.00476974431218023,0.011956128852108517,-0.03834623426680495,-0.0677474637663327,0.03121602246574565,0.009746636955755695,0.010137337977007117,0.08750028025421387,0.044421235129513154,0.11942608865157978,0.06793672518809671,0.19984915081494697,0.1533825379284821,0.07214189963171883,0.05279950841667725,-0.029780594201914097,0.04156948021320402,-0.006406114594766733,0.06357847149391978,-0.07506390109682894,0.0016450231855297595,0.034593983326082156,0.11197566965859077,0.12232367948622692,-0.014567461095524665,-0.07216448471583035,-0.055661839669429246,-0.029078794396881946,-0.016888008461975208,0.03441456776169646,0.08016730482884134,-0.01676657086884499,0.027354121253427482,0.0674062391369101,-0.03378240671844993,-0.00993193886853038,0.10311400151322954,0.06288928086101223,0.11774967785719426,0.2114611214086075,0.129871948678912,0.13824431759526334,-0.05133453871375385,-0.0962170970528503,-0.02761906249309563,-0.014132937458078969,0.009011560470260851,-0.009133972105325855,0.0721456960528679,0.06420883908947446,0.11508815790686205,0.12231948959903446,0.010838259653062222,-0.07991316839912975,0.02414425171915504,0.05881699449168067,-0.024391073080589173,-0.005494604715186566,0.06390561496781721,-0.008759874064356864,-0.04045045254802011,0.040322053425379346,0.05933857066376151,0.019423884090324195,0.13262001435067391,0.0352980792400863,0.08883327965867789,0.1388768958375097,0.13694549238812131,0.13008338494598204,-0.06699986961528123,-0.08037832917304498,-0.049864992043748294,-0.06602603470021627,0.009755010532690584,0.022493466554263167,0.029412713379516637,0.1221763044415941,0.08389604308688564,0.0368672671270212,0.003449864550206321,0.027355954090952456,0.02152688568937373,-0.08521138688852135,-0.025459376936792903,0.08055798284317814,-0.05433256503611719,0.09823126746595355,0.011370303682254959,0.004589116237944472,0.1272774680385628,0.11052223222072229,0.08678714522644385,0.055371454653307554,0.13283768709697133,0.11848940625893258,0.16255470626247134,0.15398062126039222,0.053834672056941174,0.04467917225239462,-0.04413601616260665,0.036739770120275204,0.04781575021458751,0.01701060006746251,-0.07666320989113294,0.005665228022276721,0.07906320255377476,0.10585122702526928,-0.08999165724957213,0.007759446105821225,0.0419961718462821,0.0720550204715113,0.02303923538705569,0.03883312521292697,0.017648223762621276,0.07566781729064859,0.08333700564257743,-0.0006816773141081541,0.1143989197368478,0.0015330461704840064,0.1083804672743398,0.017136235075404203,0.1421403569318181,0.08858191710219798,-0.03523139993512668,0.11571511539833418,-0.03135268585680567,0.02363215610290248,0.031266577937825106,-0.02348099911137694,0.07424271718178402,0.06188101624660495,-0.029976826732212664,0.020984791408167114,0.011443011907862488,0.06102587980888847,-0.07440576683037192,-0.049772712179914295,0.06178061317591461,-0.022377710564738147,0.03584665489862799,0.02236843030122713,0.02367874075001912,-0.07310062310440019,-0.06031099924714332,0.012560147199427404,0.008932119128843796,0.049282842183633,0.10651838601397112,0.07997231295350946,-0.007188821661612511,0.039507469362438576,0.058041427313276245,0.010794150405863734,-0.0009987086447039736,0.007648066462619605,0.10427750591925386,-0.06226799383433224,-0.045190867081340284,-0.05194509556454221,0.035555896195576586,0.08776723060643347,-0.024143686060699752,-0.11231325034707518,0.03976978765859714,0.06484689159189334,-0.0747204060670511,-0.0747446505111979,0.0630813776215049,0.017165603781519417,0.09666828236200885,0.07762307484730052,0.09032310295849237,0.06326906291039591,0.08705509114474265,0.04033993283412236,-0.00964452361406519,0.032122438501682754,0.08593882215409225,0.09900681472938207,-0.05467806919485152,0.036556857833440363,0.040187286606559874,0.09424516926551302,-0.006509265164368515,0.019203971383294677,0.1033549478660175,0.08571826715489703,0.10615192300802169,-0.0053941103619748795,0.03513967661414559,-0.0907605311282828,0.023456793172883093,0.06671515607366232,-0.031079385602477083,0.038679451833699585,0.012187710103594488,-0.0030225702023873226,0.07755691680640624,-0.01517084390823375,0.06797573101163243,-0.012841146849760595,0.1425103887780918,0.08152558132308957,0.07167528973741795,0.030207924989570364,0.09684551541038439,0.031400359435567834,-0.03818809304674588,0.10059301738523403,0.07203990882883807,-0.00273487963976501,-0.01793924212219883,0.12607190818149122,0.09046348026106216,0.18647984320072594,0.14693056971010984,0.04095714394559165,0.025473600466289416,0.0013713058559662674,0.01089674690596119,-0.07241684992204812,-0.06142944881128098,-0.021401875377926382,-0.05060770888080905,0.04747696329916761,0.07477350512861096,0.06848520695849508,-0.09028260752387342,-0.022364350021403044,0.040663001027413576,0.07326929687320417,-0.004034421437592207,0.018845114613515554,0.138594811491199,0.13674891053549756,0.1410807343568761,-0.006608887727815644,-0.04923121466278216,0.07816141463910944,0.022845814868457295,0.14429270026559113,-0.008376436806533829,0.03783834799931809,0.05523902046521497,-0.01625339879499511,0.005023484808436193,-0.08193580921191378,0.07169388016881226,0.0028898195778313727,-0.07242701803388105,-0.05594972791761944,0.028878160153088576,-0.032969415090799266,-0.02044866743565082,-0.046302853218399755,0.03797049719122909,0.005178444063847605,-0.03318077550042942,-0.07017953215758695,0.06553925708382212,0.012872543144913411,0.05706738550016537,0.04943638535176284,0.05596835992515571,-0.03216420016533825,0.11020671836647154,0.037750686814909076,-0.03790776609742793,0.05016928580826985,0.024066364681837017,0.11982195582079556,0.047632245883185674,-0.01822523950771566,-0.0077993262386849855,-0.009167623949346835,-0.0779742217166324,0.004319374277947263,0.07311551377354039,-0.026744531178752605,0.018299943514480277,0.05462430573872739,0.07070728156992387,0.014087916810559646,0.06194074731687657,-0.03180345654153422,0.03660317226898602,-0.0324476196483202,0.03785079707708948,-0.06246520185838978,-0.05831167993583151,0.020986297197501655,0.041217588683886544,0.03449485470011652,-0.013043814022291577,0.06695125392249733,-0.010685521911008905,-0.019704253203304236,-0.015666944760194493,0.0037777808773236062,-0.0933802238897145,-0.09306822754879755,-0.10913183397025182,0.012586559092096909,0.06028013440091468,-0.04369533248035751,-0.0175594324067916,0.06777007165189511,-0.045253973842222975,-0.038317567214229714,-0.030879298991877833,-0.022305680241267226,-0.09315787536377872,-0.08907713602225076,0.0051642245893646355,-0.04705473881234292,-0.05019495452020202,0.028074533995900437,0.008050717787879155,0.02408743159490351,0.04239443621293352,0.02432201761443136,-0.09273809864986955,-0.014841995462500486,0.008651185577292664,0.03138943509800122,0.03412067964534731,-0.022055100687883984,-0.017889270736807135,0.06284026103352403,-0.08449384381024545,-0.011160601587624271,-0.08559723918155257,-0.063741681590008,0.00877281431405301,-0.07010069739812468,-0.03159327014272661,0.084963990001742,0.0001150642151286873,0.028263198418314643,0.03501897822786609,-0.04900030134698861,0.033896853139915195,-0.10637509177890568,-0.04208850744832877,0.0009936024777111052,0.02877662561622923,-0.11619572146894301,0.038604836101269566,-0.035775643282014526,0.04142684464154783,0.004393246902902749,0.021835250296966924,-0.12505098507058074,-0.04315467627990204,-0.08198544319555137,-0.02162018129036466,0.059129076484275844,0.06253835745491419,-0.0008365698159820401,0.01329202940834506,0.06714081453206541,0.05988785261866583,0.038813677685868436,0.0004680829052453872,-0.04610376371249268,0.01585404565320127,-0.08527945317448364,-0.07473766584142409,-0.025402048993064565,-0.10054036824626968,-0.09713949686476389,-0.11736436480234419,0.01610193223162145,0.010402043593172606,-0.09161595791966914,-0.05983764159370161,-0.08838489113523888,-0.05520325322042188,-0.06660608258721888,-0.13316768797730133,-0.09713585317092975,-0.040731867620322125,-0.03730406771696417,-0.06240375060521929,0.03896476479990379,-0.023100795392112166,0.002519698615532326,-0.08585122476136081,0.02072421723734165,0.021331209385559657,-0.06365949030818777,-0.07524836232933563,0.007500339806076367,0.007798981401042543,0.08262645012641462,-0.0622955858066674,0.08422287232494778,